name,Size,Ties,Pairs,Density,nWeakComp,pWeakComp,2StepReach,ReachEffic,Broker,nBroker,EgoBetween,nEgoBetween,Closeness Centrality,Betweenness Centrality,in_degree,out_degree,degree,vector_0,vector_1,vector_2,vector_3,vector_4,vector_5,vector_6,vector_7,vector_8,vector_9,vector_10,vector_11,vector_12,vector_13,vector_14,vector_15,vector_16,vector_17,vector_18,vector_19,vector_20,vector_21,vector_22,vector_23,vector_24,vector_25,vector_26,vector_27,vector_28,vector_29,vector_30,vector_31,bug
org.apache.ivy.Ivy,84.0,395.0,6972.0,5.6655192375183105,1.0,1.1904761791229248,84.46808624267578,21.494314193725586,3288.5,0.9433448314666748,2307.4814453125,33.096405029296875,0.392045454545454,0.203979583991353,44.0,46.0,90.0,0.3379676698300755,-0.10419954762587452,0.525752425724552,0.12562513298648134,0.023660396105085704,0.3777044546718308,-0.04426170888698806,0.1545389548581252,0.07024403621497001,0.027128328387196973,0.3483414872277802,-0.10916041549365015,-0.10511565349153558,-0.16613285878414913,-0.029749832243416534,-0.16082062585776635,0.0894211892938552,0.1791211609656031,0.11321839098009205,-0.05140471800719577,-0.2124237096774788,0.022272548755488356,-0.09112083643859843,-0.15498565373891554,0.06877889834548245,0.019174899443865114,-0.08368297688868456,-0.003797953885660109,-0.05393215122129756,-0.1004613317667275,-0.01349289209627069,-0.22483752335135587,0
org.apache.ivy.Ivy14,31.0,124.0,930.0,13.333333015441895,1.0,3.225806474685669,72.55319213867188,27.678571701049805,403.0,0.8666666746139526,0.0,0.0,0.374054054054054,0.0,0.0,31.0,31.0,0.33876891667256537,0.08129010800703818,0.058909397937193096,-0.3212510454665453,-0.22985568416016178,0.16493320252465452,-0.21817830321786444,0.002911405764856019,0.08390512410067694,-0.020384378804174215,0.35599058506071124,-0.30407175067296965,-0.18041181809102158,-0.0655263872777524,0.0596691510421517,0.01730584605306662,0.006739356885171383,0.043844101257333346,-0.19552963706001397,0.1380304537158624,0.16938903467794572,-0.13292581907261783,-0.02987096816221263,-0.006725471492996455,-0.0036389393950082252,-0.37498106954132027,-0.2516831924414863,-0.12723848346629474,-0.011226353254105245,-0.009224937459856787,0.1560795710113921,-0.16025020980729726,0
org.apache.ivy.Main,29.0,61.0,812.0,7.512315273284912,2.0,6.896551609039307,68.0851058959961,34.33476257324219,375.5,0.924876868724823,0.0,0.0,0.361025641025641,0.0,0.0,29.0,29.0,0.20131349111296995,-0.15631926803226484,0.03445113704707227,-0.18036255874593918,0.038070224547768435,-0.04537642810659,-0.17626740792185158,-0.08875226640854282,-0.24465781324224592,-0.2540608655913658,0.1409627313075628,0.12896399412602452,-0.17368231438030846,-0.17684139690664175,-0.18945062537363544,0.03530398601955251,0.2471893100612619,0.3635485677653555,-0.005352143212482123,0.19818337642306394,0.20391765644430468,0.19361205132419015,-0.11484860534189181,-0.02924539331409285,-0.1703261922214988,-0.30089909510513163,-0.00837921665710549,0.219208749023832,0.03960351440619504,0.282908838275495,-0.11325526314334285,-0.1076368132713178,1
org.apache.ivy.ant.AntBuildTrigger,7.0,10.0,42.0,23.809524536132812,1.0,14.285714149475098,45.74468231201172,65.34954071044922,16.0,0.761904776096344,0.0,0.0,0.30438596491228,0.0,0.0,7.0,7.0,0.13215956030782142,-0.07935291180704211,0.03295411505571886,-0.2813046287555947,0.1235684554214261,-0.09020264865615321,0.04877716084488487,0.23905689463397434,0.3468944209425576,-0.005426276937585352,-0.029879485059670453,0.37622609584574507,-0.06315518350458423,-0.048657505785057655,-0.19768589753288388,-0.11383430600589821,-0.10143559536790868,0.05328134812683659,-0.07990548187549935,-0.05749670452774643,-0.18980343669520436,-0.155192461235371,0.11896981229234008,-0.1492117155909402,-0.15632880079910447,0.17894441908255235,0.35412780935370536,-0.3382689189623543,-0.24408666599749299,0.06640214103094436,-0.083155898415274,-0.07311648638976073,0
org.apache.ivy.ant.AntCallTrigger,6.0,5.0,30.0,16.66666603088379,2.0,33.33333206176758,32.12765884399414,69.26605224609375,12.5,0.8333333134651184,0.0,0.0,0.261295180722891,0.0,0.0,6.0,6.0,0.11392055046154309,-0.0580643481208428,0.03563340444668153,-0.2185093702609014,0.12466895145618777,-0.037183191386766096,0.039695411453618455,0.1578179499064632,0.3880844296932554,-0.015396787980118678,0.009535509390537985,0.3986921193061255,-0.11185008795293869,-0.015784894863840732,-0.21492219553704633,-0.11154588582558977,-0.10888708635871817,0.13967749180367134,-0.09259153571630585,-0.06845215359855876,-0.15599386443519137,-0.17920223154779183,0.131007989405293,-0.10664778674559106,-0.12692625257621123,0.1672625338060005,0.33364315807158723,-0.33956559427400784,-0.30739271842947963,0.058699063174662267,-0.10194182905871821,-0.03596933212355178,0
org.apache.ivy.ant.AntMessageLogger,8.0,11.0,56.0,19.64285659790039,1.0,12.5,24.46808433532715,65.71428680419922,22.5,0.8035714030265808,6.333333492279053,11.309523582458496,0.284893267651888,0.000264259826932784,2.0,6.0,8.0,0.09392506728404966,-0.09702401441892845,0.06753899405659439,-0.2243183855341893,0.11113041323237623,-0.1076755579558831,-0.03115592692004666,0.16237110085248482,-0.09786223670886852,-0.16970421204999522,0.23042798987182217,0.2974186450310443,-0.1401886357324705,0.06100078856617677,-0.0013930014491561429,0.04622578188526323,0.33778122636009805,-0.06167651310564723,0.33370198893590286,0.33704848279416466,-0.16135794879788254,0.3099716868168597,-0.03354325787523892,0.03242075636259895,0.1539464765294959,-0.1401077226763926,-0.18080916415967935,0.12119375575220134,-0.19679216770427624,0.1838287697065617,-0.07499807981903152,0.1848040988108849,0
org.apache.ivy.ant.IvyAntSettings,16.0,24.0,240.0,10.0,4.0,25.0,47.021278381347656,54.29975509643555,108.0,0.8999999761581421,47.16666793823242,19.65277862548828,0.331450094161958,0.00542560032375393,4.0,14.0,18.0,0.09824131751171329,-0.11122692090965551,0.09888708339892341,-0.25422704587777034,0.25084262382593525,-0.1139840510222593,-0.013521828601798994,0.12491358128509318,-0.27124856509643275,-0.35617126855072656,0.19916531520173622,0.3180138286210865,-0.12823355420353225,-0.08699234821322192,0.04666020809750865,0.049236380189056676,0.27152358191807396,0.06787844981188075,0.07072835681605262,0.3991265487822199,-0.029316249257876667,0.11396089672730438,-0.1548938208202853,-0.04579488327909164,-0.06800153503581954,-0.1621393364408828,0.006012579150448345,-0.10673258265832362,0.27334802443714556,0.10992937574118028,-0.14471310696722692,0.09674997610131707,0
org.apache.ivy.ant.IvyAntVariableContainer,4.0,4.0,12.0,33.33333206176758,1.0,25.0,24.46808433532715,85.18518829345703,4.0,0.6666666865348816,1.0,8.333333015441895,0.224529526281635,9.07317515764641e-06,1.0,3.0,4.0,0.11379205926680316,-0.09131672059963211,0.08801410469316233,-0.24055000165393847,0.308884334174785,0.02617524553122968,0.12293653666908551,0.16615746308757673,-0.13519452370453505,-0.21762379927954464,0.0981972822668572,0.497274145200547,-0.24880301940151647,-0.03044565634241171,-0.01168771106748141,-0.017704167108901193,0.05453130545519159,-0.017136832798148264,0.20908090780340194,0.14055187805852473,-0.08425000052756328,-0.32884877215405417,-0.02235456932494706,0.11454536155823818,-0.10626957694527184,-0.1128255477846542,0.15794429861323966,-0.19708871479183057,0.006059898336183893,-0.15623540122737317,0.2246590413617254,0.17353833992980874,0
org.apache.ivy.ant.IvyArtifactProperty,9.0,15.0,72.0,20.83333396911621,1.0,11.11111068725586,49.1489372253418,50.993377685546875,28.5,0.7916666865348816,0.0,0.0,0.33085501858736,0.0,0.0,9.0,9.0,0.2801034189004051,-0.09898765621586973,0.1289036897141154,-0.4394335100042206,-0.10013257851328432,-0.10511243116806404,-0.32335623812834796,-0.03641022297261268,-0.11392929680892795,0.15282899724510804,-0.1931834409311994,0.0073748197750662945,0.029860184009450147,0.08877238491439887,-0.15415930357608768,-0.3153310736068394,0.030859576639212433,0.25188127676638655,0.10596196308812096,0.03785556737361581,-0.11889697936916234,0.05912315240187013,-0.07704253095239684,-0.2598569268936598,0.07498933288810714,-0.3573036615230503,0.185404320028583,-0.11680854868263818,-0.05883181749421424,0.05908978593161687,0.0262728043764605,-0.1108225276864048,0
org.apache.ivy.ant.IvyArtifactReport,18.0,85.0,306.0,27.77777862548828,1.0,5.55555534362793,63.82978820800781,30.030029296875,110.5,0.7222222089767456,0.0,0.0,0.357071213640922,0.0,0.0,18.0,18.0,0.451025553972067,0.10244790395084008,0.07547340159976289,-0.40356217263382566,-0.2908590804837844,-0.009731077008239039,-0.26558963490687393,-0.16839082945416112,-0.06573040977221796,0.0865767805050888,-0.18507199893584628,-0.1362550249360986,-0.04168497340663795,-0.15112484375303947,0.12219314685700726,0.2252926665526003,0.2074858759593845,0.17516055128287128,0.011764066590029989,-0.09840930734543313,-0.022451775802951875,-0.1844249297908762,-0.10742094840549755,-0.12117221174407102,0.21614224482865527,-0.16295741159629828,-0.08078475959599629,0.1114874786107467,0.18012470079720116,0.09486218723892907,-0.019703552257309805,0.026155158996248692,0
org.apache.ivy.ant.IvyBuildList,11.0,30.0,110.0,27.272727966308594,1.0,9.090909004211426,62.34042739868164,38.50197219848633,40.0,0.7272727489471436,0.0,0.0,0.342691190706679,0.0,0.0,11.0,11.0,0.3317654977568462,-0.26687464344318124,-0.2048210144177944,-0.48301233832581647,-0.01811987443248378,-0.10528146918515184,-0.0027873173417083848,0.11658586564868732,-0.2030755182296268,0.2938498056471545,0.196475937376599,-0.10636502361721432,0.08303983034193528,0.14123488616021265,0.025847538635595812,0.06640944868344079,0.13873294161933233,-0.045379156561087326,0.07267614120510235,0.1674440285852099,0.14421211679522725,0.15050322975578043,-0.020683695381744527,0.14500798947424973,0.08872868378570618,0.20347012179547275,-0.1775392969648684,-0.2665489639247088,0.018522766221256128,-0.14362646601903298,-0.12681748447279795,0.024390512826037592,0
org.apache.ivy.ant.IvyBuildNumber,8.0,14.0,56.0,25.0,3.0,37.5,50.63829803466797,51.072959899902344,21.0,0.75,0.0,0.0,0.326605504587156,0.0,0.0,8.0,8.0,0.25245714608989256,-0.11777465333696494,-0.09192451744908402,-0.5162054803367818,-0.1291993837247497,-0.13535467843478075,-0.07623202259642008,0.18145823970510724,-0.15401608084899093,0.1054650473833245,-0.01356737319386237,-0.16151521404177574,0.028618668313721528,0.06556864033267797,0.1989867397866972,-0.18789474755525995,0.19738063788119256,-0.14354012942698685,0.10166270867288474,0.23498775350399118,-0.12615303095093713,0.16664122152406483,0.11400238859256659,-0.04564861758358363,0.28176049940115977,0.06668830595265818,-0.10812309546943731,-0.05179463922225979,0.23949468615401906,-0.0824054652586082,-0.2878997426513785,-0.05886540312902476,1
org.apache.ivy.ant.IvyCacheFileset,2.0,1.0,2.0,50.0,1.0,50.0,8.510638236999512,85.10638427734375,0.5,0.5,0.0,0.0,0.229434447300771,0.0,0.0,2.0,2.0,0.1963996645669094,0.2208984101689386,0.1743293327233278,-0.10800824665239853,-0.2151313566527285,0.13636037575564,-0.2756081869296731,-0.2878188865568463,-0.1463014578226074,-0.05132415067463072,-0.29482201910724476,0.10913796933118307,-0.12321377256396529,-0.10254464469550521,-0.11563541803005702,0.32199590663662253,-0.11927931050492183,0.08038603370502433,0.2949287675948572,-0.16703849658770797,0.08353818329798998,0.20416797309789556,0.034030912369667134,-0.07528599816079372,-0.1666753060875484,-0.21970719279700598,0.1441943112896248,0.11714181068473331,-0.023566721949818063,-0.2338479098495717,0.14552400718874894,-0.05685781218874859,0
org.apache.ivy.ant.IvyCachePath,2.0,1.0,2.0,50.0,1.0,50.0,8.510638236999512,85.10638427734375,0.5,0.5,0.0,0.0,0.229434447300771,0.0,0.0,2.0,2.0,0.19639966456690927,0.2208984101689385,0.17432933272332762,-0.10800824665239847,-0.21513135665272864,0.1363603757556394,-0.2756081869296736,-0.2878188865568454,-0.14630145782260714,-0.05132415067463072,-0.2948220191072458,0.10913796933118429,-0.12321377256396357,-0.10254464469550378,-0.11563541803005706,0.32199590663662175,-0.11927931050492507,0.08038603370501839,0.29492876759486203,-0.16703849658770895,0.08353818329799181,0.20416797309789236,0.034030912369665905,-0.07528599816079784,-0.1666753060875493,-0.21970719279700637,0.1441943112896213,0.11714181068473137,-0.023566721949816405,-0.23384790984956885,0.14552400718875236,-0.056857812188748795,0
org.apache.ivy.ant.IvyCacheTask,15.0,45.0,210.0,21.428571701049805,1.0,6.666666507720947,59.36170196533203,40.72992706298828,82.5,0.7857142686843872,23.0,10.952381134033203,0.296173044925124,0.00318367634976082,2.0,13.0,15.0,0.2992581476205302,-0.019217796843924745,0.21113487037935835,-0.3912126897426022,-0.21862316348974892,-0.08560972939153233,-0.34922394971638965,-0.2682879534618416,-0.11604733107645265,0.04583229596644783,-0.2142280941205694,0.027381879072076135,0.005398877536520063,0.15317449198639124,-0.1838510776349219,-0.052313700217037455,-0.04402694156567068,0.2974074397048389,0.23315212289298207,-0.08603901112773839,0.044005671247748596,0.06118838059402609,0.010935562573569304,-0.17603093229413502,0.0064564662490707424,-0.3087410698714663,0.17106014427107138,0.03680456538613136,-0.07471999721634916,-0.12635979185847318,0.05746198607783864,-0.037130535813059855,0
org.apache.ivy.ant.IvyCheck,3.0,4.0,6.0,66.66666412353516,1.0,33.33333206176758,33.61701965332031,72.8110580444336,1.0,0.3333333432674408,0.0,0.0,0.286176232821341,0.0,0.0,3.0,3.0,0.17051714977274374,-0.1391430549993117,0.026009520118010693,-0.49011690473835073,0.10548428290872965,-0.20452546763608032,-0.14115872498919282,0.1688939841140107,-0.11260055482646883,-0.002786510583095359,0.24392625605837145,0.10101319246231492,-0.04808870679964403,0.22690050297347167,0.008484396554962633,-0.1356398148496037,0.15307694942486297,-0.12706805647498395,0.2679079768128163,0.14771979339337746,-0.05456903346542816,0.1905761117027144,0.06363792778949927,0.11397452640699604,0.10024267040786483,-0.006868750785523003,-0.05723324631979016,-0.27910537947174513,0.26688859992107083,-0.15623417529835243,-0.20977467036695363,0.18487744840041803,0
org.apache.ivy.ant.IvyCleanCache,5.0,6.0,20.0,30.0,1.0,20.0,36.59574508666992,63.003662109375,7.0,0.699999988079071,0.0,0.0,0.327777777777777,0.0,0.0,5.0,5.0,0.20252536588806397,-0.05187009436287103,0.08623348078258775,-0.394862790705664,-0.022827433636810137,-0.22859047698709295,-0.20110200700469658,0.2781877192890631,-0.2492792000184013,0.08869952006388393,-0.06011655217760254,0.004531537200716682,0.16602063747083975,0.1552819295694644,-0.03371060352142842,-0.10845973593870929,0.16576306915423192,-0.07865614685902585,0.1562781014218415,0.15611437065282802,-0.16404178609194017,0.36411791595331705,-0.16095039516897194,-0.12551042473701732,0.2273614977449583,-0.05926213355184467,-0.008294506074971451,-0.27087780966661695,0.22002649443698466,0.10316514436671813,-0.04140635914180514,-0.10531517481038861,0
org.apache.ivy.ant.IvyConfigure,1.0,0.0,0.0,0.0,1.0,100.0,3.4042553901672363,100.0,0.0,0.0,0.0,0.0,0.24946996466431,0.0,0.0,1.0,1.0,0.039259382295453796,-0.06999950518844397,0.1175333085922025,-0.1003007792452206,0.19673220898493535,0.05811564766892031,0.05134505930343098,0.08763637279508427,-0.18688575576621794,-0.3328040143717051,0.1926401361151758,0.39878806935496447,-0.19356831907007846,-0.06307389979845132,0.011950759154494525,-0.008124489347645593,0.19584858837678593,-0.19740961233986845,0.2482727223232306,0.11808611615200063,-0.19789795685943418,-0.24656571143734093,-0.08645833711511762,0.009297281196928485,-0.05463961859648924,0.07992018672401202,-0.11907761065577298,0.2596234990794819,-0.3785710329520441,0.026157804328879552,0.1846202548431069,-0.06581890903790064,0
org.apache.ivy.ant.IvyConvertPom,7.0,9.0,42.0,21.428571701049805,1.0,14.285714149475098,48.9361686706543,61.4973258972168,16.5,0.7857142686843872,0.0,0.0,0.321818181818181,0.0,0.0,7.0,7.0,0.2503352680169072,-0.17383269908970675,-0.15149593262991665,-0.21613323084417607,0.24472347214189244,-0.15260100203790625,-0.11308106418651676,0.09154783704583327,-0.19746703856520736,0.34490232718375197,0.10430084246804106,-0.01904562645285484,0.34076904340632763,0.06916286517792018,-0.14365643261406832,0.054691492793077,0.18667479914447122,-0.3518122022923996,0.10264973339684798,0.17133448220120323,0.08840540093932353,-0.09491869893749934,-0.13249627308463957,0.03262697000636542,0.16971434613870043,0.2621839977798075,-0.05550338700547961,0.033989630020302454,0.1204050501596525,-0.14558956477040452,-0.16077848329191446,0.14865354054954222,0
org.apache.ivy.ant.IvyDeliver,10.0,22.0,90.0,24.44444465637207,1.0,10.0,48.9361686706543,55.82524108886719,34.0,0.7555555701255798,8.0,8.88888931274414,0.327205882352941,0.000521899775434135,2.0,9.0,11.0,0.2145608620960712,-0.22045202399795305,0.04852040254264736,-0.36910314910242964,0.02698712403310211,-0.09915644206851851,-0.018714827381979045,0.2677741637755344,-0.2123887510971747,0.26366550937532773,0.13390289247031884,-0.04822213894179389,-0.23545181466344253,0.04242788264734929,0.1053856580565675,-0.17955109430764196,0.1767360831313625,-0.07698689129323508,0.05283831607127196,0.06611357852337482,0.1449946305641197,0.1684211071215266,0.08427443148219353,0.19088493213161828,-0.09639505822790344,0.02543244799903436,-0.40735106585078407,-0.15069801694709029,0.2271697542141997,0.06005185976955235,-0.12532656764656863,-0.20478483932745511,0
org.apache.ivy.ant.IvyExtractFromSources,3.0,1.0,6.0,16.66666603088379,2.0,66.66666412353516,31.914894104003906,98.68421173095703,2.5,0.8333333134651184,0.0,0.0,0.246633593196314,0.0,0.0,3.0,3.0,0.1373928096962803,-0.13851199980048146,-0.11857052314695796,-0.3108680899735826,-0.0703475562398151,-0.16980127611018322,0.1527083179094632,0.07144479321510552,-0.07958222598996512,0.2575473155577152,-0.210514483045216,-0.1576581884689479,-0.30998879334976637,-0.15397016807093755,0.08767575748202654,-0.2171038094299485,-0.09407903901190023,0.019277422553767534,-0.2463235808184377,-0.06544027066883683,-0.06471017265436559,-0.12671772974613235,0.34610265431635534,0.03953159667197332,0.10428597477684498,0.0329760889450381,-0.06824520325395186,0.4167644393452928,0.028474302182441517,-0.09759368219751727,-0.22314412896400956,0.07975262574837086,0
org.apache.ivy.ant.IvyFindRevision,6.0,14.0,30.0,46.66666793823242,1.0,16.66666603088379,50.212764739990234,50.86206817626953,8.0,0.5333333611488342,0.0,0.0,0.325367647058823,0.0,0.0,6.0,6.0,0.2524571460898924,-0.11777465333696484,-0.09192451744908393,-0.5162054803367813,-0.1291993837247496,-0.13535467843478058,-0.07623202259641995,0.18145823970510733,-0.15401608084899085,0.10546504738332454,-0.013567373193862581,-0.16151521404177607,0.028618668313721188,0.0655686403326771,0.19898673978669806,-0.18789474755526026,0.19738063788119262,-0.14354012942698768,0.10166270867288404,0.23498775350399065,-0.12615303095093772,0.16664122152406546,0.11400238859256592,-0.045648617583583004,0.28176049940115844,0.06668830595265872,-0.10812309546943756,-0.051794639222259575,0.23949468615401978,-0.0824054652586091,-0.28789974265137935,-0.05886540312902402,1
org.apache.ivy.ant.IvyInfo,11.0,27.0,110.0,24.545454025268555,1.0,9.090909004211426,55.74468231201172,40.683231353759766,41.5,0.7545454502105713,0.0,0.0,0.341040462427745,0.0,0.0,11.0,11.0,0.30962310458943154,-0.20294411893497918,-0.19853453649901595,-0.4094309168708348,-0.060991767309584034,-0.017446040200824957,-0.09488764665033705,0.1274986930031713,-0.18957618078323465,0.3145959743150052,0.054647530616836124,-0.09205092549020948,0.23338088792567363,0.18079904495810606,0.15871394360361474,0.025318395676210876,0.22326260607307608,-0.10582334003406312,0.0575025703095383,0.24862664205502044,0.0941185579205867,0.14021163165374714,-0.0021232388703977837,0.07607564940265629,0.23883778634317585,0.2408031561578855,-0.14029435682820593,-0.07986754757693847,0.11746419786391238,0.06635562522750911,-0.2164755193998171,0.025068077983000227,1
org.apache.ivy.ant.IvyInstall,9.0,23.0,72.0,31.94444465637207,1.0,11.11111068725586,52.12765884399414,48.32347106933594,24.5,0.6805555820465088,0.0,0.0,0.332394366197183,0.0,0.0,9.0,9.0,0.2511957944853676,-0.20887346754110814,0.16739653923548226,-0.5205836743932861,-0.20478926298742448,-0.17077991000004858,-0.33227341260335863,0.08095956040111954,0.05449960389367253,0.00854170408325393,-0.054232096130068706,-0.28702410207992024,0.017320229958991427,0.15881313802926772,0.008006507840269681,-0.06604157618354388,0.29831458805325334,-0.23698847173891452,-0.040219511011453844,0.14150974318309048,-0.019882011202786848,0.11106314533321404,0.07253702929319265,-0.02274783823094317,0.17510286255935126,-0.1264027815619366,-0.025634142467079676,-0.1123716716186411,0.1750364953633821,-0.06445981555751852,-0.02280787225664034,0.08556521928070124,0
org.apache.ivy.ant.IvyListModules,6.0,12.0,30.0,40.0,1.0,16.66666603088379,51.27659606933594,55.275230407714844,9.0,0.6000000238418579,0.0,0.0,0.326869806094182,0.0,0.0,6.0,6.0,0.2192688985319212,-0.2191148400462876,-0.07976757310666227,-0.4798140977146271,0.018051859788381915,-0.2537177325795407,-0.13849732334484796,0.39979044422307164,-0.05460521277051601,0.06276209398941554,-0.1424616963704409,-0.048270354222097224,-0.04315628662716912,0.06819076131659138,0.09252717958292417,-0.3053676341575021,0.034290836251243156,-0.1078659688181805,0.030770521969883346,0.2815999451839064,-0.20988282053159366,0.18809711397802156,0.12665046783635756,-0.16169842500456866,0.04371978680824053,-0.018477058679755243,0.05386078844190639,-0.19225271347301698,0.1241828168996787,-0.028080204276388816,-0.06308796135216777,-0.09361864236805559,1
org.apache.ivy.ant.IvyMakePom,9.0,9.0,72.0,12.5,2.0,22.22222137451172,43.40425491333008,61.63142013549805,31.5,0.875,8.0,11.11111068725586,0.313759859772129,0.00161956176563988,1.0,9.0,10.0,0.24003305170534917,-0.2917752838019681,-0.10409875122580264,-0.23587109530032133,0.153138977451216,-0.20940899459623127,-0.108520137740946,0.17186315798355417,-0.33938687748553176,0.2077014977994956,0.09321963007172046,-0.06421698721341379,0.27472328777272675,-0.13132132467598664,-0.19954252877935993,-0.07890099598833904,0.0734190802828475,-0.1755877802461815,-0.07174665001250152,-0.03800658421700708,0.13027181627875353,0.31298649034636383,-0.21316387507541573,0.16125926815484895,0.14299649295362662,0.31438646718509916,-0.09337292564939105,-0.06617902865158443,0.08234989505938808,-0.01268907418012881,0.060759606483949215,-0.007553384447116452,0
org.apache.ivy.ant.IvyPostResolveTask,18.0,75.0,306.0,24.509803771972656,1.0,5.55555534362793,65.31914520263672,36.943443298339844,115.5,0.7549019455909729,19.899999618530273,6.503267765045166,0.339063992359121,0.000943503366390995,4.0,14.0,18.0,0.35059343708577,-0.1989337073764506,0.4103991443984957,-0.42783784488386967,-0.22748725729522323,0.016412590805948087,-0.3441117265482047,-0.12087883238017176,-0.015775910256703746,0.06366478542941369,-0.14336039982663581,-0.14483455255100186,-0.010587778779012503,0.16721236626532834,-0.1764286110102897,-0.027988965054086823,0.2551783166593234,-0.07560582032267558,0.07193604371929636,0.01858484673304365,0.04776518498217296,0.11429985423045343,0.08613649807346252,0.015371859243546853,0.12708647333731524,-0.03830220766099007,0.06446808399870722,-0.03320262943437738,0.09267530987432587,-0.14754861806333083,0.0034685700065678333,0.20634101173386885,1
org.apache.ivy.ant.IvyPublish,10.0,20.0,90.0,22.22222137451172,2.0,20.0,54.680850982666016,50.59054946899414,35.0,0.7777777910232544,6.0,6.666666507720947,0.330570902394106,0.000829134109449856,1.0,10.0,11.0,0.23124143149002999,-0.11095021396879182,-0.005589652038253325,-0.39501281752062234,0.03879330556074501,-0.1336874241262552,-0.13492531771935237,0.21576211905128093,-0.09037717477418365,0.27865128576830567,-0.1168727010526202,0.03846397664028368,-0.291129192961791,-0.09036458184689561,0.016773710408458667,-0.4312341544700537,0.05990555278447341,-0.09936768456460493,-0.006904913054983181,0.15457924186412345,-0.2361489969566925,0.19086720638554514,-0.13556148038929516,-0.01121684374713033,-0.16724486804944014,-0.14583562376563922,-0.1973278222311256,-0.15719307299188698,0.10693864615237408,0.05369475662051779,-0.17588901958737632,-0.08745881267406921,0
org.apache.ivy.ant.IvyReport,12.0,28.0,132.0,21.212121963500977,1.0,8.333333015441895,59.787235260009766,41.75334167480469,52.0,0.7878788113594055,0.0,0.0,0.3342776203966,0.0,0.0,12.0,12.0,0.2468491250268533,-0.13834943147645204,0.04694638695954065,-0.5271709012879174,0.09450788739967171,-0.16518028601389603,-0.19436752541460592,-0.04154860273508735,-0.24126681831585192,-0.002341899718499765,-0.09874585492052332,0.010543904094909046,0.06720589649318387,0.17181544765259535,-0.25350390758219843,-0.3989902147256704,-0.050938126455582614,0.19996040531602063,-0.05523683732247863,0.0696830758784911,-0.054285243324828605,0.12169941936955578,-0.035985171880448655,-0.08938040848735689,0.26835736874460564,-0.14333695341724637,0.11503175057500936,-0.05355863263789566,-0.009364996058373409,-0.03716449761780869,-0.023224710776863368,-0.2243244240304083,1
org.apache.ivy.ant.IvyRepositoryReport,15.0,51.0,210.0,24.285715103149414,1.0,6.666666507720947,58.51063919067383,36.32761001586914,79.5,0.7571428418159485,0.0,0.0,0.347058823529411,0.0,0.0,15.0,15.0,0.31590864004802216,-0.2675269789754672,0.04634851326099017,-0.43006201713903613,-0.026864428699994808,-0.09062049490846956,-0.15000649949130393,-0.10302545541013036,-0.2545268229370556,-0.118300521784593,-0.15213398504905562,-0.2701010261371828,0.1757156485792674,0.1605405451966172,-0.13900276781599372,-0.1431614300737626,-0.026690216331139043,0.19521310929493693,-0.010306432481707298,0.08837158908758808,0.1296247372430269,0.27883702837768204,-0.016524169206625375,-0.08677737383585547,0.31920556454806326,0.046848954351710534,0.10820990250185301,-0.012934517930586312,-0.003905130169457908,0.04656353016809051,0.1165887375879633,-0.21749195572718266,0
org.apache.ivy.ant.IvyResolve,13.0,40.0,156.0,25.64102554321289,2.0,15.384614944458008,63.61701965332031,42.23163986206055,58.0,0.7435897588729858,1.5,0.9615384340286255,0.338108882521489,2.04146441047044e-05,1.0,12.0,13.0,0.27701324837041397,-0.19121044825108077,0.24130948001002547,-0.5162249422951274,-0.18865767995388585,-0.17796866073130516,-0.28353317601061784,-0.030520062720667637,0.013136840277555002,0.0367465584727099,-0.04291030604351169,-0.18832387672189244,0.029858407467307668,0.15617739563052152,-0.16502242612983464,0.010680477807835216,0.29935145137728203,-0.17432973985564018,0.014032237501807748,0.020502228341819775,0.1177710946048958,0.0018962437701951513,0.11847961911660077,0.03893693145822791,0.005479579812899662,-0.020829439609352893,0.09007855941970387,-0.06836090651425533,0.14954488628432933,0.027107283215830866,-0.0725379881506234,0.36094211803305154,0
org.apache.ivy.ant.IvyRetrieve,7.0,14.0,42.0,33.33333206176758,1.0,14.285714149475098,51.0638313293457,57.83132553100586,14.0,0.6666666865348816,0.0,0.0,0.324817518248175,0.0,0.0,7.0,7.0,0.20860818578247997,-0.144657503702687,0.21961174931813582,-0.44005799042206034,-0.1407387541443718,-0.1864592079187939,-0.28112514989602627,0.15121105359864034,0.09940366154113209,0.057708698690562096,-0.05720271312443841,-0.236292575815039,-0.07327583522339103,0.05079734523077001,0.017776935149367425,0.05025099799334435,0.2940801219312773,-0.3302773618180264,-0.2258518179551965,-0.05809383673761809,-0.07821418473502215,-0.016226586015055378,0.15087214177086958,-0.08264534138310467,-0.09106606489583427,-0.024282614060786696,0.11077933030392151,0.24082484922715086,0.13816590717415236,-0.02189813723333445,-0.05523363517121745,0.2576863326881597,0
org.apache.ivy.ant.IvyTask,28.0,99.0,756.0,13.095237731933594,1.0,3.5714285373687744,65.74468231201172,36.05601119995117,328.5,0.8690476417541504,80.75,10.681217193603516,0.338446788111217,0.00230884787465933,17.0,11.0,28.0,0.2206680542179225,-0.21090090957844534,0.4704823361913028,0.05891968638548661,0.06732156157242862,0.32193430962443237,0.06019487475047299,0.12838049162159504,-0.07105368405130086,0.07973463309179217,0.07255517521036316,-0.08519401095195286,-0.15982611100350902,-0.07814428883586509,0.07982966458925353,-0.1276892998685926,0.2833610287672,0.16419569581138713,0.30511394138745707,-0.1993630249364311,-0.2978522141542083,-0.13213735362499088,0.00970201957688672,-0.07226543175828593,0.10628292244473565,0.22945972590248986,-0.07220093210981743,-0.001390836799450034,-0.02872241699550042,-0.16708974724900563,-0.10997554075767135,-0.11780425581620317,0
org.apache.ivy.ant.IvyVar,3.0,3.0,6.0,50.0,1.0,33.33333206176758,33.191490173339844,69.95515441894531,1.5,0.5,0.0,0.0,0.32387923147301,0.0,0.0,3.0,3.0,0.13613820664405132,-0.13618062806405587,0.049137672668769485,-0.41731253009996816,-0.0026344263563203244,-0.2579649956716313,-0.1397493416985383,0.31278698877685335,-0.1618253437836429,0.06509989728804262,0.05367146628898304,-0.06332460124955805,0.11472720281836532,0.08277031003483268,0.1262178928083203,-0.10829127262159173,0.19913442906174292,-0.3233125317492988,0.15414979863685824,0.21760167318699866,-0.1338867863633403,0.3593402794730867,-0.06760725744044399,-0.056011007252683244,0.09875418009347897,0.05430148035513565,-0.027036774013249512,-0.1380148585292423,0.2992148589593921,-0.01600203960966213,-0.15847190199865852,-0.0038619031421531333,0
org.apache.ivy.ant.PackageMapping,2.0,1.0,2.0,50.0,1.0,50.0,31.914894104003906,98.68421173095703,0.5,0.5,0.0,0.0,0.245564229950319,0.0,1.0,1.0,2.0,0.1373942137357597,-0.13851337248718745,-0.11857177892697854,-0.3108711111719124,-0.07034808307841672,-0.16980373827856535,0.152709794441198,0.07144414872892448,-0.07958219389305164,0.2575471121869181,-0.2105189076223708,-0.1576576909761057,-0.3099821934708003,-0.1539705069972691,0.08767589676092295,-0.2171060645714402,-0.09408337550348819,0.01927852821652531,-0.24631745263129443,-0.06543337058548569,-0.06469299933630271,-0.12670048782275933,0.34608658925129376,0.039497193042888915,0.10425710436802821,0.032994391646779676,-0.0682587463569913,0.4167929817560203,0.028421512101987713,-0.0976080358988587,-0.22315316962948556,0.07972760649884403,0
org.apache.ivy.core.ExecutionRelativeUrlResolver,1.0,0.0,0.0,0.0,1.0,100.0,1.4893616437911987,100.0,0.0,0.0,0.0,0.0,1.0,0.0,0.0,1.0,1.0,0.06653132721581426,-0.11894980136807931,-0.04439157770976864,0.022610026777079163,0.08461401098625293,0.14151512482923917,-0.050097670818253746,0.22133512817246495,-0.12488379539196444,0.20698251877857396,0.06900952349978343,0.22752804418916386,0.3774977282171297,0.16849139988604503,0.22560647365204448,-0.0027887725413202847,-0.16643864261382343,-0.005084058711003723,-0.1681701915817759,-0.14607889272027755,-0.050041288396331984,-0.13091769899038863,0.2303551324303573,-0.08876059086157306,0.12591408622554146,-0.40955761938270985,-0.007824068247555252,0.08787470352052514,-0.05403330481257835,-0.1458518105768339,0.39985214885518355,-0.17351118049036024,0
org.apache.ivy.core.IvyContext,37.0,136.0,1332.0,10.210209846496582,1.0,2.702702760696411,74.25531768798828,30.164216995239258,598.0,0.8978978991508484,307.028564453125,23.050193786621094,0.335929892891918,0.045595606611264,30.0,9.0,39.0,0.3032233433733156,-0.06307887459981203,0.11940624056845203,-0.05984557521029291,0.07311396100843649,-0.24527062584275447,0.1909470102928628,0.08442596026020284,0.38030355605956256,-0.031945014859239174,0.07056500444069813,0.3200703312987998,0.05289364130312732,-0.29278182879870396,0.04069851284201198,0.1505984900803613,0.008769457469542824,-0.08117222074155984,0.05455071592260515,0.2581759726806594,0.17250429525172503,0.08845190085789949,-0.13451646449356017,0.015286997338379205,0.35640351287985805,-0.16668559500926716,0.09512133928441689,-0.21518560056101516,-0.05795205606218426,-0.009838279620840381,-0.21171437484547695,0.14342103931628208,0
org.apache.ivy.core.IvyPatternHelper,32.0,69.0,992.0,6.9556450843811035,4.0,12.5,62.12765884399414,38.37056350708008,461.5,0.930443525314331,147.3333282470703,14.852150917053223,0.25219298245614,0.0104938746326231,26.0,7.0,33.0,0.23041599247978498,0.021142300110464914,0.19279551893625413,0.0755672450893797,0.27031314030151465,0.09412442071423407,0.05061667404160082,0.0805120024249295,0.12051261776145887,0.1407297745449391,-0.32719454282473937,0.09317407217898724,-0.3217864340575852,-0.23361448886727115,0.4007007642264517,0.017494166310030392,-0.05410149867710763,-0.08378860563484052,0.10350868047137095,0.18622754719208456,0.12692043847160184,0.045510150932325986,-0.1949047113887836,0.2382497288444699,0.2457202066684064,-0.032365506569177326,0.2595860870738652,-0.11054467802523034,-0.05608137856921733,-0.12823821321366904,0.1205104283442794,-0.011660447361758827,1
org.apache.ivy.core.IvyThread,5.0,7.0,20.0,35.0,1.0,20.0,10.425532341003418,81.66666412353516,6.5,0.6499999761581421,1.5,7.5,0.252002913328477,0.000659637306812213,4.0,1.0,5.0,0.11386075800113436,-0.039191495779343735,0.05317825538724244,-0.12480255741814561,0.15074609452867221,-0.03087568130590024,0.18095219846282423,0.06286286798010622,0.4914451571952188,0.005556661148448625,0.10510706634959083,0.35781294943354386,0.027432943398855405,-0.10587159571273129,0.11109376911860949,0.19917232906708832,-0.001334279990984024,0.194769057296906,0.142536340395052,-0.0017126242535719788,-0.20311100344797123,0.03253439623501323,0.1382134575452959,-0.1636632592203435,0.11314193455990879,0.13176096237243795,0.20983562688723276,0.17257756570928212,-0.2832868353518048,0.16641108891315956,-0.21905919738402238,-0.2361330742508645,0
org.apache.ivy.core.LogOptions,7.0,6.0,42.0,14.285714149475098,2.0,28.571428298950195,21.489360809326172,58.04597854614258,18.0,0.8571428656578064,0.0,0.0,0.0,0.0,7.0,0.0,7.0,0.23952289530340284,0.11081122121659387,0.23113977681179806,-0.13816099528809012,-0.20686071914554652,0.10079633833286851,-0.18752736496473232,-0.0898531015451265,0.14161399593308918,-0.056615639307961464,0.10590416426331864,-0.2204376510249612,0.04923378181149814,-0.045826359199794185,-0.14838017952894106,0.12652844389811913,0.33518317203391595,0.10685381919825196,-0.2342003531972185,-0.10718279913435366,0.13838711685908694,-0.3186193561806899,-0.01882159079849807,-0.13605708620563164,0.1818297774726084,-0.35494301679677975,0.10807343577059857,0.24011487985016827,0.14261909938748252,0.19928961307773185,0.10154051381600297,0.08739909370142514,0
org.apache.ivy.core.NormalRelativeUrlResolver,2.0,1.0,2.0,50.0,1.0,50.0,24.46808433532715,97.45762634277344,0.5,0.5,0.0,0.0,1.0,0.0,1.0,1.0,2.0,0.1139530980255819,-0.13976581227053983,-0.029374354838138113,-0.29535524937379615,0.0365243431240866,-0.19519635916276976,0.029391249110232536,0.4468923829838276,-0.21140004329076384,0.11410542265443734,-0.1500029766590013,0.00456479157816176,0.33708454127709475,-0.08849038144698604,0.1380022179284634,-0.021193212281760635,-0.03348405961386014,-0.3802148772030655,0.003130261619303941,-0.006572413719764523,-0.17736123457123681,0.0463086720811448,0.03805707434034375,-0.22401871283783975,-0.1025170159129535,-0.07879471768250082,0.10575137638980205,0.015917535177931652,0.25269036258755995,-0.017336285259531493,0.21387466919944823,-0.22173434529744268,0
org.apache.ivy.core.RelativeUrlResolver,7.0,5.0,42.0,11.904762268066406,2.0,28.571428298950195,34.46808624267578,72.64573669433594,18.5,0.8809523582458496,0.0,0.0,0.0,0.0,7.0,0.0,7.0,0.15008904616242918,-0.1926776012513287,-0.07861922639034964,0.038500596679963604,0.12235415045903099,-0.07612090345563526,-0.12435256304365878,0.30151672606069113,-0.20681165112709363,0.24712154813305698,0.1416790292625901,0.05687389571273757,0.406440452741155,-0.3690414238313888,-0.06323143380034535,0.10523714714112631,-0.20758030668345642,-0.10320621461408278,-0.06057324435273945,-0.18021487540057293,0.00650538249818544,0.20243975449880777,-0.071712469064488,0.2796609031026782,-0.17840065977241942,-0.09836609419116103,0.22224238750488415,-0.05522646584772673,-0.08441186827897762,-8.255481225518138e-05,-0.017626153159267563,0.21515865840203938,0
org.apache.ivy.core.cache.ArtifactOrigin,27.0,89.0,702.0,12.678062438964844,1.0,3.7037036418914795,48.51063919067383,30.359519958496094,306.5,0.87321937084198,22.0,3.1339030265808105,0.198732718894009,0.000194745623453149,25.0,2.0,27.0,0.36242510128141453,0.4144066288457318,0.043019135155002476,0.2832819556274602,-0.02645182309714022,-0.43704428952373897,-0.20139716241355682,0.046942447205844784,-0.12489102513111017,0.03659130115068256,-0.07078871013744929,0.23666603929774135,-0.13830717709449525,0.11030458345145416,-0.24873584832738266,-0.11006477466414666,-0.015477941218398964,0.13272713849736043,-0.03428361736738666,0.03962315636739049,-0.09454675698384453,0.03497649633894196,0.053922129640335284,-0.2958015398018844,0.13241189551190136,0.07937580563741031,-0.15997276366365756,0.011405328974766774,-0.014923078614805537,-0.08475912914708748,0.07835977281094052,0.11328675532861573,0
org.apache.ivy.core.cache.CacheDownloadOptions,6.0,11.0,30.0,36.66666793823242,1.0,16.66666603088379,21.06382942199707,52.105262756347656,9.5,0.6333333253860474,3.5,11.666666984558105,0.174506828528072,0.000451807198259706,5.0,1.0,6.0,0.20003336837902486,0.4014193617388359,-0.09155764559234128,0.16208978761769127,0.05581791426063552,-0.19928326958202197,-0.10874007984004909,0.2866145528331786,-0.148124399050764,-0.054718856394925054,-0.17464735997565906,-0.00454509210468895,-0.09137978727406769,0.05491281028750548,-0.20718929186238688,0.3466181014878799,0.1728962034533858,0.025441547874892806,0.07684607595706223,-0.29553241991808155,-0.22177783864241327,-0.028115662135488186,-0.10198845188739164,0.036217283271527276,0.29359335244659956,0.04830762217841935,-0.11129772572230323,-0.25263321855447995,-0.004181847513437522,0.14893556642596242,-0.05067898671586138,-0.15004512352034335,0
org.apache.ivy.core.cache.CacheMetadataOptions,7.0,13.0,42.0,30.952381134033203,1.0,14.285714149475098,23.404254913330078,48.24561309814453,14.5,0.6904761791229248,1.8333333730697632,4.365079402923584,0.172413793103448,5.20627431664949e-05,5.0,2.0,7.0,0.2247195067022801,0.3791198373958278,-0.0968132746107303,0.20665261695711754,0.06529911862924419,-0.25559754442972193,-0.10980747956103949,0.3108986859054056,-0.14733741853070917,-0.05602458917883778,-0.08021002530559733,-0.018445532823381003,-0.03664819288306542,0.18261514302090845,-0.04848437961288925,0.28340115986296677,0.14167020535065744,0.04383541273802892,0.06776556040593698,-0.3365676628261772,-0.20430501752986463,-0.08939807688813613,-0.03211146279592651,0.05621780830206278,0.3396101564992203,-0.07666109295498769,-0.02934403596953202,-0.22898735035647694,-0.06639162543023802,0.1678216837518013,-0.061314637957893325,-0.1475680383992263,0
org.apache.ivy.core.cache.CacheUtil,2.0,2.0,2.0,100.0,1.0,50.0,29.787233352661133,86.9565200805664,0.0,0.0,0.0,0.0,0.0,0.0,2.0,0.0,2.0,0.1342906538520558,-0.00765163592342388,-0.06684677353797547,-0.152293163251005,0.07271424103619209,-0.27833152520726606,-0.027166909300924396,0.42069888283857204,-0.19520633985905406,0.037903062555937374,-0.2750592252965116,-0.09981624089766339,0.14504984544593472,-0.181844513168801,-0.09690864659026438,0.186937815361185,-0.034569122437166214,-0.32356338700522375,0.2101517070885152,-0.12250576746195746,-0.2161388097464688,-0.14983101062437654,-0.18214836920687383,-0.17179839712909434,0.03153979741129785,0.038383901880055964,-0.12739899650366224,-0.17764639482736516,0.18685863742037195,0.14579165963531732,-0.048767400752154764,-0.25383710687533956,0
org.apache.ivy.core.cache.DefaultRepositoryCacheManager,50.0,168.0,2450.0,6.857142925262451,1.0,2.0,73.82978820800781,25.126720428466797,1141.0,0.9314285516738892,582.4444580078125,23.773242950439453,0.348133198789101,0.0265585888854078,4.0,49.0,53.0,0.28532688423361113,0.17737173335602432,-0.20103517385834627,0.07871237910685105,0.10247574314695608,0.27873857967451354,-0.023348491456812205,0.23636117747344734,-0.0911288522214115,0.016941190425349462,-0.3344474287231172,0.09445264761511529,-0.044202002694863816,0.3025105296287373,-0.21125245931940675,0.3875482386905796,0.03945406974998788,0.14511182712102186,-0.16589648541780017,0.11650002105011091,-0.11179126449556206,0.25287326476333116,0.1617215251716453,0.29139689851840334,-0.055396485746053506,-0.007183037861597196,-0.1153295567211196,-0.02176395278256701,0.024967625035702563,-0.054173810496026716,0.08114151384854873,0.0002760475576344996,1
org.apache.ivy.core.cache.DefaultResolutionCacheManager,6.0,7.0,30.0,23.33333396911621,2.0,33.33333206176758,47.021278381347656,65.19174194335938,11.5,0.7666666507720947,9.0,30.0,0.251641137855579,0.0031665381300186,2.0,5.0,7.0,0.18929239069393972,-0.12570577753891013,-0.013276999772147682,-0.4810973224792172,0.14336452020378648,-0.17095642311975318,-0.037929834256128545,0.11374029468871656,-0.23902843173448482,0.1033856761595467,-0.2758301007912878,0.009645675767867398,0.0484920722585467,-0.010008914601964238,-0.2294594818945038,-0.4362115490820359,-0.1868089333915946,0.10850044227463683,-0.1958037559034753,0.016332064388728754,-0.15540298228324378,0.001192339124543149,0.011085972227018499,-0.11684724513442186,0.046340336067638696,-0.03547956687813005,0.23296273751410726,-0.01518067704846325,-0.06774569072867975,0.06932891553057581,0.10300311139110276,-0.2491602531822284,0
org.apache.ivy.core.cache.DownloadListener,9.0,26.0,72.0,36.11111068725586,1.0,11.11111068725586,29.787233352661133,45.45454406738281,23.0,0.6388888955116272,5.333333492279053,7.407407283782959,0.211138310893512,0.00171439418307143,4.0,5.0,9.0,0.24139134765915982,0.45384163499862085,-0.17033875468644097,-0.03297461883739385,-0.016030462081308615,0.10976978361133628,-0.10887764356506265,0.12351031919126446,-0.1147163311880187,-0.00763355231273406,-0.3109852396698161,0.06717122730803705,-0.19615033872006232,-0.11178444688445577,-0.07447442301114612,0.3132880376990197,0.11283654309172464,0.007503316352684507,0.1844449300884521,-0.3423594821641241,-0.07087452111956873,-0.09253676216592564,-0.32478759183491923,-0.12342922836548191,0.12767553108542268,-0.07566451568299956,-0.09579856256354569,-0.20556700326233468,0.036660567939112876,0.13868578635693665,0.0007069590611499773,-0.06903258414302425,0
org.apache.ivy.core.cache.ModuleDescriptorMemoryCache,7.0,11.0,42.0,26.190475463867188,1.0,14.285714149475098,42.978721618652344,65.58441925048828,15.5,0.738095223903656,2.0,4.761904716491699,0.239749826268241,0.00479970965839495,1.0,6.0,7.0,0.21132122287498098,-0.12222955803126238,-0.12645140578728645,-0.07195505389700865,0.1364619835527468,-0.06381925902812531,-0.04767559614906526,0.23465287704086946,-0.22725696139653273,0.26058028369964925,0.07461678852830182,0.08297816249455209,0.21782438939033505,-0.11873328055751071,-0.22813800623501626,0.2965556527566381,-0.2200704191486088,-0.036760578390781624,0.16105759221002725,-0.21987554218789854,0.21524525920703036,-0.1854827204326141,-0.005470684204666658,0.2987288664264915,-0.02118916038535558,0.18807127949194208,-0.17658892058718528,-0.27107090786271515,-0.08183156990022697,0.23205757956412568,0.03517930216138017,0.09659209293514688,0
org.apache.ivy.core.cache.ModuleDescriptorProvider,5.0,9.0,20.0,45.0,1.0,20.0,30.63829803466797,71.64179229736328,5.5,0.550000011920929,0.0,0.0,0.216436637390213,0.0,3.0,2.0,5.0,0.1989154094185563,-0.1034377233303755,-0.155515402521054,-0.02994112517048964,0.07720993495992655,-0.08523341621726743,-0.08559751002514969,0.23152327882300575,-0.23844446955713747,0.34528529168338873,-0.01882701232700353,-0.023842059266361234,0.22419009710265958,-0.05366385113945482,-0.13369490388261768,0.3722734860718524,-0.06383979753415747,0.006577994727339916,0.09249924711979671,-0.12269623168048507,0.24394869578403186,-0.11294622274010001,-0.1334115129725084,0.19622557286133166,0.09958163939981733,0.25881984753692017,-0.308395903671353,-0.23235936952577563,-0.10737109823979755,0.2530207808571727,0.009780696786681881,-0.07710503824185563,0
org.apache.ivy.core.cache.ModuleDescriptorWriter,6.0,12.0,30.0,40.0,1.0,16.66666603088379,34.25531768798828,61.450382232666016,9.0,0.6000000238418579,0.0,0.0,0.210494203782794,0.0,4.0,2.0,6.0,0.2079301874866827,0.2310916137514265,-0.1526471220965953,0.025775468875036015,0.08606828553490664,-0.1219039004331345,0.005980185516288594,0.15365841131762992,-0.13764199205866032,0.07259925189266914,-0.12634314987725942,-0.153869644794866,-0.06138936347073323,-0.01585156463048029,-0.23670720851555604,0.2191668097642187,0.19203974294365164,-0.029140750637529675,0.19814665973537696,-0.22029011575978483,-0.0420252654507324,-0.253250503569443,-0.28120839129406455,0.022844220137548204,0.2980410413194728,0.14233374701357257,-0.2763165811328017,-0.3667873442097699,-0.1259682881270562,0.22788340274795998,-0.05083787587560691,-0.012950162270908104,0
org.apache.ivy.core.cache.ParserSettingsMonitor,5.0,5.0,20.0,25.0,1.0,20.0,28.29787254333496,78.69822692871094,7.5,0.75,4.0,20.0,0.2320107599193,0.00178741924202409,3.0,3.0,6.0,0.26319146079601546,-0.1487167398944885,-0.15019007105456728,-0.15923031732008097,-0.006828129544525996,0.03910810238989488,-0.07422531019331272,0.24989237407321593,-0.14900309494323838,0.09777779797891283,0.001551498972231541,0.23020877516766922,0.3683833407172311,0.22851251787278443,0.26039624470753986,0.003287387520392686,-0.2590400916392398,0.3424839497862653,-0.12761996717498852,-0.07041930351364319,0.05346019946811026,-0.08934917470438264,0.23170794955425505,0.06404226536079985,-0.006826819142976346,-0.18058957445502433,0.08826812982816465,-0.024713790571079624,0.0392871051694902,0.06558236809217596,0.3396746065848703,-0.11878463079926618,1
org.apache.ivy.core.cache.RepositoryCacheManager,27.0,124.0,702.0,17.663818359375,1.0,3.7037036418914795,64.25531768798828,28.899520874023438,289.0,0.8233618140220642,162.8333282470703,23.19563102722168,0.265180630284396,0.00706519685275716,14.0,14.0,28.0,0.3638858245174861,0.44850029271731173,-0.14608104920159523,-0.006616078177791914,-0.015369598033632333,0.1442669193648898,0.017333755057218736,0.18410813933614875,-0.1469984697886333,0.024728086690276485,-0.24127002086355276,0.012422686340401223,-0.18261326453860788,-0.05034360820834598,-0.20274900931981937,0.3261611915852817,0.22341776094664034,0.03129286266890482,-0.0292364603131968,-0.08420320309804925,-0.3167761613230338,0.15351073601239998,0.04583866573996239,0.16432839709103178,-0.09946415985208196,0.21735930043521653,-0.017799976816622452,-0.1962841200618273,-0.011777615596783336,0.038253296327107805,0.06283204460104619,-0.1116244748675222,1
org.apache.ivy.core.cache.ResolutionCacheManager,23.0,76.0,506.0,15.019762992858887,1.0,4.34782600402832,57.446807861328125,35.952064514160156,215.0,0.8498023748397827,5.916666507720947,1.1693017482757568,0.245376955903271,0.000318363584451458,22.0,1.0,23.0,0.2855840261962478,-0.13915154747567818,0.46893799936918434,-0.01901671755674498,-0.018783373840587394,0.08448318075932167,-0.14389621590493334,-0.13598344032874887,-0.18905103720080602,0.0493504079276778,-0.18650224928305492,-0.05475116495857962,0.10848848180005932,-0.193283465193538,0.2563007475562141,0.14839800423322705,-0.28263814581141977,-0.2484715387049637,0.28460932285268503,-0.13124986514464299,0.05869203570370011,0.1151140138373309,0.17454633852446513,0.13360416760094482,0.01676465216332799,0.06859424829706764,0.1240456331184916,-0.0779806748688338,-0.20825309590294197,-0.06725088789563877,0.09150771861409294,0.17817218236077767,0
org.apache.ivy.core.check.CheckEngine,15.0,53.0,210.0,25.238094329833984,1.0,6.666666507720947,64.04255676269531,34.557979583740234,78.5,0.7476190328598022,29.5,14.047618865966797,0.305580159433126,0.00150634653338938,1.0,14.0,15.0,0.4092320876430558,-0.033189310906659324,-0.20963971416236934,-0.3233713958854553,-0.14154025149209407,0.1174337632045662,-0.011596591894104034,-0.0680016188687894,-0.07906415188848558,0.27251680996757616,0.1841652262225253,0.045493512488178484,0.2762607023666986,0.055316398646531054,0.18632385590663275,0.12419275733596609,0.06937334632277994,0.25933627416605565,-0.045148337288416954,0.09879124380456394,0.19615019220109634,-0.21346464246080996,-0.1629315579573411,0.017864205092712464,0.07261736626223929,0.21774111833812013,-0.13315524898016062,0.03172835475991071,0.014645397570633824,0.1997590332455775,0.010666839987350917,0.3031105043683273,0
org.apache.ivy.core.check.CheckEngineSettings,4.0,5.0,12.0,41.66666793823242,1.0,25.0,35.10638427734375,73.00885009765625,3.5,0.5833333134651184,0.0,0.0,0.221153846153846,0.0,2.0,2.0,4.0,0.2365683876564253,-0.0042882109431892496,-0.03734030235034208,-0.09298525681954434,-0.014263537385071074,-0.17283271528419084,-0.10547772475586863,0.3180189914158276,-0.20198742074976975,0.2905132352549979,0.13286301877716847,0.11675925860343388,0.4057521952665318,-0.10933081276584429,0.2671745697717445,0.053831804205603934,-0.1784788167632767,-0.15792104824824996,-0.06987281787110272,0.013506781304961605,0.032536315936765266,-0.019044208064364618,-0.1776480376139553,0.03014769814916636,-0.21154139157692897,0.35290946046254007,0.1138203867868815,0.09437136184256696,0.23679893186830336,0.1421562634550327,0.14149751045797473,-0.032907783065731645,0
org.apache.ivy.core.deliver.DefaultPublishingDRResolver,6.0,11.0,30.0,36.66666793823242,1.0,16.66666603088379,38.085105895996094,64.62094116210938,9.5,0.6333333253860474,1.8333333730697632,6.111111164093018,0.253863134657836,9.70743548517653e-05,3.0,3.0,6.0,0.15695075223346805,-0.18624467282679966,0.009241785295555142,-0.19324665819361284,-0.04494713408727089,-0.013042643649879471,0.0578610272049444,0.1288028859254362,-0.18272009308992654,0.3226097035676502,0.12630324689383216,-0.16595821823336596,-0.32058364143318807,-0.0956610154166122,-0.017609135940080387,-0.1308967294130973,0.13465386383309547,0.10082849171820868,-0.07099604799287422,-0.06773319182060965,0.2748397090900322,0.022557471131771263,0.1366400307844861,0.21599963840666322,-0.16899944694966706,0.09963087259536696,-0.4709050940849681,0.008227294360517595,-0.026242314243845124,0.19698167888762425,-0.1415615256264391,-0.2676923404948639,0
org.apache.ivy.core.deliver.DeliverEngine,16.0,29.0,240.0,12.083333015441895,1.0,6.25,58.29787063598633,41.07946014404297,105.5,0.8791666626930237,104.5,43.54166793823242,0.283018867924528,0.0110893677391031,1.0,15.0,16.0,0.25421897507932956,-0.22779234542437088,-0.06109958929749839,-0.17186105700192494,0.06263860724816477,-0.018685330036169158,-0.17192882134367854,0.14003646097384564,-0.22601048370772825,0.3836147297468098,0.2401714009553064,0.12590255126455288,0.07108004763317691,-0.1333046320804553,-0.18462113105147335,-0.16222720567179197,-0.10776341437374519,0.31671952724446,-0.12984206273741472,-0.08904790888717894,0.09109710589092118,0.14208649576748938,0.06824002743515024,0.10680204735589585,-0.22574354436666924,-0.22332352058948335,-0.08380370089816758,-0.20476769848366058,-0.252862670753595,0.013939313402477359,-0.1708879734835222,-0.13185350013470984,0
org.apache.ivy.core.deliver.DeliverEngineSettings,4.0,4.0,12.0,33.33333206176758,1.0,25.0,36.38298034667969,67.32283782958984,4.0,0.6666666865348816,0.3333333432674408,2.777777671813965,0.210880195599022,2.47669618866766e-05,3.0,1.0,4.0,0.18291551982951904,-0.17524719870466285,0.007429396828982026,-0.28648908588142974,0.06522385839469245,-0.15783706502124636,-0.18864636391304831,0.36208373442390324,-0.2174424995176625,0.29036486804567535,0.13460660442061262,0.051600722103774616,0.2890290959703407,0.017768322378351686,0.29033465805046504,0.06471856010507034,-0.08203545471103886,-0.41920787101457696,0.09350756003985085,-0.009393254404251507,0.032695725024442124,0.2947491819125335,-0.09615716512619132,0.17888928520618605,-0.06386854687943325,0.009187592363893994,0.022122923386074682,-0.03794171692124472,0.02386521883760114,-0.0015073999626024662,0.007224287064251586,-0.07695667076849559,0
org.apache.ivy.core.deliver.DeliverOptions,8.0,13.0,56.0,23.214284896850586,1.0,12.5,38.72340393066406,61.904762268066406,21.5,0.7678571343421936,6.5,11.607142448425293,0.277108433734939,0.00258375565855921,5.0,3.0,8.0,0.15486673659420794,-0.1299687850003866,0.17390604020751058,-0.1452569606470892,0.006602984859303025,-0.0647083182386582,-0.12179653443849348,0.2076231193674695,-0.16068382181984772,0.13748714135343612,0.23292259017364617,0.006089099033911902,-0.2083905824917381,0.1541445827429849,0.21324367273861233,-0.06694306673358365,0.03274068122304986,-0.3954407064294607,0.05170140992675304,-0.07558777422542276,0.09346167956046021,0.1268564993249778,0.022048658148706223,0.28977394840292015,-0.3806538950087373,-0.044714724195947804,-0.308302523907031,0.09367969998311323,-0.06209516606135799,0.14861500464004782,-0.000639006237662267,-0.27870269842922657,0
org.apache.ivy.core.deliver.PublishingDependencyRevisionResolver,7.0,13.0,42.0,30.952381134033203,1.0,14.285714149475098,41.27659606933594,61.39240646362305,14.5,0.6904761791229248,1.5,3.5714285373687744,0.253303964757709,9.48060610623537e-05,5.0,2.0,7.0,0.18049105760979942,-0.16310640741274687,0.10390554077771368,-0.11277553877191467,-0.043226448371225565,-0.014123263805822133,-0.02209584580362742,0.13064617395732164,-0.15261517922944967,0.3105664479763065,0.20671623058423877,-0.1317531497948511,-0.3249898952963289,0.04050255351038606,0.1075595702977175,-0.08350885460235243,0.04914718851534387,-0.09541620303741652,-0.08217608977495401,-0.12041895785591196,0.25809470616267355,0.03355259756591401,0.07224064540925498,0.35337989287090416,-0.29351617974257654,0.05076919517633821,-0.4024510394018885,0.043751020238540064,-0.09285457437182042,0.12139154002332248,-0.061090685561983986,-0.28589617617227436,0
org.apache.ivy.core.event.EventManager,22.0,59.0,462.0,12.770563125610352,1.0,4.545454502105713,52.553192138671875,42.43986129760742,201.5,0.8722943663597107,117.86666870117188,25.512266159057617,0.212307692307692,0.0144942979989843,15.0,8.0,23.0,0.24270804003041646,0.00468639637520119,0.10755118810851731,-0.13506914861553176,0.1169599443932882,-0.15277491049716818,-0.05767445493164634,0.019041070497024415,0.6872697161280792,-0.02885055251185384,0.10230953522597132,0.08436558579965855,0.10353554945126375,-0.21445809890302867,0.284460861568055,0.26873326735901004,-0.03638762777544308,0.0842293325424873,-0.004788330565838111,-0.04247591305808203,0.08794861088028515,0.0749189552450154,0.05752069584805884,-0.18119516130994398,0.1698474336847561,0.06474708913525179,-0.19892226121778075,0.0672465112342484,0.013817704036477798,0.05368850953570677,0.028704543542678054,-0.17083099954554126,0
org.apache.ivy.core.event.FilteredIvyListener,4.0,5.0,12.0,41.66666793823242,1.0,25.0,13.191489219665527,66.66666412353516,3.5,0.5833333134651184,0.0,0.0,0.207956600361663,0.0,1.0,3.0,4.0,0.09216453709409218,-0.03582762046375274,0.10780615619676741,-0.17124977829074214,0.03667331155140172,-0.054730394285190595,-0.1301743730694592,0.07802448209951397,0.6736786606369417,-0.04202296835439874,0.09267540515502637,0.2538863976214921,0.02458155241267007,0.029968303886409805,-0.13540868346178087,0.07925743104856178,-0.03247964105621715,-0.005193311214961031,-0.20063727684867394,-0.15894811838301567,0.1296569308478291,0.1818184277540785,-0.012598924813416915,-0.08642313858418402,-0.002155265728100216,0.3951027643476786,0.03281417693067864,-0.14068347977474252,-0.18124928420771094,-0.00018383468015768312,-0.17980109964240742,0.02944301551124848,0
org.apache.ivy.core.event.IvyEvent,28.0,49.0,756.0,6.481481552124023,2.0,7.142857074737549,55.95744705200195,39.78820037841797,353.5,0.9351851940155029,177.5,23.478836059570312,0.261363636363636,0.0188613306077336,23.0,6.0,29.0,0.17734014727369704,-0.01904632345245424,0.09940786825884614,-0.08089224512001936,0.04745783662830111,-0.10550833026910703,-0.010987963947873472,0.005647248187281994,0.504440649473692,0.05961352058779117,0.001972469878747305,0.19936359102445053,-0.07276455714555397,-0.26918645126365415,0.2742422467547298,0.2884675331386308,-0.0308158951860324,0.021334395267980515,-0.10775013305240293,0.008741991134915974,0.24143030938012372,0.04915885873828657,-0.02049387284414582,0.006077492792588974,0.4675236508116897,0.0936246136402828,-0.16057190887347073,0.0714015556044218,0.10701743480031302,-0.03480023438067407,-0.009804973323792016,-0.2429903975837353,0
org.apache.ivy.core.event.IvyEventFilter,13.0,18.0,156.0,11.538461685180664,1.0,7.692307472229004,21.06382942199707,56.57143020629883,69.0,0.8846153616905212,38.5,24.679487228393555,0.212177121771217,0.00857395200741336,4.0,11.0,15.0,0.09690814186325089,-0.11536943921599344,0.06707210442452834,-0.10955284059357208,-0.028999713709260806,0.0028108586942622183,-0.21030560891280695,0.26535565485587087,0.603732708951264,-0.26815054172752073,-0.1537613989250951,-0.01841621116567159,0.06187353106927544,0.11445309227973569,-0.24149869539310914,0.14001331043505852,-0.06939506169880422,0.057677907551609425,-0.3116929070477112,0.005327299746170421,0.04932320859461421,-0.19395770507873314,-0.07020048441818882,-0.0429840825629763,-0.2506535180373831,0.046883937670137536,0.07334818023684703,-0.13960717779209994,-0.1715769699410174,0.03984823008623674,0.003749108835991404,-0.13033443854887242,0
org.apache.ivy.core.event.IvyListener,9.0,17.0,72.0,23.61111068725586,1.0,11.11111068725586,25.53191566467285,67.7966079711914,27.5,0.7638888955116272,4.166666507720947,5.787036895751953,0.207456404088995,0.00174795922364719,8.0,1.0,9.0,0.11234477633261397,-0.045775940368675924,0.1155985381878675,-0.2046160046833283,0.11888154101702256,-0.10669548727184827,-0.08692210494812648,0.1217723916383591,0.6626606515932401,-0.033724340009024814,0.19595926588097012,0.28454575462947,0.0008777280207586979,-0.04793093246535644,0.0006166354843241532,0.14503377898164643,-0.027424717398625037,0.07599445985730903,-0.048156331625494216,-0.14809788508137894,0.0918946557064393,0.17386851667208522,0.05989015302201512,-0.08908144308282491,0.08230395521587687,0.18326725587187692,-0.0022507218436197745,-0.1928888726576996,0.17305087870351898,0.02589034131917401,-0.28960132792499144,-0.16174451070402018,0
org.apache.ivy.core.event.download.DownloadEvent,6.0,5.0,30.0,16.66666603088379,1.0,16.66666603088379,41.0638313293457,69.92753601074219,12.5,0.8333333134651184,4.5,15.0,0.251641137855579,0.00109497525301295,3.0,3.0,6.0,0.16865295855482446,0.1822084257470362,-0.06429689868932428,-0.1061704505255302,-0.04626131721147235,-0.08773691967508726,-0.11326151562347338,0.02160801208564839,0.1429502116745422,0.14819276263910608,-0.13900866163475606,0.30785803915421817,-0.27208527996534554,-0.14143192865746343,-0.1957495439460553,-0.24582793411703266,-0.32775454338994203,-0.00959086064220835,-0.2678730425677076,-0.11232898939085323,0.03639839820745777,0.06740952737187521,0.08540237408583846,-0.408652741510764,-0.0890065232274061,0.1829967357384409,-0.2598323828326129,0.07369593230932663,0.01056036983145216,-0.00910816619681656,-0.13745385680513725,0.21224584080656955,0
org.apache.ivy.core.event.download.EndArtifactDownloadEvent,7.0,12.0,42.0,28.571428298950195,1.0,14.285714149475098,24.893617630004883,49.576271057128906,15.0,0.7142857313156128,1.5,3.5714285373687744,0.221864951768488,0.000533805138441528,1.0,6.0,7.0,0.23723514106861682,0.403108856348002,-0.12039827978694558,-0.08555446939021355,-0.1475675857792813,0.1118423002379251,-0.17429562116866393,-0.026276950806345366,-0.07095649563982769,-2.715179210172281e-05,-0.19680912436187736,0.18421568918617315,-0.19097179541713016,-0.1420049610676075,0.3190687281348579,0.24063548210516936,-0.049606456172311596,0.18751052797728926,0.09562305062536558,-0.3495053964080107,0.13051043090851425,0.030766467842313485,-0.3126921378701878,-0.08667652832823415,-0.12335705830035443,-0.009171735259174411,0.14966462284042586,0.19081463885609493,0.16997316835441878,-0.01184088748029736,0.06340039263031651,0.025574497114091193,0
org.apache.ivy.core.event.download.NeedArtifactEvent,4.0,4.0,12.0,33.33333206176758,1.0,25.0,23.82978630065918,69.13580322265625,4.0,0.6666666865348816,1.0,8.333333015441895,0.221153846153846,0.00053229294258192,1.0,3.0,4.0,0.19642814015911744,0.30787199229396744,-0.10112101084285768,-0.03338878316690489,-0.06962120994015332,-0.11315972360178847,-0.1638074760452023,0.0997096208075972,0.015647791304133792,0.06757054130230948,-0.10520073154500291,0.13881190843379348,-0.16097980517099733,-0.11266168282033684,0.44767793599926936,0.03015858397388195,-0.023208754085212304,0.236140632531715,-0.028782245818740983,-0.4094462346540836,0.14142171712010818,-0.12038294011857698,-0.42532119710711547,-0.07869880798313915,-0.033187095379826115,0.027204784902929997,0.08245737826116054,0.1496831641302941,0.15102479246045278,0.06911530332041195,0.11262270150578728,0.09005622305622925,0
org.apache.ivy.core.event.download.PrepareDownloadEvent,3.0,2.0,6.0,33.33333206176758,1.0,33.33333206176758,28.29787254333496,80.60606384277344,2.0,0.6666666865348816,0.0,0.0,0.208333333333333,0.0,1.0,2.0,3.0,0.22978287493616806,0.09933223599848633,-0.014876767395178457,-0.14755537943356534,-0.0364834330832281,-0.14949649861241468,-0.11795953545792319,-0.15510182856056298,0.33975693990567407,0.16950871004517618,-0.06406177254078715,0.2404836392836813,-0.012026500743130343,-0.1309447771563268,0.015136295006579748,0.017330905440827424,-0.16801200669415806,0.20168846676614532,-0.014191692782454862,-0.2517115951260176,0.09318154945781526,-0.30522758821365864,-0.260544267535617,-0.2768300567036796,-0.08888411273315458,0.10215222577288569,-0.16203925177356873,-0.19234387412081733,-0.16518871191101234,0.19669060313985287,-0.09274520991180629,0.3078425538933922,0
org.apache.ivy.core.event.download.StartArtifactDownloadEvent,5.0,7.0,20.0,35.0,1.0,20.0,24.042552947998047,59.788360595703125,6.5,0.6499999761581421,1.0,5.0,0.221437740693196,0.00053229294258192,1.0,4.0,5.0,0.21463543104955354,0.3535817881159558,-0.13683593590330564,-0.05288779496041594,-0.08596651068643937,0.032988854559543056,-0.15109214623409772,0.06759277922640616,-0.006400165644490607,0.044952660234170695,-0.13731614901859598,0.1598236350598713,-0.20319096649327104,-0.1560155852861405,0.4158853906237963,0.12322419880969919,-0.02287529155227836,0.15755152858205368,0.017652136903647555,-0.36716883465932015,0.12710308224960506,-0.07452500081368507,-0.4240194755636313,-0.08008281306428988,-0.06026691095340315,0.03151448708550807,0.1270608031634426,0.15645920253068699,0.21518698622619442,0.058154319093488296,0.05254610940624561,0.07209722616725435,0
org.apache.ivy.core.event.publish.EndArtifactPublishEvent,4.0,5.0,12.0,41.66666793823242,1.0,25.0,25.106382369995117,69.4117660522461,3.5,0.5833333134651184,1.0,8.333333015441895,0.220588235294117,0.000800707707662296,1.0,3.0,4.0,0.18019075420393085,0.14583233222468167,-0.06578648625885677,-0.050897499983537715,-0.016927163146789482,-0.005235855396693425,-0.17695587097680351,0.04110213604047937,0.07278916810828892,0.2232239884646561,-0.05246496527689525,0.20570210910348927,-0.13006968574932126,-0.19453911899802803,0.4850622954187879,-0.0397368007450491,-0.2605118265238582,0.13029000628789947,-0.10110265488785121,-0.18775852107382643,0.1279513795840111,-0.07525128230164188,-0.42162050816387503,0.0018467514066693546,0.0028947609855272905,-0.0493917927749052,-0.16952310678920218,0.14863588684101323,0.0628637098134032,-0.029646973421872717,0.3181771934026008,0.1572999774918161,0
org.apache.ivy.core.event.publish.PublishEvent,6.0,8.0,30.0,26.66666603088379,1.0,16.66666603088379,43.40425491333008,62.769229888916016,11.0,0.7333333492279053,2.6666667461395264,8.88888931274414,0.261363636363636,0.000729983502008634,2.0,4.0,6.0,0.19165684163381647,0.12019336703898195,-0.10662115117627183,-0.18135747269387695,-0.04136202695855838,-0.08009247518796707,-0.12026154325230826,0.07117650770791042,0.1677458496445467,0.23925751570931023,-0.06805821554836017,0.28010866224371606,-0.19844526502996615,-0.1379865798002022,0.17268792355516757,-0.2518422241712715,-0.32947378294680224,0.17601189509856782,-0.31917130614370637,-0.20304942294056336,0.030608641702163483,-0.048979581326367656,-0.17770991137381434,-0.14004787154732168,-0.27964115428300046,0.2619158001695939,-0.08223887253807662,0.07145851639356887,-0.051894339859860736,0.07640330079547526,-0.1430914510942557,0.17868707824395424,0
org.apache.ivy.core.event.publish.StartArtifactPublishEvent,4.0,5.0,12.0,41.66666793823242,1.0,25.0,25.106382369995117,69.4117660522461,3.5,0.5833333134651184,1.0,8.333333015441895,0.220588235294117,0.000800707707662296,1.0,3.0,4.0,0.18019075420393085,0.14583233222468167,-0.06578648625885677,-0.050897499983537715,-0.016927163146789482,-0.005235855396693425,-0.17695587097680351,0.04110213604047937,0.07278916810828892,0.2232239884646561,-0.05246496527689525,0.20570210910348927,-0.13006968574932126,-0.19453911899802803,0.4850622954187879,-0.0397368007450491,-0.2605118265238582,0.13029000628789947,-0.10110265488785121,-0.18775852107382643,0.1279513795840111,-0.07525128230164188,-0.42162050816387503,0.0018467514066693546,0.0028947609855272905,-0.0493917927749052,-0.16952310678920218,0.14863588684101323,0.0628637098134032,-0.029646973421872717,0.3181771934026008,0.1572999774918161,0
org.apache.ivy.core.event.resolve.EndResolveDependencyEvent,7.0,17.0,42.0,40.47618865966797,1.0,14.285714149475098,47.021278381347656,47.021278381347656,12.5,0.5952380895614624,1.0,2.3809523582458496,0.263157894736842,0.000800707707662296,1.0,6.0,7.0,0.31461350450475656,-0.004912374179303018,-0.28152389384122767,-0.2239026438962936,-0.2824830083251615,-0.046643493161399076,0.20053585755742687,-0.07724524578524296,-0.00815408669988374,0.08263219087560153,0.08424791075776204,-0.10635343471273262,-0.09840493722887854,-0.2953351955322954,0.23950644619832667,0.05468284827960547,0.07510281746069276,0.26385481275886435,-0.22792987546617227,-0.06603406604764209,0.0474011180570735,-0.10704025146758016,0.007804915097855944,0.20825203609397425,0.10558677405219836,0.35957729436730507,-0.30318833097824077,0.16255111174812684,0.07129360783063356,0.048765696781924626,-0.010363701675570545,0.07631359488562231,0
org.apache.ivy.core.event.resolve.EndResolveEvent,4.0,4.0,12.0,33.33333206176758,1.0,25.0,25.744680404663086,66.850830078125,4.0,0.6666666865348816,1.0,8.333333015441895,0.225785340314136,0.000800707707662296,1.0,3.0,4.0,0.24579213752556267,-0.09911761775179807,0.11461426514136683,-0.1355714666199182,-0.19992117528630216,-0.1480194028551547,-0.08021707208619293,-0.2765738083002591,-0.052863890322700696,0.15306448354367475,0.030225765801491337,-0.17354996325911326,0.12478881530216805,-0.07322631560379249,-0.13990648428914837,0.2640521069308905,0.0978889872206545,0.2087026807578302,0.17620686492757395,0.05039155701985107,0.46609472266169283,-0.19070026074540825,0.035429343810628684,-0.03471915581258002,0.3059898487154814,0.13710591590155066,-0.251102480707943,-0.1392384513799365,-0.03193995980348325,0.20417263006961733,0.00955515345405924,0.07407624313767244,0
org.apache.ivy.core.event.resolve.ResolveDependencyEvent,6.0,10.0,30.0,33.33333206176758,1.0,16.66666603088379,42.553192138671875,64.93506622314453,10.0,0.6666666865348816,2.0,6.666666507720947,0.261958997722095,4.28638790023356e-05,2.0,4.0,6.0,0.2479246654188699,0.004711924712651599,-0.15821745246432098,-0.0778284864895168,-0.1784209094949361,-0.10149018067117582,0.16343662741340073,0.01333323474899084,0.16102147313697085,0.061205804046674354,0.125918233291841,0.2168531903135254,-0.13910427657416985,-0.008379055429058124,0.16527598611523456,-0.2152947804240221,-0.17835425416482192,0.1540960565701889,-0.38146556257810416,-0.2007663304330707,0.07940521087919673,-0.027700719358307084,-0.03147302947717761,-0.005947835657787294,-0.14642776794118528,0.4528189944322495,-0.09399262242504432,0.07480516502604388,0.06226230974422719,0.13625928318827024,-0.3059448190405735,0.2152096871609082,0
org.apache.ivy.core.event.resolve.ResolveEvent,4.0,3.0,12.0,25.0,1.0,25.0,24.680850982666016,88.54962158203125,4.5,0.75,2.0,16.66666603088379,0.214819427148194,0.000107031062663236,2.0,2.0,4.0,0.14398638034220643,-0.10114799008505776,-0.025814029009650897,-0.1256882415850339,-0.06023054231995975,-0.035311872948397556,0.025026727191425745,-0.08852687329519894,0.17405584365066218,0.1781379242676845,0.0750193957021388,0.11847425652334663,-0.03250671426875872,0.06812914625677469,-0.20616924575192486,0.10307702163304765,-0.010451354563920816,0.0880929733116295,-0.06768469492122668,-0.09235357486211454,0.3119175184516041,0.016261212060608356,0.07163608112263488,-0.0442082883582228,-0.21668848326653664,0.6814440274621275,-0.08784197080098827,-0.17944529844441168,-0.12674450265808365,0.20256806501954697,-0.25392807222771796,-0.01662498633147562,0
org.apache.ivy.core.event.resolve.StartResolveDependencyEvent,5.0,9.0,20.0,45.0,1.0,20.0,42.978721618652344,59.58702087402344,5.5,0.550000011920929,1.0,5.0,0.259203606311044,0.000800707707662296,1.0,4.0,5.0,0.2731519760617284,-0.025456700836456576,-0.245545765865384,-0.15834182915644815,-0.2630510743185811,-0.1505292935361412,0.21066845354786184,-0.0625785177701359,0.05875303582349866,0.018075328128479486,0.05918010260757753,-0.03415120992321657,-0.12803562287838802,-0.3399494907584054,0.32503882913924675,-0.01116780099424592,-0.03752953682353268,0.24693898067909806,-0.34008676242004554,-0.1467343967683033,-0.11646679442840895,-0.08435293122364954,0.019892361015950676,0.21363008017893545,0.04574046047989411,0.22127466124106893,-0.21856055994372814,0.25778839350660715,0.0807287067561523,-0.01944434615662608,0.10605761217436696,0.057701831363714026,0
org.apache.ivy.core.event.resolve.StartResolveEvent,3.0,2.0,6.0,33.33333206176758,1.0,33.33333206176758,25.106382369995117,76.62337493896484,2.0,0.6666666865348816,1.0,16.66666603088379,0.212307692307692,0.000800707707662296,1.0,2.0,3.0,0.19926981417526193,-0.08689273044402822,-0.018981280964102874,-0.06438307739479855,-0.12200105958766816,-0.17252158585938865,0.03671798660898227,-0.17655234926440172,-0.009929103656152006,0.20228365777598373,0.10551221719561904,-0.13741973784090666,0.07755453680563286,-0.10189325987584111,-0.0528124764014323,0.2948555236359101,0.10815515234178207,0.15836814777069402,0.07391372251057096,0.05150590798886232,0.46011369995717255,-0.2524750673792537,0.01236181654844717,-0.004504847049884311,0.29855722427414744,0.2540454394365835,-0.36639508577120466,-0.14135231333383486,-0.07502607867199597,0.2165125230334364,0.004597255113682938,0.11386010254419673,0
org.apache.ivy.core.event.retrieve.EndRetrieveEvent,4.0,4.0,12.0,33.33333206176758,1.0,25.0,35.10638427734375,83.33333587646484,4.0,0.6666666865348816,1.0,8.333333015441895,0.248559077809798,0.000800707707662296,1.0,3.0,4.0,0.13666344214845444,-0.0818779696874944,0.1087789911066331,-0.18871602648366317,0.005687788101673486,-0.0829465412699965,-0.11966785614977943,-0.03142524630049112,0.09728851278876782,0.15875475593244928,-0.12640420121813273,-0.12113963090428584,-0.23820507128613022,-0.2229217251550605,0.1318445531570777,0.16533090045745505,0.11204182895399838,-0.12978204263042903,-0.45516790473688634,-0.05738329741361225,-0.029847776920691703,-0.25188520987159957,0.17141119743591926,-0.08881106381673075,0.13270410771704946,-0.22410478740468825,-0.17331464670856672,0.3929226445903931,0.07565816952007584,-0.05432052846156152,-0.28952704860706263,0.04737197777661411,0
org.apache.ivy.core.event.retrieve.RetrieveEvent,5.0,5.0,20.0,25.0,1.0,20.0,35.95744705200195,85.78680419921875,7.5,0.75,2.0,10.0,0.25219298245614,7.29963240491082e-05,2.0,3.0,5.0,0.11276561118402287,-0.07562124055904933,0.06341828727505582,-0.23107154855333153,-0.03204078249660511,-0.062029549634704806,-0.08907004269995418,0.022278451719104385,0.2546835611520814,0.13616750370082295,-0.04526844469124539,0.07936951294458704,-0.23181189881640404,0.02059069461572369,-0.14151279330090252,-0.08483240812312204,0.06889390389854896,-0.0008767289427311033,-0.5505579991787712,-0.17130607103219414,-0.02717059762036331,-0.09370807282235248,0.09813756131510899,-0.06335439200832926,-0.12248001718742124,0.07687849333259382,-0.03765989961525063,0.365608334252455,-0.05584568624311372,-0.0047886553111777894,-0.4114873649657787,0.22107465256701456,0
org.apache.ivy.core.event.retrieve.StartRetrieveEvent,4.0,4.0,12.0,33.33333206176758,1.0,25.0,35.10638427734375,83.33333587646484,4.0,0.6666666865348816,1.0,8.333333015441895,0.248559077809798,0.000800707707662296,1.0,3.0,4.0,0.13666344214845444,-0.0818779696874944,0.1087789911066331,-0.18871602648366317,0.005687788101673486,-0.0829465412699965,-0.11966785614977943,-0.03142524630049112,0.09728851278876782,0.15875475593244928,-0.12640420121813273,-0.12113963090428584,-0.23820507128613022,-0.2229217251550605,0.1318445531570777,0.16533090045745505,0.11204182895399838,-0.12978204263042903,-0.45516790473688634,-0.05738329741361225,-0.029847776920691703,-0.25188520987159957,0.17141119743591926,-0.08881106381673075,0.13270410771704946,-0.22410478740468825,-0.17331464670856672,0.3929226445903931,0.07565816952007584,-0.05432052846156152,-0.28952704860706263,0.04737197777661411,0
org.apache.ivy.core.install.InstallEngine,30.0,126.0,870.0,14.482758522033691,2.0,6.666666507720947,71.48936462402344,27.206478118896484,372.0,0.8551723957061768,112.74285888671875,12.958949089050293,0.319444444444444,0.00382705761099608,1.0,29.0,30.0,0.4468133000423566,-0.1214031818848224,-0.12799328071055494,-0.18090552549738098,-0.32131940660611463,0.21741144949988084,-0.17825398437980275,0.005168282200274828,0.061545513067773644,-0.25841493578485997,-0.05402455811304821,-0.1282165945967216,0.2256870765909906,0.10116098944559665,0.04884218295748933,-0.005998206128502306,-0.03688083233932028,0.48183127924367863,-0.004387576523061158,0.06748145961078593,0.15387604845993041,-0.04958643164139344,-0.056472936575089554,0.08613176793731664,0.0168642152327921,-0.18417689223403633,0.04240237818485939,0.0439750341193581,0.15660113192893058,0.22146541955062,0.08150851476691931,0.0876929955007375,0
org.apache.ivy.core.install.InstallEngineSettings,8.0,16.0,56.0,28.571428298950195,1.0,12.5,43.191490173339844,53.421051025390625,20.0,0.7142857313156128,3.3333332538604736,5.952381134033203,0.249277456647398,0.000197745087531055,3.0,5.0,8.0,0.26853059800049534,-0.13243775071134836,-0.004396345776238604,-0.18308079033989855,-0.08870465119447249,-0.14805877005796014,-0.24574172818689455,0.3394801578148969,-0.1014629325278569,-0.025914778568420106,0.022012270664782195,-0.010538805607322555,0.38506287030040853,0.07624631660617344,0.37472083661380073,0.03916135302587164,-0.23386185994160813,-0.11872753954076408,0.09632106598699794,0.020836989278400116,-0.013508887500611733,0.14411130838572256,0.015708903989939422,0.0736560922246093,-0.15982361859121358,0.2510639511518502,0.17375329620973604,-0.0368039515525998,0.1517774505532878,0.0968535880038818,0.32505298313928604,0.02167631205391608,0
org.apache.ivy.core.install.InstallOptions,6.0,10.0,30.0,33.33333206176758,1.0,16.66666603088379,24.893617630004883,58.793968200683594,10.0,0.6666666865348816,2.0,6.666666507720947,0.143272425249169,0.000625760140490066,4.0,2.0,6.0,0.19468017718328998,-0.10111290869515994,0.3202475173053674,-0.12330916956959526,-0.16401121717095588,-0.10130421648635277,-0.3512125989824528,0.08612377447146483,0.22728350897024208,-0.11004321136040844,0.16398768653361137,-0.2379197115885206,-0.07540142294975999,0.244231195162849,-0.012881789256848217,0.04749790342517534,0.13570017894069383,-0.429495618851927,-0.1244837705435474,-0.0815983931634064,-0.07143091588845533,0.0022602037553154054,-0.037170468652932546,0.23536384016652756,-0.26875061831664915,0.10130163745782547,-0.010273833268976428,-0.071053328529737,0.006863463301465339,0.008515137424494562,0.1329934233925223,0.24246724617606283,0
org.apache.ivy.core.module.descriptor.AbstractArtifact,5.0,9.0,20.0,45.0,1.0,20.0,38.085105895996094,64.62094116210938,5.5,0.550000011920929,0.0,0.0,0.247311827956989,0.0,2.0,3.0,5.0,0.20733676902157044,-0.05185898372062372,-0.21449196338985496,-0.10252631335732554,0.01765536989251479,0.08520560841126858,-0.03765817964911526,-0.12961643323951572,0.06968611040773641,0.2815621929472976,-0.40359896957557273,0.13047196921585438,-0.34731641566561827,0.032506215452361126,0.18680289207917608,-0.3270548718417162,-0.12964079532753292,-0.10165623665174041,-0.14120085394316612,-0.059393029316779936,-0.15348681895443564,-0.051000228191768894,-0.3041712847913523,0.07405798549640351,-0.20012227707843486,-0.20008589765260684,-0.13520410727319948,0.05941553601242748,0.05033910740387556,-0.030789697954008502,-0.25068345189566354,0.03783596049464944,0
org.apache.ivy.core.module.descriptor.AbstractIncludeExcludeRule,7.0,5.0,42.0,11.904762268066406,3.0,42.85714340209961,17.021276473999023,62.99212646484375,18.5,0.8809523582458496,5.0,11.904762268066406,0.777777777777777,2.2682937894116e-05,2.0,5.0,7.0,0.16128638196557762,-0.320927834073058,-0.2796883025475886,0.0958216198757226,-0.09305731931237589,0.059904358904476235,-0.17231532893546364,-0.0032369517881337927,0.13697510635003826,-0.3044456490035395,-0.11377226150408662,-0.07477859331504873,-0.05135407760822653,0.18300743510544468,0.2822481829574297,-0.19637207347877494,0.05122736717939248,0.05765269669182643,0.09623712880687155,-0.10568788237888385,-0.10856667528834263,0.1839453728459904,-0.011403867200436676,-0.28334182171638816,0.17076908689087558,-0.1797667757789972,-0.007101742031762543,-0.3168275063272592,-0.055344830948208225,-0.21426546560500284,0.17336382469407388,-0.2528681062567156,0
org.apache.ivy.core.module.descriptor.Artifact,83.0,373.0,6806.0,5.4804582595825195,4.0,4.819277286529541,68.0851058959961,18.8568058013916,3216.5,0.9451954364776611,138.4166717529297,2.0337448120117188,0.246781115879828,0.0334033776788771,80.0,3.0,83.0,0.39034712950078404,0.2454880450111559,0.1068015340424784,0.28433834564572097,0.08674248817031588,-0.05548953954433365,-0.1633633816239386,-0.160437829681281,0.05370126301105834,0.17275614144359852,-0.2633950400743512,0.2194693387157646,-0.22893829436880925,-0.012109083200043993,-0.15520388053758352,-0.08601294681192276,-0.12809092832662772,-0.12086412146802936,-0.20030470496072475,0.31969386723204557,-0.0065523664927511615,0.3232640854576511,-0.020338281663332906,0.021561047297855563,-0.13258973106174685,-0.007853936147043343,-0.11696032082033224,0.04782999678377512,0.15093238151998983,-0.16714576594187033,0.11234685198336415,-0.1484877077245982,0
org.apache.ivy.core.module.descriptor.Configuration,16.0,41.0,240.0,17.08333396911621,1.0,6.25,37.65957260131836,36.04888153076172,99.5,0.8291666507720947,17.66666603088379,7.361111164093018,0.210237659963436,0.0020777053036745,14.0,3.0,17.0,0.3540630519487474,-0.36670026899214253,-0.11742987691374512,0.37681152578030447,-0.0526190100896147,-0.14659884678802726,-0.07907543667520321,-0.16082621283180654,-0.011425662595927057,0.10184028937245018,0.22362884997231286,-0.08035824565551415,0.14943649822877134,-0.4227080331046467,-0.2924864881525349,0.11061804283289625,0.03188776225634157,0.006398273023098733,0.019520257670808547,0.09055758077502651,-0.07936026432656765,-0.13673168423317442,0.03454896526104837,0.0024305550429310607,-0.13609596240412683,0.23328208488721022,-0.004901254403352771,0.11387900238025588,0.10897904752694476,0.14766160210222273,0.053172340246327436,-0.06303050771257106,0
org.apache.ivy.core.module.descriptor.ConfigurationAware,3.0,1.0,6.0,16.66666603088379,2.0,66.66666412353516,9.14893627166748,81.13207244873047,2.5,0.8333333134651184,0.0,0.0,0.0,0.0,3.0,0.0,3.0,0.13166015760363303,-0.30654351213550535,-0.2578005014262332,0.25594112873620056,0.0552440380048993,-0.08194138761567504,-0.16263891325473248,-0.015036573597340555,0.007038009955458577,-0.05006879064926492,0.12073379612506635,-0.011949238963426149,0.012832696266251694,-0.3808778094340735,-0.13290831991356217,-0.04023788507783072,-0.0037159445663571744,-0.04009758210320994,-0.02091734180605779,-0.2128358963018337,-0.2055402767525431,0.3146977130058119,-0.1774832999729844,0.06581531460139493,-0.2625061652563384,-0.18694260424008757,0.20469001670148937,-0.013865000196257122,-0.04200762237726862,-0.3398931772413903,0.10477183526387922,0.19951350387554434,0
org.apache.ivy.core.module.descriptor.DefaultArtifact,21.0,58.0,420.0,13.809523582458496,1.0,4.761904716491699,58.9361686706543,38.36565017700195,181.0,0.8619047403335571,23.83333396911621,5.67460298538208,0.247844827586206,0.00125186667813578,17.0,4.0,21.0,0.33171928793958,-0.05914377495793783,-0.14015365843329358,0.25956554271812277,0.20824986337365464,-0.2963922807744885,-0.1261739494811276,-0.10104410429531488,0.03015186187928348,0.26527786128166003,-0.2110207597200944,-0.0074158017401431495,-0.19336053011095775,-0.2938940628809062,-0.12968202025343456,-0.23104929113477812,-0.07628860465040006,0.003924813199608526,-0.08719543103420345,0.31807339836283194,-0.07796400212219459,-0.039506918531443266,0.03143448634400989,-0.08001553755933942,0.025365866005679017,-0.29278396000839424,-0.16651725449691432,0.03655499315231259,-0.13795688277416088,-0.1539716375286419,0.21055361147201965,0.011409835103683387,0
org.apache.ivy.core.module.descriptor.DefaultDependencyArtifactDescriptor,7.0,7.0,42.0,16.66666603088379,3.0,42.85714340209961,24.680850982666016,63.736263275146484,17.5,0.8333333134651184,5.0,11.904762268066406,0.203180212014134,2.00365951398025e-05,2.0,5.0,7.0,0.17684232407508796,-0.25404606750789366,-0.3199531789526989,0.1538841536462266,0.0078008008192426235,-0.006363408267508342,0.0028800732538145136,-0.07190326163840167,0.035093854231960105,-0.08172875199674999,0.09789821227265495,0.07363364858681007,-0.0710010612077464,-0.050391396999926785,-0.024098641778066407,0.01861367728365593,0.18526243859753938,0.008289995023634337,-0.016868441118940317,-0.08451124755571571,-0.176398104889375,0.27900389786318525,-0.01562459660729865,-0.20824739919942678,0.09174218853162606,0.015929696032443555,-0.21701251049554812,-0.13745992259364048,-0.34434854818741456,-0.21665874808129296,0.3652571059178687,0.4164788142131175,0
org.apache.ivy.core.module.descriptor.DefaultDependencyDescriptor,31.0,122.0,930.0,13.118279457092285,2.0,6.451612949371338,56.38298034667969,30.4247989654541,404.0,0.8688172101974487,143.18333435058594,15.39605712890625,0.268273716951788,0.00972625566114888,17.0,15.0,32.0,0.3477345282244255,-0.3526761910610841,-0.3267411672962992,0.2980779643615975,-0.057152427420853615,-0.04876849819751175,-0.13871536062273956,-0.018653401635086473,0.020314811102543615,-0.18817630220074527,0.02438203835130061,0.02041287383869132,-0.05192743861334608,0.1873959259752946,0.006795235573697793,-0.05092046831042178,-0.046958302013945255,-0.19156560220081262,0.10146219738703073,-0.029600783959276972,0.08958691239867037,-0.019888963709514672,0.400248066350305,-0.18633224763236628,0.2945586732630202,-0.08455021016951975,-0.17359123920331426,0.007929955283211124,-0.15802836561772815,0.07296854398611993,0.12431361486500642,0.18246609576387907,1
org.apache.ivy.core.module.descriptor.DefaultExcludeRule,6.0,10.0,30.0,33.33333206176758,1.0,16.66666603088379,17.23404312133789,55.47945022583008,10.0,0.6666666865348816,2.0,6.666666507720947,0.642857142857142,0.000895203856240975,2.0,4.0,6.0,0.1956974007510138,-0.41621015007752943,-0.3536654515365817,0.3174861547271208,-0.014845280083298091,-0.026238763067784308,-0.23653474170539243,0.023293565487489617,0.12089485196925381,-0.2680544321045004,-0.027598963970412352,-0.07051369349228329,-0.039430832043559454,-0.08569571566323832,0.028263095121299705,-0.12761368291703426,-0.01313747615905534,-0.022316862989427092,0.05911373481532118,-0.06419655531404354,-0.09998729095452284,0.20089219464968197,-0.041352669234487896,-0.3291266618835238,-0.075960240312116,-0.0795738777768546,0.0328009220821314,-0.12341687907748611,-0.07581157719269971,-0.2851394909011666,0.31558645551585124,0.05724898670075218,0
org.apache.ivy.core.module.descriptor.DefaultIncludeRule,5.0,7.0,20.0,35.0,1.0,20.0,14.468085289001465,64.15093994140625,6.5,0.6499999761581421,1.0,5.0,0.642857142857142,0.000719821321820086,1.0,4.0,5.0,0.18321528224485573,-0.4041214837322261,-0.33840843519825037,0.2673421234239103,-0.04876428179739104,-0.023816656385681274,-0.20141319198006402,0.05015252894770113,0.1483923210079114,-0.34492128609772105,-0.039426924484971426,-0.04849365747666979,0.007308611449274579,-0.046226047219928575,0.11026366868622448,-0.14144864767367843,-0.05985901369134452,0.009707270555077556,0.036006683482123054,-0.16665735323510253,-0.14914843574453032,0.2704848275126429,-0.03973964429038832,-0.16586088020750905,-0.06647738272622522,-0.18409109191655865,0.020455206981267064,-0.23929085449223994,-0.10678167360708035,-0.23726051841505197,0.2660967750063045,-0.010511267200927148,0
org.apache.ivy.core.module.descriptor.DefaultModuleDescriptor,40.0,211.0,1560.0,13.525641441345215,1.0,2.5,70.42552947998047,25.738725662231445,674.5,0.8647435903549194,184.5500030517578,11.83012866973877,0.287979966611018,0.00489658743111371,13.0,30.0,43.0,0.41143658523398435,-0.3838648850782735,-0.347621941948173,0.31123746572850275,0.014966675155168892,0.14727915443393,-0.10504446689606713,-0.05231381073130517,0.025599188465417887,-0.1486278204555857,-0.14084850553677436,0.04019597637504141,-0.0476243402138322,0.434433709264567,0.1180681233458838,1.727393935931222e-06,-0.03740168560449905,-0.13602093034186571,0.08373107376771868,-0.09567486475313328,0.014338753545793918,-0.10217409810090182,0.23403345123911373,-0.14687886829534905,0.08032700618186948,-0.07810286236107432,0.023750813451169164,0.009029559025006283,0.05922799589686194,0.19284654767356024,0.02212403447539739,0.0582290179551193,1
org.apache.ivy.core.module.descriptor.DependencyArtifactDescriptor,11.0,24.0,110.0,21.81818199157715,1.0,9.090909004211426,34.46808624267578,42.40837860107422,43.0,0.7818182110786438,3.8333332538604736,3.4848484992980957,0.201283547257876,2.1582995429568e-05,10.0,2.0,12.0,0.26425979899572266,-0.29883029185763577,-0.375166566725538,0.2871532111354636,-0.056292294575858624,-0.16048304796380652,-0.0448697989719712,-0.13755390660980518,0.02933913733665531,-0.18206624063162155,0.1282718978756223,-0.14242313324300127,-0.07963401893990617,-0.41568045409194354,-0.20148320623284305,0.05585684872650669,0.2170892009925999,0.13649460165356056,-0.02020262558170379,-0.0929705403730243,-0.18027137908006508,0.1730121957144232,-0.17651217786158233,0.1033201473505602,-0.16470864095079035,0.1050808595198348,0.18570271474244815,0.07552077818838147,0.04214948046670775,-0.038060906717036165,0.11609968643907358,-0.00843548172954165,0
org.apache.ivy.core.module.descriptor.DependencyDescriptor,62.0,302.0,3782.0,7.985193252563477,1.0,1.6129032373428345,68.51063537597656,21.087099075317383,1740.0,0.9201480746269226,329.3761901855469,8.7090482711792,0.251641137855579,0.0136907970531403,55.0,8.0,63.0,0.45260329097971347,-0.15371967412093623,-0.09541660423245311,0.5226487613479228,-0.12268520264741684,-0.2927465636843,0.248336572243311,-0.13506057343179656,0.01800163654035244,-0.09737553260411387,0.19471145707952187,0.14323858592990757,-0.07561216200415999,0.22640107189057973,0.018674284493756903,-0.10278460552046181,-0.0012664170721752963,-0.1957275944748175,-0.0407686875119761,-0.05175635340595243,0.037591282255582094,-0.08968361146571645,-0.03230411687860536,-0.15636296058729854,0.04626009544498229,-0.02036733152725695,-0.028376284575969725,0.010098758643586649,0.09066366124806842,0.1306250748928806,0.03616711997932553,-0.25458224491242354,0
org.apache.ivy.core.module.descriptor.DependencyDescriptorMediator,7.0,17.0,42.0,40.47618865966797,1.0,14.285714149475098,30.851064682006836,46.925567626953125,12.5,0.5952380895614624,0.0,0.0,0.201518691588785,0.0,6.0,1.0,7.0,0.24938687399598292,-0.3648483764712526,-0.387614594587302,0.2157690684027959,-0.02687967468698427,-0.059826322681966006,-0.06635852552478073,-0.11092016832564441,-0.05290501631418765,-0.004685619421687404,0.13378691111408397,-0.15124701308475585,-0.13079368551421117,-0.34968322065055163,-0.23430552938916552,0.06428993554632477,0.22389701317905,0.0935921474936747,-0.012694615986274804,0.010789630202669766,0.16587013056883768,0.19373578161722585,-0.1568568759829192,-0.06659039583573233,-0.09913234100649503,0.2833080185496697,0.02688028211753478,0.001966539933779149,-0.12437799321486856,-0.09789307151087316,0.156383431377366,0.22647603766306793,0
org.apache.ivy.core.module.descriptor.ExcludeRule,11.0,37.0,110.0,33.6363639831543,1.0,9.090909004211426,34.25531768798828,40.45226287841797,36.5,0.6636363863945007,4.25,3.8636362552642822,0.714285714285714,0.000150620480952105,8.0,3.0,11.0,0.2631366216160148,-0.43539160128561183,-0.44067924482374565,0.26188803722040227,-0.06558607915929195,-0.028361225101544835,-0.14972867742910478,-0.05513050028659037,0.03970390268974851,-0.21836422581753337,0.054105670659828325,-0.17534434806381743,-0.13605488214278408,-0.26563987045209464,-0.1128669414194757,0.004555318744549004,0.16293614913276666,0.16955245648642978,0.03644401511728668,-0.04012509573875464,0.08376187440910701,0.252382070679413,-0.10888752532868798,-0.09461782678597151,-0.15211942891224606,0.17228595009421763,0.15609616751371855,-0.04425483349768058,0.023759992246522116,-0.10025241933786884,0.1441875835849017,-0.05262701536659143,0
org.apache.ivy.core.module.descriptor.IncludeRule,10.0,22.0,90.0,24.44444465637207,1.0,10.0,30.0,47.79661178588867,34.0,0.7555555701255798,4.833333492279053,5.370370388031006,0.714285714285714,8.11407349423953e-05,7.0,3.0,10.0,0.24788401460910625,-0.3921555109182697,-0.39790043694649857,0.23822617333997267,-0.13896364959552537,-0.048822546172604155,-0.05050773453062849,-0.09785424450050507,0.12764263639783752,-0.34283938775331235,0.04437259447976658,-0.10677139378176624,-0.0689970794167253,-0.28359916008734903,-0.0030964882149155195,-0.021533363003372576,0.13088333623842444,0.19279017354794692,-0.05096594587938812,-0.12491802777647638,-0.16872492624928853,0.2528955917115654,-0.07780474446928176,0.04992487343950061,-0.16783084825301606,0.00972589440501387,0.12761602137937594,-0.06592349865802394,0.056088501967652374,-0.09913681471593146,0.18137708582979334,-0.18647002521916736,0
org.apache.ivy.core.module.descriptor.License,8.0,13.0,56.0,23.214284896850586,1.0,12.5,30.63829803466797,47.6821174621582,21.5,0.7678571343421936,0.0,0.0,0.0,0.0,8.0,0.0,8.0,0.2495206511871856,-0.2652190438509186,-0.2119111445487201,0.28847726832990855,0.039100343649060294,-0.16826050253613822,-0.13435404208403762,-0.15887507278129212,-0.06725645871693472,0.077115532683658,0.09336342272747296,-0.0716748281538568,-0.03438966324779701,-0.3905620852384143,-0.33555477117710036,-0.0039024366382561164,0.16857296041869013,0.03782676730342936,0.02650064060084028,0.24179482100029176,0.1228992436849093,0.08331864262805139,-0.13366954418989077,-0.14406891000558544,0.0013680740850082122,0.2754734589475516,0.04432943455213636,0.09629048657824865,-0.02659190833945728,-0.2640878479653472,0.04745680394230406,0.25684969302604965,0
org.apache.ivy.core.module.descriptor.MDArtifact,10.0,26.0,90.0,28.88888931274414,1.0,10.0,52.34042739868164,44.40433120727539,32.0,0.7111111283302307,7.0,7.777777671813965,0.254612546125461,0.00049364921926506,5.0,5.0,10.0,0.2766178900540093,-0.22910883364925935,-0.2527392771988415,0.06032481105806667,-0.025402213495813827,-0.14032081216409728,-0.0903787464976593,-0.12563123533653367,0.0368924025965257,0.2211007954393627,-0.1285860731028782,-0.05679554603288145,-0.2046043966327497,-0.5107002030205815,-0.06722069783796074,-0.10135746812193894,-0.037733334368228275,0.024308136892615104,-0.1389070338619383,0.03747115797941699,-0.08123718072788308,0.099023284962563,-0.19516026942431827,0.10828303733774465,-0.024928213202390685,-0.06976946606367881,-0.3125085221332195,0.1381315274944909,-0.1086355936913594,-0.2403631208325775,0.25979859484486856,0.1532256284436697,0
org.apache.ivy.core.module.descriptor.ModuleDescriptor,96.0,541.0,9120.0,5.9320173263549805,1.0,1.0416666269302368,77.02127838134766,17.13204002380371,4289.5,0.9406798481941223,1464.2684326171875,16.055574417114258,0.264976958525345,0.0257440934975668,83.0,16.0,99.0,0.42495396412813635,-0.2260926378947826,0.16233098796440953,0.3359073735860371,-0.02474879934620441,0.08083067068624895,0.13466809267430474,-0.12378607991969452,-0.09476049654897285,0.1967157078652398,0.03867495531720201,0.04143568072302127,-0.053815720862189935,0.33013432024727063,-0.08822266127944578,0.10240769872791844,0.02524249031680408,-0.1302880290009033,-0.005901012714395695,0.026141526595454077,0.08682287158350867,-0.12144763873051839,0.1416356058496655,-0.13771132560760552,-0.19681191459781341,0.17046988515612774,-0.025180598747842627,-0.004712086358107311,0.25770844027224543,0.25964880750825053,-0.037928842687105904,-0.3522751940141164,0
org.apache.ivy.core.module.descriptor.OverrideDependencyDescriptorMediator,6.0,11.0,30.0,36.66666793823242,1.0,16.66666603088379,41.27659606933594,60.061920166015625,9.5,0.6333333253860474,0.0,0.0,0.25,0.0,3.0,3.0,6.0,0.2625257926273989,-0.3866301195932425,-0.42899054070380466,0.17184737658752308,-0.033887759769325655,-0.08107870005344928,-0.03673419245552597,-0.10124017456529329,-0.040385098959072524,0.01839341655258227,0.10043307841186196,-0.11021451475140792,-0.19456825746706516,-0.34627800108011964,-0.1438042610771999,-0.03064408156815479,0.17508723223870062,0.050608712761046074,-0.11999708080412001,-0.015568362707759647,-0.019899587091986276,0.13735659893619895,-0.04027505548339633,-0.19423784613888387,-0.14843158103038426,0.20768415724035943,0.03715355871729538,0.11516032846336348,-0.10883427072777732,-0.226929500229437,0.1463444596752858,0.27218983970600347,0
org.apache.ivy.core.module.id.ArtifactId,18.0,67.0,306.0,21.895423889160156,1.0,5.55555534362793,39.1489372253418,33.51548385620117,119.5,0.7810457348823547,3.0,0.9803921580314636,1.0,1.36097627364696e-05,17.0,1.0,18.0,0.33362107572027366,-0.4390323733295369,-0.43149565680154034,0.31893190254393583,-0.15276114323307804,-0.044574639080791886,-0.11542381707089579,-0.14364800505149153,0.08535825639705685,-0.3025314766863279,-0.021213591339265418,-0.11940741178642571,-0.16404575946945651,-0.16862132836639554,-0.09867554808921045,-0.1950978927387389,0.03425793937381748,0.011871130083416247,0.055206664845962046,-0.1155556697121407,-0.10254002245080165,0.26632151425296097,0.02859116774212712,0.028371152497260462,0.03932047511707649,-0.03557860260825863,-0.03583707168892797,-0.09481749501577005,0.03428032057031116,-0.11302915391360878,-0.055194919076020706,0.03513306947649956,0
org.apache.ivy.core.module.id.ArtifactRevisionId,14.0,36.0,182.0,19.78022003173828,1.0,7.142857074737549,51.70212936401367,45.335819244384766,73.0,0.8021978139877319,16.0,8.79120922088623,0.246604717655468,0.000435142528891111,10.0,4.0,14.0,0.2899846636921317,-0.10480710429311718,-0.11169290837101856,0.06037232688811806,-0.012726846947479767,-0.06523559262897115,-0.03823514720544212,-0.16586500444849553,0.11292941070510228,0.12023166132136233,-0.34995908374868273,0.043787143973613225,-0.28235217408341495,-0.04050362555765608,0.3505487697921759,-0.23546939306271633,0.002746050854315382,-0.10108608935057198,-0.07741915117594214,-0.04026611138977258,-0.32769453934200493,-0.06798044395358725,-0.23764648631403384,0.07685533263920462,0.03571279752924245,-0.2203512338293119,-0.3195720309528006,-0.07116090459275087,0.022869291029439142,-0.19287384173722166,-0.09176916851015816,-0.22074581037377547,0
org.apache.ivy.core.module.id.ModuleId,57.0,284.0,3192.0,8.89724349975586,1.0,1.7543859481811523,72.55319213867188,21.664548873901367,1454.0,0.9110275506973267,0.0,0.0,0.0,0.0,57.0,0.0,57.0,0.4824796553627788,-0.22319961813821004,0.3582638332956602,0.3583687916682018,-0.09296544035221921,0.09305939548277006,-0.00676093482681039,-0.15375639360451265,0.01558408576562223,-0.08323418514288142,0.02640145118283216,-0.18295596524125976,-0.1164046603196254,-0.10402286191599824,-0.08499979490561493,-0.17736376762264347,-0.06415298006257229,-0.03453184517422872,0.2140617553642997,-0.07019810242714444,-0.12795011134701476,0.04852754903832745,0.026271638526945217,0.19274329210359525,-0.08316175733470421,0.09923055188927138,0.17353221170654864,-0.03186224420716769,0.06534804070222475,-0.2656813290409467,-0.2795227632493998,0.04152931853038617,0
org.apache.ivy.core.module.id.ModuleRevisionId,149.0,815.0,22052.0,3.695809841156006,3.0,2.013422727584839,82.97872161865234,14.391143798828125,10618.5,0.9630419015884399,7574.2548828125,34.34724807739258,0.324553151458137,0.22407812542461,146.0,5.0,151.0,0.35810863990937136,-0.1684605678104004,0.4031355777777111,0.3754961867305368,0.0141604106654559,0.17983937000766786,0.3085083634553767,0.006298790466126315,0.007841123363354427,0.10631715717993406,-0.15297378731698993,0.03300594227327534,-0.2249156678843423,0.13819853571601076,-0.0443301349712747,-0.2492049375610704,-0.08552985696672763,-0.05828719310380026,-0.13253880451875458,-0.055808190437655315,0.10629026817583749,0.057445485837835666,-0.01138484520084051,0.16173920737125425,0.09282166198196752,-0.09996783891767448,0.04578303937398067,0.17914735982905325,0.2139280064085742,0.08797147736587096,-0.19392234962142255,0.1621864156078602,1
org.apache.ivy.core.module.id.ModuleRules,12.0,31.0,132.0,23.484848022460938,1.0,8.333333015441895,64.89361572265625,43.44729232788086,50.5,0.7651515007019043,13.75,10.416666984558105,0.248917748917748,0.00172175613589226,5.0,7.0,12.0,0.343586595326121,-0.3431127412625092,-0.24361130545342333,-0.19754835869033247,0.006119575072585772,-0.1694365838708039,-0.1254382351081242,0.22826022192099008,0.0662493823189517,-0.1393653936229485,-0.18347538305070335,-0.21881829018909085,-0.18535291336376078,-0.031891584059132984,-0.35528193557417453,0.18877342419930945,0.20146033364374477,0.026867347655434786,0.06340086525306794,-0.07245202518339995,0.0385595754976045,-0.06583104056624464,0.13182481512577046,0.05866329086243985,0.12280378918809014,0.1835438018225358,-0.1389848644001327,-0.09376306279441826,-0.1416921482277573,0.02658053188121349,0.20199135312823926,0.22582888938283252,0
org.apache.ivy.core.module.status.Status,1.0,0.0,0.0,0.0,1.0,100.0,2.9787232875823975,100.0,0.0,0.0,0.0,0.0,0.0,0.0,1.0,0.0,1.0,0.12451692491742306,-0.1391697384671316,-0.06031010111841735,-0.04767562440095377,0.04757852633381888,0.11187140950289999,0.00808162957893381,0.2791326301825087,-0.10488753643940645,0.04616555106973706,0.025164014627543484,0.17677948336837573,0.2588504409634521,0.17318381767444127,0.3281776164797974,0.09526376956309406,-0.02203707353024347,0.15230568245701173,-0.13138812190120086,0.14737739992302698,0.12099896755580003,0.03469779885609864,0.229679256014311,-0.04391262045661522,0.020948155473468563,-0.16790471537112037,0.010668759552686985,-0.22320354235857923,0.34679055691312655,0.2213351800390611,0.46826178928563567,-0.08597278082157316,0
org.apache.ivy.core.module.status.StatusManager,14.0,23.0,182.0,12.637362480163574,2.0,14.285714149475098,56.59574508666992,51.953125,79.5,0.8736263513565063,58.5,32.14285659790039,0.298184961106309,0.00783110055250634,11.0,4.0,15.0,0.2561789924907362,-0.20035848924987992,0.0027929443893084395,0.07218417967722078,0.10523432161393416,-0.08740719006475631,-0.012957098544374672,0.32018044158484466,-0.11856755919041573,0.03908779769350352,0.15190603777512976,0.09359855852490044,0.22048368361840442,-0.282465448666341,-0.21263124889189258,0.015344043730961151,-0.19481360431309253,-0.15068435103968608,0.13198981934764004,-0.21343678037300623,-0.06021515340237229,-0.0006716211576914673,-0.01471639923623448,0.25161320919250224,-0.1698976605541494,0.15108964596476115,0.20920950321470594,0.0035449071412265117,-0.08233881427286031,0.39889986186842435,0.2893328886982959,0.10231164857294693,0
