name,vector_0,vector_1,vector_2,vector_3,vector_4,vector_5,vector_6,vector_7,vector_8,vector_9,vector_10,vector_11,vector_12,vector_13,vector_14,vector_15,vector_16,vector_17,vector_18,vector_19,vector_20,vector_21,vector_22,vector_23,vector_24,vector_25,vector_26,vector_27,vector_28,vector_29,vector_30,vector_31,bug
org.apache.velocity.Template,0.1270913178265647,0.31757704268484277,0.37741770270579944,-0.06661113723114218,-0.21896767735923653,-0.1905905734495731,-0.12240528292915774,-0.33826386836324596,-0.14214104540394454,-0.019215998548003186,0.13384652060351024,-0.1697509927073583,0.03661554759257523,0.09710478516136191,-0.04967411807621886,0.1289775740899919,0.20382466302670224,0.1254096635005255,0.057928999004785285,-0.0834661286999704,0.10288347287067429,-0.05790778350416162,-0.1798905658962902,-0.13613906068645928,-0.22948386380653232,0.19842986865355955,-0.2195043345641845,0.21718909297080216,0.07678599721826466,0.024428225410528054,-0.05359948208214364,-0.309958849486214,1
org.apache.velocity.VelocityContext,0.04146227799647999,0.08206524511878167,0.1890302631474361,-0.20803250036022727,-0.055680063304774055,-0.07920434728591345,0.07294528448275074,-0.3182958496049643,-0.14623192936132376,0.04690255004520765,0.2591277821591076,-0.22932875838376363,0.1115983614672537,0.2486079674943885,0.012092446653526425,-0.02177070192505776,-0.23140073901851124,-0.1352292692198369,-0.20687715160179015,0.1999308926282677,-0.1890357448354518,-0.22160187001286744,0.3384584671126467,-0.14640918788695176,-0.11085838408793706,-0.3341466704484093,0.07916607432178367,0.007876030854397253,-0.19732694651536298,0.1478349465861954,0.039494339398586875,0.1013177989199882,0
org.apache.velocity.anakia.AnakiaElement,0.00046381122339123195,0.00196614586452218,0.006645091052823118,-0.010600047246432718,-0.00450455317541402,-0.011792438874653728,0.003092968472369916,-0.05000488276510583,-0.026355042820522145,-0.0018176655716659383,0.0655343721278317,-0.07219313178838248,0.0302972979668055,0.0537649399448969,-0.06954375289882661,-0.040421721000972764,-0.030331297886336865,-0.08719945095526806,-0.17203720637245595,0.41067587386159404,0.3401149429676759,0.447553285643986,0.13584681815169838,0.38889160781224946,-0.4331779808587524,0.06332861749436705,0.008123668183933716,0.17256064255412526,-0.02101026992341223,-0.2082058683147077,0.13085418361226456,-0.042749411615940855,0
org.apache.velocity.anakia.AnakiaJDOMFactory,0.002188733350044704,0.0088247632947826,0.02177079339208858,-0.024454463522854915,-0.010088945469171062,-0.019958466645986772,0.020442334366297936,-0.0720285101506167,-0.022658526930637322,-0.009271391827388491,0.09948180400198434,-0.0757239997197646,0.02183843869652472,0.05161360958465605,-0.036917008091195656,-0.014995480367850967,-0.12430161129250236,-0.10982553965154865,-0.18954025027231278,0.31399433293662227,0.16823913812086022,0.33604177688819853,0.39037385076355874,0.23000176776764472,-0.5659781286243234,-0.13899168905489936,-0.10392611592409706,0.13927077807963165,-0.1703132229204219,-0.1593632275878561,0.18514506578364487,-0.06855738805586886,0
org.apache.velocity.anakia.AnakiaTask,0.021109965955750515,0.047957798601080126,0.10916097155765181,-0.09861760334735699,-0.038851954762474016,-0.08635334255526662,0.0012139785255352337,-0.23379360079019265,-0.12174439192723305,0.0012327292961901513,0.2045877148042493,-0.24944760262029858,0.1031161302962316,0.15645601601664036,-0.1967140479901109,-0.10168738273755562,0.049684845035636874,-0.09850801750487069,-0.17045683022559482,0.5475887445187131,0.31935791422952275,0.2116501475258299,-0.2461235224862577,0.16029158387120182,0.17590549021462337,0.1803834251621348,0.09635261134313486,-0.05822752948123627,0.15025679966529198,0.09677795306075028,-0.1559431916931733,0.04879125414748496,0
org.apache.velocity.anakia.Escape,0.003663282325482844,0.014561889702530329,0.03514710635873421,-0.03755309734399455,-0.01532337525448311,-0.02900291139915619,0.0321372005123037,-0.09614917956855222,-0.025677017486424192,-0.014140005929976754,0.1280757483494553,-0.0866275559305407,0.019551195693149757,0.0538579496858425,-0.023045766854410628,-0.0001834310413906255,-0.17711797328897974,-0.11861768066582298,-0.18773943808941213,0.2124963550277209,-0.0040748259590343665,0.15955482547101765,0.5035029173111025,0.060362677973727456,-0.5725058524459266,-0.2757679714489374,-0.15726897839810494,0.10436233013290272,-0.24608530478041418,-0.043006935381484056,0.20764650026558878,-0.061310512007533874,0
org.apache.velocity.anakia.NodeList,0.000613141596906638,0.0024951207925503803,0.008369856220293,-0.013025521707101015,-0.0055740514611139,-0.014447392055588901,0.0020447492954442903,-0.06038912199681002,-0.032736121571361305,-0.0008783823212159977,0.07556942615637624,-0.086897345334694,0.03839764602358865,0.06479368771416635,-0.08438778896564059,-0.05149317471003909,-0.013410299814907664,-0.08893327678678117,-0.17816503167821598,0.4669911212326633,0.40152259398014806,0.47589855002997256,0.049239133215363926,0.39383341565833574,-0.3061603949504661,0.1193746642257265,0.028207688876883387,0.12244153368870737,0.03702768335861941,-0.1876609004835434,0.04039790182424018,-0.030819110133453356,0
org.apache.velocity.anakia.OutputWrapper,0.003663282325482845,0.014561889702530344,0.03514710635873425,-0.03755309734399472,-0.015323375254483107,-0.029002911399156554,0.03213720051230609,-0.09614917956854976,-0.025677017486425355,-0.014140005929977188,0.12807574834945493,-0.08662755593054185,0.019551195693149347,0.05385794968584214,-0.023045766854407516,-0.00018343104139017505,-0.17711797328897766,-0.11861768066582426,-0.18773943808941274,0.21249635502772202,-0.004074825959032919,0.15955482547101715,0.5035029173111036,0.060362677973726624,-0.5725058524459274,-0.2757679714489381,-0.15726897839810242,0.10436233013290186,-0.24608530478041302,-0.04300693538148314,0.2076465002655878,-0.06131051200753103,0
org.apache.velocity.anakia.TreeWalker,0.001920870505256844,0.007774380052623931,0.019217205684644023,-0.021681392420311106,-0.008911614505107518,-0.017731996891782998,0.01872440145400346,-0.06371154315060303,-0.019774997756693353,-0.00877499603636182,0.0888580819405565,-0.066623619366484,0.018133914981877487,0.04493233066553652,-0.031948339005583734,-0.011174281321771751,-0.11970071734173135,-0.10271555845252603,-0.17679605109820126,0.2780039707504804,0.13689846989033755,0.3068604080465668,0.3955639898759893,0.2253137964657687,-0.5950708379932416,-0.14755882597362127,-0.09939105797175388,0.16231843646743027,-0.18158160111661864,-0.1593624073962158,0.22220652297802113,-0.06768170363373964,0
org.apache.velocity.anakia.XPathCache,0.0003799661321920981,0.001654925974576144,0.0056842497089450985,-0.009320289541352425,-0.004018682220067032,-0.010501389248707166,0.0028954712524619603,-0.0462173475946425,-0.02405266190635941,-0.0016522730387003846,0.06220376732880747,-0.06801473650081737,0.028839645385176447,0.05157500755337423,-0.06467797047116469,-0.03899803328115975,-0.030387771568968606,-0.08515231589703898,-0.16788012324749865,0.41141685546509593,0.3526124945408776,0.4666255049509956,0.13650683716167963,0.3871602090418942,-0.4121365777616804,0.06887615211083625,-0.00011940030691250427,0.15171467236053005,-0.02118587742674379,-0.22596993039170707,0.10777827886632936,-0.048636332903702124,0
org.apache.velocity.anakia.XPathTool,0.0013014842378984233,0.005340805838925942,0.013488293007925098,-0.015957945794966705,-0.0066050389099544795,-0.013693920287595704,0.01346045746029259,-0.05245602984983754,-0.01829685199866751,-0.006511788746616856,0.0748524336923525,-0.060697777234565785,0.01887132815698572,0.043055572234501495,-0.037995496567807055,-0.0176739566867912,-0.0928382946397638,-0.09564987877125415,-0.17268555416799458,0.311688757895303,0.2052508327982594,0.36622883227286973,0.3277324522906142,0.29061611074620564,-0.5686044396053209,-0.08230595781607812,-0.06863489137654913,0.17631630243212407,-0.1365143608362882,-0.19687124586847568,0.20562573078322693,-0.06575225893417301,0
org.apache.velocity.app.FieldMethodizer,0.006981820563814349,0.0427460714840025,0.08506064446750282,0.0353619510677229,-0.014183285892015216,-0.22367564900122736,-0.026583808312176466,0.01073586052790814,0.08616527664934416,0.16037320947589914,0.03815020125324623,-0.04985067981196339,-0.012391739045096724,0.055409371360219194,-0.2296204271147864,-0.03986387324924613,0.15030357478228626,0.051941603087900814,0.027609197838095862,0.19237036183345846,-0.05938297519284836,-0.1151534303657,0.08463065316412854,-0.28522212897122184,-0.025746689098805068,0.1360073512181051,-0.15985460504148788,0.013937991380319098,-0.030696995411313027,0.08363859014192368,-0.7560146373832204,0.2262707919868795,0
org.apache.velocity.app.Velocity,0.08639266514001998,0.3126512456986601,0.32599850407396436,-0.046549164706511055,-0.0507803354290529,-0.30676968859336184,-0.2684348452316278,-0.30795954709704665,-0.15754498645965892,-0.22973163360838056,0.252370171368448,-0.09661448454135875,0.02614183484773473,0.01528527033539772,-0.2430513914312417,0.062137414980403795,-0.07796981315502295,-0.0047294964519156235,-0.0454045876836818,-0.2812204115201485,-0.11205274894127874,-0.04009929116906501,-0.04036146200870246,-0.02234854567480533,-0.09272793541563165,-0.2625930365562202,0.18246219026101612,-0.20217795658535867,-0.140373126363042,-0.049525690569349703,0.17065277211521057,0.04176939946354308,1
org.apache.velocity.app.VelocityEngine,0.0629392306789273,0.232212103395956,0.2336757301897718,-0.11608698443997006,-0.06916122090057733,-0.2110020538242933,-0.13023059075936094,-0.35582551328734846,-0.12160302375521932,-0.2331282321967889,0.2758763639567013,-0.1419794747496392,0.04429872477874635,0.0715490282125019,-0.23025701802118193,-0.04454599685558058,-0.21005078582739822,-0.1311631391603547,-0.09589144048492221,-0.03230987280673713,-0.2184254038007861,-0.1037364614725171,0.23815344835916474,-0.04378453388696504,-0.09299260254245267,-0.36620539022759474,0.11115898055088248,-0.10106723714249813,-0.2711663484852712,-0.0013034773458608486,0.12903970533378378,0.09743775543626321,1
org.apache.velocity.app.event.EventCartridge,0.049157182520968276,0.12664889844994998,0.28208071709243765,-0.5461245127086204,0.30753221977089973,-0.12710599188141644,0.09462300910037301,0.0719813308405826,-0.051670105241927416,0.13012363918991504,-0.33450772352331276,-0.36070762900166026,-0.014693431931324542,0.010072543396482414,0.21975342844921938,0.1220420183741912,-0.051629602169274764,0.10473006141969499,0.04043931309668266,-0.1706004057710908,0.08215715654063362,0.16337678266726047,-0.03261289490910479,-0.15787534233026684,-0.12978118822711213,-0.035048834040573316,0.0028729592113116926,-0.11176315754296096,-0.08569286983506175,0.004629729777124945,0.02987426942337181,-0.10541772339883912,0
org.apache.velocity.app.event.EventHandler,0.031597829465665146,0.09578893243630536,0.23547123577789583,-0.5973579054756094,0.3926061606256373,-0.05765191491402503,0.13392423929978176,0.17541461496046198,-0.110865343223248,0.048222776306206756,-0.18794025354020033,-0.13934574460916413,-0.13208397721600126,-0.41188411113179796,0.011427747041504835,0.04706269936910641,-0.009619166687977748,0.13734466560273428,0.05188038596658499,-0.05891097039776719,0.05216068417589481,-0.0024433801299091292,0.02289683385670091,-0.025149229962598475,-0.18468300618802314,-0.03547694137167049,0.09095226037949077,0.09120018375543555,-0.02581165295729638,0.006576517488354247,0.05579979121933139,0.16672460067225547,0
org.apache.velocity.app.event.EventHandlerMethodExecutor,0.021986253673406734,0.06859751502122824,0.1679682488367476,-0.4873972625010475,0.32660571872601096,-0.04381471563353075,0.09137679340652646,0.18309381934733052,-0.11218276894586551,0.09104298534713624,-0.28147255010731487,-0.309002675813389,-0.11875327564565444,-0.4915743818995603,0.03233995588499788,0.015505220487286631,-0.0762650750990226,0.17181399237534736,0.07873569005290768,0.0077768368932647994,0.05146253095717438,0.008346204629753854,0.004841571994269393,-0.04795975593600832,-0.16178440056332327,-0.021180040220631254,0.0938881730560757,0.034300980855097626,-0.02408435644278025,-0.060344836637017854,0.0029106398729843363,0.19615819279757937,0
org.apache.velocity.app.event.EventHandlerUtil,0.15993059361481726,0.1422504411329305,0.26288946590335976,-0.4516631639859228,0.3086462913650101,0.14863515233124608,0.057091648271929474,0.24581368433516082,0.03315349281011608,0.0945821812881117,-0.3462427019157286,-0.19203912654015576,-0.11088101247642741,-0.2841151323644504,-0.14875829922395784,-0.1497964421755027,0.10014410281253043,-0.029315268099648645,0.009139946494677394,0.0932539330672229,-0.07890795239784543,-0.22052551549833424,0.004408594949864374,0.17631578431302897,-0.1343563195071926,0.08069017889642507,-0.048424500100332994,-0.09345384376075001,0.0029770122553559367,-0.2133693443500664,-0.06724475283681323,-0.06568698805229292,0
org.apache.velocity.app.event.IncludeEventHandler,0.028684774536192243,0.0880428283342099,0.2117205479437495,-0.5101094573876869,0.3212437377646393,-0.06050011564770978,0.19153294456087627,0.08135847762948178,-0.08473945936526395,-0.21363483827712434,0.2587104171254209,0.5790933975056635,-0.07098825463051767,-0.060892760161000765,-0.12969350453759457,-0.05060095982147702,0.08092214697293412,-0.07678846387644761,-0.044226707586136074,0.001964059300425264,-0.008481974709312992,-0.009296480223540163,-0.04982732062108763,0.10350557773336634,0.012602650713542201,0.05445482417147552,-0.03014591359252514,-0.09059921470168346,-0.015988839457338234,0.012843840156024638,-0.07004101560288369,-0.08758298780188359,0
org.apache.velocity.app.event.InvalidReferenceEventHandler,0.04108055229817903,0.12493323166323361,0.24990956678409332,-0.5447054763562376,0.3914434201384385,-0.010356915470595732,0.05953485724892753,0.0581501826992973,-0.02121822855107553,-0.13941154353054797,0.24742203967334608,0.5102231971497665,-0.007129368602056342,-0.08808220460722334,-0.051315614970939304,-0.07706181634744617,0.09864040941381745,-0.05076139218180113,0.028733127521925562,0.02688517379670574,0.0238791307452073,0.019918773528221502,0.035410389847009546,0.04722409191633033,0.17979420654200481,0.055122521833908464,-0.01606650236970253,-0.013113562429549279,0.09068176665713686,-0.19473794041077683,-0.028950803701052834,-0.06623519990083017,1
org.apache.velocity.app.event.MethodExceptionEventHandler,0.028825452875030404,0.09203664281302057,0.21397027496618853,-0.5315227322602755,0.3322206249597522,-0.06479973331047181,0.16266560172681363,0.0853968300169808,-0.09691694910332259,-0.19621922996170418,0.24063411080441344,0.5662925409024091,-0.06796380041585198,-0.044126571551923816,-0.13567598831297162,-0.05503085579434142,0.10574939772355439,-0.050053040209309826,-0.026767887117894674,-0.017773406991189417,0.009985229226791242,-0.004950407584850971,-0.09958257927200166,0.11754706709919761,0.045281543282789806,0.0918415374623559,0.031753040348123804,-0.022979933687029937,-0.0297164698157038,-0.011554345433945911,-0.07063279098629456,-0.05459705919632914,0
org.apache.velocity.app.event.NullSetEventHandler,0.02916448381707987,0.09530247327255995,0.21474220093270818,-0.5484149270577937,0.3431416681216789,-0.07571039463779797,0.15117338977562678,0.060713359458269965,-0.10397099535125189,-0.18447581460134171,0.22056159802342387,0.5474100468437486,-0.06517275886580912,-0.057292931143188904,-0.11936964875045374,-0.06395557596114711,0.10285984856026767,-0.05411134119455318,-0.034184154208294154,-0.0032493348403990346,0.007250088833747926,-0.03265075413146869,-0.14484287988313335,0.08106362834589403,-0.002562483879834732,0.09353949610116076,0.09368829746043851,-0.06250060133937943,-0.04993560724652023,-0.05358325534257843,-0.05971601873893232,-0.020799441635317325,0
org.apache.velocity.app.event.ReferenceInsertionEventHandler,0.028620977276685493,0.0941711343617466,0.21378779765276465,-0.5463165331220353,0.3418421518364985,-0.07620111848449197,0.1579840382395795,0.06324877211466226,-0.09944343189431577,-0.18793687270500237,0.23553842163520572,0.5618817988837649,-0.06973178945766312,-0.05931841814600901,-0.11716109296863686,-0.06369372859035756,0.09645262098959557,-0.06952310039765913,-0.04672030675674214,-0.006073924362751264,0.0004224343705757296,-0.02733449512999868,-0.09917949153435525,0.08456115021518733,-0.003190362489532883,0.06974578195748654,0.0409349478888427,-0.06802522639933253,-0.018465633414232074,-0.01183715633481525,-0.030584232702557165,-0.07262948675822618,0
org.apache.velocity.app.event.implement.EscapeHtmlReference,0.0011606314225707727,0.009075707613657197,0.03243513328734611,-0.07269250770174508,0.04356364363860179,-0.019483485436456987,0.08092424399565439,0.023239946414212273,0.023463247329295618,-0.06183570223463765,0.17465213806057067,0.2090790872598245,-0.04642711667913499,-0.013993462299710423,-0.0003898061654383486,-0.005521164608870636,-0.03811722522418597,-0.14777667615626278,-0.1182861395304889,-0.025664773843713448,-0.05762629149590826,0.04497096953174829,0.3776009099617685,0.034055583555889175,-0.0015757691544643565,-0.20514265527720962,-0.446389943462849,-0.059217789709630826,0.2618207923771419,0.3653875223906115,0.25250566307983885,-0.453364877281784,0
org.apache.velocity.app.event.implement.EscapeJavaScriptReference,0.0011606314225707701,0.009075707613657176,0.03243513328734603,-0.07269250770174496,0.04356364363860168,-0.01948348543645693,0.0809242439956543,0.023239946414212176,0.02346324732929545,-0.06183570223463716,0.17465213806057023,0.2090790872598246,-0.0464271166791344,-0.013993462299710026,-0.00038980616543850814,-0.005521164608870884,-0.038117225224185446,-0.14777667615626305,-0.11828613953049168,-0.025664773843717164,-0.057626291495904515,0.04497096953175067,0.3776009099617634,0.03405558355588934,-0.0015757691544677288,-0.2051426552772057,-0.4463899434628522,-0.05921778970962452,0.2618207923771403,0.36538752239060823,0.25250566307984423,-0.45336487728178754,0
org.apache.velocity.app.event.implement.EscapeReference,0.006766993991659218,0.05314862726576819,0.07363335448260273,-0.02769543878551504,0.09636641426706141,-0.16013213862312853,-0.04721256449756946,0.14286320765951427,-0.02227643300147001,0.1320102129414773,-0.09853364886809123,-0.25901378542132036,-0.01804669771833257,-0.1702285723685779,-0.004624906770145076,-0.0002616311560024397,0.12133631636079933,-0.07908995288547586,0.0024533244184072643,0.0746877362841259,0.12241404210094894,0.2772468604322332,0.05212330945552587,0.019125607474681325,0.4137726007370592,-0.09921335733124,-0.0742196376238182,-0.30712469731663494,-0.08589274181470434,0.4722286806211183,0.3317149034964062,-0.25794349076868917,0
org.apache.velocity.app.event.implement.EscapeSqlReference,0.0011606314225707701,0.009075707613657176,0.032435133287346034,-0.07269250770174494,0.04356364363860169,-0.019483485436456942,0.08092424399565425,0.02323994641421216,0.02346324732929555,-0.06183570223463734,0.1746521380605702,0.20907908725982435,-0.04642711667913472,-0.013993462299709995,-0.00038980616543814016,-0.005521164608870808,-0.038117225224185834,-0.14777667615626272,-0.11828613953048976,-0.025664773843715627,-0.057626291495906354,0.04497096953175162,0.37760090996176743,0.03405558355588856,-0.0015757691544647993,-0.20514265527720832,-0.4463899434628505,-0.059217789709627384,0.26182079237714145,0.36538752239061034,0.2525056630798395,-0.45336487728178515,0
org.apache.velocity.app.event.implement.EscapeXmlReference,0.0011606314225707732,0.009075707613657199,0.03243513328734612,-0.07269250770174511,0.0435636436386018,-0.019483485436456994,0.08092424399565445,0.023239946414212214,0.023463247329295583,-0.06183570223463747,0.17465213806057056,0.20907908725982488,-0.04642711667913479,-0.013993462299710196,-0.00038980616543820966,-0.00552116460887083,-0.038117225224185786,-0.14777667615626322,-0.11828613953049052,-0.025664773843715526,-0.05762629149590668,0.04497096953175136,0.3776009099617672,0.03405558355588891,-0.0015757691544662834,-0.20514265527720757,-0.44638994346285055,-0.05921778970962839,0.261820792377141,0.3653875223906094,0.2525056630798404,-0.4533648772817851,0
org.apache.velocity.app.event.implement.IncludeNotFound,0.015895067515161655,0.13446221000962086,0.1615310249317204,0.00759439028558785,0.18157087572944428,-0.34813509714704927,-0.11428448543862833,0.2690222066776827,-0.02561896791151847,0.21932099955835754,-0.12015592741818767,-0.3613822678133806,-0.01116125338575132,-0.21597055295871417,-0.014059248234839996,-0.013209303304650208,0.18578231066855128,-0.15283156992906857,-0.02981871798683642,0.09757610818497531,0.12980617558010973,0.23863355392378452,0.043936545794028135,0.013688117070080134,0.38610660626631177,-0.12370215016230696,-0.07656078258194782,-0.13825661054520058,-0.0027584392688747216,0.26251749668592644,0.23026644712527228,-0.1395919106481602,1
org.apache.velocity.app.event.implement.IncludeRelativePath,0.0110116636171221,0.03891921167247913,0.1110927715042802,-0.3229417603079046,0.2195284601014882,-0.0642294902032742,0.06758309022716533,0.1506302952063318,-0.11052811586567989,0.16009202127326008,-0.329371983494486,-0.5037641714502786,-0.1007970262904491,-0.4417357112792837,0.06007802152285079,0.04898629528899071,-0.0350930812839432,0.171382615881854,0.06941593689891622,0.022767211244468528,0.10370696775704917,-0.026626700799847924,0.056887615337040655,-0.0893174906283466,-0.18434743827645117,-0.1340781323078434,0.12012560084969912,0.11100102436306811,-0.05510261112253803,0.05863432048573349,0.08171490285015931,0.2006588166114333,0
org.apache.velocity.app.event.implement.InvalidReferenceInfo,0.029288763704261533,0.0768020360044527,0.10760247842471807,-0.09308877108997105,0.18299756025604388,0.1511871831161674,-0.1749619487823494,0.004616613301247376,0.1573072571017547,0.050026600357613575,0.16817086206517134,0.10092973496126727,0.12594014876241102,-0.09016150145894039,0.11377435065977307,-0.06316492487043175,0.012328169119984965,-0.03635249818488766,0.11394035276086968,0.09154341206625537,0.013083759508564689,0.08720371399339323,0.42768327787977295,-0.07294276278138757,0.4516316699459734,-0.020045361460870117,-0.2567925849635771,0.1479445054645777,0.3427629971176923,-0.3396890770481618,-0.03714265520370587,-0.18459989426639334,0
org.apache.velocity.app.event.implement.PrintExceptions,0.015409300459564297,0.09859211739117228,0.15924684917731668,-0.15835222969011742,0.18736634317494463,-0.21650502778294223,-0.08661534090743724,0.3380818593838114,-0.006892922896313589,0.1311319643551829,-0.15889807374577725,-0.48738362194747,0.005105822014060762,-0.3000782596146445,0.21126447616248786,-0.0015294691252348074,0.1345390471984245,-0.0959556992257548,-0.04505155489002525,-0.12162614884875923,0.05453327602119401,0.2932255571442623,0.1573802688490826,0.07292528637180441,0.2724858911765468,-0.19063750767117194,-0.021000285540450102,-0.07907171067506405,0.06031919960489441,0.16203580309460303,0.07786463713995856,-0.06832595552001522,0
org.apache.velocity.app.event.implement.ReportInvalidReferences,0.03923230309488181,0.15796377996219746,0.19267737675668956,-0.2086357511501266,0.19081192207889616,-0.07321067559773542,-0.25551313899893086,0.07472866467186076,0.058167754747808026,-0.1074540671948295,-0.04503782221554016,-0.30535774472005345,0.0709173092759299,-0.15763233852776207,0.008820330906333967,-0.1097550784166936,0.026490388934147593,-0.13829359004163458,0.05969392510098614,-0.022504020187917983,-0.13223021674798555,0.29828141056146207,0.1657414527020826,0.02032120334748721,0.4995459425483214,-0.20454239672904403,-0.184079516359205,-0.1523282509915533,0.13826997274421948,-0.31090453134667495,0.07228363511574404,-0.017238619176746142,0
org.apache.velocity.app.tools.VelocityFormatter,0.020928628945463688,0.0882202651240309,0.14887472188699322,-0.3613535020074384,0.1469616053819551,-0.13665726160660407,-0.0027654322744707096,-0.1797812861774885,-0.16496159587371811,-0.16956801947708122,0.18200683853500516,0.04028621101477783,0.1298783532991968,0.24785263093161397,-0.15708807709356465,-0.22165630362470604,0.04256485447585848,-0.1440855565415548,-0.05164083811398826,0.32672838413850525,-0.032246106615334086,-0.08058998220355733,-0.23489302120753827,-0.05784847937205376,0.3613794865371067,-0.15226017694589686,0.13007172707227732,-0.28232322346660554,-0.20635657090646548,-0.10611808746415066,-0.10222669241596499,0.10426200273265845,0
org.apache.velocity.context.AbstractContext,0.026223114954482814,0.07769863039870899,0.17243884564081813,-0.3947263357342843,0.13803599797349808,-0.13920306758089784,0.11612947911722692,-0.19716682037311958,-0.04834432105119594,-0.02545624602590571,-0.06459141754591745,0.019001127878858964,0.15384097163761107,0.6748205858624186,0.060760442013324936,-0.04791398840486933,0.052033546919331576,-0.04580169625804449,-0.026902121691445655,0.14211527278633787,0.0495147169746527,0.006847172437318475,-0.2906114850203999,-0.025467164974794756,0.21242027324567314,0.025710814518889777,0.034968578398773674,-0.2270735249124541,-0.04102789384773347,0.019744306495448467,0.002022573100217776,-0.10202681705457571,0
org.apache.velocity.context.ChainedInternalContextAdapter,0.08486680581445205,0.15280693610467375,0.1790456326770689,-0.17301247889039048,0.012253048435463553,0.031853887253976684,0.08817873372701457,0.018040234382495766,0.0694335704176993,0.030993263720204587,-0.16112678905107128,0.23136285588248875,0.22051027852058738,0.38820767639471343,0.03631614208240848,-0.18929955199693438,0.14993761550596316,9.322257573534041e-05,0.137804681872252,0.20365095057932184,-0.049016459003654964,-0.1406507848871784,-0.026189743644782656,0.08149471654931059,0.22302696488545826,-0.23244654095856146,0.05850275954066091,0.3569595641137292,0.02474331483010456,0.07865939680521433,0.37566460224471454,0.2853763218123187,1
org.apache.velocity.context.Context,0.09204095224188426,0.13701176491034425,0.28313050413927054,-0.4526998455423028,0.11954119486014253,0.014571957707814307,0.11758271027572634,-0.09508429841071694,-0.1659518794181279,0.15953671162199612,-0.028769542140265395,-0.36185324946650854,0.07051388869896835,0.07796864161033303,0.03748329126695761,0.013234057348349601,-0.20550228478714314,-0.010916735992083114,-0.11767599296331281,0.08799982336082604,-0.13342657007721553,-0.13919176837396013,0.2361624193130045,-0.305339622028688,-0.06906202744487468,0.032789773170475996,-0.06459254417759862,0.381145826873392,0.08881583940581496,0.11205447650479153,-0.16346912665489424,0.017847042447433285,0
org.apache.velocity.context.EvaluateContext,0.08333412252909403,0.259335488000708,0.1967358148893554,-0.09253056469715096,0.057548922690830735,-0.2156530840984186,-0.09484952351050087,0.14557703340996228,-0.06450755826322634,0.2368896599116648,-0.08373029197064383,-0.0492519179092435,0.15802258764781837,0.3041372851122993,0.01784937390761612,-0.06486374439598123,-0.016598148844770597,-0.2466165622019715,-0.17755003522320917,0.029085818294454124,0.015382200867721156,0.04994629197758648,0.02943426621593503,-0.34776346483617365,0.09930595238903435,0.04596595757255423,-0.16749239776456615,-0.07427699249129878,-0.16102645215688846,-0.022292636906942304,-0.5547191632235481,0.09554058900151559,1
org.apache.velocity.context.InternalContextAdapter,0.8237478890292954,-0.1313597268609117,0.03807736832883177,-0.05397367623306192,-0.06115712016408866,0.08180562885248388,0.04766284983979064,0.10213093314746671,-0.0368612406957891,0.11468826266757377,-0.18239744948335118,0.06530389337978419,0.1842322925841867,0.16681548288036543,-0.025547364886015438,-0.02692264362650453,-0.05739494025614331,-0.03519988036107367,-0.06890186932839605,-0.05427070782302188,0.009942207940763833,0.10609209008647895,0.12191485644017638,-0.093558693376017,0.07771870350963651,0.1389504615608377,0.22959419507422993,0.0014800910669504773,-0.14794002523714814,-0.040073964152473815,0.06842122295371901,0.08978067640695934,0
org.apache.velocity.context.InternalContextAdapterImpl,0.07189309129773831,0.15730499168186216,0.2355173328836066,-0.30080172150104983,0.029543918088386793,-0.10877110728465259,0.11023461279908257,-0.14962494398411083,0.08334905015203942,0.11517193292419085,-0.14353183164046873,0.17173540194611173,0.11124163910743186,0.7129883784138458,0.17087576398755733,0.08288978033039665,0.10233220692012546,-0.00926687393322984,-0.005414773733762696,-0.07181577275784143,0.03386239869540078,0.033947080394766314,-0.05738803938294046,0.007564263213725493,0.012973811172655749,-0.10461522809063352,0.10595332983964403,-0.12259459802661991,-0.0005422670823582579,0.10532116147790814,0.18312684416274777,0.2154064844603809,1
org.apache.velocity.context.InternalContextBase,0.029575249297440875,0.07232074974463021,0.15078220599684497,-0.24297366001577908,0.06767168700563576,-0.15162633443596527,0.12308231187076908,-0.10184169653768958,0.16074343661105314,0.15292536735424275,-0.317586426771126,0.09791021672296428,0.10696022430805727,0.7028292046759411,0.2788052069811083,0.07548212277836476,0.07528667386529812,0.08707493168511755,0.08704635918091432,-0.05647336900027786,-0.016403395505581796,-0.01422543754279183,0.0415261494973501,0.03712994604134116,-0.06014103152552886,-0.0431049156436731,0.018540330621904792,-0.0033691706911821635,0.048076456204118656,0.05496070834612168,0.26789442267587943,0.0008138779019480601,1
org.apache.velocity.context.InternalEventContext,0.029357971972428704,0.14021707889261853,0.09535916966744268,-0.3156163099594163,0.11151338117885677,-0.09531570587068848,0.14994181365059137,-0.08187552794490606,0.08132096654379445,0.0726784037306654,-0.3044170361005246,0.017910809077163276,0.12871821805542172,0.659168335747095,0.327096168158552,0.061485650481164215,-0.06032663754713731,0.04454200532292999,0.03850989060508228,-0.10600347953374954,0.015289717950234285,-0.05511761363988909,-0.027246211305872417,0.034350730675953865,-0.0936002584041343,-0.02340087023105739,-0.14135487683315665,-0.02873564057468733,0.043666679549189624,-0.022589928542665203,0.07804330542417791,-0.3019500911776323,0
org.apache.velocity.context.InternalHousekeepingContext,0.0315486610521619,0.15732200335079405,0.08959649300758876,-0.140270574356484,0.0033066425712290617,-0.1750392428987424,0.07706179642008798,-0.10311622288231063,0.2299851714210406,0.17112912701553412,-0.38798671678664715,0.06274418640344143,0.12824355037932628,0.6567901732099561,0.30648215565189324,0.02772963713302344,0.0886919972472144,0.11681806193639659,0.14908355012238628,-0.04145376930138241,0.04399935915542394,-0.02457561420143659,-0.004394451277165528,0.05870807989260844,-0.08088306619700418,-0.03392459672674565,-0.08795168793642075,0.02330523436267429,0.12289771060053375,-0.019299239385000527,0.1929021836116596,-0.006248515660169961,1
org.apache.velocity.context.InternalWrapperContext,0.05267275096543255,0.36175681003679505,-0.01036663609680276,-0.3541581431050304,0.12163833333358262,-0.1295326869100365,0.019004933700315637,-0.13028508706667857,-0.11934113310527893,-0.14376052990315816,0.010299214993242167,0.07574079894211568,0.2655056338168986,0.3648835253292901,-0.009596315676529283,-0.3096482010962117,-0.007755376678845511,-0.12401812126900061,-0.0022793874393030773,0.2579410334806844,0.09019512195666865,-0.1733792921478217,-0.22186545564649932,-0.0007821927340012405,0.2818508763823891,-0.1923525351950046,-0.052028084255567604,-0.12829194559961737,-0.058602408400354626,-0.155432682086173,-0.10948340315214122,0.0834715362700771,0
org.apache.velocity.context.ProxyVMContext,0.10709175849026543,0.36639906532217836,0.05813035040775738,0.08422282000643076,0.04268390307798724,-0.14043597205752348,-0.2383600387655506,0.1838964116534528,-0.014984808861999616,0.02119535388881735,-0.2713724813128167,0.04960643351100667,0.15272433631145216,0.04227972515502528,-0.01954973242554057,-0.1971333744795974,-0.3657488854199873,-0.11927279294275332,-0.2176655354500739,-0.04568771113620377,0.0984508081902427,-0.085927284852688,0.11546672993931771,-0.16547636826641207,-0.11883680241595918,0.07753146779580976,-0.02125409143146102,-0.04693649072200249,-0.10208109768196869,0.11794738416917182,-0.4091101355306642,-0.34749523725337544,1
org.apache.velocity.convert.WebMacro,0.005525871243814868,0.04021912371629924,0.07689804415242256,0.025746536485178103,-0.0046704817027572836,-0.23714706257650228,-0.05824024690263587,0.005455429444358276,0.06638408726378399,0.0966396478311094,-0.018584204051116653,-0.21438739701917123,-0.002471838303246285,-0.047665260955856326,-0.28346010543870725,-0.1452848063903052,0.3014484290770132,-0.006348380218499153,0.04620916152497528,0.3543234016220437,0.14637513796201562,0.21395108353047906,-0.13412783102253886,0.010617666514348872,0.3902747570543243,0.1253172753727327,-0.04271638373729575,-0.11239647988421267,0.13696796082789892,0.3225148721747348,0.3662764577097863,-0.1581079567925147,0
org.apache.velocity.exception.ExtendedParseException,0.0749328389169948,0.2131889053468344,0.037208942586912076,0.015615378291156655,-0.10089939345394772,-0.0021988923687813254,-0.3070045823384892,-0.03269354871975742,-0.1165652010479233,-0.5469972781502127,-0.09671472719958675,-0.04125235800464731,-0.08235272188249024,-0.01712490774973828,0.115200633288948,0.07027399536366083,-0.09795074230472707,-0.048134230295328005,0.02673182734707318,0.06209840982949002,0.002933483464834291,0.06328434349880804,-0.10985299134142652,-0.25382740988157276,-0.0013508628475105786,-0.11443532543717677,-0.3849710318143375,0.17045296296620818,0.31525631823308814,-0.1878125109383437,0.1483600527078021,0.2205688632829611,0
org.apache.velocity.exception.MacroOverflowException,0.06884332963792872,0.12997291135083075,0.15672330222050923,0.19330679566618814,-0.018756367103623807,-0.12338422870261335,-0.16073958348069028,0.14205330915474296,-0.1436451275350299,0.16617875273296764,-0.18269190348500378,0.3001471342856122,0.07094864318569,-0.08900642779844442,-0.1369334656409874,0.008812443855997722,-0.2642634010343014,0.25085530449430526,-0.238378197517697,0.14806339483640657,0.12211413739327627,-0.05696054189502456,-0.06619414008399421,-0.2099419750471102,-0.24730442944314115,-0.1544264655889608,0.29093227922071074,-0.1405937237764272,0.10041032102757766,0.23910446359483506,-0.17621871984013127,-0.292407831425533,0
org.apache.velocity.exception.MathException,0.15614763973272983,0.029667640443028987,-0.029568990371532256,0.12029704971064319,0.09603211749401107,-0.20767774369845918,0.11789544862818867,0.02228261397144009,0.013580447858241331,0.002630094026863738,-0.1161149057317297,0.12528897208202544,0.3329121535593895,-0.11378031320264242,-0.19274896704929737,0.4402063903153931,-0.12954374263506413,0.1311906806460181,-0.29674737629924713,0.08328182253362726,0.23132215660646352,-0.205351055283027,0.05023621787436045,-0.17285054440951256,0.08629370785533048,0.1251560636331471,0.0553867222212571,-0.022793154251840975,0.275698263903551,-0.3149896351071836,0.15673825202140812,0.15812074077689248,0
org.apache.velocity.exception.MethodInvocationException,0.6167653220005896,-0.037435728995116234,0.12530690367686362,-0.02119347702789427,-0.1769181770729513,0.24294901430971397,0.036224119091661955,-0.014688623272098066,-0.1844207990253126,0.40025942973346235,0.09503975801183517,0.011176225881513617,0.36712039054729806,-0.09325944296482429,-0.02039186009474518,-0.19405052549195953,0.05726083417510567,-0.028226589255282913,0.04741883660195717,0.06412631463084122,-0.26613345742216155,-0.0487299318496233,-0.04773444873271645,0.07926304759533565,-0.06972854344516838,-0.12049275895002749,-0.06950788409191096,-0.04263656968574746,-0.03248016185238662,-0.018183488225910767,-0.05520305861365351,-0.051105641831422216,0
org.apache.velocity.exception.ParseErrorException,0.3043031006559732,0.1324395833401869,0.30815676778084583,-0.04016770739168735,-0.29970987825171774,0.20892042303799288,-0.07120923828091891,-0.12485820222644366,-0.23338605426119957,0.4725343432377973,0.34034597195200933,0.023494545123049514,0.0304864707104401,-0.0841765989409238,0.19489190093580236,-0.0011714334719788511,0.06606745866649348,0.037863523324263,0.051210803942376024,-0.10883987347685577,0.05136105710004777,-0.10033614127418884,0.21798897230791647,0.04476884359294769,0.13426486552563863,0.2506007390403,-0.061911224483066796,0.022238868924815063,0.06781682390492136,-0.14290553620427307,0.07619374895893458,0.022997110999268117,0
org.apache.velocity.exception.ResourceNotFoundException,0.29209535288205407,0.12636034695546042,0.40376269453309754,0.05385435929938026,-0.39480224519432044,0.1632357463254093,0.2503766835595749,-0.18586586901306723,-0.005274579828599069,0.37766808474392705,0.2212973189848358,0.03536932057835305,-0.046909414362559305,-0.22867096714460453,0.19675325219021297,-0.10019186312080428,-0.08012335702273239,-0.03765798471853618,-0.006399068267536789,-0.11853008339813452,0.09298334393748729,-0.0720576340582895,0.027655769677565827,0.014129133655159831,0.060675575974099075,0.24901882038660755,-0.05923241524607445,-0.08637399341020938,0.04957529429986827,-0.12958811057636138,0.15557827018408954,0.008165131247952566,0
org.apache.velocity.exception.TemplateInitException,0.34239433078124404,0.12595259616916663,0.22559599482110995,0.015356730171783324,-0.20627332988507713,0.4196037943325368,-0.1280961686224069,0.2778501872555903,-0.16199316229539343,0.043996246119930436,-0.21825245718235406,0.08395936262341396,-0.20140913119483778,0.161362024420265,-0.28212797136918577,0.1508941992608087,0.07365115058617029,-0.08109933880501412,-0.2211299657472339,0.05099855544646457,0.06337917170798557,-0.08004703634748415,0.17479604072848384,0.013445809542797078,0.02110356419138331,0.010168987277777186,0.3178119736222712,-0.1820467228627466,0.05547190224585087,-0.019349696776537254,-0.06458592802260085,-0.06885510641440845,0
org.apache.velocity.exception.VelocityException,0.17037454573801977,0.17071878600027093,0.36624329638716197,0.2680853895187858,-0.046833370483780994,0.25458343569674957,0.3371547366530564,-0.04688560544014728,0.08207919132338776,-0.33199171644553965,-0.2419782911331275,-0.0579177403881401,-0.07635248875955594,-0.11507786535853046,0.012841098744051697,-0.2467921292195977,0.1967279310085396,-0.11946845822685793,-0.12465908760212376,0.13730172042106825,0.023532575736744783,-0.26645059306176855,-0.21522122072009667,0.02067223920038814,-0.0935932065585664,0.0600131737889261,-0.10956149516672763,-0.029623785485492847,-0.17158505142091485,0.056017887508962506,0.17438736129826085,0.006503447130113584,0
org.apache.velocity.io.UnicodeInputStream,0.026935953828050117,0.0631172290494396,0.15477616204263006,0.08732483725407343,-0.08803967878640445,-0.06331376614939889,0.24828424040517275,-0.025275330203782576,0.23474464389312255,-0.03329777213441356,-0.12629730546710388,0.02399316789622741,-0.14949226834656626,-0.2449992256446826,0.0223869687085404,-0.1736317990377631,0.040184587803913555,-0.20994296674764223,-0.18006777387408507,0.17705401972075824,-0.10570035390328054,-0.3547523727046568,0.04567173367708568,0.024837925398166212,-0.2858455255412757,-0.03392356202884024,-0.274515643694594,-0.4860610568209921,-0.13766718572787826,-0.13074095842955488,0.15228637574955006,-0.03172342112054281,0
org.apache.velocity.io.VelocityWriter,0.042169455462584285,0.06245495355968309,0.1526997218288485,-0.0958928442050056,-0.11676857822733963,-0.009260942033843474,-0.015025584749743427,-0.2951629925330606,-0.22124149316518849,0.2069266868644694,0.3493035700310182,-0.20848887793505447,0.10958693270183162,0.03681675323296763,0.047069408156439244,0.07919219153968943,-0.12111880410794297,-0.011973517981454133,-0.12258596432402646,-0.1257984179713835,-0.26085557149136257,-0.4290415322815614,0.381632551027769,-0.03524891897019926,-0.1225360016132178,-0.14966443813508784,-0.011174868577938278,0.1858435916086822,-0.16082407169332388,0.04032389725442974,0.18542967936583354,-0.05492223662256828,0
org.apache.velocity.runtime.ParserPool,0.04502875818642525,0.2300031698016982,0.09154015863461817,-0.068582085120355,0.10649911734056677,-0.13382388090591868,0.016406278959134993,0.18097535928650996,0.06444774172336551,-0.0234518996141421,0.348956882217507,0.06559669766549252,-0.14631429575406996,0.0041582892320569794,0.12122957369286506,0.3057435458616023,0.3749268866121509,-0.1842495196909333,-0.24349057520798842,-0.2005117103793075,-0.14665283577603705,0.2390897631088222,0.18086635773795404,-0.1298173648309248,-0.019792652921561467,-0.08255083597819309,-0.022294858014828414,0.19398034208432294,-0.38783985448746994,0.0863945958184888,0.03365380264426295,-0.05236874340712837,0
org.apache.velocity.runtime.ParserPoolImpl,0.03406681303297133,0.16612797378416094,0.02148475170024612,0.09090226787936592,0.07822491524630558,-0.20710632494860187,-0.060838739032493504,0.15942266348558604,-0.03487681901309523,0.07501285035307373,0.12575554266198802,-0.12108134871316627,-0.13710500026355657,-0.000919413713281472,0.0771811796837807,0.2602589222455352,0.19781590830298032,-0.09521551692839017,-0.05550014412936169,0.07534594334073806,-0.11464045308573564,0.11225628601072317,-0.09612921182672512,-0.02044824777967024,0.2743259600215848,-0.09187324848845987,-0.18492710973081805,0.009336974562490172,-0.6827038115923832,-0.24834750972016414,-0.12831369646646304,-0.0038723136882361443,0
org.apache.velocity.runtime.Renderable,0.11842573328797154,0.3507430112563446,0.06367546746220978,0.007381736072249219,-0.1292343072305793,0.018830743324837893,-0.2657570682803081,-0.06666390540691354,0.03908746468980991,-0.4543754608323741,-0.27301609273426064,-0.07038629619099708,0.04233078017618311,0.05207104802345408,-0.4002612547063889,-0.2920447459094071,-0.16383088140517416,-0.05443389325742326,0.051789144999293754,-0.14980539426781872,-0.20896915042565287,0.10876567925544418,0.12495828322189761,-0.12104118986054689,-0.018031106673404827,-0.015075272075957874,-0.039027109342907935,-0.005345161065230162,-0.033515451533349686,-0.2709550164014854,0.06750926086411688,-0.0857132071869282,0
org.apache.velocity.runtime.Runtime,0.0784530009200622,0.23709179040110057,0.2138040123804453,-0.0007546933205815516,-0.2018058775117357,-0.10022470779846251,-0.19665911775428876,-0.27676250388328927,-0.10323321539691496,-0.2734032741285388,0.11528852422262988,-0.17494415596014423,-0.09001559650454584,-0.046665622930327395,-0.00997884567709775,0.22282572130011913,-0.009958382403536054,0.13574298863129425,0.09711449344633707,-0.18560532486279993,-0.14377093260193247,-0.18002486724707012,-0.02354433429235816,0.4825787498819722,-0.06346861867151618,-0.14763274513487676,0.2910127337138583,-0.25512904547495296,0.01564145275808019,-0.01151871830551492,0.10690511557798073,0.014552972987760813,0
org.apache.velocity.runtime.RuntimeConstants,0.06827703682341206,0.09908284310218587,0.25798559492585643,-0.09645514558960486,-0.1002087906990982,0.04776726173967675,-0.0025027752202789835,-0.2763777930366808,-0.1977199536452244,0.058592013795396185,0.3858662529498413,-0.15273348084642638,0.010075608709529069,-0.037717911905196265,-0.04460768087725959,0.21876800161246246,0.21809885511061883,0.062060884163605765,0.03395518651539337,-0.34117217246653936,0.21883951782410202,0.020420949571356532,-0.22623237186206552,-0.1933110330093144,-0.1861813516002689,0.258521995428707,-0.1808402085209886,0.188292062395384,0.1452717353634442,0.11389169511566268,0.08507199159615662,-0.1950168836718838,1
org.apache.velocity.runtime.RuntimeInstance,0.09534273802355193,0.23160469195239813,0.39563233170817175,-0.22504580558780427,0.13561261955278867,-0.0638588019265918,-0.06376439489004115,-0.1241086866466746,0.0010552047287411158,-0.0007531873634267159,-0.02579407897892457,-0.4758919644335809,-0.056774697732939784,-0.2114933026941455,0.11028417612419185,0.256739928779034,0.00908463119445321,0.2387335341536385,0.18250026933501964,-0.07751108120812773,0.10605076736120361,-0.11246992783663798,-0.18912479058405374,0.39584704754770217,0.07593685646125926,-0.029615764077566335,0.09273324015738608,0.007153360419662971,0.07727342819730476,-0.020034541038638533,-0.023444214586546403,-0.004872279430591382,1
org.apache.velocity.runtime.RuntimeLogger,0.021261710697553563,0.07438310210182189,0.1808787273769571,0.4344633016566942,0.4813650323400425,0.051492707559584454,0.17536357655590726,-0.0918401206533136,-0.33971971274073953,-0.10833612319206691,-0.0380173818394627,-0.11913555150354145,-0.043414340232084604,0.10697820312937938,0.17944748079429643,-0.19822840104384504,0.08666328618677926,0.14919898385683053,-0.10682422576099095,-0.1683597811145932,-0.13234338574199295,0.15993976495687068,0.07770317903327675,0.23017725523048926,0.07514517537451411,0.06325008332051972,0.011836862938069587,0.07575570068397015,0.09417834885576351,-0.07637658103092336,-0.13583689369781712,0.22595538722832845,0
org.apache.velocity.runtime.RuntimeServices,0.20602823748136556,0.12113201690371259,0.4090899280073483,0.07484851725230021,-0.18770545957566,0.2836991444925442,0.23710882197183406,0.42621471353078244,0.09800189647878838,-0.11579269247644389,0.08445955703908324,-0.021529381588893493,-0.020833416346365867,0.13788832781189872,-0.21650479874713785,0.09789179346725213,-0.13424796905558622,0.2690843279510018,0.2265704405641793,0.006423926819562409,0.10069668159935358,0.14668529494062787,0.06298362877648889,0.15853882108868833,0.25127512361278403,-0.025075533215825584,-0.06671835323727146,0.13739992943711585,-0.1087113338616608,-0.0056091795267380696,-0.08886189725334884,0.020111856920626482,1
org.apache.velocity.runtime.RuntimeSingleton,0.09716829255895215,0.29212486226674644,0.3123626560586745,-0.03050360469434124,-0.056826640612770644,-0.09358693690272214,-0.19055422443705053,-0.2740654205011951,-0.13654540408047314,-0.13565615171773399,0.2587585722656982,-0.07059253454119874,-0.05204524363355309,-0.007288146945223157,0.035176560227775724,0.2745825893399545,-0.03566619563375278,0.06008317724539156,0.04626083792306953,-0.28411641074128213,-0.06914828004579317,-0.2704462729636372,-0.010927103473085167,0.5030124089416207,-0.058178062663756226,-0.05643074196244173,0.18513398579772541,-0.057796660617100246,0.06200579892973183,0.06007027091953213,0.1437206632854017,-0.061869324380096125,1
org.apache.velocity.runtime.VelocimacroFactory,0.10256847666059866,0.2620726651634086,0.23560374926394861,0.11235832430590788,-0.12117687857515033,-0.18147485151631734,-0.14588158998183215,0.12578357451747801,-0.08197838283816566,0.016999823094397716,-0.001051281020742849,0.15584378430543644,-0.07053363361966258,0.05858369248977921,-0.04892911380563387,0.2599574733159737,0.12016376742928728,0.20541123142351958,-0.009956637264481047,0.14423360431975374,0.1210456868137749,-0.2731318762855987,0.18693646154041324,0.24083962904182024,-0.15413300045082362,-0.1523136579898089,0.2827538425174171,-0.016533156740244512,-0.02194746165301048,0.4488590170324242,-0.2222451056511213,-0.1414257622301248,0
org.apache.velocity.runtime.VelocimacroManager,0.07269629642337765,0.2583394295562074,0.037507037017852934,0.08041284620385136,-0.09950511301870389,-0.048546978193798065,-0.10878320532002544,0.21855365197182197,-0.02152649096543137,-0.11155367455636693,-0.07393544027280516,0.024766283237149498,0.04319865628596757,-0.0831783237801933,0.21914643396498687,-0.029911510031295996,0.017373802465751792,-0.13091891985545231,-0.16276431487845608,-0.12054105742204527,0.19519634064885152,0.08280755454581513,-0.003984100475097428,0.15360796487310904,-0.11187156653741476,-0.07122959234696263,0.20344333143522828,0.03360249230298565,-0.09564838550018369,0.5932683255242146,-0.4606631135525612,-0.10528898663725979,1
org.apache.velocity.runtime.directive.Break,0.1288066259951574,0.4548457942655873,0.10975686639210686,0.03911124470085201,-0.1889970182712735,-0.07434180645441438,-0.4719850332309937,0.04723581485194798,-0.05137016695783085,-0.3868718427045273,-0.16350818499548103,0.03535243559894295,0.22734398245550003,-0.05889151030210109,0.10522045391421918,-0.28906344831015307,-0.10463155820319699,-0.06397096309119445,0.08570478199679424,-0.13184195138426733,0.03209837623003798,-0.07171502863298956,0.0823713831121341,0.15300933062785038,0.0341908916963079,-0.06493986241721816,-0.1844388561389485,0.11534376672900708,0.016249878176277596,-0.16449932692263525,0.09583251589881575,0.035641631059181826,1
org.apache.velocity.runtime.directive.Define,0.10533765872285583,0.3565972780449976,0.06748460338641409,0.12779550081054994,-0.04386321831412161,-0.15346646701344502,-0.3572745062863726,0.19220254460885394,-0.18424743382944037,0.15610715183037677,-0.02477885910614696,0.23207998718695563,0.21306899579724334,-0.14187974430259578,0.5099388451728756,-0.03540266960497063,-0.1408341967435194,0.03964051718788901,-0.034206247119986856,0.2549083450756614,0.07339573761060446,-0.23342563079861864,-0.04033598355726029,0.07714549408474393,-0.02641189738280722,0.0972216187979988,-0.20641907002363621,0.038850826015681926,0.025459950668306905,-0.02709551528380547,-0.018165569348790375,0.01398913857809457,1
org.apache.velocity.runtime.directive.Directive,0.1807117220716695,0.23231942374590814,0.2567060764485575,0.02140763113346325,-0.2898088950034992,0.2629356758675985,-0.2001503124247424,0.1601455412984083,-0.21747967796854697,-0.10992628650353364,-0.09024315279782766,0.13800027562168873,0.06992819249183856,0.03929311819346439,-0.1057366775890496,0.12737837775605554,0.04256423848920468,6.104200048211961e-05,-0.0616837062720816,-0.3163535369731595,0.25058361454772343,0.4197663051739628,-0.018072740870491377,-0.299931806735635,-0.04190883351306749,-0.007080988270543164,0.1772434943672913,0.023847025183242866,-0.15445003827699352,0.06899060827326396,0.04104439560211457,0.09331504940532304,1
org.apache.velocity.runtime.directive.DirectiveConstants,0.053076953689940705,0.11331815910961443,0.09743581158881569,0.025556215895369692,-0.13876054191034515,0.004861987023536516,-0.2694148664885045,0.07324548457644155,-0.1556524273728918,-0.0718911279960634,-0.045679505201051504,0.06731167206448611,0.15545166446664,-0.0915318922345772,0.329730152098517,0.03757241130286794,-0.016364885803219396,0.08111289983680323,0.07181758165488882,0.002143903718345364,0.10909003048025752,-0.41265884155694865,0.09243560996553672,0.628283925090394,-0.047642482192424375,-0.07638495220121304,-0.012534999150311895,0.05637162195777632,0.06620772677161099,0.05205609658555865,-0.06869765673771745,-0.2784647862585628,0
org.apache.velocity.runtime.directive.Evaluate,0.1099161857768808,0.44161072937475576,0.1287616299678264,-0.10193835939029543,-0.06681634336197534,-0.12189424432810748,-0.37446590128678875,-0.04995471960913649,-0.01878613715134937,-0.3555555302287668,-0.12089657570064771,-0.03454223723947856,0.19427684224743172,0.13023966614290766,0.2872429155319769,-0.07566034369143138,-0.11347662198480728,0.042903516503859165,0.14378916284205673,0.059598864344916624,-0.05486127924726425,-0.1602054440784164,0.17145191489797948,0.19659689385331836,0.1887470080096427,-0.06594820434739171,0.009015135548996984,0.1797233442317593,0.07892061673128954,-0.16224301747770922,0.018785397976310163,-0.2782746847725249,1
org.apache.velocity.runtime.directive.Foreach,0.159959752560922,0.4891115789337251,0.13777421606858392,0.05223770557814885,-0.017724665048882746,0.006149788215330948,-0.5458351060781913,0.04150463120938482,0.05782519622347629,-0.09211463781582606,-0.12520481100468794,0.0859311435095683,0.22984965830318285,-0.08895409344532514,0.19236133829442975,-0.10711750339624801,-0.2965574286801583,0.0361923529790873,0.03608669690364068,0.05722152299209638,-0.11016123863802237,0.048265552213036717,0.12040198571219966,-0.05175294321528092,-0.0036599574113427118,0.16375418635600655,-0.12216746664023408,-0.041656054738749844,-0.048950698168484616,-0.19499081847222258,-0.1618662083336223,-0.18377056731936828,1
org.apache.velocity.runtime.directive.Include,0.1036717573995182,0.46057386360291674,0.2188189853793875,0.054607990858619344,-0.05665093652721495,-0.3842130619065821,-0.23010605394931585,0.060872508828081644,0.08042458860087671,-0.15125930635685508,-0.23056654716923605,0.31075621483923627,0.10554089974397675,-0.14540270235247568,0.08907272425616286,-0.15721218650940094,-0.2807469979583253,0.12243682613518658,0.04715134055177946,-0.05362325354783521,0.1738201533319862,0.043313953109190444,-0.034749631465481816,0.04196455014978435,-0.03545240993170055,0.044145636327080046,0.09406178819953413,-0.05803649036823532,-0.034957377782019856,-0.06449482034036898,-0.002166391060088108,0.34640181951168536,1
org.apache.velocity.runtime.directive.InputBase,0.1299735374237019,0.24933285834712066,0.25095052165894816,0.047418946336517755,-0.19947913885170754,-0.05801739997313818,-0.004659914883095135,0.1918070790918825,0.05854986505588453,0.21789151598127748,-0.2374954163439817,0.07428124894351594,0.17673287837230053,0.004673164967050003,0.14225159288063347,-0.17582541631352133,0.39731803479887445,-0.012990387371881948,0.06551156898631828,-0.057111984494085555,0.050073159927779526,-0.2994665568853368,0.11752270709091216,0.4859298514673663,-0.1525443683557702,0.05121121544920396,-0.07333929063445452,0.09161204387874027,0.09192776891472725,-0.09100453286744854,-0.04883178328576267,-0.11840994262131647,0
org.apache.velocity.runtime.directive.Literal,0.07505370523716856,0.3567573865001406,0.0027249451904567956,0.03288936696658675,-0.07655348480830888,-0.10642346999219156,-0.33521040197591934,0.22565911076201048,-0.08115894567292589,-0.16452826342194662,-0.10256284190448646,0.07649612752313974,0.24945950578091414,-0.06438400809470826,0.48508752723350734,-0.10831737344395298,-0.06204656470951964,-0.06460580795489243,-0.03373346830895286,-0.013159485708214761,0.23596919071509362,-0.22134296696816905,0.042039174160640826,0.29238851896861057,-0.038047491363420845,0.014391118498781426,-0.18458278388706253,0.17795301254769696,0.11890865284582558,0.11971438968283278,-0.1509266772445514,-0.0466126242032415,1
org.apache.velocity.runtime.directive.Macro,0.09555596001860672,0.29480807756539706,0.029978468272533185,0.0773794188548486,-0.07970574349403306,-0.06628501799925317,-0.29078734184903776,0.17168245424106313,-0.17304083367829673,-0.2033121951378103,-0.039660109349617584,0.06632851868393118,-0.09243017933746793,-0.0522408245822245,0.5133247671985457,0.33171944060760034,0.06927139544247626,-0.010514146297800325,-0.054522311897063996,0.2671620122519301,0.10832443735335319,-0.2105284728674903,-0.13626742349973262,0.14706684844805287,-0.025989936935739595,-0.10202369407274087,-0.26285271101705,0.13228435412766745,0.040012570669434526,0.09929093490725543,-0.1541499606672736,-0.042662598443978066,1
org.apache.velocity.runtime.directive.MacroParseException,0.07133050761516932,0.1919374732803156,0.020876202158346284,0.07571041315017936,-0.04862809915647857,0.02524477939914396,-0.17330431612288202,0.1302306986723565,-0.24496332543181365,0.10797431181712312,0.06328898621089503,0.08493009881061492,-0.2296939591635487,0.031974697939415875,0.1852813837730694,0.5361290292863293,0.21473859554664432,0.05707792483977505,-0.06988667162535038,0.40284423791596685,-0.21691517264693028,-0.14453462074327755,0.10893298650935455,0.04593261011973032,0.09478815216055075,0.014407408858219303,0.12464428496044312,-0.17895204145716834,-0.25156846505260133,-0.07289774057923776,-0.052831047913803456,-0.12991237969158645,1
org.apache.velocity.runtime.directive.Parse,0.1181014910997409,0.5172107700261513,0.16051285400774487,-0.007650027781316726,-0.07049668215549754,-0.2928970941125311,-0.3296769427357995,-0.020162276025761507,-0.07203155979637399,-0.3127075641827981,-0.10135822492102749,0.15929272646576695,0.11877977879499026,-0.10449815244643987,0.0063497437093605925,-0.16866245556140919,-0.37839318711763265,0.05655655942974439,-0.01747547161231895,-0.06605855180010207,0.04325861204437536,0.15349376106743054,-0.04919885198215748,-0.08536396539903233,-0.013024908926117709,0.028758033449171327,0.12624897684353295,-0.14777525662907987,-0.057605911438968656,-0.0665170008758401,-0.05480201634796981,0.25499926851603605,1
org.apache.velocity.runtime.directive.RuntimeMacro,0.16268658007914627,0.4555957600232836,0.11406878364192413,0.08307322426178594,-0.11614714897800336,-0.1060145451314324,-0.5436125864133957,0.09898383871460834,-0.11434625624138073,-0.29118139097176604,-0.08495685987501843,0.15212364345855767,0.20250063281008965,-0.1544415249597289,0.3087747779872185,-0.14149579695195624,-0.12611111390011623,0.018097734258168994,0.09613584193215964,0.06483970521397195,0.10319987852422481,0.041028349563170384,0.06466686590732301,-0.03317104095773945,0.04825424315105882,-0.11005156378308306,-0.12823168741420202,-0.005609953782478918,-0.007346607877456856,-0.10762402500549227,-0.04276525188594686,-0.12607367883291845,1
org.apache.velocity.runtime.directive.VelocimacroProxy,0.17115744209642417,0.34669250197955853,0.141253090997588,0.1402298883471689,-0.17901473998693374,0.08007888110944773,-0.20149525523719486,0.24368574852577812,-0.18852139037260424,-0.1000082294812952,-0.1842940419800443,0.21787013842379244,0.21183840083502506,-0.11440706567548319,0.23203188978219808,-0.14309172380747617,-0.13343497866730297,0.0027976615264507215,-0.056714686815126016,0.09263404064528766,0.27780223175342034,-0.061807612251565704,-0.24778971882099549,0.0688996290513323,-0.04680071141468055,-0.13758040617668055,-0.035183901042956725,0.1405697572857802,-0.09408487401024342,0.4291553542099863,0.00032777686747133364,0.03611213503713526,1
org.apache.velocity.runtime.log.AvalonLogChute,0.009757556421672772,0.11697307209294949,0.103739251811346,0.17576945416554318,0.12380284995598248,-0.3289181475557845,-0.1178655926036092,0.4526351810453334,0.017470826194246614,0.12765510034325742,0.2011468163542906,-0.1571444105164616,0.07328937101372059,0.05959191240874213,0.1482170685878862,-0.10836616910720846,0.20630937819926354,-0.47264103311956657,-0.30956168283436997,-0.161162122040191,-0.09578721645261278,-0.03424937165582564,-0.12244806905142606,-0.04432879663464609,-0.08007567995890476,-0.015539204682312492,0.12303767327910757,-0.08827015073249232,0.015474232089745153,-0.1790845406665401,-0.030162029021135177,-0.005014713573804596,1
org.apache.velocity.runtime.log.AvalonLogSystem,0.006570915636175084,0.014749683960305817,0.05086994814325696,0.06322560045839785,0.013460773894003778,-0.050235049172581946,0.08938615457317439,0.42291494178161504,0.08664664559125888,-0.09573045615708503,0.3395126506223503,-0.20067545064267409,0.0877399882925918,0.19962079524997567,-0.09912335299989176,-0.0306017152045245,-0.1279112476733639,0.28510463303733796,0.21861789590944278,0.06854911539435242,-0.004878946599245318,-0.09689611394748363,-0.13898989923937305,-0.16823476212420205,-0.23715779897390943,0.2590489962751977,-0.11654583581204166,-0.2780757743651446,0.1841464720865891,0.1552166731349163,-0.016034091205828115,0.30559982172003847,0
org.apache.velocity.runtime.log.CommonsLogLogChute,0.007954927549432621,0.08408685006944454,0.09677200566385893,0.09617086607866127,0.06569236882461367,-0.25694674254073335,-0.12219068563016428,0.44315750900015816,0.07815223740461998,0.026733604251730513,0.20576638177703147,-0.19736008468334434,0.10097158943979087,0.04521073272008125,0.23017697365530457,-0.1628039920418577,0.27325840714396793,-0.3977681927643842,-0.3229849884539807,-0.21323434807819874,-0.12148391364477779,0.06646812266752178,-0.06905352102053787,0.017225898630583904,-0.07503303144311667,0.028908060952032067,0.12081593193973217,-0.033422229631652346,0.15120243867143585,-0.03853998027880241,-0.18392881515133697,0.15962848304175437,1
org.apache.velocity.runtime.log.HoldingLogChute,0.012579516747639307,0.10563740065927803,0.12096382024828083,0.17493741152902678,0.10392516320583048,-0.28067466200914626,-0.022741466456237827,0.5467911510303116,0.07779304309093012,0.018203360331031905,0.3005425348332757,-0.2623200138983523,0.08519797786603679,0.11413810207891405,0.11157641434559558,-0.1259641406535142,0.13231337501274654,-0.29361516937282317,-0.14928842991374588,-0.07904468941699168,-0.08902275316084834,-0.12477052745148262,-0.20640148336749614,-0.00725408602494111,-0.06439483977031765,0.024390478200971594,0.23830692498611772,0.08775852250540564,0.025959862615317852,-0.16580701048091862,0.18848437041347027,-0.09446279924009618,1
org.apache.velocity.runtime.log.JdkLogChute,0.007954927549432621,0.08408685006944454,0.09677200566385893,0.09617086607866127,0.06569236882461367,-0.25694674254073335,-0.12219068563016428,0.44315750900015816,0.07815223740461998,0.026733604251730513,0.20576638177703147,-0.19736008468334434,0.10097158943979087,0.04521073272008125,0.23017697365530457,-0.1628039920418577,0.27325840714396793,-0.3977681927643842,-0.3229849884539807,-0.21323434807819874,-0.12148391364477779,0.06646812266752178,-0.06905352102053787,0.017225898630583904,-0.07503303144311667,0.028908060952032067,0.12081593193973217,-0.033422229631652346,0.15120243867143585,-0.03853998027880241,-0.18392881515133697,0.15962848304175437,0
org.apache.velocity.runtime.log.Log,0.30945088919676084,0.046967474299715345,0.35442110477477556,0.3099552937132377,0.03674400951980416,0.23484305080690027,0.5035759119040852,-0.007162556667118437,0.009175570837734267,-0.359346488201321,-0.14798623827644522,-0.060410787672660005,0.1524017895657808,-0.1021514965454539,-0.0427112207622998,0.12053577865523989,0.06634208886460197,-0.05987918279243204,0.08911952746472035,0.23224030442307383,-0.06517370330054124,-0.10173036483800459,-0.04035333225710409,-0.05918152926830772,-0.008424596943182646,-0.04962868962996939,-0.12370118571391461,-0.0038198225518134505,0.22197030469153142,0.049749704903587474,0.018405299159186688,-0.0768183623233597,0
org.apache.velocity.runtime.log.Log4JLogChute,0.01398840834040281,0.1306260428217112,0.12459147700749815,0.17840422286255914,0.11756872466433696,-0.34170468708222795,-0.10552489933346822,0.43666066016739047,0.0475130581329778,0.12433899634893485,0.11156510569581238,-0.14269494321004275,0.037432829782777004,0.001516555703278019,0.06284161290688146,-0.1656240146419234,0.28307767641369613,-0.4344508855910225,-0.28551362115675166,-0.07205806811667737,-0.12016890050906749,-0.20419532049275047,-0.08756979328106515,-0.011672186842091656,-0.1832827423804813,0.002135733298512487,0.044430572186513015,-0.15491645189903014,-0.04903190876484177,-0.19154296040922036,0.03856578134065794,0.002220140550671446,1
org.apache.velocity.runtime.log.Log4JLogSystem,0.01109869861899086,0.018078169589922307,0.06744336296840929,0.06644558687162978,0.0039247946645110535,-0.03145042649748768,0.13125316674016343,0.3895695048631664,0.09380558779769932,-0.09935343969977141,0.2929327368149036,-0.11703360732720576,0.05892488497687968,0.12188583523894829,-0.0796888490082722,-0.013102816625058512,-0.2437122921079316,0.31542764139096513,0.20727558937974705,0.13332362746247098,0.03799815003031915,-0.011014709420912757,-0.19601362135980674,-0.2653223709094208,-0.18776146215549988,0.22156982960477178,-0.06810931528887715,-0.28880205071570186,0.2901865119215855,0.1629183096344796,0.11268242158758252,0.22739966979712892,0
org.apache.velocity.runtime.log.LogChute,0.016571976825635416,0.04480437651523058,0.1119455024198438,0.14083242489673142,0.04810032840460618,-0.0353722994480539,0.16741411301207987,0.5006476003608065,0.05852728463509712,-0.1337448808409363,0.3492627256953462,-0.1879245961691002,0.05730744908120944,0.24240121621505534,-0.13116947536742657,0.02851434302578399,-0.24889222045643777,0.4423904619270764,0.3452010283975941,0.09330216017665871,0.08007522751455014,-0.08919624541890533,0.04796678053349908,0.030551500278182753,-0.018538923348573412,0.03471075588125257,-0.0729620727397803,-0.02639886113036391,-0.11279225364279656,0.030609901086268033,0.00756087703369149,-0.004975194494099602,1
org.apache.velocity.runtime.log.LogChuteSystem,0.009962793443822435,0.06467699136043452,0.11095730838624226,0.10379825355136624,0.04480963319215146,-0.2429926034984437,-0.0064565031271846835,0.5206185627574261,0.1390183971021245,-0.03668316907141707,0.3297914446348727,-0.3497045128059996,0.10043425783702185,0.12170334654839503,0.040283663130313604,-0.196476934504516,0.20792803170366944,-0.17968497462466476,-0.09263774275554523,0.003873658820303971,-0.06976199663973803,-0.024394795968669017,-0.25120834480826193,-0.01690264829929594,-0.021404268647399926,0.13455877307484382,0.2148197215124683,0.00853525685725889,0.17908575508910962,-0.0420860743537546,0.2634823413270966,-0.05118673334164054,1
org.apache.velocity.runtime.log.LogDisplayWrapper,0.038845524978824465,0.14906472766677353,0.16190168307671648,0.23677452419159467,0.05723322089877422,-0.25444728093826263,-0.041634439106995776,0.3331307894858309,-0.06306767032532828,0.041540219679742946,0.06792639164689945,-0.061683438292389335,-0.01612695946767149,-0.007771666600313056,0.1766753809399985,0.07295131306470645,0.10565246323943493,-0.389245238712541,-0.29407031528191635,-0.08122285221807549,0.12314850467101006,0.004638745030314592,-0.4441251751788149,-0.1106645604798977,-0.16873502986672198,-0.1698263599874706,0.03295262043598213,-0.048477675665042984,-0.0868118384530682,0.19983161482864298,-0.2499605599799409,0.10564972590918462,0
org.apache.velocity.runtime.log.LogManager,0.027122556758118234,0.11800773898255604,0.19201464688606884,0.13677314580176642,0.09988805500376138,-0.26350238719423213,0.03153531459035057,0.5137484170431272,0.08609478431569642,0.044906553353943314,0.42924189724659323,-0.06235018005998211,0.04820043709345451,0.17575252054171486,-0.13335379510101567,0.03050142906658893,-0.10754335213538385,0.13980463527412348,-0.002383633648347149,-0.01599525264151997,0.0016422680656409555,-0.07366426716401117,0.017222755235858474,-0.2705164204793138,-0.26393921247912994,0.04943044497742565,-0.1453314541060925,-0.20966254055278802,0.006812796915486839,0.09927957971212455,-0.23665954298035863,0.15017762850463043,1
org.apache.velocity.runtime.log.LogSystem,0.008832821521275213,0.04092513818691345,0.08286327336555392,0.07896475332617489,0.019966053836124042,-0.1215743278204913,0.05428500668091912,0.5043565019318339,0.1353812696599965,-0.07945510672178203,0.35614845849800697,-0.2647483221150528,0.08221165295607595,0.15674698919292027,0.07147951185606517,-0.13005843508839074,0.02904025533378619,-0.1106148177939896,-0.017812069464727066,-0.08868909224405241,-0.1000514692653391,-0.09248173764057395,-0.11671961374620185,0.006609712026035422,-0.13617120112528255,0.02608577586211995,0.17111401033748655,-0.0024490821004278253,0.01255368766381356,-0.3558150541002712,0.3564667826309756,-0.286154956085991,1
org.apache.velocity.runtime.log.NullLogChute,0.006720159399965741,0.07121805408128845,0.085177352817957,0.08864481318259357,0.05844737050867528,-0.2335575514149009,-0.10097266418972117,0.4520662306274703,0.0860567604909166,0.01294357856850452,0.23576995204100204,-0.21675533875355002,0.10332968370894716,0.0669134218489636,0.2234117345216135,-0.17615178372553988,0.25973388085167176,-0.39511907337668706,-0.30570585460657107,-0.22257307054647066,-0.1403760860338459,0.04730525862762749,-0.10223410087113291,0.01634614325247503,-0.11033398106672818,0.037939863008063644,0.16735537267287937,-0.040117585278947314,0.15660921021496357,-0.16428244091510397,-0.06441676603502035,0.053591325918101805,1
org.apache.velocity.runtime.log.NullLogSystem,0.006400347320463414,0.016073911175435544,0.05471692439417593,0.05971534336625606,0.005742959428082465,-0.04062848994351764,0.08833997307398707,0.4520901783270756,0.08980391798244719,-0.08998586593731207,0.35552684415132657,-0.1986426676465243,0.07500364204189319,0.22446261743147053,-0.12241469418052722,-0.023012104764940356,-0.16575430060350596,0.34996722427299126,0.26168665331068325,0.055176986671398365,0.026501661644772842,-0.07160802031858353,-0.10841078444860294,-0.11728858770359538,-0.18124924409389087,0.24194093898528404,-0.11114125768460774,-0.23064409841466887,0.09985437992161411,0.1359697778488075,-0.02828401725032612,0.2944712792391959,0
org.apache.velocity.runtime.log.PrimordialLogSystem,0.008966862166167386,0.02585288444805745,0.07800128782982502,0.09642600949447493,0.031646371561011244,-0.10116579177946702,0.10745277318871184,0.5392701519919425,0.1100652966477587,-0.08061366336839391,0.44344866179615383,-0.23105651720541873,0.08933709900969071,0.22056577006134143,-0.027619575346628983,-0.07344917791990244,-0.0941340325553769,0.07282771544360975,0.022642018062396057,-0.04317073551080084,-0.07322065321716881,-0.07753634885573651,-0.06325286129822956,-0.16672227987906438,-0.29961177071897255,0.09101692979802457,-0.12676752832901672,-0.3149075257700197,0.11114607694710137,-0.012938222526473963,-0.0999391036656851,0.2081617154984959,0
org.apache.velocity.runtime.log.RuntimeLoggerLog,0.01847167352194584,0.08423806929291125,0.16728546014184822,0.4622692220981641,0.488497754593898,-0.017608683003821776,0.14618938564804532,-0.04207764632193549,-0.3766065159733035,0.007334486198839547,-0.013945239424722611,-0.05689360350607175,-0.07819365207210478,0.13591331722173136,0.10430441803750669,-0.17911386226294085,0.03890777126697617,-0.01564647112632116,-0.2367660338883745,-0.20280414751673148,-0.16818340289526038,0.1304029748274539,-0.06111111651610145,0.16442783628564106,0.031576099971942474,0.05326934636718894,0.01078794990305881,0.08115463136129834,0.003213134143127815,-0.0957147784184094,-0.09365281980465248,0.26916615872932426,0
org.apache.velocity.runtime.log.ServletLogChute,0.007954927549432621,0.08408685006944454,0.09677200566385893,0.09617086607866127,0.06569236882461367,-0.25694674254073335,-0.12219068563016428,0.44315750900015816,0.07815223740461998,0.026733604251730513,0.20576638177703147,-0.19736008468334434,0.10097158943979087,0.04521073272008125,0.23017697365530457,-0.1628039920418577,0.27325840714396793,-0.3977681927643842,-0.3229849884539807,-0.21323434807819874,-0.12148391364477779,0.06646812266752178,-0.06905352102053787,0.017225898630583904,-0.07503303144311667,0.028908060952032067,0.12081593193973217,-0.033422229631652346,0.15120243867143585,-0.03853998027880241,-0.18392881515133697,0.15962848304175437,1
org.apache.velocity.runtime.log.SimpleLog4JLogSystem,0.01174847437034889,0.11435613028269881,0.12885769292007943,0.09284037932873421,0.052503454399460345,-0.29661514526776983,-0.1406750101963124,0.5380007376734738,0.13253012799529038,-0.0012193716306574866,0.2674182607035471,-0.2198380545912492,0.12879930036819623,0.06420347061948459,0.18803711626418368,-0.1365377994844646,0.19684731862414198,-0.1993385367238417,-0.15815212139086587,-0.14455507202634663,-0.07519781444189169,0.08841701148370745,-0.004367254894574748,-0.06661820425926798,-0.10699569990214136,0.15299176071538734,-0.027780165134397405,-0.15015467532178914,0.22690356063276293,0.13731384819408016,-0.1528002625010888,0.23513278529541498,0
org.apache.velocity.runtime.log.SystemLogChute,0.011618268441910388,0.07626189844239976,0.11456993755662608,0.1085062611283013,0.05540013813294278,-0.21671879392482885,-0.025883436733257416,0.5076771786699618,0.12283314271666561,-0.05088823287289967,0.2764497990517318,-0.27887730344001355,0.09934156235934054,0.0782127060989078,0.20039599515761222,-0.17101107065403473,0.21499235593086952,-0.32897343738446233,-0.2309670947972937,-0.1496982541360929,-0.13342207131434794,-0.03733726561020423,-0.17886932836330235,0.03157504543088189,-0.06011918229486116,0.03083159336488302,0.25581064542407017,0.13590228666885848,0.13123535406573753,-0.11178165041860649,0.05195567768844168,0.012845910336854416,1
org.apache.velocity.runtime.log.VelocityFormatter,0.011215641835161792,0.01222171130265482,0.059215663089725,0.07390622110571973,0.0036761575587536443,0.026894210689264553,0.1577642408745314,0.3614386018178588,0.05894038990629714,-0.15657407428356854,0.26078047692272444,-0.16179537197354024,0.07227902258560553,0.2051782396648612,-0.15977511459455648,0.05679024935368155,-0.24152398013585835,0.4905865955163096,0.43397013643065346,0.1569325423506325,0.08588616233010814,-0.1326762113597153,0.009230790857522311,-0.0017674710805880933,-0.05258503646369642,0.13232196112884112,-0.1720880783237654,-0.10497685540039096,-0.053386304552866116,0.1336759285744287,-0.015355170414033423,0.13169751605345809,0
org.apache.velocity.runtime.parser.CharStream,0.04044125872794359,0.10813703803009234,-0.10407428800074264,-0.0021415770104276817,0.011494370423945705,0.02311844898192246,0.0720395444857927,0.03405757163370719,-0.009482812960147769,-0.018908454206186923,0.10826683656345415,-0.04261655990638866,-0.29311218966447217,0.046381290377692896,0.04745950198751707,0.3609863383782433,0.23686410271803493,0.018651158585591323,-0.12485015194553829,0.16252955653116022,-0.22691885033212825,0.11177172060636803,0.11643666999913714,-0.12452468087356382,0.1921835536321825,-0.10119464866243529,-0.11061800824097558,0.15146259844086,-0.5796167357483809,-0.3057085061236794,0.15426565794296526,-0.08447275807450547,0
org.apache.velocity.runtime.parser.JJTParserState,0.0758347284202287,0.5145223362454714,-0.30529674247901684,0.00762968358334928,-0.048933887495046326,0.03863139857705272,-0.0490413116605597,0.09351103505314436,-0.09145420116705073,-0.012839463838882667,0.021796357996686014,0.045755769393582606,-0.08768449986488734,-0.07051335748949474,0.18977940538776908,0.1709999883154397,-0.017994611736171718,-0.04775529550740459,-0.15804457534774016,-0.007112689326786974,0.12034475880224926,-0.08398311798184396,0.21937685103097243,0.11005091002640684,0.081565978502396,0.15458077715599514,0.06707878782964435,0.035918740586085365,-0.5387810274468505,0.11226596432465252,-0.19190757917142098,-0.21619057439658804,0
org.apache.velocity.runtime.parser.ParseException,0.1733721182663745,0.18209832164987977,0.2156687664854358,-0.004618817741598268,-0.18320859489750285,0.10283616231257704,-0.19347517373444562,0.01628963017832176,-0.21597199401395753,-0.25873463579259587,0.10035834210103897,0.00048547883022332804,-0.2102266994676848,0.04568595778480442,0.17497919446603577,0.3932438508895597,0.1646417189120859,-0.01781089920300326,-0.09434318166968089,-0.05669592409302437,0.14142340651988716,0.21674292556634978,-0.22564812507877527,-0.35129511060986574,-0.12976354832064857,-0.1049381318931797,-0.13314649342238802,0.1007624241946176,0.20218616846617232,0.11626408034348361,0.09314423269874599,0.23143501398564448,0
org.apache.velocity.runtime.parser.Parser,0.7814335282595135,-0.2322387274380232,-0.20076789087140268,-0.006740660518416224,0.09032690567592672,-0.17589539010938188,-0.057688913734462804,-0.04145019237066579,0.02384899040115486,-0.1477677570788349,0.07595148688965396,-0.03648982683385788,-0.29365803363127024,0.024549458723856003,0.11751767626817641,0.134925077419019,0.03800413710489268,0.06613049428925369,0.026894449325432414,0.072513139259168,0.07520022344262334,-0.03745850782642847,-0.050063606031728256,-0.0005520814209558386,0.05928259576050564,-0.131203135306968,-0.16573756772125475,0.09465044835140733,-0.09941613467611055,-0.11531309386943997,-0.02601319881432529,-0.013951308876764565,1
org.apache.velocity.runtime.parser.ParserConstants,0.028196819407321286,0.19219977187440196,-0.1758651325268663,-0.010385880608035171,0.0065067248668253174,0.053675460944988006,0.08760086279786283,0.02878184809419917,-0.025130720169374912,0.04508842819045884,0.09159217802095088,-0.04400532946744319,-0.31761203153444434,0.04717934022799873,0.036776647758903915,0.3808913959505346,0.2710119270452863,-0.0010426606461052717,-0.14721360801515423,0.18981505514628644,-0.2897552833579936,0.14734461317810507,0.09427452657294934,-0.1453714143851991,0.1473023230043622,0.02379296249290567,0.014885718357260014,0.0149133903329275,-0.509788724048,-0.28813658030216965,0.15131676413670683,-0.043892779907340154,1
org.apache.velocity.runtime.parser.ParserTokenManager,0.043221025031696614,0.09772847297760638,-0.08600468044644358,-4.731500484914149e-05,0.011930348233330753,-0.013173991461978491,-0.051811363253472624,0.023655876043868887,-0.04701735482431973,0.0026134272124538876,0.10564276515378183,0.024289041640491893,-0.19223305016629158,-0.017162662031495184,0.2738479015877115,0.2964792069559392,0.16739724892803323,0.08875300971794028,0.008552278759387777,0.33923629464290994,-0.2535995342834406,0.11197460014362952,-0.10692723935892635,-0.14107353606280235,0.12315545595384725,0.003370049686443429,-0.24904905001329836,-0.00957147625627335,-0.5543202107388687,-0.3304203025429584,-0.07380445275231437,0.07130973897048383,1
org.apache.velocity.runtime.parser.ParserTreeConstants,0.06406166444041166,0.2034805906841232,-0.09982655357723834,0.015427658459513336,-0.07031995259402532,0.1400573508649869,0.025975432768461006,0.13921385386873258,-0.13783162984940533,-0.007004476406100916,0.024501145861697878,0.03268203278189979,-0.29469283370072213,0.09856060221126095,-0.017135200699586392,0.5486077735674193,0.3139043720537745,0.04014110661070186,-0.16151224261846825,0.1984876933780867,-0.1441778977857492,0.20995343363671282,0.09500883716215006,-0.20353491887585295,0.061022221018028136,-0.05733417585185945,0.24834414108850938,-0.050325826277504725,-0.3581294572074568,0.004693693198000412,0.025883616595104124,0.004026213797217983,1
org.apache.velocity.runtime.parser.TemplateParseException,0.058891757457749494,0.20932965191405836,-0.0008053795580523099,0.07818595911979258,-0.01832609993118817,-0.023897956321284875,-0.1703129734373352,0.09082702583044325,-0.22536341270778498,0.15918398005191475,0.09819505151034137,0.07348595166426504,-0.19751222560540738,-0.0050383710833590304,0.23783487548369553,0.47027782885960123,0.18173826029688828,0.05152371979151186,-0.037688517418318725,0.4125941012297023,-0.26165353803004066,-0.20344883980162665,0.08762895549669983,0.10981041183168645,0.1023435581184476,0.06225591651997207,0.04575808718293962,-0.18950469623587893,-0.2667393219876344,-0.12152377829537372,-0.04781383676333343,-0.15170199843990267,0
org.apache.velocity.runtime.parser.Token,0.32210988405361984,0.09317576766573996,0.045118839747383975,0.00024130118405716615,-0.08098394081343223,0.29421108546659636,-0.1742331876174521,0.17197388967207872,-0.06111834922264822,-0.18856532075533322,-0.19470104871762733,-0.07174673605532149,-0.5024682311152564,0.20278674165958335,-0.21103350106769922,0.12863795805722678,0.04027829641463634,-0.15117125559869735,-0.17771796791962968,0.1525884612289253,-0.06842578020247048,-0.1476981180183901,0.19723292073273058,-0.0963401245786101,0.06751923711950629,0.04181090134679841,0.05534905275420072,-0.03946151431618027,0.3441330877166606,-0.09885395567994094,0.03957424509430342,0.027097372880200758,0
org.apache.velocity.runtime.parser.TokenMgrError,0.028196819407321286,0.19219977187440196,-0.1758651325268663,-0.010385880608035171,0.0065067248668253174,0.053675460944988006,0.08760086279786283,0.02878184809419917,-0.025130720169374912,0.04508842819045884,0.09159217802095088,-0.04400532946744319,-0.31761203153444434,0.04717934022799873,0.036776647758903915,0.3808913959505346,0.2710119270452863,-0.0010426606461052717,-0.14721360801515423,0.18981505514628644,-0.2897552833579936,0.14734461317810507,0.09427452657294934,-0.1453714143851991,0.1473023230043622,0.02379296249290567,0.014885718357260014,0.0149133903329275,-0.509788724048,-0.28813658030216965,0.15131676413670683,-0.043892779907340154,0
org.apache.velocity.runtime.parser.VelocityCharStream,0.02167199938068706,0.15792545618985027,-0.14578244630917458,-0.003580084998039307,0.015825851504295392,0.004517140852079908,0.06764690782397183,0.019999105642643594,-0.021175762996343005,0.060852916563926794,0.1122660086498765,-0.033484010128591805,-0.21014610037244388,0.00496701012042273,0.10912824720629521,0.3252813168796805,0.23168469526802385,0.025038850397005277,-0.06437189819536378,0.17864020017675405,-0.24960047055211323,0.16875743438308136,-0.03642725580349548,-0.11839290117083141,0.1447606063842826,0.010539210345469775,-0.10715578518367426,-0.009544401456134019,-0.678586036975695,-0.27954616084502587,-0.01938448882865841,0.013161699760628963,0
org.apache.velocity.runtime.parser.node.ASTAddNode,0.08871741217698272,0.5043341732643927,-0.3906564010295358,-0.009872701561033736,0.015030858364125214,0.08484039510835283,0.30395153700226185,0.031570228750290516,0.020425802171235918,0.1756256821750637,0.00798667707141555,-0.016557871042009325,0.06733085469975633,0.02111915536884556,-0.1407431217214352,0.1051995667859912,0.09236890279315135,-0.027744507080436482,-0.08255387632217004,-0.10828944043480034,0.3135915633877578,-0.1271844808981908,-0.07431960573096966,0.04289531277171413,0.051628126334414916,-0.3978538958033734,-0.09516236658514003,0.04700509098406096,0.15696211110881425,-0.23398789439336382,-0.12366521839950713,0.013534989398007385,0
org.apache.velocity.runtime.parser.node.ASTAndNode,0.12802775258130922,0.7177880145122275,-0.4472007676798036,-0.05009657637130698,0.013389306421335614,0.1403380071255239,0.07990390240070536,-0.0171201827789794,0.07360217918235393,-0.044742901397119006,-0.04077980028866711,-0.07028495395575073,-0.019355103202169648,0.007844340979549216,-0.10756445455491483,-0.20289784240486522,-0.15238249986618288,-0.03355288622776039,-0.0001663150812540989,-0.07178967154976251,-0.11435981828011445,0.023661442022621056,0.09707315612069188,0.030737447922108457,-0.08359649979896823,0.19508403224478205,0.053646741773742644,0.030700659443886974,0.052771837088792656,0.17688065258289595,-0.11387698003894475,-0.15076818150434348,0
org.apache.velocity.runtime.parser.node.ASTAssignment,0.062233633865659506,0.5573585017432477,-0.4731432692128309,-0.03157820583695426,0.025291172383040805,0.11689691210215823,0.315308246359141,-0.049649844832022116,0.05757687122507412,0.15942060633162328,0.15056692965923305,-0.07930731193808437,-0.17960844074900512,-0.013327240715308305,-0.05512962148980381,0.08101982405608878,0.16265008924504537,0.0772762954398585,0.040231590275055545,0.005668339913959562,-0.24801920780557868,0.2094650493756986,-0.03277083336778396,0.0243926159067347,-0.07687557688345698,0.11374332112045706,0.18747791023991506,-0.06165280677098341,0.11046435871938917,0.17066015699193676,0.06526636556774845,0.013363948718106724,0
org.apache.velocity.runtime.parser.node.ASTBlock,0.10601501488378573,0.7311159654879067,-0.3286335180271824,-0.019090726711559182,-0.10209234117990207,-0.0668713967050833,-0.0457562007286635,-0.1666273865486188,0.035373280339500504,-0.24866441578308346,-0.025498228040025717,-0.08222412864348366,-0.015048918636594948,-0.02601259123902749,-0.1931579006072711,-0.20631556815030774,-0.07014207135373844,0.05340800734940588,0.13478405059393844,-0.19600506671051238,-0.18341107656638464,0.15728263466577672,0.07259181196956148,0.03501254684405933,-0.041191352172788,0.019019802345959607,0.03650172658901179,-0.040222468539490505,-0.004206372815690606,-0.07418381740525941,0.07520249056806116,-0.06650134026663285,0
org.apache.velocity.runtime.parser.node.ASTComment,0.10123496543982283,0.6493350746357034,-0.2571716312391583,-0.019375023693657914,-0.1007119060122231,-0.08651631901544576,-0.132633618190026,-0.17259236442495188,0.0015945521867255293,-0.25818955723809245,0.02037047799127981,-0.048182776351545546,-0.05323137476013457,-0.028180257049764665,-0.03444744162340243,-0.0786740616975896,0.016436931616975063,0.12025538291186566,0.17793189945952906,0.032924947304043266,-0.4040271809723184,0.24062487334498653,-0.016545622543728343,-0.0734135488854958,-0.029745177674123546,0.05998627945011765,-0.048579900882971344,-0.08814958226668196,-0.08794383593823178,-0.19725915765681187,0.14104447057893119,0.027584607673466023,1
org.apache.velocity.runtime.parser.node.ASTDirective,0.1726555359459377,0.6709907337442658,-0.0515820274642308,0.05074664322095901,-0.23922174623475528,0.03312538662938559,-0.31873598565810973,0.10777032123156659,-0.15098279826704258,-0.26068529745340663,-0.14618602471219846,0.02169850539449664,0.04352995395697158,-0.09824144481232021,0.028890106959640217,-0.05288075185662878,0.047942018316653956,0.03707865988310233,0.02185205781033825,-0.022591699833217464,-0.08930039360285014,-0.15902123782372363,0.15650696722518323,0.3091446927025514,-0.10499271559535489,0.0008630170290609119,0.05868197765821187,-0.07366372380005023,0.05587974971799915,0.05202792476371043,-0.03185196713316541,-0.1752045321397972,1
org.apache.velocity.runtime.parser.node.ASTDivNode,0.06923526395925998,0.40954429573963547,-0.295926797204312,0.05218804641212423,0.06719124831926115,0.013043942623685002,0.32684836167291786,0.0325869865176898,0.01492124628858195,0.208066221360562,-0.00731922139265629,-0.01673910326988193,0.0528819563282131,0.015709061211888888,-0.19548055384496932,0.17437630290545797,0.1525242403450757,-0.08508607637845204,-0.1269566370004843,-0.042013448886931,0.3081800706856321,-0.183245232994977,-0.1454815058291215,-0.03816408394202509,0.08792714656945691,-0.38114455230980016,-0.1593484888438003,0.03304876893869791,0.07143620859242389,-0.3245190778227738,0.02986968607981426,0.13689454582483113,0
org.apache.velocity.runtime.parser.node.ASTEQNode,0.07729149082310786,0.625346401767471,-0.4052170819874467,0.031417285560654616,0.04139054288978227,-0.018149289354412262,0.19361666828256704,-0.005809646526744834,-0.017323415874534627,0.10172871551491683,0.011948180176294178,-0.020785955517289224,0.043670867594600274,-0.002328761520355695,-0.1434048537176768,-0.04046425469069556,-0.09301073060232018,-0.12104380206279251,-0.06756400489161325,-0.18800597053762866,0.4263476646851823,-0.20665265763731697,0.04064654214562311,0.001366384603406119,0.11886293702194636,-0.11655723416475505,-0.06736772524976371,0.021103567222702936,-0.19365704584485435,-0.014455893976713315,-0.04567280397314161,-0.03219511997637513,0
org.apache.velocity.runtime.parser.node.ASTElseIfStatement,0.10601501488378573,0.7311159654879067,-0.3286335180271824,-0.019090726711559182,-0.10209234117990207,-0.0668713967050833,-0.0457562007286635,-0.1666273865486188,0.035373280339500504,-0.24866441578308346,-0.025498228040025717,-0.08222412864348366,-0.015048918636594948,-0.02601259123902749,-0.1931579006072711,-0.20631556815030774,-0.07014207135373844,0.05340800734940588,0.13478405059393844,-0.19600506671051238,-0.18341107656638464,0.15728263466577672,0.07259181196956148,0.03501254684405933,-0.041191352172788,0.019019802345959607,0.03650172658901179,-0.040222468539490505,-0.004206372815690606,-0.07418381740525941,0.07520249056806116,-0.06650134026663285,0
org.apache.velocity.runtime.parser.node.ASTElseStatement,0.07275268005774864,0.6408972522907483,-0.5028173432160743,-0.049551460833919564,0.02364408583468244,0.10603170290657117,0.30939276987561537,-0.03982475813802278,0.06249982990313617,0.1515861159906981,0.08955801621838182,-0.05985263856411707,-0.11134517461575576,0.04668700662040585,-0.007214236172029621,0.028593956870222717,0.13782921334312143,0.07252316154954201,0.05460792224497354,-0.0014146632200919991,-0.1911716247428196,0.15933709518890715,-0.041188828949987114,0.041759505023906594,-0.08190171057810902,0.08327070851404983,0.11773141636908119,-0.01768514497255172,0.15207414475711764,0.13834870426836876,0.05291969107736747,0.011500915180247621,0
org.apache.velocity.runtime.parser.node.ASTEscape,0.07275268005774864,0.6408972522907483,-0.5028173432160743,-0.049551460833919564,0.02364408583468244,0.10603170290657117,0.30939276987561537,-0.03982475813802278,0.06249982990313617,0.1515861159906981,0.08955801621838182,-0.05985263856411707,-0.11134517461575576,0.04668700662040585,-0.007214236172029621,0.028593956870222717,0.13782921334312143,0.07252316154954201,0.05460792224497354,-0.0014146632200919991,-0.1911716247428196,0.15933709518890715,-0.041188828949987114,0.041759505023906594,-0.08190171057810902,0.08327070851404983,0.11773141636908119,-0.01768514497255172,0.15207414475711764,0.13834870426836876,0.05291969107736747,0.011500915180247621,1
org.apache.velocity.runtime.parser.node.ASTEscapedDirective,0.08424153578625222,0.6173134214360342,-0.45951222921248286,-0.04121653174367595,0.015936323434089995,0.10020892377638553,0.18788589710780826,-0.012489631257965289,0.01005348643666713,0.1346194528721716,0.1185711572712193,-0.0004318911153024187,-0.12647408518353875,0.015410225178706763,0.19005506328871433,0.11751730693469886,0.15625071316610223,0.11975308078001719,0.0809427378297611,0.2125268832340104,-0.2964207753591009,0.16434057865056445,-0.09368367315916597,-0.021531784387413815,-0.06887794446427596,0.12079215679956654,0.020145078839865303,-0.04770809742731917,0.0915884420854328,0.07185071283917749,0.03008035769236208,0.06096465510755036,1
org.apache.velocity.runtime.parser.node.ASTExpression,0.19630848498430983,0.6601178084181213,-0.4001803215038377,-0.06261445852922902,0.024993354367964876,0.21356187091394185,0.055070551754551736,0.057373154619721374,0.07802785851458675,-0.031158244498394667,-0.10263880750923733,-0.07817605672527826,-0.07701167734651268,0.017040474256749427,-0.2046363083760131,-0.24494603907638823,-0.15279199597387508,-0.06420429993539917,-0.00042829180724476606,-0.006639191821017231,-0.18373695949743363,-0.002110233136412006,0.11713839554400829,0.06945774281180343,-0.06158279969680137,0.17756970052793353,0.03896385662717135,0.011208637690885431,0.08720749588810511,0.1461753551417505,-0.13074938447656195,-0.1201135283500508,0
org.apache.velocity.runtime.parser.node.ASTFalse,0.07275268005774864,0.6408972522907483,-0.5028173432160743,-0.049551460833919564,0.02364408583468244,0.10603170290657117,0.30939276987561537,-0.03982475813802278,0.06249982990313617,0.1515861159906981,0.08955801621838182,-0.05985263856411707,-0.11134517461575576,0.04668700662040585,-0.007214236172029621,0.028593956870222717,0.13782921334312143,0.07252316154954201,0.05460792224497354,-0.0014146632200919991,-0.1911716247428196,0.15933709518890715,-0.041188828949987114,0.041759505023906594,-0.08190171057810902,0.08327070851404983,0.11773141636908119,-0.01768514497255172,0.15207414475711764,0.13834870426836876,0.05291969107736747,0.011500915180247621,0
org.apache.velocity.runtime.parser.node.ASTFloatingPointLiteral,0.0921730254083566,0.6124920193528304,-0.3979261925273914,-0.028172342375997975,-0.007053512449334478,0.0838456166256266,0.051514867418043876,0.021175078850235687,-0.02826953629488541,0.0220368264179447,0.07107127455645072,0.05042765361970326,-0.052549958828000835,-0.03263224117737253,0.3445667883811987,0.11116387823350694,0.10539973125720246,0.1357395935610323,0.09272123887805638,0.27251634227305394,-0.22121470993955342,0.14471740151707346,-0.16270949467532,-0.051319236134758715,-0.09806352028011384,0.13643893076504815,-0.09846090287384174,0.03387894883123075,0.14550632649916567,0.08359572968531859,0.05127349474180871,0.14832496541752516,0
org.apache.velocity.runtime.parser.node.ASTGENode,0.07729149082310786,0.625346401767471,-0.4052170819874467,0.031417285560654616,0.04139054288978227,-0.018149289354412262,0.19361666828256704,-0.005809646526744834,-0.017323415874534627,0.10172871551491683,0.011948180176294178,-0.020785955517289224,0.043670867594600274,-0.002328761520355695,-0.1434048537176768,-0.04046425469069556,-0.09301073060232018,-0.12104380206279251,-0.06756400489161325,-0.18800597053762866,0.4263476646851823,-0.20665265763731697,0.04064654214562311,0.001366384603406119,0.11886293702194636,-0.11655723416475505,-0.06736772524976371,0.021103567222702936,-0.19365704584485435,-0.014455893976713315,-0.04567280397314161,-0.03219511997637513,1
org.apache.velocity.runtime.parser.node.ASTGTNode,0.07729149082310786,0.625346401767471,-0.4052170819874467,0.031417285560654616,0.04139054288978227,-0.018149289354412262,0.19361666828256704,-0.005809646526744834,-0.017323415874534627,0.10172871551491683,0.011948180176294178,-0.020785955517289224,0.043670867594600274,-0.002328761520355695,-0.1434048537176768,-0.04046425469069556,-0.09301073060232018,-0.12104380206279251,-0.06756400489161325,-0.18800597053762866,0.4263476646851823,-0.20665265763731697,0.04064654214562311,0.001366384603406119,0.11886293702194636,-0.11655723416475505,-0.06736772524976371,0.021103567222702936,-0.19365704584485435,-0.014455893976713315,-0.04567280397314161,-0.03219511997637513,1
org.apache.velocity.runtime.parser.node.ASTIdentifier,0.09344583452614279,0.5288000091253607,-0.08879751244161584,-0.028400081077113008,0.28338553387468346,0.04968471313723002,-0.25581989390007914,-0.0034362142881385577,0.25854420223394864,0.0672660113411658,0.09145189087810261,0.225833850954855,0.14663381921601662,-0.026346701321882313,0.33633869040255054,0.021601745954182766,-0.03114531058411053,0.13026476432868786,0.1308027120448792,0.29477208534330734,-0.0003232433755654187,0.10451722331373822,-0.05696130878953784,-0.24247668042691178,0.006312734764811602,-0.0013433464465919041,0.05812125250065823,-0.03527936713127197,0.19174064723229178,-0.06501339930056993,0.1387241573447085,0.16850162586036033,0
org.apache.velocity.runtime.parser.node.ASTIfStatement,0.1289786133956631,0.6927302166984081,-0.2918102279194604,-0.028314910223438176,-0.06809083673821026,0.0013115379004038311,-0.08861729381028946,-0.13048697862629743,0.08295288735440703,-0.24651095819386312,-0.07974018104543963,-0.10402674328964842,-0.027627110056269534,-0.02214192769438505,-0.25445977747822673,-0.25070621756638845,-0.13637440325521658,0.006806368338917372,0.0903606183543424,-0.1638771395614523,-0.24895962990759954,0.11775163645607159,0.10960439645530033,0.021932654923178113,-0.07475527947268114,0.09283900394527911,0.010060339683383207,-0.009359266296521375,0.03292007126782548,-0.04662961096102554,-0.0038642160692000426,-0.12106140934762953,0
org.apache.velocity.runtime.parser.node.ASTIncludeStatement,0.05009771039438878,0.4842139835056099,-0.39441114661298715,-0.028506217071158763,0.00762117014177859,0.08582173117450342,0.22643384999267166,-0.04542415172616686,0.01881761876401256,0.1096527010989181,0.1570269649759341,-0.06862548570089344,-0.20104900239972953,-0.01923215982099027,0.020421287697764565,0.1832211763385802,0.1835243049276023,0.08289084412170113,-0.0008146920493594227,0.048378789423674934,-0.3352117034780357,0.22910705785385851,0.027259739608427477,0.03358069785283503,-0.046709170470738165,0.25856627224263,0.25981317376481217,-0.0937957726891359,-0.13658188145918418,0.2132771536751609,0.10042775702948843,-0.013624724372275342,0
org.apache.velocity.runtime.parser.node.ASTIntegerLiteral,0.0921730254083566,0.6124920193528304,-0.3979261925273914,-0.028172342375997975,-0.007053512449334478,0.0838456166256266,0.051514867418043876,0.021175078850235687,-0.02826953629488541,0.0220368264179447,0.07107127455645072,0.05042765361970326,-0.052549958828000835,-0.03263224117737253,0.3445667883811987,0.11116387823350694,0.10539973125720246,0.1357395935610323,0.09272123887805638,0.27251634227305394,-0.22121470993955342,0.14471740151707346,-0.16270949467532,-0.051319236134758715,-0.09806352028011384,0.13643893076504815,-0.09846090287384174,0.03387894883123075,0.14550632649916567,0.08359572968531859,0.05127349474180871,0.14832496541752516,0
org.apache.velocity.runtime.parser.node.ASTIntegerRange,0.10257359516949979,0.8028939786029036,-0.47701841969960385,0.033890167409706684,0.03809894781807275,-0.02026591938237147,0.12480928508263174,-0.011334840474082944,-0.027160527401063842,0.05814059870773278,0.015332840380507527,-0.010090666376391295,-0.015830137090950706,0.0013606254294212302,-0.05206400738318765,-0.1067969426855438,-0.09687901644918492,-0.04811995207626771,0.026829802006582058,-0.06695745252836949,0.008871731076119877,0.01238141538577551,0.044025757594090845,0.013532259701828248,-0.023347268483991938,0.08673910408667741,0.05818945209347444,-0.024785203892461156,-0.06513494558449992,0.17987152310890023,-0.026071876681164785,-0.10559512431938087,0
org.apache.velocity.runtime.parser.node.ASTLENode,0.07729149082310786,0.625346401767471,-0.4052170819874467,0.031417285560654616,0.04139054288978227,-0.018149289354412262,0.19361666828256704,-0.005809646526744834,-0.017323415874534627,0.10172871551491683,0.011948180176294178,-0.020785955517289224,0.043670867594600274,-0.002328761520355695,-0.1434048537176768,-0.04046425469069556,-0.09301073060232018,-0.12104380206279251,-0.06756400489161325,-0.18800597053762866,0.4263476646851823,-0.20665265763731697,0.04064654214562311,0.001366384603406119,0.11886293702194636,-0.11655723416475505,-0.06736772524976371,0.021103567222702936,-0.19365704584485435,-0.014455893976713315,-0.04567280397314161,-0.03219511997637513,1
org.apache.velocity.runtime.parser.node.ASTLTNode,0.07729149082310786,0.625346401767471,-0.4052170819874467,0.031417285560654616,0.04139054288978227,-0.018149289354412262,0.19361666828256704,-0.005809646526744834,-0.017323415874534627,0.10172871551491683,0.011948180176294178,-0.020785955517289224,0.043670867594600274,-0.002328761520355695,-0.1434048537176768,-0.04046425469069556,-0.09301073060232018,-0.12104380206279251,-0.06756400489161325,-0.18800597053762866,0.4263476646851823,-0.20665265763731697,0.04064654214562311,0.001366384603406119,0.11886293702194636,-0.11655723416475505,-0.06736772524976371,0.021103567222702936,-0.19365704584485435,-0.014455893976713315,-0.04567280397314161,-0.03219511997637513,1
org.apache.velocity.runtime.parser.node.ASTMap,0.10007802816057647,0.7647008813795526,-0.5094376078224865,-0.041733053182537956,-0.017065330799720203,0.07605445075886465,0.15202732142006556,-0.04602821766932159,0.015213130579807402,-0.022055804209669256,0.02916540933415999,-0.0399311526588764,-0.003275147288391203,0.007041962594675175,-0.015348652083051797,-0.1430454287529837,-0.07480054609741137,0.017079341345775205,0.041529321082402905,-0.09850271167331295,-0.018888141447411466,0.059236495063178976,0.050910593523818486,0.047433769802186276,-0.04413060847353405,0.11900351702905497,0.09046756147967693,-0.0012387887485863396,0.010794405867762941,0.17129580002525266,-0.03283369750836293,-0.08869812261972651,0
org.apache.velocity.runtime.parser.node.ASTMathNode,0.16490504373321033,0.1861072628734171,-0.16505154007462197,0.049380616194327244,0.07723358755727729,-0.19139897423728192,0.039251450580659444,0.022988819634151135,0.03814880466548618,-0.20133680167356227,-0.08087362997619447,0.008766803787233905,0.3089303225076077,-0.09208866889081398,0.0395590592622582,0.2579494661575509,-0.09059708441119076,-0.07937953153744594,-0.20784903621286022,-0.06067610306123598,0.30142995239231296,-0.19569567611897626,0.17973662993327236,-0.03969302670574948,0.1817130309717451,0.4779060396446631,-0.02084149404616377,0.09075523475931108,-0.2097394379923864,-0.024391232896071615,0.21196014594854826,0.2432388362005971,0
org.apache.velocity.runtime.parser.node.ASTMethod,0.12428793709932343,0.5756241207454844,-0.09461485564938406,-0.03694501160479999,0.2860593066611173,0.10342444822378834,-0.31528276746707773,0.019526837427133452,0.28483158071696374,0.027036646944345603,0.030432767461547012,0.21208338995178952,0.15433634057410717,-0.035713670884472686,0.29125146951158115,-0.052007050580520416,-0.12949453979047387,0.08817900733487032,0.09705802624077604,0.27707352382077743,0.0022506601609240838,0.03797460999181604,0.014407854340353217,-0.20945652218171595,-0.020138306348548206,0.07152023896713289,0.044977530106968526,-0.0016938068815812227,0.19657306424209142,-0.010459550449842234,0.03389161574850167,0.08051009033877762,1
