name,Size,Ties,Pairs,Density,nWeakComp,pWeakComp,2StepReach,ReachEffic,Broker,nBroker,EgoBetween,nEgoBetween,Closeness Centrality,Betweenness Centrality,in_degree,out_degree,degree,vector_0,vector_1,vector_2,vector_3,vector_4,vector_5,vector_6,vector_7,vector_8,vector_9,vector_10,vector_11,vector_12,vector_13,vector_14,vector_15,vector_16,vector_17,vector_18,vector_19,vector_20,vector_21,vector_22,vector_23,vector_24,vector_25,vector_26,vector_27,vector_28,vector_29,vector_30,vector_31,bug
bsh.ASCII_UCodeESC_CharStream,3.0,3.0,6.0,50.0,1.0,33.33333206176758,9.722222328186035,62.5,1.5,0.5,0.0,0.0,0.0,0.0,3.0,0.0,3.0,0.2916341349918423,-0.023548818186444546,-0.5526974765611509,-0.02076444067260861,0.01470120495116062,-0.006798168531818909,0.0014833436007076093,-0.012545164862514693,0.027970282521691488,0.17929166044949896,-0.43140980048787764,0.04299457313198541,-0.2153864763021948,-0.08597913889924241,-0.0352500252969884,0.026982533803809657,-0.19549733066505798,0.03623080425765897,0.03855119195892029,0.08112234894770479,0.09769217834345152,-0.08270151465995773,-0.23076339735136053,0.22492846563644492,-0.18419664023772356,-0.030224554064525382,-0.007262610264894914,0.08822689827099929,-0.07526275945900954,0.19511471737009717,-0.22052108517206648,-0.16897643247140376,0
bsh.BSHAllocationExpression,18.0,90.0,306.0,29.41176414489746,1.0,5.55555534362793,12.083333015441895,17.025440216064453,108.0,0.7058823704719543,3.134523868560791,1.0243542194366455,0.455621301775147,3.61712738122599e-06,1.0,17.0,18.0,0.4572497772742415,-0.029441856467177435,-0.3108847462110502,-0.011988103421593697,0.004160269742423545,-0.0031998661389871013,0.001373799652433616,-0.0012316048161117434,-0.001328368600655718,-0.04073484163159011,0.17078458810895816,-0.02955139265508997,0.18929167860897264,-0.09167242413190542,-0.03197781325242177,0.01446956840337568,-0.07663054345970655,0.05462643216671862,-0.007144664016516071,0.10378952365134297,0.07784412272634188,0.014278113667510329,0.5392558333032194,-0.3114404923700665,0.28732554557541196,-0.027987199750825052,0.18279295010822816,-0.09279592306251346,0.12300911183878332,-0.24234898499262506,0.05167059240460079,0.020737105005051482,0
bsh.BSHAmbiguousName,16.0,79.0,240.0,32.91666793823242,1.0,6.25,11.666666984558105,19.047618865966797,80.5,0.6708333492279053,11.036110877990723,4.598379611968994,0.405263157894736,5.07605264022327e-05,8.0,8.0,16.0,0.5259524511679993,-0.035729938209452174,-0.15858269825382013,-0.009705658767084202,0.0036879736411596586,-0.005046663814782949,0.00300375013151883,-0.0038088278204526874,-0.008977346067905642,-0.06365083376472563,0.24834648102634457,-0.04177824362132912,0.2952258433747449,-0.17534746801485948,-0.06257121063241625,0.04936001175602705,-0.17937309598637216,0.017388762421591653,0.052072187333653826,0.0013813115208741122,-0.03261828151841018,-0.06194349148770806,-0.4358866678362264,0.2843198434504295,-0.004791501787961427,0.19057748339160183,-0.13758732714914232,0.0019276069720477805,-0.11783028865439385,0.3338320753217133,-0.024758922196015273,0.1133054945246221,0
bsh.BSHArguments,10.0,38.0,90.0,42.22222137451172,1.0,10.0,10.277777671813965,21.20343780517578,26.0,0.5777778029441833,0.2857142984867096,0.3174603283405304,0.371980676328502,1.13146835863493e-07,5.0,5.0,10.0,0.457247443456638,-0.03421225452779482,-0.38174064639250505,-0.0171698649012097,0.012119959073977699,-0.006575571173734913,0.0029583972757240094,-0.010988576522626673,0.004559014385808977,0.02579674684595322,0.019286439724581373,-0.013060961547600228,0.15418373438127317,-0.1794640501324117,-0.06911051321376441,0.047483286279321586,-0.19207666556197428,0.02826870647001325,0.06394038125390232,-0.01101093830299644,-0.028366145208224117,-0.07527283082924315,-0.4864194036421601,0.27441763838116584,0.05018490128706391,0.27430342797205937,-0.16848880738131583,0.054755543719948875,-0.1475862948993232,0.2543178561875401,-0.1425674844756547,0.05440793543761845,0
bsh.BSHArrayDimensions,10.0,37.0,90.0,41.11111068725586,1.0,10.0,10.833333015441895,20.526315689086914,26.5,0.5888888835906982,3.0333333015441895,3.370370388031006,0.401041666666666,3.1486679520522e-06,2.0,8.0,10.0,0.558929358342416,-0.03920557547469279,-0.6947048473505866,-0.025799857380375907,0.01877180464845074,-0.006852090790205348,0.0019666492934597326,-0.012354600309090068,0.011358016633124322,0.06941543171869631,-0.12006340737829106,0.0065928534506100745,0.012683572672824347,-0.08537566166377206,-0.026155190292369616,0.01585572528249629,-0.0622647933537416,-0.009180608563850223,0.017174528550068343,-0.06024621435901317,-0.0444778442555379,-0.015540400610415884,-0.2618561622054477,0.0904831234639985,0.06705135165629753,0.2217042762990412,-0.07142897589275674,0.025745932593460242,-0.027802475929631757,0.138083262450807,-0.0829450740497902,-0.037923270647203536,0
bsh.BSHArrayInitializer,10.0,36.0,90.0,40.0,1.0,10.0,10.833333015441895,20.967741012573242,27.0,0.6000000238418579,3.866666555404663,4.296296119689941,0.396907216494845,9.8291140448766e-06,3.0,7.0,10.0,0.5859088265692661,-0.042661575280368944,-0.6594238034445803,-0.026092787538774007,0.016204114949229857,-0.007390507154534038,0.0026648905864845793,-0.012825419889581583,0.01978789502781501,0.11684110641526162,-0.24022729834064907,0.02137079543524143,-0.07540187659551494,-0.08493564564839891,-0.029027333791223017,0.017109686864221943,-0.07750937942129389,0.007682459821895035,0.008968160618646083,0.0027987616498592414,-0.0008958339187896948,-0.0073353898817400945,0.04634267461478664,-0.07171227405231743,0.24717413414017136,0.22646310875387682,0.029565420216869264,0.0038401789114843017,0.035616832129193636,-0.017351854362938814,-0.044897717053300895,-0.04777621443634202,0
bsh.BSHAssignment,11.0,34.0,110.0,30.909090042114258,1.0,9.090909004211426,10.416666984558105,19.582244873046875,38.0,0.6909090876579285,1.1166666746139526,1.0151515007019043,0.401041666666666,6.49728851351396e-07,1.0,10.0,11.0,0.44820388232595276,-0.032051792894776596,-0.6076952658255105,-0.02264024006364106,0.017334561445812916,-0.006785240806330786,0.0019966810302966603,-0.012311738876204696,0.011821685201361364,0.07035859398420795,-0.1064688122208957,0.0010418811834552117,0.055268565811640656,-0.1679122428393645,-0.07663850388921116,0.05844661749035141,-0.220664405423917,0.04586520328872172,0.09092781276327026,0.10915451036658841,0.02263205893222536,-0.07939254526851254,-0.2878645375987454,0.2542105753153133,-0.3068558384124762,-0.19999745394440216,-0.04333555592026706,0.03999585622131348,-0.006134441447756522,0.003845689730936498,0.06651612015977422,0.05843856826798172,0
bsh.BSHBinaryExpression,12.0,44.0,132.0,33.33333206176758,1.0,8.333333015441895,12.083333015441895,19.550561904907227,44.0,0.6666666865348816,2.116666555404663,1.6035352945327759,0.427777777777777,2.01997934729982e-06,1.0,11.0,12.0,0.508701654026369,-0.02694113610875717,-0.7964615045686234,-0.025063144011748296,0.012809393130951398,-0.005321421105257409,0.00173630249653632,-0.0025372432249400694,0.005624634513252934,0.036007170576483366,-0.06534472364561365,0.0010065922179612135,-0.016026465003740394,-0.029786071555606506,-0.004015679059600499,0.010150544381989299,-0.028077074720649454,-0.00012889551798665256,-0.021315841597940147,0.028554560837925395,0.016250993737762925,0.023878837691538243,0.22647905448168132,-0.12112117655402435,0.08456442791825111,0.016605117780266212,0.08484784605430883,-0.05155113136138899,0.06202564474658324,0.021039433412189244,0.07915639519602201,-0.04193999111929703,0
bsh.BSHBlock,14.0,63.0,182.0,34.61538314819336,1.0,7.142857074737549,11.94444465637207,19.026548385620117,59.5,0.6538461446762085,10.126190185546875,5.563840866088867,0.411764705882353,0.00100646208119982,5.0,9.0,14.0,0.5109073978511594,-0.019696950229905405,-0.5064477094924417,-0.00831332156255607,0.0047644383777667824,0.0039055908103093344,-0.005497699325322958,0.01383340711762021,0.004142660616760109,0.014012276170841494,-0.140517464480363,0.03321978895709152,-0.2727209743435104,0.2924507109655054,0.11768350154043902,-0.07340817714345316,0.33792345017400427,-0.08492075612709372,-0.0780845070606425,-0.1899690052421776,-0.0848811247558002,0.09468055408934878,-0.15571485357350212,0.01379212822453879,-0.2013245427010686,-0.06814895210486872,-0.110850523446743,-0.006215158492664838,-0.0866045502817904,0.09907169834394902,-0.024338981082101196,0.04424005187576956,0
bsh.BSHCastExpression,16.0,76.0,240.0,31.66666603088379,1.0,6.25,12.083333015441895,17.93814468383789,82.0,0.6833333373069763,13.183333396911621,5.49305534362793,0.432584269662921,0.000120739657228566,3.0,13.0,16.0,0.572801038121781,-0.031493682464827935,-0.6272962381915309,-0.020230321741740057,0.01255159694940677,-0.0049563908263919555,0.0015734095204424808,-0.0010066914044568164,-0.01286476678076252,-0.08348564930935767,0.25070893942602784,-0.03910319351232884,0.209527923837595,-0.017868500270385303,0.005133560205394918,-0.0015891425166009682,0.06985966478439223,-0.04654234104276451,-0.042599030983042296,-0.09285667404352266,-0.05413143304273912,0.07069612633340314,0.16081937271168897,-0.1414606550529012,0.22557072975627582,0.11802876832207557,0.07138824939000767,-0.046153471821451415,0.06052246128070264,-0.04358838171388226,0.05544247149174002,-0.09529054566976693,0
bsh.BSHForStatement,12.0,39.0,132.0,29.545454025268555,1.0,8.333333015441895,11.666666984558105,20.240962982177734,46.5,0.7045454382896423,9.116666793823242,6.9065656661987305,0.418478260869565,2.48852721187122e-05,1.0,11.0,12.0,0.4330660023326034,-0.02427425604747141,-0.6334601227029623,-0.01896818205773084,0.011128947508118785,-0.003808947266171707,0.0007516697879266538,-0.002991988318332079,0.015558686628987583,0.11326064289583984,-0.330949655958487,0.044491128038744804,-0.2868474845611884,0.1182686328811225,0.04700818273743577,-0.0214220156532444,0.11603208483513153,-0.03422145117230916,-0.021127544784999428,-0.028148323107411683,-0.016720161535886336,0.022927043288704683,-0.06675403916409438,0.017164133904909333,-0.32963956131805267,-0.2213328983861516,-0.046350048649166246,0.004710773412019231,0.02202161403637861,-0.01220857324289662,0.06783367903766738,0.00920885282442118,0
bsh.BSHFormalComment,2.0,1.0,2.0,50.0,1.0,50.0,8.05555534362793,58.58585739135742,0.5,0.5,0.0,0.0,0.28731343283582,0.0,1.0,1.0,2.0,0.28725310330721937,-0.023648370962810073,-0.594215204692693,-0.02112064008999452,0.01667364785772226,-0.006984969483933861,0.0013536333155542717,-0.011691058024566365,0.022608965029939747,0.15263456574506792,-0.3650825332354179,0.0373194700671802,-0.18054915736639862,-0.05574477080803757,-0.022442793738967952,0.02602643800308658,-0.10272063484793602,-0.010322700965932725,0.02732671542530807,-0.042609848135270724,-0.005773555580044076,-0.033774352499659537,-0.33647036173162276,0.19005425623028996,0.21332837756495374,0.3302796027037705,-0.07055092863216204,0.060356271379862755,-0.06378366301503983,0.16838068495100156,-0.0903482549253721,-0.00507475988466497,0
bsh.BSHFormalParameter,9.0,28.0,72.0,38.88888931274414,1.0,11.11111068725586,11.11111068725586,25.477706909179688,22.0,0.6111111044883728,2.366666555404663,3.2870371341705322,0.336244541484716,4.56829624771303e-05,3.0,6.0,9.0,0.4768830626524963,-0.024336488682798058,-0.5113175434420332,-0.014058006770865881,0.0067785892498407,-0.002961580154610179,0.0015837528558040191,0.002250864509121527,0.004210257511982863,0.057972514754639486,-0.21803006392776336,0.03864217403191067,-0.2614028087762647,0.19342328433044184,0.09205047046998438,-0.04245510888464335,0.22487398839924394,-0.10266996874131047,-0.09787819663165755,-0.19282925938021944,-0.09809486973002975,0.09008756251193459,0.022784025727768827,-0.09646072877446106,0.3049214599993909,0.28697027316490903,0.0007564720452378353,-0.09451038461819568,-0.04577290130859858,0.13593829689229806,0.02984070559922979,-0.026355660905630896,0
bsh.BSHFormalParameters,9.0,30.0,72.0,41.66666793823242,1.0,11.11111068725586,11.25,25.796178817749023,21.0,0.5833333134651184,6.7833333015441895,9.421296119689941,0.334782608695652,0.000793579062974565,3.0,6.0,9.0,0.45908565675752927,-0.01265913447717846,-0.4913024727316395,-0.006092743978831673,-0.0015613095931830158,0.004819846851095915,-0.005392918179078278,0.021646664646888324,0.007020738488439501,0.024102390263460206,-0.1737204606207658,0.04053136393755302,-0.3227776552159873,0.29976046966500164,0.11444290918399816,-0.06572037869316037,0.3153905326672411,-0.07520061264734623,-0.09537393868306943,-0.15967513370173309,-0.05384234551710219,0.11673549658604203,0.14429651207246122,-0.1007982624417891,0.27071481321670016,0.16060801958847198,-0.014900001579575403,-0.02136267114557062,-0.10441333162046923,0.01817629212581375,-0.02324390434666308,0.06687602451686345,0
bsh.BSHIfStatement,11.0,39.0,110.0,35.45454406738281,1.0,9.090909004211426,10.277777671813965,20.163488388061523,35.5,0.6454545259475708,1.5595238208770752,1.4177489280700684,0.379310344827586,3.89605004505321e-06,4.0,7.0,11.0,0.4874647596338812,-0.03602517789880048,-0.4295746428841044,-0.017402464021894378,0.01139423513655301,-0.004818247315098812,0.0015671605923172763,-0.01200651836095804,0.028731908545264386,0.1851657813834071,-0.4861317039438642,0.06175205778277484,-0.33876644060010935,0.04265021459698718,0.011377957866663083,-0.008855066485862742,0.010604007780327168,1.2897801986993978e-05,0.006240291055302486,0.025060342609576788,0.009872634164344618,-0.0231073562966911,-0.06296251569597669,0.004001278687840277,-0.33703852254255307,-0.2275934134039658,0.001125006884081781,0.02362206958887062,0.05601815165035389,-0.05266778191828498,-0.003715815476783018,-0.08145379786890548,0
bsh.BSHImportDeclaration,10.0,39.0,90.0,43.33333206176758,1.0,10.0,11.80555534362793,20.731706619262695,25.5,0.5666666626930237,1.0333333015441895,1.1481481790542603,0.411764705882353,1.19330976269349e-06,1.0,9.0,10.0,0.5427700512013975,-0.028113865939326268,-0.8015836090689124,-0.023546538740217202,0.013403567745686904,-0.0048134476712548575,0.0014080871897676386,-0.0010861245363406721,0.00045416636455460914,0.005291327144846359,0.012312126187703299,-0.005156674489206493,0.03762314814008573,-0.026660091567267223,0.001407176939320801,0.0021457990235348562,-0.031179430061560157,0.02131306363465074,-0.01297104612084778,0.03723174184392054,0.04163508672701199,-0.006427764735228648,0.14999869558765166,-0.09895080213842293,0.11584017514639638,0.06976755274183152,0.033227717601287024,-0.027362478456003966,-0.004527190598827539,-0.026140141113638146,-0.007504755641130078,0.03206951695310067,0
bsh.BSHLHSPrimaryExpression,11.0,43.0,110.0,39.09090805053711,1.0,9.090909004211426,10.277777671813965,20.845069885253906,33.5,0.6090909242630005,4.452381134033203,4.047618865966797,0.396907216494845,1.20252675796949e-05,3.0,8.0,11.0,0.550883020680801,-0.04382889993541869,-0.38993348298415176,-0.020329657999676697,0.010298175471200682,-0.0085789325396527,0.004396324378412027,-0.01352867652364071,0.01572154299477316,0.07535449317857078,-0.057868454531814405,-0.010887131798400207,0.16880033914323972,-0.30285832705261634,-0.12708855614655548,0.07650367567846873,-0.3922231975144794,0.14127208141629233,0.1057937176398139,0.2532075734665981,0.143753779574416,-0.13856399505756575,-0.016657732638513358,0.10774836408715308,-0.21234141054097258,-0.15474092738972517,0.02685552177063419,0.08588116326164591,-0.009652494037750375,-0.09671756145047299,-0.045756915969172016,-0.024951923522417704,0
bsh.BSHLHSPrimarySuffix,15.0,67.0,210.0,31.904762268066406,1.0,6.666666507720947,10.833333015441895,17.449665069580078,71.5,0.6809523701667786,6.059523582458496,2.8854875564575195,0.418478260869565,1.86207664677297e-05,2.0,13.0,15.0,0.5166331141059142,-0.03739864721586242,-0.47711305867936993,-0.02057454085905308,0.013246056916133071,-0.0068378196435920965,0.0025891019942284117,-0.011195925583161188,0.0011468316779525152,-0.025473079586131108,0.20700663273977496,-0.046258824513168526,0.3522192996300046,-0.29922330400909575,-0.12460553577346266,0.07755637996086125,-0.3313920919313796,0.0998753951851388,0.09934304554140679,0.18598386149729326,0.0800354524024962,-0.08758642352417945,0.03614072445368477,0.062111568908214045,-0.0039403653110402625,-0.09784799133171498,0.07248370300393239,0.0006624873929539835,0.082051088190319,-0.0943392877879557,0.06421675915695063,0.06636781400610807,0
bsh.BSHLiteral,7.0,16.0,42.0,38.095237731933594,1.0,14.285714149475098,10.277777671813965,23.948219299316406,13.0,0.6190476417541504,0.9166666865348816,2.182539701461792,0.377450980392156,3.27779642058654e-07,1.0,6.0,7.0,0.46119502637451987,-0.02828476858730705,-0.8123084610646746,-0.025972264730937923,0.022350687566628023,-0.005473110715463543,0.000843419006670339,-0.01125154361125367,0.006755289555625858,0.04776114630262759,-0.08505673277233047,0.0050378433985780275,0.013323120473560485,-0.0678742998346274,-0.027848884969393653,0.019125301606560657,-0.07021384696847521,-0.0013917485395615308,0.04058757413703225,-0.0031984814179649686,-0.02043186785697795,-0.03296157226207517,-0.24082614694956825,0.1456304985290533,-0.13363504305559476,-0.04262307609381647,-0.04061985190907463,0.029811727628554417,-0.0037475473123528653,0.014581608428779827,-0.006924336509634018,0.004782771889316435,0
bsh.BSHMethodDeclaration,11.0,47.0,110.0,42.727272033691406,1.0,9.090909004211426,11.80555534362793,22.13541603088379,31.5,0.5727272629737854,3.3428571224212646,3.0389609336853027,0.425414364640884,0.000794222961393151,2.0,10.0,12.0,0.48575398820316024,-0.01607533846751203,-0.4157918920837434,-0.004081990963431717,-0.00018721557209265202,0.0051898514818498305,-0.005468406500245127,0.018233556241241736,0.006501952775499881,0.023745071439754788,-0.18383055764221654,0.04408745289971249,-0.3370632163779901,0.3238209911182515,0.12508577656549932,-0.0731547823595638,0.3366624567666462,-0.08218290150745299,-0.10013111323469454,-0.16841821652030192,-0.06131254521584148,0.12206538390497775,0.2014846032420536,-0.14518735183554185,0.22083115654296787,0.056446271040206504,0.0330586463368888,-0.07280388533078436,-0.09578226096058752,-0.07521263959585658,-0.03756890124050327,0.03567786875305618,0
bsh.BSHMethodInvocation,12.0,46.0,132.0,34.84848403930664,1.0,8.333333015441895,11.666666984558105,20.79207992553711,43.0,0.6515151262283325,2.4833333492279053,1.8813130855560303,0.413978494623655,1.86940310220824e-06,1.0,11.0,12.0,0.4435145840966365,-0.025963174131968844,-0.506131773136658,-0.017286956176826754,0.006860764542018428,-0.004542051202771194,0.0021146887870944634,-0.001855935751132138,-0.0009760794426181515,-0.029893346520768672,0.1598996475886301,-0.030977272046090062,0.21413237504664767,-0.1583360312312479,-0.05764966535583397,0.0327752624221945,-0.1795134557017581,0.08095334227011002,0.02212008339874408,0.16357140490393957,0.11127584464822557,-0.03524482991177667,0.4330962791497561,-0.21382005128555237,0.25168485531825985,0.012853982786544857,0.15454857336695335,-0.05836839106820374,0.109695260310228,-0.1441948646275484,0.04711174471982351,0.06743503770647044,0
bsh.BSHPrimaryExpression,8.0,25.0,56.0,44.64285659790039,1.0,12.5,10.277777671813965,23.125,15.5,0.5535714030265808,0.4000000059604645,0.7142857313156128,0.392857142857142,1.13146835863493e-07,1.0,7.0,8.0,0.5017078174023621,-0.035795295813092765,-0.6890185307048541,-0.025537013603870586,0.019421848970157838,-0.008527132253108588,0.003448952809519558,-0.0138364479869367,0.012483839637275045,0.08218065741680085,-0.1354122940710304,0.00705711701066746,0.03713538453575434,-0.1630266115696781,-0.07064023124770134,0.047867928039374376,-0.19585851015980926,0.04019791968424364,0.06426009275732565,0.05373895392022502,0.025564462261653598,-0.06933461494302084,-0.14261894032149544,0.09741645051160927,0.24475414150800925,0.2298322678852085,-0.029027912524317086,0.04966154862520907,-0.053026962690576905,-0.026797867016687703,-0.07720271742884231,0.05109713637892345,0
bsh.BSHPrimarySuffix,17.0,82.0,272.0,30.147058486938477,1.0,5.882352828979492,12.083333015441895,17.193675994873047,95.0,0.6985294222831726,10.537302017211914,3.8740079402923584,0.4375,3.28282190394059e-05,3.0,14.0,17.0,0.5155639985757096,-0.03460989317587838,-0.42515812028681177,-0.018006024088889665,0.006182456943447559,-0.006156793319484488,0.0031173135060249394,-0.0045484146501019165,0.0007036455910754877,-0.025518216966590162,0.18352996924629938,-0.039704882357148155,0.2816764507112017,-0.2328016200089368,-0.08790687963548716,0.05572422722486286,-0.25474627190419286,0.08497213014671244,0.03917744610193162,0.16805515019657238,0.09241502589194828,-0.04579451780840961,0.33708415243874884,-0.14829715182910178,0.2614668431440127,0.07800676411503374,0.14304520795482273,-0.06470754522328545,0.11485040967430606,-0.028892308537653243,0.08147747250364805,0.06009667562905958,0
bsh.BSHPrimitiveType,4.0,5.0,12.0,41.66666793823242,1.0,25.0,8.472222328186035,45.864662170410156,3.5,0.5833333134651184,0.0,0.0,0.28731343283582,0.0,3.0,1.0,4.0,0.3084851560530607,-0.024179850080798947,-0.32579121376150144,-0.013458711241355614,0.010946902289129286,-0.005465613485943283,0.0016678572612313257,-0.008075023027171755,0.005963378174147887,0.05228113670002776,-0.1073717560808207,0.006863183829064887,-0.01295268968676264,-0.04296496321997541,-0.006902687904050611,0.015442851250627486,-0.03169026922716475,-0.052069067702654,-0.0034223397035407104,-0.1513594675472345,-0.0844083400726078,0.00030538778799866947,-0.4538648180719727,0.1990652389932393,0.29675992886861813,0.5031419163721038,-0.12200154606738677,0.015918742693238362,-0.09132430145148604,0.3632314228388937,-0.07092503912319376,-0.004835551727542137,0
bsh.BSHReturnStatement,9.0,20.0,72.0,27.77777862548828,1.0,11.11111068725586,10.277777671813965,21.14285659790039,26.0,0.7222222089767456,1.0833333730697632,1.5046296119689941,0.381188118811881,3.54608742833049e-07,1.0,8.0,9.0,0.37577089031384087,-0.0246528434985321,-0.7155473492922036,-0.022704352227715285,0.01910824380354071,-0.004678447780162061,0.000378217319864042,-0.011615947546879283,0.020867671168948967,0.14169974575115196,-0.366635428511484,0.04377917908051819,-0.23510323283534756,0.012533149015688758,-0.00273104600117733,0.005963940076324906,-0.02068348499973101,0.002205448659527918,0.03000182387770206,0.023823859741977732,0.003389081945028336,-0.025107798409670486,-0.15068778284412132,0.08554813137669456,-0.25371415432243877,-0.1628449507967613,-0.031595754361871314,0.03629282655056742,0.03589615334473503,-0.06176251668952527,0.04402578145956156,-0.0017511686504825142,0
bsh.BSHReturnType,8.0,22.0,56.0,39.28571319580078,1.0,12.5,10.972222328186035,26.072607040405273,17.0,0.6071428656578064,1.4500000476837158,2.5892856121063232,0.336244541484716,3.98878767098609e-05,2.0,6.0,8.0,0.42928865047948017,-0.020618494560255347,-0.5979919530341314,-0.016162275549796348,0.007796503062382655,-0.003245738884699277,0.001530309885977687,0.002165020223508652,0.005030760276740721,0.05828416514517655,-0.2014502480077577,0.03324474198653025,-0.22494134141984087,0.1483576091798318,0.07155926534730603,-0.03201805780383245,0.17008863868432328,-0.07873230250481858,-0.07868996956962732,-0.1487943279716486,-0.06734749594784584,0.06870895235175262,0.0185483619179323,-0.07593404146738379,0.34335334475614265,0.332441607438603,-0.011764830551249264,-0.048392084710609316,-0.023364265509102748,0.14772176862651623,0.037450760678038555,0.0011057103685640592,0
bsh.BSHStatementExpressionList,7.0,16.0,42.0,38.095237731933594,1.0,14.285714149475098,10.277777671813965,22.560976028442383,13.0,0.6190476417541504,0.5833333134651184,1.3888888359069824,0.377450980392156,1.13146835863493e-07,1.0,6.0,7.0,0.41143109958391855,-0.02627901105888153,-0.820602573991579,-0.02643128564991984,0.021344181992320143,-0.005940509060464618,0.0012741135115848538,-0.011937794514473238,0.017084447428841083,0.11878176886214992,-0.2885468624866475,0.033340611077575695,-0.15691208650322294,-0.02419345080583675,-0.011779538271534653,0.010017951073627678,-0.03989946615321797,-0.0059006759674778584,0.021086542809460748,-0.013485520720267426,-0.01169954966052161,-0.020656630376915612,-0.12005817573411597,0.04883098838120677,0.04444762710961839,0.085838181859065,-0.01679375836134282,0.026482671683349165,0.0006971299806339134,-0.01072483532037005,-0.030734256541481392,-0.009560697231489453,0
bsh.BSHSwitchLabel,7.0,19.0,42.0,45.238094329833984,1.0,14.285714149475098,10.13888931274414,24.579124450683594,11.5,0.5476190447807312,0.5,1.1904761791229248,0.371980676328502,1.13146835863493e-07,2.0,5.0,7.0,0.4588129159307265,-0.033226377484800854,-0.6954460309033322,-0.025460171288857116,0.01739138272790479,-0.007187292717015718,0.0026762101956238835,-0.01303879583629736,0.025599285057533793,0.1702517254811403,-0.4104350951801857,0.04824500266291479,-0.2270289412906371,-0.046343905615215876,-0.01919767315974642,0.014873666982625372,-0.08816765033989135,0.007927330080022927,0.02375048850958221,0.026583225840181104,0.011623899307814942,-0.044281862447030494,-0.12709169935587206,0.07059192882932833,-0.03870308517848948,0.05016950091075303,-0.012264421164384405,0.027833584951180428,-0.029155171444827578,0.04595471145903051,-0.08425019561375535,-0.03896398350686269,0
bsh.BSHSwitchStatement,10.0,26.0,90.0,28.88888931274414,1.0,10.0,10.277777671813965,20.728290557861328,32.0,0.7111111283302307,0.949999988079071,1.0555555820465088,0.385,3.54608742833049e-07,1.0,9.0,10.0,0.42922226594286034,-0.03026320237303057,-0.6374256256962111,-0.022067770139157727,0.016757055408708508,-0.005256168174717421,0.001077004589452959,-0.012768240675864318,0.025942472190594344,0.16996330795551065,-0.43196457171985003,0.05110930868223533,-0.2719530343885732,-0.002474676427508528,-0.010567180989085519,0.01130919372580372,-0.0445129372160833,0.009188923050929668,0.036446185154172285,0.04374049795423362,0.01048492789280334,-0.03402592239227982,-0.1359126243022824,0.08043841464771716,-0.2318528260867572,-0.13930158120448374,-0.03160718492497825,0.03537202757191387,0.053754711298767646,-0.03642762128760883,0.05648069329644079,0.01661287465206292,0
bsh.BSHTernaryExpression,7.0,19.0,42.0,45.238094329833984,1.0,14.285714149475098,10.13888931274414,24.496644973754883,11.5,0.5476190447807312,0.5,1.1904761791229248,0.375609756097561,1.13146835863493e-07,1.0,6.0,7.0,0.44118889436900116,-0.03164282547656762,-0.7123048926091673,-0.025548196067734008,0.01793666214246401,-0.007047545843300297,0.0024907232222146896,-0.012666318340109717,0.02458190574628627,0.16667648982254388,-0.4067193310740672,0.04818829809630723,-0.2327515149978598,-0.03222109509489703,-0.013849410914861677,0.01361103170954712,-0.06450212892165702,-0.002309683221949886,0.022471134862388456,0.009762710003434732,-0.004156622910935871,-0.03430299905045263,-0.13740416946104317,0.06588224880227302,-0.00528866439044054,0.08185108368717944,-0.02699934120236762,0.015557850614899666,-0.026369518885823305,0.055636971395274425,-0.0581212546333564,0.004189402308873855,0
bsh.BSHThrowStatement,7.0,17.0,42.0,40.47618865966797,1.0,14.285714149475098,10.277777671813965,24.26229476928711,12.5,0.5952380895614624,1.1666666269302368,2.777777671813965,0.375609756097561,3.06316361439138e-07,1.0,6.0,7.0,0.44503654311605934,-0.028087500249588893,-0.8231840465025907,-0.02769225608131027,0.020290125753204807,-0.006411039401881917,0.0019555020043004845,-0.012662583333313271,0.014756904399297393,0.09114831409028618,-0.18494393678005663,0.01568927617217035,-0.044609491105584015,-0.09670771375483346,-0.04301639155238141,0.024025355347177826,-0.1127532189379413,0.023838204289328552,0.035598057283112945,0.04949336458025997,0.028323386521264263,-0.031977535950031645,0.06589271150750717,-0.03128537160751483,0.14808647352060592,0.07573380145815158,0.04927236202797178,0.02458749093569594,0.053397241864916546,-0.0840607786308179,-0.02123398638724071,-0.01348765449315059,0
bsh.BSHTryStatement,13.0,49.0,156.0,31.41025733947754,1.0,7.692307472229004,11.666666984558105,19.399538040161133,53.5,0.6858974099159241,5.7833333015441895,3.7072649002075195,0.425414364640884,2.50784416442878e-05,1.0,12.0,13.0,0.5250672316897069,-0.026643637528551048,-0.6150746462860549,-0.016468321364510985,0.011673387686787266,-0.0021253582759527575,-8.976435781169212e-05,-0.001434875678128543,0.005237272499169164,0.04348631359720437,-0.17697727084211717,0.03023928404574921,-0.22646539573959565,0.19530232590630775,0.07541160007922905,-0.047412761340378064,0.24642837786475702,-0.06772432297308216,-0.05700481925788953,-0.11922657444327182,-0.04469072737315531,0.08361640102981496,0.14900772441636864,-0.15600471841400354,-0.008896844465022802,-0.12490973269785412,0.02421040071781635,-0.01351801172770242,0.07139788442076866,-0.21868144498241399,0.07437396038592056,-0.01167664227589472,0
bsh.BSHType,16.0,55.0,240.0,22.91666603088379,1.0,6.25,11.11111068725586,22.792022705078125,92.5,0.7708333134651184,23.711111068725586,9.879630088806152,0.333333333333333,5.98586987969409e-05,8.0,8.0,16.0,0.48085720176145896,-0.03244850790291606,-0.0062649272411577795,-0.004970818314493654,-0.0011794775231668564,-0.0050618466479046805,0.0041359430665992595,-0.002458552320437785,0.0001628776965218618,0.005828382965919589,-0.0103469727248337,0.0005625415338545364,-0.010785003352821357,0.021562279884225884,-0.002793818690024237,0.00932657501809767,0.07377119899412954,-0.058570119295662415,-0.021152923749063718,-0.1342068834120868,-0.06829008805641791,0.06316792881199668,0.06487281559356231,-0.05140346579505552,0.700486591388301,0.44492835701416045,-0.01948710516614771,0.05073028489958457,-0.06155108828250252,-0.16458168254702876,-0.03629065854672344,-0.012927199907326136,0
bsh.BSHTypedVariableDeclaration,11.0,46.0,110.0,41.818180084228516,1.0,9.090909004211426,11.666666984558105,20.143884658813477,32.0,0.581818163394928,0.5428571701049805,0.4935064911842346,0.423076923076923,7.22983961291919e-07,1.0,10.0,11.0,0.5234417848055218,-0.03078474547894985,-0.6093921710414484,-0.020590841534079415,0.008687847938370047,-0.005779682763972639,0.002793735458176952,-0.0022500812806338145,0.007977438859025982,0.06257318701273662,-0.15593137190813675,0.017679430137887836,-0.11099358639153571,0.032408588161224994,0.025715367569598555,-0.007285251656244444,0.0616127685417907,-0.04850021270386936,-0.051868077163816015,-0.09578117402455694,-0.04666653883647362,0.04593932661525733,0.05174297617086044,-0.08669138587178886,0.36017074761638995,0.35937899000565515,-0.007949178510537482,-0.022027796430370433,-0.02713015139040974,0.12062110168873959,-0.02266061160572751,-0.05242811490893779,0
bsh.BSHUnaryExpression,11.0,34.0,110.0,30.909090042114258,1.0,9.090909004211426,10.416666984558105,19.582244873046875,38.0,0.6909090876579285,1.1166666746139526,1.0151515007019043,0.401041666666666,6.49728851351396e-07,1.0,10.0,11.0,0.4482038823259528,-0.032051792894776596,-0.6076952658255106,-0.02264024006364101,0.01733456144581254,-0.006785240806330432,0.0019966810302967574,-0.01231173887620466,0.011821685201361627,0.07035859398420859,-0.10646881222089484,0.0010418811834554608,0.05526856581164054,-0.1679122428393651,-0.07663850388921055,0.058446617490352216,-0.22066440542391633,0.04586520328872232,0.09092781276327053,0.10915451036658846,0.022632058932225543,-0.07939254526851372,-0.2878645375987456,0.25421057531531305,-0.30685583841247605,-0.1999974539444018,-0.04333555592026525,0.03999585622131455,-0.006134441447757361,0.0038456897309362453,0.06651612015977461,0.05843856826798229,0
bsh.BSHVariableDeclarator,10.0,35.0,90.0,38.88888931274414,1.0,10.0,10.416666984558105,20.547945022583008,27.5,0.6111111044883728,1.3428571224212646,1.4920635223388672,0.398963730569948,2.04484209161994e-06,2.0,8.0,10.0,0.5087710310975005,-0.0360149831469337,-0.5702047672480987,-0.021826281045540612,0.016067302063899894,-0.006854746198220663,0.0026670645895964335,-0.012751146747029584,0.016599942169112404,0.11964775341167107,-0.29045330938272157,0.03272953446076173,-0.15887953814103353,-0.016986124410226313,-0.0066289858990955285,0.009368042388671817,-0.0047969784913083745,-0.04580354719340811,-0.0013160710907057264,-0.09521964477566716,-0.06352788180780286,0.010086607280959803,-0.1344269964630766,0.017952494979151423,0.33987950135722356,0.3642303594062335,-0.008962907320115808,0.0195915597689274,0.020407229363770624,0.05967544903438529,-0.007184250841707597,-0.0410690225841699,0
bsh.BSHWhileStatement,10.0,28.0,90.0,31.11111068725586,1.0,10.0,10.277777671813965,20.498615264892578,31.0,0.6888889074325562,0.7833333611488342,0.8703703880310059,0.385,3.54608742833049e-07,1.0,9.0,10.0,0.39542432405740896,-0.027457164859595033,-0.6267118428858894,-0.021155764703896875,0.01641089123690638,-0.004701349180765972,0.000658443343672529,-0.011371369963730336,0.024374829062747842,0.1612566238820577,-0.4188321124332965,0.05064340071507871,-0.27737693845787503,0.020942727308091495,0.0006215439754241541,0.0045539956609752285,-0.01628473153320563,0.0025016512970338616,0.02663034843682874,0.03371359601417593,0.0053970425564604275,-0.023353770537818837,-0.12837199637940583,0.0745406004450759,-0.30715576525265037,-0.20330006089248598,-0.027976358383079807,0.0259150509012865,0.03349570144192386,-0.04846117211153739,0.044055041167661714,0.0002535428375100703,0
bsh.BlockNameSpace,7.0,19.0,42.0,45.238094329833984,1.0,14.285714149475098,10.69444465637207,36.32075500488281,11.5,0.5476190447807312,1.0,2.3809523582458496,0.390862944162436,1.93169525575645e-06,3.0,4.0,7.0,0.415665706019513,-0.01900843483504704,-0.10273525552492639,-0.001211681535314954,-0.0061633011742796865,0.0008866953965741747,0.0010088410292845313,0.012895622872662797,-0.007850692788980554,-0.041606496935516914,0.024102507818990034,0.014653140096506681,-0.1537854372691509,0.2638946256108,0.1255733439181154,-0.07505796978188373,0.3331026645680977,-0.07880863015702805,-0.1407259882148734,-0.10626038768166586,-0.04536454221911591,0.11942102810583959,0.4443903367726193,-0.31087298243215933,-0.23528607739363727,-0.35027390987673696,0.09726996690555027,-0.1810180558346053,-0.05469017585599644,-0.0588566048140026,-0.022637645216349988,-0.11341189620631471,0
bsh.BshClassManager,10.0,24.0,90.0,26.66666603088379,1.0,10.0,13.472222328186035,37.74319076538086,33.0,0.7333333492279053,7.5,8.333333015441895,0.227810650887573,0.00066921990146864,7.0,3.0,10.0,0.34436126042313064,0.035298771968847314,-0.2663527755795412,-0.005829090236352428,-0.0013258821039594817,0.013690831120144874,-0.011345810733356415,0.02884531033096675,-0.05530800163650774,-0.22420109595959828,0.45751487723030776,-0.052439960480116246,0.14985991561907713,0.17611391107572386,0.17238884308994792,-0.09535037577063303,0.22290361763489402,-0.08071972802666809,-0.17824214790836415,-0.08040073243328297,-0.004506363775114407,0.07131817618439225,0.15289870752308074,-0.20487136792114496,-0.017380264443187337,0.22755567005856894,0.06603797342692151,-0.17002855295195923,-0.09807269341595325,0.4298793951545591,-0.017291161496389772,-0.07349763340098056,0
bsh.BshMethod,18.0,70.0,306.0,22.875816345214844,1.0,5.55555534362793,18.05555534362793,27.83725929260254,118.0,0.7712418437004089,63.20000076293945,20.653594970703125,0.423076923076923,0.00991083618425659,10.0,10.0,20.0,0.3897481078420431,0.07693345167560797,-0.15176283218417105,0.07282368289856991,0.030804874615605958,0.049021737135979015,-0.03541500352743299,0.0011835057042464112,-0.0294445551149347,-0.1962025418307916,0.18771747081911289,0.02452792009177161,-0.22536704571866348,0.5103628726259817,0.18458144708362775,-0.14770398557640446,0.44059398405764894,-0.03241782114983062,-0.03674230320734695,-0.13175615666034515,-0.04895817323641957,0.029695513557090096,-0.21331161476211455,-0.023440755654366183,-0.15138053910470492,-0.1550735281068945,-0.049764020650001003,-0.009496230902361562,0.07610210250299917,-0.20809901655321414,0.042262843509707375,0.05708245700453883,0
bsh.CallStack,40.0,163.0,1560.0,10.448718070983887,1.0,2.5,13.75,16.045381546020508,698.5,0.8955128192901611,25.77857208251953,1.6524724960327148,0.311740890688259,0.000201132642789604,39.0,2.0,41.0,0.7854054171276263,-0.050059555690280415,0.5621385825166808,0.005861374645810396,-0.01640649110503458,0.001464717276187179,-0.0008487996641046148,0.003952788119134674,0.0066752522436968435,0.013691153620426819,0.005012117638039216,-0.007157747574419437,0.03967325222638881,-0.05687042449235474,-0.006628312501921626,0.0014051399130247848,-0.07123472402884462,0.03861778204113846,-0.006192329812916917,0.08181088184170879,0.04199374721673319,-0.02167593169027767,0.06047591048052716,-0.03617063831092609,-0.14617943976315356,-0.05658737579772307,0.01369335018978982,-0.03288198889925042,-0.01666771027684027,0.10659549801700988,-0.03200915770887717,0.012154692052824491,0
bsh.Capabilities,5.0,11.0,20.0,55.0,1.0,20.0,7.916666507720947,47.8991584777832,4.5,0.44999998807907104,0.0,0.0,0.0,0.0,5.0,0.0,5.0,0.2643583703453138,-0.009356363880489323,-0.088549357151464,-0.0019255478895091392,-0.007430118525226443,0.0005484841174090785,0.0003342121981518915,0.01320222121183429,-0.023725173068015405,-0.17568094868964756,0.47980004094687034,-0.06517500358287516,0.3197873363578553,0.013383885689775755,0.02847469339594515,-0.02405516832099526,0.10799731580959501,-0.00237993411192015,-0.09001984829265892,-0.0072371035772988805,0.024922130559442375,0.09484040746760197,0.5700131213512031,-0.3562886167313602,0.1196398533899454,-0.06591403773783543,0.13331192353684454,-0.09427246360346409,0.05106879759650151,-0.07283612026974036,0.01674916484439558,-0.1320176669590945,0
bsh.ClassPathException,3.0,3.0,6.0,50.0,1.0,33.33333206176758,9.44444465637207,61.818180084228516,1.5,0.5,0.0,0.0,0.223837209302325,0.0,2.0,1.0,3.0,0.31574185305078867,0.008054468058773745,-0.42102378880372054,-0.004402067571065251,-0.013079422100136316,0.002828065835291674,0.002934119578138123,0.02522525117572842,-0.031232030470330366,-0.17305120306505808,0.3496317467293948,-0.022698401223835814,0.01982045896722176,0.24375686985632342,0.11131116692280822,-0.06656637681107636,0.35022195302610226,-0.09900883387435404,-0.136883634580714,-0.13239943936810122,-0.06578484779427357,0.1259091431516065,0.42386522275311417,-0.21342936315475142,0.25211692405276537,0.03329351374238903,-0.02234450532448413,-0.03431763209257788,-0.07903643038482058,0.05984516037443061,-0.006456419244081516,-0.038585009856683276,0
bsh.CommandLineReader,1.0,0.0,0.0,0.0,1.0,100.0,8.19444465637207,100.0,0.0,0.0,0.0,0.0,0.0,0.0,1.0,0.0,1.0,0.3490178472779124,-0.021447114205910858,-0.6913103643666244,-0.021809234477084282,0.01745635871998216,-0.0030751171682509085,-0.0013798892606160908,-0.007025991588940022,0.012360019178073103,0.07015773393356273,-0.1637627040509571,0.01419717169561974,-0.07297841602060848,-0.021371167501773643,0.005993121759528472,-0.004631664830202337,-0.06591712482478232,0.02760630563339882,0.002963240113048557,0.07357119252632653,0.0627895882260945,-0.034535241757471434,0.029664232869451083,0.01260572401951608,-0.42472170661154673,-0.2969708587571995,0.04035228404014654,-0.05101833511555629,-0.09025095720419299,0.1014861167778662,-0.20286981373045615,-0.10920557351055833,0
bsh.ConsoleInterface,1.0,0.0,0.0,0.0,1.0,100.0,8.19444465637207,100.0,0.0,0.0,0.0,0.0,0.0,0.0,1.0,0.0,1.0,0.3490178472779124,-0.021447114205910858,-0.6913103643666244,-0.021809234477084282,0.01745635871998216,-0.0030751171682509085,-0.0013798892606160908,-0.007025991588940022,0.012360019178073103,0.07015773393356273,-0.1637627040509571,0.01419717169561974,-0.07297841602060848,-0.021371167501773643,0.005993121759528472,-0.004631664830202337,-0.06591712482478232,0.02760630563339882,0.002963240113048557,0.07357119252632653,0.0627895882260945,-0.034535241757471434,0.029664232869451083,0.01260572401951608,-0.42472170661154673,-0.2969708587571995,0.04035228404014654,-0.05101833511555629,-0.09025095720419299,0.1014861167778662,-0.20286981373045615,-0.10920557351055833,0
bsh.EvalError,53.0,260.0,2756.0,9.433961868286133,1.0,1.8867924213409424,15.13888931274414,14.155843734741211,1248.0,0.9056603908538818,70.81666564941406,2.569545269012451,0.285185185185185,0.000989927678702448,53.0,1.0,54.0,0.8214745490710255,-0.046491651537848774,0.5500676717315287,0.006570536841267828,-0.014009090399204012,-0.001036417215908256,0.006072403238918214,0.002974321508899496,-0.0064826782440710025,-0.01221665508284728,0.014606350446384348,0.01602749462785407,-0.03476802984290281,0.04629868408334605,0.03568332945077666,-0.02169567354613564,0.07335189719788711,-0.027760327779236718,-0.015646355043821416,-0.05473176540384097,-0.008592647332629036,0.0036567547524395533,0.029341536712807207,-0.020146871449497197,0.03537356142459441,0.040739212344530866,0.011361071577623134,-0.0027859627143011836,0.01984081340419217,-0.013814272341825579,-0.0032194278662591976,-0.003367371327685141,0
bsh.Interpreter,59.0,355.0,3422.0,10.37405014038086,5.0,8.474575996398926,14.166666984558105,11.751152038574219,1533.5,0.8962594866752625,2027.0540771484375,59.23594665527344,0.557971014492753,0.0454108686463869,45.0,21.0,66.0,0.8132101070511931,-0.05312908279595788,0.5014761697740353,0.004894477014476505,-0.012049983986867673,0.0006024328079257024,-0.000512060817377119,-0.00029213310407696165,0.007402511145972214,0.021115508043569067,-0.03296664244503881,-0.0025322256136252707,-0.006457499770603345,-0.02048289063863735,-0.008842710304920382,0.0020947264640519244,-0.019216664850638106,0.01619073484634238,0.017328145920871403,0.05715703938304988,0.02446820503096733,-0.02065462035110728,-0.05844710180663424,0.05179012853556265,-0.20421949494312056,-0.13177899016204836,-0.04044574435359289,0.041501030752559495,0.03466513351904058,0.047644982758198305,0.05271292601019709,0.04559206022743842,1
bsh.InterpreterError,17.0,81.0,272.0,29.77941131591797,1.0,5.882352828979492,11.25,21.600000381469727,95.5,0.7022058963775635,0.0,0.0,0.0,0.0,17.0,0.0,17.0,0.5149222857030018,-0.03519212505445895,-0.033851863136266716,-0.006509134957005672,-0.002492008664786452,-0.0030769430416549147,0.0019030632276069573,-0.00012457567712962102,-0.010507036336735748,-0.11178046408945852,0.40346063722742936,-0.06737928440920721,0.42251481262523943,-0.21552500490266643,-0.07837530843698,0.03877724151236624,-0.21237604952012196,0.11219640297469084,0.03465345709847889,0.1819369462869984,0.11738590694579823,-0.04428360783525826,0.28717729927717456,-0.11353315260186726,-0.1780301886460437,-0.22989847735018587,0.0753484223578665,0.012473645891904547,0.024493227671978868,-0.14708649506475133,-0.007582014976392226,-0.06402782503381806,0
bsh.JJTParserState,3.0,4.0,6.0,66.66666412353516,1.0,33.33333206176758,9.722222328186035,48.9510498046875,1.0,0.3333333432674408,0.0,0.0,1.0,0.0,2.0,1.0,3.0,0.32924849292557534,-0.02666249779829269,-0.6996917614919413,-0.02546295159211881,0.018324952984180704,-0.0080924486664477,0.0018473143971810759,-0.013272949723458207,0.028050624346473513,0.1856020109509071,-0.4416096119921688,0.04483544553127504,-0.2220779266431422,-0.07879247788217213,-0.03215532608326775,0.03209064008849115,-0.14560846444166758,0.014231474061071376,0.033095889511204554,0.03448518420313522,0.03252302313263925,-0.04521343118054723,-0.13750641376202963,0.09471956478696751,0.10486334834641882,0.16797537152855987,-0.0011816437363069586,0.02563692226813937,-0.04216014789435119,0.07658542467438459,-0.08633886491634439,-0.02435694668819029,0
bsh.JThis,8.0,31.0,56.0,55.35714340209961,1.0,12.5,11.527777671813965,25.69659423828125,12.5,0.4464285671710968,0.0,0.0,0.412698412698412,0.0,0.0,8.0,8.0,0.4290982323576206,-0.00630766632153138,-0.6155591232555955,-0.00828374793593071,-0.0018385636752364116,0.006624408214306659,-0.006856105148579588,0.02720510880973656,-0.00457123138309351,-0.0754745373490761,0.12621115517453435,-0.0021117732497001685,-0.07408567735864878,0.2197249572457928,0.09306542400929983,-0.06276274758693505,0.25286364134714895,-0.01839949310464613,-0.09285888501696349,-0.03898621202221176,0.005980392555288915,0.09887228094304192,0.39155687290104696,-0.216288175326215,-0.09642253766303596,-0.18618966119597158,0.05270403584338869,-0.07466251121743438,-0.08326549859105242,0.0069003175089941814,-0.06583526830924115,0.006207012489767115,0
bsh.LHS,15.0,62.0,210.0,29.5238094329834,1.0,6.666666507720947,11.38888931274414,22.71468162536621,74.0,0.7047619223594666,16.66666603088379,7.936507701873779,0.409574468085106,0.000194012931074773,8.0,9.0,17.0,0.425953190599607,-0.028688952576616165,-0.16640438854738052,-0.009662029432937997,-0.0003438816215133771,-0.0035127297426466014,0.0022911664629740947,-0.001057911584321241,-0.004274099849589048,-0.06530595803311055,0.284122450240862,-0.051408615337951415,0.3444703148878907,-0.23792036848077522,-0.09208995529903394,0.05409184337958131,-0.28079901510196553,0.12564776555129,0.05721184135025959,0.25751682551905525,0.14113589052853295,-0.07175976129253968,0.32531772381876584,-0.0808165646118739,-0.2320348728714933,-0.3319072724425546,0.12417618145434202,-0.030515998109637912,0.0869248659294054,-0.12799577657344763,0.09633496736013528,0.019650441964920756,0
bsh.Name,19.0,102.0,342.0,29.824562072753906,1.0,5.263157844543457,11.94444465637207,18.220338821411133,120.0,0.7017543911933899,20.14444351196289,5.890188217163086,0.4375,0.00062668330521403,6.0,15.0,21.0,0.5575749768546542,-0.025087107276741155,-0.30977471845699667,-0.007312521746262557,0.0015905842030041896,0.0014737405475301452,-0.0027854091977725496,0.012071041232083558,-0.02114330912971256,-0.18974084641418326,0.5447140883885201,-0.07481129668846984,0.4183762234080047,-0.07789558640830592,-0.03707417636404235,0.017030667306712818,-0.03088245964641264,0.03789921581265121,0.019405508719856447,0.04200597758356527,0.019234091018829894,0.019605416415226347,0.14796493374144196,-0.013177017877137105,-0.03813530212993245,-0.17911016498341595,0.02547266730337854,-0.006988887559876959,-0.035287219544383755,-0.064353572775884,-0.005570523560494236,0.06145124663358659,0
bsh.NameSource,2.0,1.0,2.0,50.0,1.0,50.0,6.527777671813965,95.91836547851562,0.5,0.5,0.0,0.0,1.0,0.0,2.0,1.0,3.0,0.15643014468946964,0.01608098737119601,-0.21157733359487116,0.0034133784441139924,-0.029099242239789106,0.003119096447997727,0.001461596523763587,0.03934537186852295,-0.022978832865935123,-0.13972252292413373,0.27382563727205256,-0.022191763600324578,-0.029368118188382628,0.23820822342713818,0.13373818949888494,-0.06143519873436631,0.26499846095987106,-0.04172878360189436,-0.18494970516741704,-0.022184839802174835,0.03437518046699563,0.12649577925386232,0.6276803852305406,-0.33506725491945893,0.10318428082535297,0.006797385415843231,0.04983137865829305,-0.16334350909615675,-0.10708192123741636,0.2680907520242628,0.0007038598357191342,0.0013236731795419026,0
bsh.NameSpace,47.0,215.0,2162.0,9.944496154785156,2.0,4.255319118499756,17.08333396911621,17.39745330810547,973.5,0.9005550146102905,663.5916748046875,30.693416595458984,0.447674418604651,0.019574986219254,37.0,18.0,55.0,0.4650771300722299,0.04022407602902377,0.13249336883223461,0.029360352750187852,0.04273424173877397,0.0004727373936708415,-0.0022349837514773914,-0.004167707224937407,-0.064072873863902,-0.23390366250832728,0.3470682629426114,-0.021452017295880497,0.005269359382650985,0.30501490197048475,0.07798626201447768,-0.04627514474192977,0.3688430455569583,-0.16785416141457185,-0.01241918357492654,-0.28601119953454746,-0.15751728885976596,0.07063712650512524,-0.3504947054607051,0.13372131990705335,0.0641702094410978,0.021285014644306335,-0.04022043603957367,0.08428513091004747,0.03224533683984618,-0.21238802135617108,0.06130347180422201,-0.02994770570091602,1
bsh.Node,36.0,131.0,1260.0,10.396825790405273,1.0,2.777777671813965,10.277777671813965,14.424951553344727,564.5,0.8960317373275757,0.0,0.0,0.0,0.0,36.0,0.0,36.0,0.7041180345067201,-0.06130404336501576,0.5566580987342756,0.0035616259023501058,-0.012549787002312929,-0.005145005550116313,0.004939789503515227,-0.009173852045672393,0.024609170025284878,0.1296479879391337,-0.28959876806062124,0.031728897154402955,-0.147579257635997,-0.0551082850033627,-0.030184623158824503,0.023171919115015236,-0.07674144264027742,0.00308090135498333,0.011397171984620463,0.0038090250754925074,-0.014485544568167117,-0.013714151317977416,-0.03833425073893076,0.01835737580841068,0.15341127741443777,0.15157283130931606,-0.010612929431479571,-0.00870039481102782,-0.004953007110321212,0.0815445285889663,-0.010669688162333707,0.00020520133714802856,0
bsh.ParseException,4.0,4.0,12.0,33.33333206176758,1.0,25.0,10.13888931274414,44.24242401123047,4.0,0.6666666865348816,1.0,8.333333015441895,0.225146198830409,5.95827969193186e-05,2.0,2.0,4.0,0.3963929436080003,-0.026498060027788102,-0.7020717581068188,-0.024951038115980474,0.016136472625492424,-0.007315823393469147,0.0045547200008296635,-0.010794500648639646,0.02093580084121477,0.15543319483603418,-0.37977523210003106,0.048777526220372916,-0.2207034211262541,-0.045123161430329815,-0.021127163644005676,0.02330931310836281,-0.10783366805281161,-0.0018588592664080313,0.025055020670614367,0.043794508155085905,0.01917176718724449,-0.05748930400056106,-0.1107592118657365,0.15321027356809136,0.08787173409042573,0.11051335140478029,-0.039430851712446896,0.005310953472758406,-0.09808404460969074,0.18089579595577435,-0.0882424611144862,-0.0033147034890601912,0
bsh.Parser,48.0,188.0,2256.0,8.333333015441895,1.0,2.0833332538604736,10.416666984558105,12.417218208312988,1034.0,0.9166666865348816,1337.3333740234375,59.278961181640625,0.669565217391304,0.0338620229757224,1.0,48.0,49.0,0.6683252867897079,-0.059343645979251985,0.5117753711936119,0.0021646959163088373,-0.012222578336664795,-0.005751398344163054,0.005247689788133177,-0.009910502053167522,0.028895368521749048,0.15055666403483892,-0.33175212988645575,0.03406534673252332,-0.15926525150675344,-0.08820805367401062,-0.05177319154252196,0.03918754071885589,-0.13476114656156762,0.02685771308782996,0.0304580561918151,0.06220837266972687,0.021679393070811032,-0.02427568767065235,0.07555822021260401,-0.0014717311450204449,0.24763130039319403,0.14450077249490242,0.01973169072135459,-0.005210503726929808,0.020876566734657685,0.022895783648608982,0.021951703725781133,0.03159390617420161,0
bsh.ParserConstants,12.0,23.0,132.0,17.42424201965332,1.0,8.333333015441895,9.166666984558105,34.0206184387207,54.5,0.8257575631141663,0.0,0.0,0.0,0.0,12.0,0.0,12.0,0.38091816887319646,-0.03297501122635467,0.15667216972389594,-0.002300192224265395,-0.0036067470058212276,-0.003081578548046082,0.001968998622506885,-0.007159514947330105,0.02172661202340132,0.11920142837789342,-0.2811059351152446,0.02988215535647952,-0.15250082557311437,-0.051246452325204,-0.02815883218059894,0.012868668986153466,-0.11796789362036948,0.06098813065423285,0.029916108830259643,0.1376498962762471,0.08792349124131912,-0.059012644879827346,-0.027199515293156024,0.07685394196547503,-0.6132447212015408,-0.4790078229247735,0.02503995674545847,0.07475764244380216,0.022156295889088976,-0.09498456857681534,-0.0332393615652314,-0.17337885657435728,0
bsh.ParserTokenManager,5.0,3.0,20.0,15.0,2.0,40.0,7.083333492279053,72.85713958740234,8.5,0.8500000238418579,1.0,5.0,1.0,9.65847627878226e-07,1.0,4.0,5.0,0.24612382537724212,-0.024236942195644345,-0.19297690232663964,-0.012084307617508507,0.004788095198895079,-0.00655905360294254,0.0026480162966947135,-0.010575977852013611,0.035243371096982376,0.21509321042696064,-0.51908243927647,0.048503256392032054,-0.2827111237944639,-0.11096754606816867,-0.0800490786947398,0.08356465789422876,-0.25380536577013557,0.046588601922147456,0.11187620712205743,0.20420862487948546,0.0869905489836723,-0.085863130012826,-0.20151439294997817,0.3777860392594814,-0.1815268797201768,-0.18806920307367378,-0.08806483536663255,0.07437938105475006,-0.02696503683001403,0.15022126846831138,0.17410280457981625,0.14845114078108237,0
bsh.ParserTreeConstants,2.0,1.0,2.0,50.0,1.0,50.0,8.05555534362793,58.58585739135742,0.5,0.5,0.0,0.0,0.0,0.0,2.0,0.0,2.0,0.2872531033072197,-0.023648370962810097,-0.5942152046926936,-0.02112064008999455,0.01667364785772229,-0.006984969483933848,0.0013536333155543226,-0.011691058024566506,0.02260896502993996,0.1526345657450678,-0.3650825332354183,0.03731947006717992,-0.1805491573663987,-0.055744770808037414,-0.0224427937389678,0.02602643800308456,-0.10272063484793363,-0.010322700965933582,0.027326715425307468,-0.04260984813526874,-0.005773555580040965,-0.03377435249966027,-0.33647036173162087,0.19005425623028716,0.21332837756495548,0.3302796027037712,-0.07055092863216217,0.06035627137986187,-0.06378366301504135,0.16838068495100406,-0.09034825492537005,-0.005074759884665489,0
bsh.Primitive,41.0,196.0,1640.0,11.95121955871582,2.0,4.878048896789551,14.166666984558105,15.384614944458008,722.0,0.8804877996444702,82.9870376586914,5.060184955596924,0.281021897810218,0.00209318780155613,36.0,5.0,41.0,0.8109260053751445,-0.04511255905894742,0.4872153369644479,0.00745819345173552,-0.012608739944962352,0.004120858325728678,-0.0030613230479118953,0.006296401424789012,-0.0008973625812840994,-0.015959960154649167,0.009846819672430668,0.001294237276449261,-0.051482739931636295,0.10112384680884594,0.05333833353404368,-0.03640169748704606,0.11959796581761327,-0.023928848017721247,-0.041856747300906015,-0.04916403505028617,-0.01820733259089295,0.04025597184730533,-0.020891332960892975,-0.014815257827175587,-0.19395987076426718,-0.13081494972400035,-0.008207640694985302,-0.0012474058420247197,-0.05054126425049995,-0.05670882972378391,-0.026710503145898817,-0.04862867718977545,0
bsh.Reflect,24.0,128.0,552.0,23.188405990600586,2.0,8.333333015441895,12.083333015441895,17.12598419189453,212.0,0.7681159377098083,67.10832977294922,12.157306671142578,0.430167597765363,0.00357931504129474,12.0,15.0,27.0,0.5582416812220365,-0.034823492604764195,-0.09085612540939725,-0.006108523824681483,0.003223298664179389,-0.0018067560754605747,0.000738667397844176,-0.0015828448826966063,-0.024981678091969557,-0.18982606919812056,0.5725282108288566,-0.0834127304169338,0.5017605456499907,-0.12405354588956563,-0.03894364187926742,0.011184602492009246,-0.02477170825641415,0.010778559119280353,0.013706125727051818,-0.04895252374529669,-0.02839235680112656,0.01256936961583879,-0.10628602242515663,0.02813380058075851,-0.03878777942272709,-0.01590095050314531,-0.059032679852551825,0.044063325586781034,0.012717668260061354,-0.0824111165053461,-0.05257924454457707,-0.07333326473032975,0
bsh.ReflectError,7.0,11.0,42.0,26.190475463867188,1.0,14.285714149475098,5.55555534362793,33.33333206176758,15.5,0.738095223903656,0.0,0.0,0.0,0.0,7.0,0.0,7.0,0.3171102004450057,-0.023975766717435548,0.06746862259474622,-0.0022153220172187586,0.001835091965396592,-0.002263786803558956,0.0010646204478660672,-0.003191332753450525,-0.01757860607819409,-0.12917402165537034,0.43149133031717235,-0.06717824962785161,0.44733673149158043,-0.20567486028378223,-0.0706226153337052,0.042025642076567865,-0.18942030826095752,0.05203454126634149,0.057136782018411256,0.017748130831451915,-0.006911819844611553,-0.0673214031344111,-0.4347699153826274,0.25251376116760244,-0.1664235177967178,0.07845543606162375,-0.1517032839841043,0.0373462467960376,-0.13411839812261103,0.22586298104720406,-0.09866830226976371,0.029961770433333527,0
bsh.ReflectManager,4.0,1.0,12.0,8.333333015441895,3.0,75.0,4.166666507720947,83.33333587646484,5.5,0.9166666865348816,3.0,25.0,0.19059405940594,0.00117640241075567,2.0,2.0,4.0,0.20122052018334685,-0.004256367919161073,-0.07597038541753225,-0.0004577386031215652,0.005962572883687344,0.0019158643914490069,-0.00172771474205588,0.0018461775425602854,-0.03914642338009763,-0.2537525609676964,0.6567648422754441,-0.08775379961414333,0.44731769839078567,0.03651113812293972,0.016082246128235923,-0.025895678861886283,0.2218358327523374,-0.09535142133161517,-0.03208797425605943,-0.22782765337624214,-0.13460221396868988,0.11059777232493964,-0.13412951976995555,0.010392624392080265,0.10815234531485039,0.026573972580346463,-0.06135701160430508,0.08899151066692988,0.05091998861708858,-0.12529880432830107,-0.00398232262655415,-0.21041297236435522,0
bsh.ReturnControl,10.0,16.0,90.0,17.77777862548828,1.0,10.0,9.30555534362793,39.880950927734375,37.0,0.8222222328186035,5.0,5.55555534362793,1.0,5.82726965859641e-05,9.0,1.0,10.0,0.33261773697414715,-0.021629808155190517,0.18767851116331052,0.0047464910238890524,-0.009576756982583737,0.003386685846298383,-0.003111015270746091,0.008790180667226493,0.021320375603773728,0.10159285745519944,-0.3195231065788072,0.04905447585638212,-0.32894852149009396,0.1651472171500192,0.05931364134652518,-0.037234345481839265,0.12733692626857043,-0.0037344003458899687,-0.040749416980416155,0.035857343854357994,0.021913562800817663,0.03502846149630314,0.16729652807928208,-0.062468334479482406,-0.5358773462484402,-0.49335798708958206,0.05625313127344422,-0.05950854068874854,-0.041727425116337806,-0.03025249228796163,-0.025360285593922293,-0.06674636164929672,0
bsh.SimpleNode,51.0,300.0,2550.0,11.764705657958984,1.0,1.9607843160629272,12.083333015441895,11.139564514160156,1125.0,0.8823529481887817,309.158447265625,12.123860359191895,0.396907216494845,0.00332482079040545,47.0,7.0,54.0,0.7631201826337174,-0.06036480349545441,0.5214729243914817,0.00561944757501018,-0.013569985917527795,-0.0023761820599355653,0.0027312468302954076,-0.0033361554621245946,0.0174519830548995,0.06650379746231684,-0.13613667648070585,0.014624627387963227,-0.06690916896807753,-0.018480881228682806,-0.01796697684396542,0.008981981289451019,-0.022363228873608865,0.011677725454606738,-0.00028005529866097564,0.008963667534332451,0.0025627723318530143,0.013615913933452656,0.15763656467104845,-0.09453387388300061,0.2430390568275006,0.11561960698125033,0.03742804103447179,-0.027333810732505282,0.024212635996264786,-0.04783917102328558,0.009249307244624092,0.02990600198791841,0
bsh.StringUtil,1.0,0.0,0.0,0.0,1.0,100.0,3.3333332538604736,100.0,0.0,0.0,0.0,0.0,0.0,0.0,1.0,0.0,1.0,0.24402965740240112,-0.016086012159086376,-0.14962308774398875,-0.006918086126263573,0.004116924763181323,-0.0011231223220717315,-0.0005225720678284934,0.003632949091379571,-0.026846334959359543,-0.1957032828594815,0.6008593565169563,-0.09116990629003642,0.5334607997549369,-0.1403071021698043,-0.02252417801771828,0.0019030590268170606,-0.04586339319670065,0.03145801063624629,-0.043775647324188934,0.02392919635096695,0.021703999721595948,0.04253577613003777,0.27913833004123956,-0.22844057870245493,-0.03979875537584017,-0.03476423194656088,0.1270175715533761,-0.0976654559305674,0.06224163711466014,0.06485910113847076,0.016871931594444684,-0.17258839309488955,0
bsh.TargetError,18.0,76.0,306.0,24.83660125732422,1.0,5.55555534362793,13.472222328186035,22.931442260742188,115.0,0.7516340017318726,18.03333282470703,5.893246173858643,0.371980676328502,0.000612058448514272,14.0,5.0,19.0,0.48866049910809173,-0.013627212773339007,0.00820700651978873,-0.005441996250520624,0.0031201869524597214,0.002935696137180571,-0.0038957149067819843,0.0037163725098055328,-0.028328665099198787,-0.1432878871755812,0.40065169127125333,-0.060402274159778835,0.33981159705750624,-0.0924381974471856,0.004019782126664366,0.0020308234955456242,-0.05261590117226317,-0.009162598354663555,-0.0038115226421715507,-0.05343018272960195,-0.04531791243330363,-0.023706122483018007,-0.4575139324577341,0.2167459161133341,-0.20817512818938094,0.10659124024458734,-0.14574712743339793,0.004058849462567566,-0.1492303445733715,0.280820789307058,-0.09604646408303473,-0.019807611213657917,0
bsh.This,14.0,60.0,182.0,32.96703338623047,1.0,7.142857074737549,11.527777671813965,22.55434799194336,61.0,0.6703296899795532,7.166666507720947,3.9377288818359375,0.407407407407407,4.35797278924307e-05,9.0,8.0,17.0,0.4678094661086378,-0.022620455905426495,-0.20984951633766585,-0.003204854161628864,0.007387694050722078,0.0012699755257895638,-0.0017022243061038953,0.003384672797810095,-0.032733755103944814,-0.19867525357598687,0.48821768972219726,-0.057326723688468986,0.2989617379786283,0.1191297095201039,0.06951504508113154,-0.055092962949363264,0.26017299716843145,-0.08973580043756317,-0.051951189577444684,-0.23086777069096417,-0.12132349390556177,0.07023037658842646,-0.35865674753440835,0.07046356921768965,-0.18035204658723228,0.021567344531567615,-0.14482278715391234,0.014998515117783476,-0.020586049322343567,0.05310741168441712,-0.007412661227694967,-0.02046002178543523,0
bsh.Token,5.0,4.0,20.0,20.0,1.0,20.0,8.19444465637207,53.6363639831543,8.0,0.800000011920929,0.0,0.0,0.0,0.0,5.0,0.0,5.0,0.3099339317793505,-0.027308808611259835,-0.4049725115123547,-0.017487722518656393,0.011348281311717763,-0.007327798224942238,0.002454632561479132,-0.012751617256427105,0.029228187571976115,0.18905492423756953,-0.4547706928621493,0.04725050829085935,-0.23352091947761838,-0.080664255452604,-0.036469159644939825,0.030034802601082752,-0.17034169203056834,0.014061565486400723,0.040890475425558126,0.019151469224659608,0.06494786769832298,-0.0734830320832414,-0.3526870654260381,0.2706808819065631,0.11000592354375063,0.24754966104096332,-0.061334384906353456,0.13019083667143677,-0.04334230375638818,0.24608081126062603,-0.1601504433210607,-0.09442640239003357,0
bsh.TokenMgrError,2.0,0.0,2.0,0.0,2.0,100.0,8.61111068725586,96.875,1.0,1.0,0.0,0.0,0.0,0.0,2.0,0.0,2.0,0.26619650437482917,-0.019055878022459356,-0.43464707465532526,-0.015602987667987383,0.011166240744192932,-0.00379017405041425,7.928951974316816e-05,-0.008705671628418442,0.020272432498106986,0.11967911368212726,-0.28974648206321346,0.02799208157058474,-0.14395984555128627,-0.055978846416366516,-0.018163571885011293,0.005697218897671842,-0.16003744275814613,0.053612683987482056,0.021169149610495805,0.12042243694589518,0.134873804133444,-0.08048090182886326,-0.08574237729587905,0.15527075260357448,-0.47860175690046347,-0.3211160314881112,0.03879601578857423,0.06689574004919929,-0.06965385064172415,0.16028465629471694,-0.287696841166265,-0.2543154181175844,0
bsh.XThis,4.0,8.0,12.0,66.66666412353516,1.0,25.0,10.55555534362793,58.914730072021484,2.0,0.3333333432674408,0.3333333432674408,2.777777671813965,0.389162561576354,4.82923813939113e-07,1.0,4.0,5.0,0.43612773521717496,-0.008379932475090512,-0.5903860424239382,-0.00864375395137501,-0.001121553512917169,0.0060259022672530015,-0.00649977403230755,0.025925568098807406,-0.008694754290785282,-0.10287535443712245,0.21758519049817607,-0.017159841297096662,0.02000983159970241,0.1809290520848232,0.08254364487965107,-0.05795470573692538,0.22733385751388283,-0.011702594945909034,-0.09320701019075592,-0.0321373848336863,0.009204327301826439,0.09896827296186252,0.41010774728132177,-0.23860969567241486,-0.09608999638582615,-0.17944741745235718,0.07020673962402393,-0.0851769616092538,-0.06677329228925016,0.01574481103715545,-0.058010866030499625,-0.0224593661787146,0
bsh.commands.dir,2.0,2.0,2.0,100.0,1.0,50.0,10.55555534362793,71.69811248779297,0.0,0.0,0.0,0.0,0.38423645320197,0.0,0.0,2.0,2.0,0.27656520159282094,0.005106911238619893,-0.4632698063590082,-0.005937187501076738,-0.017929000231542494,0.0014319129200294827,0.0006958477506761143,0.030986536085812342,-0.014737700407736032,-0.09164560335056705,0.16891750880785034,-0.013313186171789098,-0.054954971987506984,0.1962131979437426,0.11748090414058382,-0.05473144253905769,0.20113418531927763,-0.024663367959288578,-0.15788938051116436,0.010849940124126456,0.05511661117834724,0.09476138777676317,0.5520043319316436,-0.28309835375898873,-0.08404427389384449,-0.11497968742988372,0.059283201468384755,-0.16126675772952884,-0.12883250420459302,0.27190460096385166,-0.08193502297528969,-0.04329321817713063,0
bsh.reflect.ReflectManagerImpl,1.0,0.0,0.0,0.0,1.0,100.0,0.5555555820465088,100.0,0.0,0.0,0.0,0.0,0.161825726141078,0.0,0.0,1.0,1.0,0.07472081278450382,-0.0011528397308031792,-0.05819297433615153,-0.001972352432577452,-0.0011465035480507976,0.00243013785536533,-0.002029197232685326,0.00950410285465303,-0.028931511121532926,-0.18456824496768784,0.49808858546298096,-0.06990773390988843,0.35087162971674063,0.02592365994786288,0.06948016799460492,-0.058407712824537224,0.14890093118540257,-0.0336390596886071,-0.14480658576297287,-0.07714391243936135,0.009462134206492586,0.10109947459655368,0.41445940984719054,-0.3662365387693362,0.024300025148988824,0.12953152294303186,0.1106624931460871,-0.10993956951930924,0.04011260671243404,0.2357725531224055,-0.05795121317520875,-0.3198785602089981,0
com.microstar.xml.HandlerBase,9.0,0.0,72.0,0.0,9.0,100.0,5.138888835906982,66.07142639160156,36.0,1.0,14.0,19.44444465637207,1.0,1.60974604646371e-05,7.0,2.0,9.0,0.009938294067163272,0.11647030014422788,0.0027196646058239363,0.00491925341718105,0.026953042726238968,-0.15061351153887456,0.12212991921940762,0.029880016834670595,-0.2575257841390161,-0.0031618043120169026,0.19462669895987608,0.470765491007083,-0.22780455980063893,-0.108503373911799,0.12349622061976341,-0.1623756008490448,-0.1850177382830838,-0.101944944675583,0.24382504867684163,-0.2868660014223988,0.15911690666864298,-0.2780113721948227,0.25799707084302054,0.3601041964397658,-0.030488735696280727,0.0341587053737971,0.09233005051451972,0.003735350097838077,-0.08903382323656794,-0.05946925670558209,-0.09305152938068162,-0.0003134963433900241,0
com.microstar.xml.XmlException,6.0,6.0,30.0,20.0,2.0,33.33333206176758,32.5,82.10526275634766,12.0,0.800000011920929,0.0,0.0,0.0,0.0,6.0,0.0,6.0,0.011540053405340795,0.13319854850306567,0.004946755249576289,-0.024185276975776188,-0.0864992578127911,-0.12492059024080007,0.21699128286144512,0.017867130018082027,-0.19845777084164995,-0.010140713795292092,0.15941486178963568,0.3962820802885169,-0.18697683020923486,-0.17167192551982202,0.10817674127649023,-0.2762549465853703,-0.10651969490153207,-0.07384616166949903,0.15225139204663538,-0.2686931499306168,0.09641832308630385,-0.3781417261083957,0.0764537157502875,0.29601021441087727,-0.050947390387932785,0.1606615672278509,0.18620212620049123,-0.11298626438748963,0.1208857066495929,-0.2771906694218632,-0.005595962937965261,-0.10666322489210298,0
com.microstar.xml.XmlHandler,7.0,11.0,42.0,26.190475463867188,2.0,28.571428298950195,32.5,79.59183502197266,15.5,0.738095223903656,0.0,0.0,0.0,0.0,7.0,0.0,7.0,0.010522915169810732,0.12050529482900978,0.0023922917086773546,-0.01618999168269088,-0.10819821704385976,-0.1132130541859825,0.19319194559856015,0.018799177137791265,-0.25356626832369805,-0.021124602455435192,0.16387778618591578,0.45369792576548573,-0.19932095290444715,-0.19022318181984862,0.06686914433051203,-0.32000009587730105,-0.10836470695448903,-0.06261640350394677,0.04378534344310741,-0.19762042903680155,0.025065643656799304,-0.42034555265413304,0.08319159294832504,0.27145753742457907,0.00218777453573475,0.1152962151978444,0.12937234225197924,-0.06691460148309174,0.07567781672394956,-0.27033437779973857,-0.01724732611169625,-0.12038590179917275,0
com.microstar.xml.XmlParser,7.0,13.0,42.0,30.952381134033203,1.0,14.285714149475098,33.47222137451172,80.33333587646484,14.5,0.6904761791229248,0.5,1.1904761791229248,1.0,6.43898418585484e-07,6.0,1.0,7.0,0.010760471550673624,0.12643737111743056,0.0030259007708687276,0.011922101745686803,-0.08630432201640091,-0.1497380430050317,0.14504405402325882,0.02316421535185012,-0.24336935910676727,0.008463130979653276,0.16101785074890484,0.46702330268461145,-0.1711303285828978,-0.12277889778985127,0.0780494875041056,-0.2330289555128036,-0.15041693354850452,-0.03418495914621306,0.15116555104749058,-0.3483428687943175,0.1310207491881354,-0.3319352016950407,0.14425683876723136,0.32247721533010887,-0.04820122709431903,0.11191955346423894,0.11643093948037299,-0.04840689422639526,0.025492480982858473,-0.2627290537837307,-0.014428490889053404,0.058651517124362375,1
gnu.regexp.CharIndexed,29.0,66.0,812.0,8.12807846069336,1.0,3.4482758045196533,11.527777671813965,35.021095275878906,373.0,0.9187192320823669,0.0,0.0,0.0,0.0,29.0,0.0,29.0,0.013224103083265368,0.10321560543918762,-0.01895175149740193,0.8799089371213368,0.08285692912334847,0.14911322039781644,0.17167649962174975,-0.309069737630441,0.029425872588467756,-0.053752615429451714,0.011113398595259368,-0.06802769514028394,-0.046456297385835704,0.00394458801501493,0.05790383766347832,-0.09744462323182099,0.04425275171224911,0.06459550071767216,0.028794788807560374,0.10701718573227222,0.04742273033965031,-0.0241633478203759,-0.0428109226697683,0.02928024341531291,0.020986722762983332,0.01423090059546168,-0.007661886998086296,0.0026384162383770934,0.08106478466343216,-0.023185755975831054,-0.024915757461119008,0.06762513209113954,0
gnu.regexp.CharIndexedCharArray,2.0,1.0,2.0,50.0,1.0,50.0,6.388888835906982,65.71428680419922,0.5,0.5,0.0,0.0,1.0,0.0,1.0,1.0,2.0,0.00400397954270098,0.04084147513357815,-0.008162230594387209,0.3213485789452739,-0.022699991190631267,-0.02715400204791116,-0.022325385246630393,0.9356551661560543,0.009571969501633889,-0.05625353427590346,-0.0597383844909816,-0.06035851104134086,0.010157686045841777,-0.062043438735450956,-0.006934487382895113,0.0012223338098939609,0.007866502193290542,-0.004212635240288254,0.025770550168932385,-0.00744670634021128,-0.009174623520149642,-0.007189448519004621,-0.004858663164740009,0.011262429858074935,0.0067800892363014415,-0.004443366312144226,-0.025221678411277627,-0.006717376932378798,0.004499917642931173,-0.02335453307573628,0.02010578227550356,0.022589919326602884,0
gnu.regexp.CharIndexedInputStream,3.0,3.0,6.0,50.0,1.0,33.33333206176758,6.388888835906982,62.16216278076172,1.5,0.5,0.0,0.0,1.0,0.0,2.0,1.0,3.0,0.004932068036280076,0.05417010981668517,-0.011712073330794753,0.5129419582650286,-0.0034093892974532904,0.00204237928677936,0.02614430514859814,0.8409344595711369,0.015054376649705386,-0.059611782125480475,-0.06697350825019138,-0.0735430349166229,0.010056034746459028,-0.08542395922999174,0.0008636172074333624,-0.0024008863210484956,0.011824224737377698,-0.0032269044246887976,0.01956226942181681,-0.00015903180468426035,-0.010460489949228926,-0.006771941532706905,-0.003380084913316055,0.008221855043278138,0.009766425109545854,0.0019763263943474428,-0.027522320383013794,-0.009350215460769834,0.008608929960472682,-0.03097223613836836,0.028670697602216227,0.035757736981452404,0
gnu.regexp.CharIndexedReader,3.0,3.0,6.0,50.0,1.0,33.33333206176758,6.388888835906982,62.16216278076172,1.5,0.5,0.0,0.0,1.0,0.0,2.0,1.0,3.0,0.004932055168976458,0.05416996169795828,-0.0117120340941299,0.5129405456504776,-0.0034094176805732263,0.00204233204559149,0.026144297688161452,0.8409322799791471,0.01505546944476206,-0.059611138226746185,-0.0669741221602572,-0.07354332978150387,0.010055505626773223,-0.08542263947518709,0.0008617458839790323,-0.0024002727965416904,0.011825320215530314,-0.003217267227912871,0.019576236379031366,-0.0001446971075078966,-0.01043001967907672,-0.006765510278436465,-0.003393025126472749,0.008257075477827834,0.00979512909375707,0.0019575928968593235,-0.02753576869094432,-0.009296972077580883,0.008520815643567294,-0.031030350354321227,0.02864809789571642,0.03581095293176721,0
gnu.regexp.CharIndexedString,2.0,1.0,2.0,50.0,1.0,50.0,6.388888835906982,65.71428680419922,0.5,0.5,0.0,0.0,1.0,0.0,1.0,1.0,2.0,0.00400397954270098,0.04084147513357815,-0.008162230594387209,0.3213485789452739,-0.022699991190631267,-0.02715400204791116,-0.022325385246630393,0.9356551661560543,0.009571969501633889,-0.05625353427590346,-0.0597383844909816,-0.06035851104134086,0.010157686045841777,-0.062043438735450956,-0.006934487382895113,0.0012223338098939609,0.007866502193290542,-0.004212635240288254,0.025770550168932385,-0.00744670634021128,-0.009174623520149642,-0.007189448519004621,-0.004858663164740009,0.011262429858074935,0.0067800892363014415,-0.004443366312144226,-0.025221678411277627,-0.006717376932378798,0.004499917642931173,-0.02335453307573628,0.02010578227550356,0.022589919326602884,0
gnu.regexp.CharIndexedStringBuffer,2.0,1.0,2.0,50.0,1.0,50.0,6.388888835906982,65.71428680419922,0.5,0.5,0.0,0.0,1.0,0.0,1.0,1.0,2.0,0.00400397954270098,0.04084147513357815,-0.008162230594387209,0.3213485789452739,-0.022699991190631267,-0.02715400204791116,-0.022325385246630393,0.9356551661560543,0.009571969501633889,-0.05625353427590346,-0.0597383844909816,-0.06035851104134086,0.010157686045841777,-0.062043438735450956,-0.006934487382895113,0.0012223338098939609,0.007866502193290542,-0.004212635240288254,0.025770550168932385,-0.00744670634021128,-0.009174623520149642,-0.007189448519004621,-0.004858663164740009,0.011262429858074935,0.0067800892363014415,-0.004443366312144226,-0.025221678411277627,-0.006717376932378798,0.004499917642931173,-0.02335453307573628,0.02010578227550356,0.022589919326602884,0
gnu.regexp.CharUnit,1.0,0.0,0.0,0.0,1.0,100.0,5.69444465637207,100.0,0.0,0.0,0.0,0.0,0.0,0.0,1.0,0.0,1.0,0.002982756217862754,0.04224873551291045,-0.007023688646274224,0.312277989681619,-0.03419839736560082,-0.06968439841245785,-0.03915102703992153,0.8963671437805334,-0.0069484186394717816,0.0007042548220206391,-0.0626022008375751,0.0021955113973836835,0.05065063156415719,-0.04371505200035563,-0.06291148856216902,0.08472596676226714,-0.04314267078773841,-0.05442629421908299,-0.05408633617536599,-0.09813646859560865,-0.06283006401005738,-0.0017831546087525713,0.02457622471384073,0.015973883560392945,-0.040045876830082976,0.02410229864430233,-0.06949693945638992,-0.0029877871708573543,-0.14214276522452018,-0.10402466096168102,0.09070946080731473,0.03942954742552402,0
gnu.regexp.IntPair,1.0,0.0,0.0,0.0,1.0,100.0,5.69444465637207,100.0,0.0,0.0,0.0,0.0,0.0,0.0,1.0,0.0,1.0,0.002982756217862754,0.04224873551291045,-0.007023688646274224,0.312277989681619,-0.03419839736560082,-0.06968439841245785,-0.03915102703992153,0.8963671437805334,-0.0069484186394717816,0.0007042548220206391,-0.0626022008375751,0.0021955113973836835,0.05065063156415719,-0.04371505200035563,-0.06291148856216902,0.08472596676226714,-0.04314267078773841,-0.05442629421908299,-0.05408633617536599,-0.09813646859560865,-0.06283006401005738,-0.0017831546087525713,0.02457622471384073,0.015973883560392945,-0.040045876830082976,0.02410229864430233,-0.06949693945638992,-0.0029877871708573543,-0.14214276522452018,-0.10402466096168102,0.09070946080731473,0.03942954742552402,0
gnu.regexp.RE,41.0,95.0,1640.0,5.792683124542236,4.0,9.756097793579102,30.27777862548828,44.58077621459961,772.5,0.9420731663703918,460.5,28.079267501831055,1.0,0.020047582991559,19.0,25.0,44.0,0.009711527712849813,0.1333393992072305,-0.016695400838310823,0.873879637427487,0.06987968910323938,0.04107335630791959,0.11309621297182222,-0.32336239522042914,-0.014985140641390027,0.06934237212304085,-0.004936403953936321,0.06470421945609232,0.040487015206442524,0.02717449809964544,-0.056438091425666026,0.09443504343685041,-0.056604833612091246,-0.04141336536508777,-0.00222997458927037,-0.09762841898208165,-0.018671461570744403,0.005180336621889802,0.05003902788940545,-0.03829098981240983,-0.014385608399088654,-0.01222898162086845,0.0434129047282974,0.05227480944661823,-0.1814192305489887,0.007901311082223072,0.016452815799422846,0.11624125053117247,0
gnu.regexp.REException,8.0,13.0,56.0,23.214284896850586,1.0,12.5,25.69444465637207,70.8812255859375,21.5,0.7678571343421936,1.0,1.7857142686843872,0.510204081632653,4.05656003708854e-05,8.0,1.0,9.0,0.007730074154946695,0.14371982576049094,-0.007814760777573461,0.32493246913324764,-0.10897639738875635,-0.15118559000609985,-0.12218375542380674,0.0695346345673032,-0.08501924840265476,0.2394658439239834,0.06475056894864799,0.16618094410962245,0.07483750369256767,0.275093622011101,-0.2820355178394817,0.1556861794126941,-0.2199294869097396,-0.13795860174217953,0.0832057967501873,-0.38256188088507953,0.00498989325066919,0.02841277899887942,0.18748875481845148,0.08208322512682877,-0.1000885896545741,-0.019871551920377085,-0.15061790896412797,0.06841652459403011,-0.4295048908916133,0.003092268279843927,-0.0013772722395650801,0.22812323416805022,0
gnu.regexp.REFilterInputStream,4.0,5.0,12.0,41.66666793823242,1.0,25.0,6.388888835906982,49.462364196777344,3.5,0.5833333134651184,0.0,0.0,0.541666666666666,0.0,0.0,4.0,4.0,0.004092926215123389,0.044251351836582124,-0.009927900849077936,0.42853836088473235,-0.006653097780449608,-0.009726741323606819,0.010138768597647388,0.8838324959979957,0.0135588537866574,-0.06454779689859588,-0.07452190198378457,-0.07618686000776374,0.015340464232345221,-0.10557976385490922,-4.924935441463898e-05,0.0023948654080250746,0.016624912964318492,-0.016518063849360182,0.037176603706860156,-0.016221224931433645,0.002733912821890639,0.0055320350003813185,-0.014816303638039484,-0.006569920608924025,0.019079669895702187,-0.003139496013913085,0.018722560583267815,0.03669148058900762,-0.009528242467956048,0.00237984372783749,-0.008147178015888783,0.03247641200745272,0
gnu.regexp.REFilterReader,4.0,5.0,12.0,41.66666793823242,1.0,25.0,6.388888835906982,49.462364196777344,3.5,0.5833333134651184,0.0,0.0,0.541666666666666,0.0,0.0,4.0,4.0,0.004092931292593418,0.04425140942581557,-0.009927922214896074,0.42853888374673016,-0.006653122770874737,-0.00972675084031309,0.010138692388902956,0.8838336692470287,0.013558970374813963,-0.06454712635128992,-0.07452227415037115,-0.0761871443698679,0.015340808707688539,-0.10557806601943255,-4.913780202297245e-05,0.0023903103163171475,0.016624470454803288,-0.01652197946829997,0.037174539807763585,-0.016214183600082123,0.0027385574163997354,0.00553895904898413,-0.014807029888967068,-0.006609987850148978,0.01906714617703336,-0.003146224187890787,0.01873965634228997,0.03668877228531386,-0.009512075892724705,0.002371865579146436,-0.008121707916148527,0.032453207739841,0
gnu.regexp.REMatch,20.0,50.0,380.0,13.1578950881958,1.0,5.0,8.05555534362793,32.95454406738281,165.0,0.8684210777282715,0.5,0.1315789520740509,1.0,6.43898418585484e-07,19.0,1.0,20.0,0.007776433203331283,0.07599220861256266,-0.01737716316164458,0.8937722030287009,0.07999331285885186,0.09171677211223833,0.18123360386981452,-0.2877115038119186,0.019855105027497214,-0.016039861930782873,-0.03650797294841852,-0.052651532484450494,0.008547719720489785,-0.12352323068299395,0.02872763845756709,-0.00328354445757124,0.017474396988861662,-0.025102600514886064,-0.0615435906399539,0.006886858576700351,-0.03173500517024209,0.023223723911411344,-0.00034926734146991495,-0.0010724433105388012,-0.00795646027944226,0.009306986586226036,-0.030280996367679842,-0.05817505886436269,0.09363544324655139,0.006278615948416206,0.017325181717683255,-0.15427021178184128,0
gnu.regexp.REMatchEnumeration,3.0,3.0,6.0,50.0,1.0,33.33333206176758,6.388888835906982,51.11111068725586,1.5,0.5,0.0,0.0,0.531914893617021,0.0,1.0,3.0,4.0,0.003578732524105146,0.03659092830567488,-0.008083953548951448,0.32977008107967504,-0.01661566617664316,-0.025150725092139132,-0.013139518508965683,0.9268358935240838,0.011323644154769715,-0.06336537116696923,-0.07258077025715817,-0.07200718527124829,0.015961553664321674,-0.10458136740575155,-0.0015660459962546294,0.0046516745575871975,0.016082545699638406,-0.02137541110496663,0.027894056831514386,-0.018400918701862654,-0.005730263178752943,0.008053616041444169,-0.01486081423640094,-0.002339805267757941,0.012914955130288683,-0.006812142790508837,0.007842796628478815,0.01630826965408026,0.01920598849755707,0.007714763507022671,-0.006627596019005594,-0.02732820796217919,0
gnu.regexp.RESyntax,6.0,10.0,30.0,33.33333206176758,1.0,16.66666603088379,23.19444465637207,78.03738403320312,10.0,0.6666666865348816,0.0,0.0,0.510204081632653,0.0,6.0,1.0,7.0,0.014797036194925617,0.11235801327649612,-0.00888935722909259,0.28693120406970707,-0.059665594005198275,-0.18085977471714415,-0.16559427289434295,0.15430547578337983,-0.05714572550787968,0.10925463178723498,0.11940089448966738,0.19201681090211745,-0.011324316241787714,0.3802126753152962,-0.1710261326868489,0.08498157373110367,-0.22015505894875903,-0.039415203686051795,-0.0011668502387622462,-0.3410996175423554,-0.025118718618672903,-0.00276463089366525,0.1419314788589705,0.16851997781018577,-0.10239667424094856,-0.030520602112430677,-0.17833737763358176,0.03474050574918861,-0.2942666981110134,-0.1784028573119163,-0.012101527004910588,0.4372716279168212,0
gnu.regexp.REToken,15.0,40.0,210.0,19.047618865966797,1.0,6.666666507720947,6.388888835906982,32.624114990234375,85.0,0.8095238208770752,0.0,0.0,1.0,0.0,13.0,2.0,15.0,0.004326866403450547,0.06041187355052719,-0.016315895111182803,0.8654079424107493,0.07447384736526658,0.12041597189748347,0.21301595830799458,-0.2306811604328,0.02833537785724535,-0.02414397142526245,-0.060291119449267454,-0.08937206066930622,0.0105645836225667,-0.19803240506136754,0.041258787060110595,-0.009207575154251926,0.010090868862597423,-0.04314162611231091,-0.06445158027010466,0.0032218387001397733,-0.020473082422717614,0.032141041931495015,0.01948082432028935,-0.00964583680564176,-0.018619175692411602,0.029967996710326853,-0.02648270335721946,-0.07063575010821835,0.0786238025583899,0.06697287987344121,-0.01198884889631124,-0.22040064153217737,0
gnu.regexp.RETokenAny,4.0,6.0,12.0,50.0,1.0,25.0,6.388888835906982,43.80952453613281,3.0,0.5,0.0,0.0,1.0,0.0,1.0,3.0,4.0,0.003095176457644637,0.033378505787779386,-0.007897290273779055,0.33765158692934205,-0.01026118634660772,-0.016757913251630594,-0.0001446063395874711,0.9118216094287539,0.012834589534817963,-0.06908276240035546,-0.08345900870920443,-0.08470537421895573,0.01953399317827532,-0.1401387894774182,0.0018309286532763188,0.00529067388104154,0.020390939283512263,-0.03539669211859198,0.030726421894544352,-0.02708203112902314,-0.013714110128614298,0.01525942680505265,-0.024535510200273832,-0.00833994649527157,0.020570958790914015,-0.01276171245954631,0.024719689462984532,0.02421354731756701,0.04382250497420799,0.004035474594048236,-0.016150064958325192,-0.07383453948301914,0
gnu.regexp.RETokenBackRef,4.0,6.0,12.0,50.0,1.0,25.0,6.388888835906982,43.80952453613281,3.0,0.5,0.0,0.0,1.0,0.0,1.0,3.0,4.0,0.003095176457644637,0.033378505787779386,-0.007897290273779055,0.33765158692934205,-0.01026118634660772,-0.016757913251630594,-0.0001446063395874711,0.9118216094287539,0.012834589534817963,-0.06908276240035546,-0.08345900870920443,-0.08470537421895573,0.01953399317827532,-0.1401387894774182,0.0018309286532763188,0.00529067388104154,0.020390939283512263,-0.03539669211859198,0.030726421894544352,-0.02708203112902314,-0.013714110128614298,0.01525942680505265,-0.024535510200273832,-0.00833994649527157,0.020570958790914015,-0.01276171245954631,0.024719689462984532,0.02421354731756701,0.04382250497420799,0.004035474594048236,-0.016150064958325192,-0.07383453948301914,0
gnu.regexp.RETokenChar,5.0,10.0,20.0,50.0,1.0,20.0,6.388888835906982,41.818180084228516,5.0,0.5,0.0,0.0,1.0,0.0,2.0,3.0,5.0,0.0036163042688479,0.04156171245534124,-0.0103295308506081,0.4731986386565183,0.004278855555095841,0.006784129455003962,0.0395487470239607,0.8302759846115495,0.018002148584051327,-0.07260037674229954,-0.09278624985878221,-0.10017149932816297,0.020687205175233273,-0.1781073700483659,0.011720464571781228,0.0023765205715543763,0.023816248180181077,-0.04318423267249766,0.01770518680914972,-0.023785001794097805,-0.01798679719401293,0.021775225631992273,-0.023033814983980123,-0.011046893797177012,0.01824526361723745,-0.00775680059964898,0.022175551640521363,0.009837078761840813,0.06691312840194028,0.016954637360717627,-0.020259341720266406,-0.12569451284664368,0
gnu.regexp.RETokenEnd,4.0,6.0,12.0,50.0,1.0,25.0,6.388888835906982,43.80952453613281,3.0,0.5,0.0,0.0,1.0,0.0,1.0,3.0,4.0,0.003095176457644637,0.033378505787779386,-0.007897290273779055,0.33765158692934205,-0.01026118634660772,-0.016757913251630594,-0.0001446063395874711,0.9118216094287539,0.012834589534817963,-0.06908276240035546,-0.08345900870920443,-0.08470537421895573,0.01953399317827532,-0.1401387894774182,0.0018309286532763188,0.00529067388104154,0.020390939283512263,-0.03539669211859198,0.030726421894544352,-0.02708203112902314,-0.013714110128614298,0.01525942680505265,-0.024535510200273832,-0.00833994649527157,0.020570958790914015,-0.01276171245954631,0.024719689462984532,0.02421354731756701,0.04382250497420799,0.004035474594048236,-0.016150064958325192,-0.07383453948301914,0
gnu.regexp.RETokenEndSub,4.0,6.0,12.0,50.0,1.0,25.0,6.388888835906982,43.80952453613281,3.0,0.5,0.0,0.0,1.0,0.0,1.0,3.0,4.0,0.003095176457644637,0.033378505787779386,-0.007897290273779055,0.33765158692934205,-0.01026118634660772,-0.016757913251630594,-0.0001446063395874711,0.9118216094287539,0.012834589534817963,-0.06908276240035546,-0.08345900870920443,-0.08470537421895573,0.01953399317827532,-0.1401387894774182,0.0018309286532763188,0.00529067388104154,0.020390939283512263,-0.03539669211859198,0.030726421894544352,-0.02708203112902314,-0.013714110128614298,0.01525942680505265,-0.024535510200273832,-0.00833994649527157,0.020570958790914015,-0.01276171245954631,0.024719689462984532,0.02421354731756701,0.04382250497420799,0.004035474594048236,-0.016150064958325192,-0.07383453948301914,0
gnu.regexp.RETokenLookAhead,5.0,8.0,20.0,40.0,1.0,20.0,6.388888835906982,40.70796585083008,6.0,0.6000000238418579,0.0,0.0,0.378787878787878,0.0,1.0,4.0,5.0,0.003857229188195465,0.051011465440631225,-0.007845132055738486,0.3648896414203763,-0.003147493058216999,-0.04386650869729673,-0.025174157720873013,0.9031457987743147,-0.018062265289747307,-0.021115717912454562,-0.07729754011632196,-0.04659159819623083,0.04778323230473845,-0.06423690575798714,-0.016203973766022416,0.03139022516017957,-0.042819391167985256,-0.06893928132684832,-0.04967525767356064,-0.0454648968124289,-0.06603916127658321,-0.0037374423011351486,-0.014614466579927897,-0.02706164432533316,-0.0023984835116820057,-0.009607877597378325,0.06877988661141445,0.012744810168710017,-0.045219600603772864,-0.061776171211057426,0.029891569508669596,0.03425960203379063,0
gnu.regexp.RETokenOneOf,5.0,10.0,20.0,50.0,1.0,20.0,6.388888835906982,41.818180084228516,5.0,0.5,0.0,0.0,1.0,0.0,1.0,4.0,5.0,0.003616306683595069,0.04156173952995042,-0.010329536856460066,0.47319893877027835,0.004278846854007579,0.0067841076766351985,0.039548765473726474,0.8302764825369751,0.01800224972935853,-0.07260014010518401,-0.09278677760810607,-0.10017181915210735,0.020686920694147518,-0.17810739088241812,0.011720443016360877,0.002376282808806757,0.02381742656231991,-0.043182909212563306,0.017703390996819075,-0.023783693489845627,-0.01798511811288856,0.021775162213476598,-0.023039350841185875,-0.011049665652183195,0.01824397866439676,-0.007753878113471268,0.02216780235815809,0.009839202180962637,0.06691019012133832,0.01694863443331068,-0.020256064380283042,-0.12569377606574125,0
gnu.regexp.RETokenPOSIX,4.0,6.0,12.0,50.0,1.0,25.0,6.388888835906982,43.80952453613281,3.0,0.5,0.0,0.0,1.0,0.0,1.0,3.0,4.0,0.003095176457644637,0.033378505787779386,-0.007897290273779055,0.33765158692934205,-0.01026118634660772,-0.016757913251630594,-0.0001446063395874711,0.9118216094287539,0.012834589534817963,-0.06908276240035546,-0.08345900870920443,-0.08470537421895573,0.01953399317827532,-0.1401387894774182,0.0018309286532763188,0.00529067388104154,0.020390939283512263,-0.03539669211859198,0.030726421894544352,-0.02708203112902314,-0.013714110128614298,0.01525942680505265,-0.024535510200273832,-0.00833994649527157,0.020570958790914015,-0.01276171245954631,0.024719689462984532,0.02421354731756701,0.04382250497420799,0.004035474594048236,-0.016150064958325192,-0.07383453948301914,0
gnu.regexp.RETokenRange,4.0,6.0,12.0,50.0,1.0,25.0,6.388888835906982,43.80952453613281,3.0,0.5,0.0,0.0,1.0,0.0,1.0,3.0,4.0,0.003095176457644637,0.033378505787779386,-0.007897290273779055,0.33765158692934205,-0.01026118634660772,-0.016757913251630594,-0.0001446063395874711,0.9118216094287539,0.012834589534817963,-0.06908276240035546,-0.08345900870920443,-0.08470537421895573,0.01953399317827532,-0.1401387894774182,0.0018309286532763188,0.00529067388104154,0.020390939283512263,-0.03539669211859198,0.030726421894544352,-0.02708203112902314,-0.013714110128614298,0.01525942680505265,-0.024535510200273832,-0.00833994649527157,0.020570958790914015,-0.01276171245954631,0.024719689462984532,0.02421354731756701,0.04382250497420799,0.004035474594048236,-0.016150064958325192,-0.07383453948301914,0
gnu.regexp.RETokenRepeated,4.0,6.0,12.0,50.0,1.0,25.0,6.388888835906982,43.80952453613281,3.0,0.5,0.0,0.0,1.0,0.0,1.0,3.0,4.0,0.003095176457644637,0.033378505787779386,-0.007897290273779055,0.33765158692934205,-0.01026118634660772,-0.016757913251630594,-0.0001446063395874711,0.9118216094287539,0.012834589534817963,-0.06908276240035546,-0.08345900870920443,-0.08470537421895573,0.01953399317827532,-0.1401387894774182,0.0018309286532763188,0.00529067388104154,0.020390939283512263,-0.03539669211859198,0.030726421894544352,-0.02708203112902314,-0.013714110128614298,0.01525942680505265,-0.024535510200273832,-0.00833994649527157,0.020570958790914015,-0.01276171245954631,0.024719689462984532,0.02421354731756701,0.04382250497420799,0.004035474594048236,-0.016150064958325192,-0.07383453948301914,0
gnu.regexp.RETokenStart,4.0,6.0,12.0,50.0,1.0,25.0,6.388888835906982,43.80952453613281,3.0,0.5,0.0,0.0,1.0,0.0,1.0,3.0,4.0,0.003095176457644637,0.033378505787779386,-0.007897290273779055,0.33765158692934205,-0.01026118634660772,-0.016757913251630594,-0.0001446063395874711,0.9118216094287539,0.012834589534817963,-0.06908276240035546,-0.08345900870920443,-0.08470537421895573,0.01953399317827532,-0.1401387894774182,0.0018309286532763188,0.00529067388104154,0.020390939283512263,-0.03539669211859198,0.030726421894544352,-0.02708203112902314,-0.013714110128614298,0.01525942680505265,-0.024535510200273832,-0.00833994649527157,0.020570958790914015,-0.01276171245954631,0.024719689462984532,0.02421354731756701,0.04382250497420799,0.004035474594048236,-0.016150064958325192,-0.07383453948301914,0
gnu.regexp.RETokenWordBoundary,4.0,6.0,12.0,50.0,1.0,25.0,6.388888835906982,43.80952453613281,3.0,0.5,0.0,0.0,1.0,0.0,1.0,3.0,4.0,0.003095176457644637,0.033378505787779386,-0.007897290273779055,0.33765158692934205,-0.01026118634660772,-0.016757913251630594,-0.0001446063395874711,0.9118216094287539,0.012834589534817963,-0.06908276240035546,-0.08345900870920443,-0.08470537421895573,0.01953399317827532,-0.1401387894774182,0.0018309286532763188,0.00529067388104154,0.020390939283512263,-0.03539669211859198,0.030726421894544352,-0.02708203112902314,-0.013714110128614298,0.01525942680505265,-0.024535510200273832,-0.00833994649527157,0.020570958790914015,-0.01276171245954631,0.024719689462984532,0.02421354731756701,0.04382250497420799,0.004035474594048236,-0.016150064958325192,-0.07383453948301914,0
gnu.regexp.UncheckedRE,3.0,4.0,6.0,66.66666412353516,1.0,33.33333206176758,5.69444465637207,74.54545593261719,1.0,0.3333333432674408,0.0,0.0,0.530612244897959,0.0,0.0,3.0,3.0,0.00506553862181679,0.07283143010337369,-0.005513617236153213,0.274816152221244,-0.001406847283618466,-0.11908034846783509,-0.10101768136984193,0.44967816868721966,-0.0803638363374409,0.1027345596117171,0.004404980954350276,0.12392241149604234,0.07762153977954143,0.23859274047666557,-0.11665855240491481,0.09372792143744939,-0.19728839316527738,-0.1093819553710265,-0.2480056114500015,-0.10654755253254684,-0.15896690289550827,-0.0671993729702718,0.06598799478214656,-0.051900686219955444,-0.08716875619588255,0.002863243269773916,0.13551954037866407,-0.02458131887097492,-0.35604276363415016,-0.17539043838687385,0.13773227493046647,0.4594871032643154,0
org.gjt.sp.jedit.Abbrevs,13.0,47.0,156.0,30.128204345703125,2.0,15.384614944458008,51.25,46.00997543334961,54.5,0.6987179517745972,37.485713958740234,24.02930450439453,0.251271186440678,0.00540583596440316,4.0,11.0,15.0,0.015539601922577221,0.32557776945571554,-0.0032199407947520443,0.025052979341745288,-0.36228862141248774,-0.2716261342787031,-0.07675853148053965,-0.03754438495963921,0.04942631738937731,0.05232138728734933,0.09648783812012339,-0.13602915452965422,-0.15107836825729812,0.11814913027006317,-0.20217498140381762,0.06456988923781848,-0.3395215958372943,-0.07224587364268405,-0.18293946619686668,0.08719838479858803,0.041951174230059216,0.14806482778530047,-0.0751930236228888,-0.16989801981058503,-0.09250422891660996,0.20718706717024143,-0.21306665377950246,-0.011117048747640471,-0.3343867706955787,-0.19570234498076136,0.2523844640530503,-0.18809201955540875,0
org.gjt.sp.jedit.AbstractOptionPane,22.0,19.0,462.0,4.11255407333374,3.0,13.636363983154297,34.30555725097656,69.38201904296875,221.5,0.9588744640350342,21.0,4.545454502105713,0.234944532488114,0.000745375076797556,20.0,2.0,22.0,0.005361250956680507,0.15735944733071391,0.00795100600873716,-0.0647159634894559,0.23982333222142188,-0.36672255054089553,0.4321376153379104,0.05008190691570372,0.6177444981851669,0.3329984873928829,0.1442768953036168,-0.12748926656686316,0.03134512642626672,0.15856717899119804,0.0796306807815051,-0.08283628060375282,-0.042664020536451124,-0.06892746929362864,-0.026168590192822062,0.05648409724453317,-0.01076913805265072,-0.05200995623968839,-0.01999463550899524,-0.0031455804448129966,-0.0028919260013054752,0.011823496804750804,0.008811498871098954,0.02094345228801983,-0.004673923724637774,-0.06333082110575529,-0.04285315463743359,-0.02451413086187084,0
org.gjt.sp.jedit.ActionListHandler,6.0,7.0,30.0,23.33333396911621,2.0,33.33333206176758,33.47222137451172,69.65318298339844,11.5,0.7666666507720947,7.0,23.33333396911621,0.206189151599443,0.00119003746563008,1.0,5.0,6.0,0.020824648455335593,0.1760193163645864,-0.008377678200934028,-0.024772933208289206,-0.2533125870036747,-0.08802924593271919,0.21880249279145547,0.006517354449577194,-0.09977274535723331,-0.21250909075631805,0.14332503327560772,0.20235863259419967,-0.23078218393067526,0.015795366332198794,-0.06777619564336955,0.09772131912660238,0.09820181006354864,-0.2325453427123577,-0.2692687081375987,0.41605783084518855,-0.17898929102239872,-0.03736913695765254,-0.051383570670586375,0.24159028412944178,0.03153850168115076,0.01030459236889245,0.08240100202365262,-0.1765471143337834,-0.08222538373194442,0.006797164126312272,-0.11997032244952734,-0.44696448103031833,0
org.gjt.sp.jedit.ActionSet,12.0,26.0,132.0,19.696969985961914,1.0,8.333333015441895,35.0,66.49076843261719,53.0,0.8030303120613098,2.8333332538604736,2.1464645862579346,0.197337770382695,0.000100132510670874,11.0,1.0,12.0,0.016656359445802287,0.2359212197872007,0.002573182375949659,-0.050615885974145076,0.04749768393452262,-0.10853257014158588,0.2759203012391827,0.006856127498602504,-0.036886107385700945,-0.26357596276639966,0.08182144214322279,0.30087568666724057,-0.21317521541819356,-0.07995858293354309,0.011750040639771055,0.4380778126233022,0.04977019694771569,-0.02067513408399899,0.16655654216991733,0.11662120361857095,-0.03339843632448,0.15917458790357797,0.1584359320907037,0.18310364912687607,-0.004571652808322925,-0.011870543565223757,-0.06555434051949195,0.08727837853142033,0.2362481236718246,0.16211955766275174,-0.4564064386407255,0.08679417181258857,1
org.gjt.sp.jedit.Autosave,3.0,6.0,6.0,100.0,1.0,33.33333206176758,44.58333206176758,65.91375732421875,0.0,0.0,0.0,0.0,0.245956034840315,0.0,1.0,3.0,4.0,0.011195592526934925,0.21902889941332368,-0.008024567304411954,0.004944412944065389,-0.5170215716064047,-0.03982067397311582,-0.009770551815885684,-0.023361018711776104,0.1328276784554022,0.031181058638331573,0.06271831549632498,-0.19708258928852945,-0.0950946805653704,0.11555462941600111,-0.007860301112493636,0.015836246262391933,-0.3076847260709354,0.1310242134507933,-0.04332961065519983,-0.38965562508965723,0.046686544364930416,0.14127853563125556,0.17372669004409683,0.22388050462504977,0.003561847990229639,-0.028640490331563337,-0.16347520926525427,-0.33940075485159016,0.09813764064959775,0.15674681966627083,-0.08959851658403609,-0.21262080196873714,1
org.gjt.sp.jedit.BeanShell,29.0,121.0,812.0,14.901477813720703,1.0,3.4482758045196533,63.19444274902344,34.91941833496094,345.5,0.8509852290153503,173.19602966308594,21.329561233520508,0.289833822091886,0.0525190931701298,9.0,22.0,31.0,0.19123938991996592,0.31870568128060434,-0.18677928835969865,0.039391265827770264,-0.015103516843979953,0.05956717261204909,-0.029194268232874958,-0.022662790907184927,-0.03627924439101846,-0.2744948632289197,0.3164982044243768,-0.024974550602934166,-0.26243351121921027,0.23691782020269664,-0.05879911531166662,-0.045776615866773084,0.25825475480678467,-0.06330830723712239,0.1635801882599129,-0.05080837629304352,-0.0955905467573844,0.037984475168788764,0.148181347263838,0.11095199948408646,0.09821577009326717,-0.3018150060368268,-0.05367031039553817,0.3485595884104462,0.23231851756943395,-0.2903484275983955,0.06276528618434588,-0.006532912977224736,1
org.gjt.sp.jedit.BeanShellAction,8.0,11.0,56.0,19.64285659790039,1.0,12.5,34.86111068725586,69.72222137451172,22.5,0.8035714030265808,4.5,8.035714149475098,0.238920225624496,0.000435930137917852,1.0,7.0,8.0,0.10121620756444455,0.178907938348179,-0.04114234662209813,-0.016353738958663298,-0.11115861805700628,-0.007648710552247364,0.07029160165342288,0.04221512695079649,-0.05842159499109237,-0.2566248648657566,0.23755604662655888,-0.004123758436317902,-0.28069226246059553,0.22885670805560807,0.07404072998258332,0.05051709556292998,0.21696046050746992,-0.015632776475389812,-0.23297548601653906,0.17451051156872419,0.052743229904866906,0.21253877266439983,0.42084158317976966,0.15745468336283228,-0.1399555920212253,-0.015516314907271211,0.043964780242995806,-0.06053940127323792,-0.23986819180100244,0.3887712312468863,-0.1818565951712928,-0.15050811801256006,0
org.gjt.sp.jedit.Buffer,132.0,634.0,17292.0,3.6664352416992188,3.0,2.2727272510528564,66.11111450195312,23.02854347229004,8329.0,0.9633356332778931,6752.86083984375,39.05193328857422,0.282515483563601,0.0888139649755803,104.0,51.0,155.0,0.022614512401935415,0.375567023220547,0.012948332779656463,0.005583407553673655,0.31454643580930003,-0.10305871916824581,-0.32356850717049357,-0.05514988779751922,-0.11417664461632639,-0.040920748886337156,-0.06962732032417168,-0.09330778719491435,0.061426143541948676,0.17821080584662571,-0.1558892723808606,-0.16227394760900338,-0.26696473297822404,-0.21861215701157946,-0.17319302430749176,0.02055794702643836,-0.1316552976575033,0.029130177346257245,-0.12378804477556098,-0.12375778939661734,0.006966238913900061,-0.029049216329281324,0.4252927821610052,0.0952027466874843,0.16241737543393675,0.06891615517016327,-0.31367154867081726,0.08865211944265189,1
org.gjt.sp.jedit.BufferHistory,12.0,16.0,132.0,12.121212005615234,1.0,8.333333015441895,33.61111068725586,64.36170196533203,58.0,0.8787878751754761,28.16666603088379,21.3383846282959,0.23559793404847,0.0031195345557017,5.0,10.0,15.0,0.009148264896376832,0.15877994453250405,-0.005006410010527266,-0.018035817918684867,-0.10282715274837945,-0.09062908825999935,0.11957131166327761,0.014430336797331909,-0.2198121729313208,0.010434327454762105,0.1370888729713187,0.2592603225826376,-0.19040973442357897,-0.14496317020980282,-0.042815137181280466,-0.3899497576356583,-0.10790694350182008,-0.06777448276782351,-0.1850723272725576,0.14823135788974653,-0.31417992793002586,-0.49386273192157215,0.14304025863122988,0.17369881025114745,0.17696197361289825,-0.17890858720381225,-0.1463343355495629,-0.03900949240458098,-0.13576251480384247,0.09587641967454529,0.04474634760908355,-0.11779017281403835,1
