name,vector_0,vector_1,vector_2,vector_3,vector_4,vector_5,vector_6,vector_7,vector_8,vector_9,vector_10,vector_11,vector_12,vector_13,vector_14,vector_15,vector_16,vector_17,vector_18,vector_19,vector_20,vector_21,vector_22,vector_23,vector_24,vector_25,vector_26,vector_27,vector_28,vector_29,vector_30,vector_31,bug
org.apache.poi.ddf.DefaultEscherRecordFactory,0.03538003164608132,0.2149884267528059,-0.12116151473830994,0.42059523918456165,0.03973205583627409,0.24076031069095066,0.028028142765641518,0.37228720485804784,-0.5115721894897217,0.0738619081457375,0.37456198777329813,-0.1478359961908472,-0.03670097678024689,0.11744337360576532,-0.09934828431327168,-0.09635511802411716,0.08640246224950165,-0.10264677853553465,-0.20323155040739369,0.019621558672830403,0.024842374027213513,-0.007586313664722283,0.0032233270409881658,0.020321747326935605,0.04830594178817666,-0.0729609102691346,0.13969425447985523,-0.011657681600140832,-0.023230280652222244,0.02940704627986719,-0.032050948058482846,-0.08879981483713341,1
org.apache.poi.ddf.EscherArrayProperty,0.0030641759179361136,0.17613529594248234,-0.03977705975082026,0.12760678615509016,0.001741199219741412,-0.05373285958419871,0.05739614353177172,0.05632606497581154,-0.009095871716854284,0.3002727810122216,-0.18311200960182078,0.17773436904935125,-0.08898418285166654,-0.12070641950591976,0.33667550762786547,0.25036051103227325,-0.27976435456493104,-0.06520415451433839,0.2549665301608121,0.019956602921549108,-0.2531365222467822,0.12782467238700054,0.09789241999189703,0.14975399045259347,0.23931684886799331,0.016923622369272775,0.4313505937023873,0.24116741292927749,-0.11366231010533516,0.06485262099143874,-0.09157270929439972,-0.0145671536957271,1
org.apache.poi.ddf.EscherBSERecord,0.00325951748773207,0.2541094235636874,-0.05382814172657607,0.1963053992985988,0.055066890377314444,0.08591825065168908,0.02955043532836037,0.20156643521846865,-0.4184346312621246,0.432726500769916,0.36029875953991164,0.10503437082232968,0.10607359194041001,-0.10599747273971726,-0.36393261130385485,-0.015141486623030026,0.17014057559391563,0.12631300377969226,0.22636829709940837,-0.11533077163980282,-0.12359382862717193,0.010055975552690102,0.05065719289981868,0.09111170186040156,-0.044284551154925654,-0.008947160074770583,0.0012431958110496434,0.009233589864137422,-0.1197673550539809,-0.14325752425069732,-0.04788974666037572,-0.09347991703564358,1
org.apache.poi.ddf.EscherBitmapBlip,0.0076602267933574735,0.20924960237121273,-0.05860349107042789,0.20485903936227412,0.0619440032689137,0.04637990821969625,0.053217917809311344,0.26910541350493833,-0.370641574419457,0.43970196682418844,0.38170430706580827,0.1429175365742889,0.14186981946682922,-0.11125072658485306,-0.376788654257908,-0.018359784208302726,0.18688695364234045,0.1493405200496507,0.2132203749134489,-0.09194100882110937,-0.10847088500319077,0.024185827966972866,0.02306810731330429,0.03097173025882824,0.016018553663596977,0.027654848065401468,0.053738614752784124,-0.024413967817943513,-0.1642063856791128,0.03754675776574543,-0.0014780927756674615,0.0007383122776312975,1
org.apache.poi.ddf.EscherBlipRecord,0.026203151095490755,0.21606224535207294,-0.07864127087432092,0.2617929028126672,0.07082389567204699,0.14695817128903238,0.049849743664814934,0.34799691503429747,-0.4855317198291634,0.3550841243211524,0.41598821120003826,-0.004994500317146218,0.1205405849963789,-0.001784263145204945,-0.2810152808763558,-0.03369618021253298,0.11967626222689282,0.10354195350130076,0.14339252679727033,-0.0700203871811059,-0.07886414169038987,-0.0012525887210137314,0.02148896740888565,0.07819566774883605,0.011204568809623392,0.05300405112970049,0.08793572969762592,0.036813705867336205,-0.13841765605235637,-0.04253467200714898,-0.03536584073114025,-0.02506815337724182,1
org.apache.poi.ddf.EscherBlipWMFRecord,1.8550534901659882e-05,0.29805767102372477,-0.06182473774971202,0.1787639283555587,0.02978340551269745,0.02620695597255288,0.09606763240060684,0.32629357553500843,-0.34916117533590896,0.46952124331548756,0.2434984081027741,0.2129823236202381,0.053961096807742116,-0.08943600047099305,-0.38795716375933126,-0.11451404326258424,0.1997368940692182,0.09219489900944991,0.19806544292650907,-0.028623290524441517,0.0239955492509499,0.08384418920406925,-0.023478092532441024,-0.055381486352654954,0.0752097288178393,0.04217252274073438,0.12148565638265443,0.04446939390316811,-0.09404341973641067,0.058541703135611946,0.020826875605519525,-0.004083171809019224,1
org.apache.poi.ddf.EscherBoolProperty,0.006959430380425482,0.17956103597577178,-0.08269409208571786,0.40958003512550356,-0.038028901204026695,-0.05633562161334198,-0.030564588853574867,-0.21583209198602143,0.004118224137371532,0.27724033568440654,-0.19079291024331504,0.04102099516874629,-0.2467707478503106,-0.1367074126735371,0.42825427924971593,0.2800589208868043,-0.2145908852942909,-0.16316523681355452,0.1269670906649431,-0.06850918045422524,-0.25192608820343515,0.007313540705076248,0.08097401416659124,0.13952747553726957,-0.026062277894556476,-0.19241875155383645,0.05432732099404386,0.08222128358753372,0.10556470347880499,-0.06115229120266143,-0.1379861831472977,-0.14220927552478957,1
org.apache.poi.ddf.EscherChildAnchorRecord,-0.0012749591911063204,0.22842566702319161,-0.05678262123277106,0.214768685464933,0.02170540085780298,-0.028051250920495447,0.0882078364279444,0.22905582080699127,-0.2819389131050792,0.5111634743894082,0.19339260754206175,0.26313970729887354,0.06556926160036458,-0.0992629093906245,-0.41604037804274646,-0.14054143030356994,0.2177897156017228,0.12144589414211747,0.24276211802988507,-0.047155202541450184,0.05932054279294332,0.02582334888737188,-0.04087956969281268,-0.07603979369412911,0.05841775535592679,0.05806472539649629,0.07366936533764532,0.15450385685443185,-0.07162457040307514,0.07549169352583637,0.0024350177166114558,-0.025592865906043642,1
org.apache.poi.ddf.EscherClientAnchorRecord,0.0008316536727926949,0.25233478567614653,-0.08388882363994908,0.3591401665943329,0.005891301779037406,-0.10170179856091492,0.0933195684399622,0.16927571354354748,-0.22645877518419769,0.7070733664239477,0.13376105578268105,0.1710751800329236,-0.04237556721926423,-0.08114798231628144,-0.17855522758276154,-0.0668329096656715,0.17397847668176494,0.1194546018482568,0.17309522929973586,-0.05586580412674185,0.08364850358706906,-0.017158266660471717,-0.05772375689085537,-0.06653060320384171,-0.0009740978068670361,0.022491513316569213,-0.031007907547828825,0.05463845344482351,0.02834276947574998,0.07612296029042202,0.06092809481925652,0.044807799231874355,1
org.apache.poi.ddf.EscherClientDataRecord,0.003341925019328237,0.2249177329456299,-0.09431567100581782,0.4292540481048088,-0.012667476251161089,-0.15847842340297755,0.07883328159030385,0.07078800811372024,-0.11974328207659138,0.757768082995828,0.03612964698451352,-0.009090379744573544,-0.17015860976978062,-0.014089267847986787,0.17560123356255067,0.013779171638618692,0.05073298597692174,0.021968107426973246,-0.016174016822269963,-0.036911585418742475,0.07041712884048708,-0.08540922937128742,-0.04796257644533546,-0.03078891517751285,-0.07649381786569266,-0.05546755747386544,-0.13889929960209974,-0.08223117644249278,0.04873991143368257,0.04144093507368437,0.07695755013445124,0.06668829251973914,1
org.apache.poi.ddf.EscherComplexProperty,0.004334145999258635,0.15043176755854934,-0.030245123722159022,0.11861304037781013,0.0034941636598563425,-0.010432699724235515,0.042286512441522844,0.06083048838938505,-0.016140931395758458,0.07907506136457426,-0.18264995182014732,0.3453415101793889,-0.011704158941864554,-0.1984295719978681,0.15927503231682322,0.25142732755974706,-0.2354159641501602,-0.06264211978404001,0.3019174255663788,0.010078207924599614,-0.25977766848315725,0.1665806858987416,0.1051097993847613,0.1098622844511065,0.25968602605529023,0.0699261693244176,0.44995360816114854,0.27843958405261254,-0.17682203548190395,0.034653556450999885,-0.09779009640036627,-0.07894636192675258,1
org.apache.poi.ddf.EscherContainerRecord,0.009975305638189661,0.2481822579971709,-0.11920283202201529,0.5349023625253219,-0.015595114975603936,-0.09413747600587243,0.05373549469417396,0.045782262706454024,-0.181883604671647,0.644496543408163,0.030520159272121337,0.03280256570081302,-0.16783437452378538,-0.03774657638514273,0.14567593399112327,0.019077909884694128,0.05563272067410098,0.004068520830702828,-0.01581971215538092,-0.06412276279674947,0.05430926873030521,-0.12520115678686644,-0.05433777774293394,-0.02173139944422462,-0.13849073661960498,-0.09171244926897514,-0.20625842658741197,-0.08795896914654101,0.05999300831032334,0.030849863331571182,0.063425277587009,0.0792276873753646,1
org.apache.poi.ddf.EscherDgRecord,0.00620908375364764,0.22023521882767974,-0.05259750762680946,0.23921235122843068,0.01573564298168969,-0.06755769004275539,0.08473923664742353,0.20093507238610278,-0.28012100295751646,0.517291827255317,0.26861944194481724,0.27816844260184886,0.011693300781176428,-0.07678469883840612,-0.3848277524455936,-0.1546771984150177,0.14881806680938023,0.0036913915247015552,0.19935871939802235,-0.010009230669883467,0.07349651279872765,0.11462403681588569,-0.02272547166379468,-0.12386739208770811,0.04598095834930269,0.1011147988845807,0.01572965246059832,0.16514703951215762,-0.00665148937403652,-0.019358412522480325,-0.03010302833298713,-0.16694216613192991,1
org.apache.poi.ddf.EscherDggRecord,-0.0004705371690215727,0.29160312425273194,-0.03289190011655809,0.14345786006186462,0.010992345800452755,-0.024565837957336557,0.06597778816511385,0.16567053197154089,-0.3095589036762655,0.4650165478345709,0.23547709625885604,0.305402568108702,0.023281299292540004,-0.13310213254521186,-0.4482321127098924,-0.11582709534159166,0.15993142185676462,0.016567859131180546,0.2581401115472912,-0.030705928658785128,0.040626724900111356,0.12823721226995294,-0.02192780875123253,-0.09870208872447855,0.03171368976977884,0.07884032999779785,0.020626994207247732,0.126135414437363,0.046982059034413354,-0.052187988918309135,-0.007708324740897981,-0.13080658000221912,1
org.apache.poi.ddf.EscherDump,0.0011480922687667804,0.24202020766124843,-0.056949093322381225,0.18883924374727912,0.029363072306452624,0.005580823213916115,0.0931461451079226,0.2743176587816942,-0.3315243632039849,0.4728743788009444,0.21139964018816956,0.2901978012814055,0.08120188365491811,-0.09394768517194774,-0.40598811603503704,-0.12933176900490045,0.18522354360011237,0.12126077759436253,0.23113326883988294,-0.032797549917678546,0.05462601858467661,0.04299468972172427,-0.03859803770153389,-0.060535773918774294,0.05154522251231627,0.07936154282811546,0.07370819945857172,0.10977875225472356,-0.12253014871719435,0.054710351538722134,0.009020823118620763,0.016756771483351248,1
org.apache.poi.ddf.EscherOptRecord,0.005830975609184233,0.23649742229837234,-0.10386907553003152,0.5167539071176916,-0.026874122851090972,-0.15779002857947869,0.05274895359374098,-0.026472071107162827,-0.06992925215675898,0.6548299903313153,-0.07774970089230049,0.09714747808625533,-0.19925547782876676,-0.11191320018272086,0.28360513509121466,0.1666636233611212,-0.04600288979245245,-0.021189862269456374,0.0608285287456968,-0.05503280208562052,-0.033592033554927486,-0.046454869466441825,-0.012448606767364413,0.006007800065683969,-0.04604806187863024,-0.052018893976147985,-0.07006231452752519,-0.013394586168758674,0.05471987534820752,0.03710489631399244,0.0185468398476547,0.009815625838681551,1
org.apache.poi.ddf.EscherProperties,0.012487779527135968,0.03674009657815974,-0.033288929546070684,0.14505062040087646,-0.00570390399661176,0.030340440281142862,-0.002245023346147861,-0.012847814690317165,0.013467156977348023,-0.0455511636233261,-0.1762953111506294,0.2766434314415491,-0.07884559946884283,-0.20276919369944055,0.25361231858315025,0.2955100864292453,-0.22695712904704163,-0.09636012618487463,0.3039029881589147,-0.0447448342602303,-0.3331135981320487,0.16972421178140354,0.13244992441727013,0.12334384115423312,0.19954539531894525,0.003527577844903563,0.38800383980951897,0.2578169666147033,-0.17771997045823898,0.0111046536128531,-0.12397965381117457,-0.18646789661704902,1
org.apache.poi.ddf.EscherProperty,0.013370766976198536,0.1501288663154658,-0.09188834766571398,0.4495510490207089,-0.0336946373383054,-0.08662051159307892,0.002777991386886569,-0.12310654929152359,0.04756358272729339,0.29362937245450754,-0.2236797450595043,0.046150347141570784,-0.2357541118242211,-0.11078948152357815,0.5359467657101359,0.3113317827638822,-0.245504209554273,-0.12286935985428518,0.0736435804288953,-0.03722063702268035,-0.17955695980007044,0.01829127870036581,0.05915536794175955,0.09682547299971546,0.02838691685845078,-0.06798215385399754,0.08474419106910853,0.058247359455496334,0.04524116203319639,0.004432884991906384,-0.05569369685659296,-0.03847289946576085,1
org.apache.poi.ddf.EscherPropertyFactory,0.015506312602748963,0.07446877993928216,-0.028266527955241136,0.21156524435486967,-0.007098688353200354,0.036371255895983896,0.0029923334755070806,0.009668306996560981,-0.007757029417786509,-0.14024753433473208,-0.20602322898703596,0.3527946967319302,-0.04197434337428944,-0.24371865343938517,0.19111173459300906,0.34466690747084694,-0.22056142122796402,-0.15586157955863486,0.217543877803777,-0.02642952973957472,-0.2525527166167435,0.11205189746665771,0.10992549790821658,0.06577195357758026,0.2022507501860363,0.05581696256351326,0.367942053667334,0.2653979877965566,-0.2167273249457154,-0.0003336082484160497,-0.09164041816372974,-0.1585602387183546,1
org.apache.poi.ddf.EscherPropertyMetaData,0.0007120675085592088,0.026037081124226126,-0.011602515915860017,0.06713256086668913,-0.004913511865008726,-0.018688676850230172,0.011489827525086545,-0.005046886617926781,0.008304876645219771,0.07426923674873108,-0.1295742083784759,0.1911041405516735,-0.07778127299507408,-0.1535702445271246,0.27394797730313647,0.29749510628965087,-0.24004765196935088,-0.11447829596597667,0.21914772666243224,-0.014976171986275082,-0.28565550185610417,0.1245798162020868,0.11328119019129773,0.12039933656318298,0.2467963948265722,0.045503145917745326,0.4906082016429007,0.3359688813409265,-0.20373661860758396,0.06211481504438191,-0.1357744251107886,-0.13524603632692797,1
org.apache.poi.ddf.EscherRGBProperty,0.004602107965366605,0.15070559100885955,-0.051381313949653076,0.2729600681399248,-0.031060995798958765,0.0336786990807877,-0.06242722965708591,-0.24981059939353709,-0.014540336877165765,0.04776536858651624,-0.2338821682657598,0.1979838837868493,-0.15709933808605916,-0.2407609853732915,0.2847699696346007,0.34591547093814573,-0.22296333759600612,-0.1270715578701809,0.28322145051951975,-0.09025140957142666,-0.34766382794861866,0.07147334950194613,0.1106272887926077,0.17774066292672772,0.025781417993889846,-0.1732199093458437,0.16729791242350706,0.14063610578327956,0.0709051078083213,-0.049170777769947105,-0.15381491534886596,-0.13549695159394617,1
org.apache.poi.ddf.EscherRecord,0.058681443672761145,0.14987282933458446,-0.14063447844518986,0.5187253173241413,0.03362697633525568,0.2606222388650546,-0.0026845264356965045,0.2629896635055947,-0.4263267033638648,-0.043995808325122024,0.21677201147018937,-0.3125384167598084,-0.07960947626885193,0.2051028270711567,0.23318013821824393,0.012363623402657894,-0.09583040511174457,-0.11101475803893601,-0.21237995231861093,0.0005308826142540728,0.0416306022397559,-0.15693523637877105,-0.02238392036733766,0.07767858449929534,-0.056666456100696934,-0.07029001701845479,-0.0008051712535363053,0.043942796327276906,0.05733018025909497,-0.02691499659321518,-0.023623684317176114,0.03951333062066701,1
org.apache.poi.ddf.EscherRecordFactory,0.06168069015502663,0.10298298044140161,-0.12007046087623088,0.3954743918979615,0.04124583793537469,0.35758973235752345,-0.012687100826677686,0.3121603279828875,-0.46179842856291825,-0.29552849677807375,0.2145387946385122,-0.24565897685964735,-0.019043854931471257,0.22039138985661666,0.11666296783190101,-0.051470259982786815,-0.11248862448540738,-0.1501965787015134,-0.22167382023225132,0.057560802683865916,0.06503268895197035,-0.060779058836645,-0.01694351317882873,0.047239635295085555,0.01526994429652375,-0.008748251454976222,0.09367401369357332,0.07277150516342176,0.002836470027818759,-0.04136358113691474,-0.028843860119952092,0.01983493336265505,1
org.apache.poi.ddf.EscherSerializationListener,0.06066124026678706,0.10123925443858048,-0.11497086285109255,0.3873324271734472,0.04143334370734439,0.3504677399331237,-0.01445182810497904,0.3050270977590117,-0.45685979061982873,-0.30160463952509425,0.21966963900538394,-0.25304572680086834,-0.017181712888686265,0.212207145263473,0.11879627542875157,-0.034169617836992114,-0.10496122644574146,-0.15026744488708776,-0.25490800195212415,0.060190632566739045,0.048164606985306765,-0.06725395333160414,-0.0012107981297773275,0.06318738648560539,0.014617046500645138,-0.03461482331465384,0.10255972994856248,0.06003475325877142,0.006632309359554309,-0.04960920659308511,-0.03679108873658189,-0.004763995091589087,1
org.apache.poi.ddf.EscherShapePathProperty,0.007333379515785055,0.08443705271599619,-0.061244324993016866,0.2916718290047827,-0.023903393611110435,-0.08880732538245087,0.016387213899721365,-0.07482839561793007,0.047139753426322595,0.33177394583744796,-0.20993728360561295,0.07189491392916185,-0.23353726977814634,-0.12559857715289496,0.5523533513053277,0.3189002676052659,-0.24954964053072085,-0.12384166563989708,0.10387817283664197,-0.057224064516081294,-0.2634571447168156,-0.016820243575556396,0.08109811248927325,0.1591777891351594,0.03449419890758477,-0.16062855186834424,0.1414803281406448,0.05930378072551671,0.0042422722268448156,0.03955403542021648,-0.0663714133220216,-0.03500900249891578,1
org.apache.poi.ddf.EscherSimpleProperty,0.008212044731025974,0.15892664980744112,-0.055418671012223496,0.38740144452531733,-0.027597950460290715,-0.13239352914724478,0.037505145770238286,-0.05567976277438836,0.07356934181874583,0.23966337494106535,-0.2726586371969919,0.2602661742981654,-0.11765253748147408,-0.2121407965593091,0.3879039051806486,0.3858377439868164,-0.244938224644461,-0.12060570148755018,0.09603828829398348,-0.005627876289428697,-0.16362867538446385,0.01930788333051013,0.052600487771998036,0.047874589486829724,0.13295251160067023,0.05688254591306438,0.23460090232080838,0.1736172931652342,-0.0814156402185376,0.05990151969760344,-0.050737690658753706,-0.026907202043699213,1
org.apache.poi.ddf.EscherSpRecord,0.009477618581925881,0.23512310745337742,-0.11400849705689603,0.5379571645772869,-0.01665013963461554,-0.13048220560535248,0.06889279900304555,0.0652811323230635,-0.12849714137138313,0.650313788516983,0.00019401962073854919,0.03502158685078647,-0.16747584773324128,-0.032888296585839596,0.1834227770802793,0.02801752017237528,0.039417584265887116,-0.010462745506996178,-0.05031478218716418,-0.04071709646166956,0.07024791512851558,-0.12051016952446965,-0.05500563473938441,-0.03368010532653423,-0.1131614932697474,-0.0819173812450222,-0.1903867528280426,-0.09713880201506085,0.05478524441116767,0.050987870043959854,0.06857582170261246,0.0821157877473966,1
org.apache.poi.ddf.EscherSpgrRecord,-0.004348880163516076,0.3279642029217555,-0.06908808981268745,0.2307961026914677,0.013062752102139722,-0.058668728086416114,0.10583925580936969,0.27079196288184676,-0.2786084922487459,0.5544285947144774,0.19949000675908468,0.2192164502150524,0.0016165011040708912,-0.08642806666445949,-0.35285534165392407,-0.14371976775378653,0.1995425265996697,0.06858013189425696,0.18557006471468188,-0.027733507485918286,0.0632987500075589,0.07560659430050176,-0.028874472229438515,-0.08200190370857127,0.03913308984593562,0.05320513153086149,0.041320864349814516,0.08212858286801346,-0.051927097871897226,-0.006094749577462585,-0.01738730821050583,-0.08876674304262162,1
org.apache.poi.ddf.EscherSplitMenuColorsRecord,-0.008859539154547286,0.3498818419990375,-0.043890051591336805,0.13765588759453626,0.01298626321504974,0.009858320660912738,0.06960343821074585,0.187734607949596,-0.3302244870919952,0.5071569295447598,0.17322008902504965,0.2605389976963044,0.027533129683219616,-0.14892270347372466,-0.421613600142837,-0.08709277410173412,0.20413221962725595,0.09685309752684977,0.26755197459010793,-0.05583017240717849,0.024653168401992095,0.07519354658619216,-0.02592056807156024,-0.04757314588905564,0.02135497744050659,0.022957373810788034,0.040414154662228835,0.056062458495307395,-0.010605522295415889,-0.034880024614892986,0.014056328846397468,-0.04022542174459669,1
org.apache.poi.ddf.EscherTextboxRecord,-0.0050590612728514455,0.3237163783270118,-0.06823892831279293,0.23941967047456936,0.010009535504081957,-0.07589581827551269,0.10770844166242405,0.2514066226101731,-0.24842569931462083,0.6067196909630358,0.15128443226548247,0.24234137726014207,-0.004512164408928226,-0.11847826592429096,-0.29667263851706616,-0.08256280673626731,0.19845193269379213,0.12962185357914813,0.21029872702593366,-0.0391036467933919,0.07830660355134984,0.07494786606072495,-0.0443370078862855,-0.07643960786492526,0.025627949664145683,0.06974719619430798,0.005454692270305993,0.009330390033487127,0.0038199208207685045,0.025536637131509242,0.06259419623751185,0.022074878845175755,1
org.apache.poi.ddf.NullEscherSerializationListener,0.029403634121910383,0.12427806111138763,-0.05582265056360284,0.289663625826761,0.043541752344370833,0.13221747982862908,0.029654640612564877,0.2912588795118837,-0.4756461982165901,0.24163261711476872,0.4220854670056597,0.005363678212357587,0.034981116648981375,-0.047198969753595416,-0.2878860446087572,0.0238908399755722,0.2460804671560034,0.03239333779455309,-0.19064292197636845,-0.003952780897981345,-0.03515867176154667,-0.0374839411863372,0.03327581317733273,0.028008141118751658,0.08325181814587408,-0.14405375426586886,0.20411857240558,-0.00644387275216575,0.021164666950061518,0.17714104804764172,-0.010389523196646948,-0.19505981940776518,1
org.apache.poi.ddf.UnknownEscherRecord,0.0014157674362734105,0.21812153776903642,-0.05532508553578215,0.1934307034909967,0.026869332376708768,0.0024158886874797803,0.0870302986941482,0.260477323024569,-0.33537769920316707,0.5026647595258094,0.22966362657997721,0.27075990713074244,0.05645348630776592,-0.10308801771315536,-0.39844785424381496,-0.11865523276039171,0.21531689733031092,0.12521727346817618,0.23256876458200013,-0.0565948510504906,0.04405801040865759,0.033265725831289644,-0.032922202528326686,-0.06071681782716211,0.02546456796494159,0.05526735223874635,0.04142968433315178,0.10271703281946531,-0.10893324613841904,0.04468458426012645,0.009252708519522305,-0.029410051026625948,1
org.apache.poi.hpsf.ClassID,0.0011308782428449341,0.0535382066006999,-0.004909463580021902,0.0035241592319092256,0.5864092053546945,0.002607098351240954,0.29066224493364307,-0.08304980867384937,-0.0020119444849386226,0.04123286849357514,0.0026269517965100886,0.006907283463115191,0.13977358600931003,-0.19466082308473207,0.06350633516168167,-0.12061739349857724,-0.011422015198481064,-0.03354394464707944,-0.00187482400997238,-0.028810854301146153,0.06865674673063858,-0.021182374944977673,-0.04238841727309502,-0.00682217887401292,-0.11494669774505924,0.08928872467470965,0.13904264073934078,-0.011544072292219496,-0.06092800697385586,-0.07103800571890621,-0.43737550630259037,0.48400339695912364,0
org.apache.poi.hpsf.CustomProperties,0.0023291156757205738,0.01062597397245667,-0.007054893999077709,0.0013892570013223457,0.3498035514053778,0.09679848194309124,0.5136397931926232,-0.15970806405356025,0.01590146226438331,-0.025136814019621537,-0.02091020309471105,0.04132095707292283,-0.11357583954407678,0.1877779248400777,-0.06887466292259214,0.07110374797322866,-0.0006679539858864361,0.05941471441811156,0.10822573124404308,0.5054444800170838,-0.1091492155127076,-0.16887816102899142,0.023587814104937117,0.007356438836674626,-0.07812424882138029,-0.1073023320882046,-0.06867086760923341,0.0682385556230912,0.08130711621294659,-0.09749268196384069,0.2962602438924607,-0.2741159977837934,0
org.apache.poi.hpsf.CustomProperty,0.002329127440876653,0.010626027745112055,-0.007054929649042332,0.0013892644248789455,0.349805311011134,0.09679898393511728,0.5136423761329142,-0.15970885015271244,0.015901529230132338,-0.025136958193134874,-0.020910267297274895,0.04132095836399615,-0.11357633250306555,0.1877787652033911,-0.06887472013286124,0.0711045919930788,-0.0006677025554798074,0.05941496278040207,0.10822503279017304,0.5054479681630951,-0.1091468168067547,-0.1688811928249237,0.023591104880538307,0.007356231872815207,-0.0781168683697574,-0.10728836979879702,-0.06866902232753652,0.06824731095072027,0.08130024328130075,-0.0974894493894044,0.2962494179396622,-0.2741205784482227,0
org.apache.poi.hpsf.DocumentSummaryInformation,0.0017582983642833898,0.012677080829870135,-0.0058809202388677775,0.0006002551662346408,0.4816858479660924,0.10573889760920857,0.6569727206283418,-0.2157731765146912,0.02034201581453563,-0.03205093286846754,-0.01074817032479842,0.04169458990496366,-0.09604240481404962,0.13821303273479824,-0.06281608073259062,0.07691471507222258,0.02421179472118523,-0.021462620392142757,-0.10067052553307011,-0.22564251119734946,0.08275319381881621,0.004622330835219571,0.10477901439461867,0.021848677830203795,-0.023610055297016604,-0.04387580717537176,0.08208958874676393,0.1382561333198694,0.01144130764320287,-0.16507189752256524,-0.13879275649972878,0.28555886041531076,0
org.apache.poi.hpsf.HPSFException,0.010126531610721894,0.007463063447510503,-0.006411082347172448,-0.0002797375235432204,0.2010454177517243,0.04469056896564226,0.3051252114841862,-0.09204629770523814,-0.004015422060422483,-0.010253292950861515,-0.02033821628536224,0.03489350720360764,-0.052215009282998125,0.10625303537871968,-0.058432508223896694,0.06435631734883514,0.010058066443721307,-0.06205621113680839,-0.181757932739922,-0.5999165172125122,0.2776530367683712,0.10674382123075114,0.2819745008342238,0.10400944736453063,0.10692388251965503,0.1258651421691164,0.22576774752644438,0.1610032943237903,0.32335288701313625,-0.005696959918955892,-0.022433317663439346,0.2179996726366299,0
org.apache.poi.hpsf.HPSFRuntimeException,0.0018733914190219188,0.013106280227287702,-0.006096874897137754,0.000612561799279184,0.5112977019167667,0.10737617489389198,0.6633254577683838,-0.22159192518872575,0.02171362909470108,-0.038367550851032196,-0.002097146789710973,0.015461609764615657,-0.06722939179194265,0.07519055976157876,-0.025553521244826363,0.05547589585701366,0.024254920611133966,-0.02165432643754708,-0.11720862537823884,-0.3687319997915431,0.08033617267290878,0.11965567800803145,0.04528021257995094,-0.025314502975386056,0.06604349851225237,0.020867466053784374,-0.03822010184561926,0.018897185224638978,-0.05388923542342973,-0.012870117422113173,0.15603004095674608,-0.11570030475399365,0
org.apache.poi.hpsf.IllegalPropertySetDataException,0.0029803514035336375,0.01588012119738016,-0.005451582853263678,-0.00013866472820596917,0.5047503435204604,0.08793466961599507,0.6063633319893814,-0.1998809795264718,0.01441151204075429,-0.022705363227173096,0.0030394880120329696,0.01457416192504827,-0.01300070514160287,0.01836679991288958,-0.020689915055214562,0.009648487252557842,0.001758352241311612,0.0009784068431336625,0.021279806686677293,0.21112700976597662,-0.10495185936059478,-0.11931692821611282,-0.04946938703634475,0.02898584965500733,-0.20214109792973983,-0.0027667108242878506,-0.00904481903785362,-0.0849640839811975,-0.05833884173422484,-0.11732747561090508,-0.3643996620052118,0.2364456101165511,0
org.apache.poi.hpsf.IllegalVariantTypeException,-0.004520642178718268,0.16714695868032323,-0.013025738090073928,0.01314698378420755,0.07419399225711631,-0.02938077579810217,0.16958603598514096,0.13826309373455406,-0.06082851248684463,0.2767778745314712,-0.04321191562703375,0.2526214195640555,0.17385106094825337,0.0722250883213459,-0.1341224440590381,-0.08521106641160398,-0.11919861453262447,0.19959885496969146,0.1619654181039829,0.5914490845084505,-0.049016823222589274,-0.05237802032173207,-0.04475092815718271,0.00961270613493436,0.19664641646654243,0.25760299817592736,0.2521479123102039,0.1574545810574152,0.0396630030126616,0.07651422581100809,-0.01111586464863555,0.26923732669062317,0
org.apache.poi.hpsf.MarkUnsupportedException,-0.0003505166085457144,0.007843900568883625,-0.0020843276227257702,-0.0005987943371281813,0.28246481257757877,0.05885448520237295,0.38998666422722084,-0.13129472081463514,0.013869013140400411,-0.021483979591048915,-0.0041394047268356205,0.025237372528051707,-0.05940184639619334,0.0663624339016431,-0.030000732252371386,0.06488598259135356,0.028960854937277326,-0.04630113634404174,-0.17908461491517663,-0.6490677793689185,0.22429561730389833,0.19506827410739558,0.13176371325507913,-0.05318664999769753,0.21687909051746024,0.06766042171608523,0.0731699277996068,0.16980078800313583,-0.050231790108783606,0.14547575897365358,0.025253073195707038,0.24080395091795173,0
org.apache.poi.hpsf.MissingSectionException,-0.0004771244165542407,0.008327426217127131,-0.0023770229015326098,-9.816464041579214e-05,0.35267173218799736,0.0701097693907941,0.4753660064046366,-0.16089108996283796,0.01630609868156561,-0.02344904701821851,-0.0009267096837680673,0.02672950028630784,-0.055764857742101055,0.06460857580639641,-0.0358514221668693,0.053154277185491296,0.028353860684551514,-0.04851696182601782,-0.1739678872655354,-0.559843395622873,0.1473512820586694,0.1263599327329355,0.08875147593457612,-0.007087765907800672,0.04184373240008309,0.022189723117062993,0.09428706900356232,0.10506392184365192,-0.056875257690114756,-0.10996736969073223,-0.22438150992858344,0.3543267813993786,0
org.apache.poi.hpsf.MutableProperty,0.0026363364653208005,0.010839912624618038,-0.005577480675178366,0.0007233721312000087,0.3090341571384841,0.0746358401567733,0.433950246909793,-0.1320748754250356,0.009777987646395524,-0.011561014849502,-0.016698248490279427,0.042307922385078064,-0.06699969649325264,0.13033636968781045,-0.057662483498218016,0.04146937257890152,-0.012484667744496778,0.05654133686653689,0.1355812713245231,0.7176012524313379,-0.16643898983662492,-0.24170128187790108,-0.03989060188448257,0.016504146475952167,-0.11199893438711284,-0.09992461654639738,-0.023144425381982445,0.041714364850915904,-0.00828427728225916,-0.07171863867250859,-0.049628410751668704,0.083929207578501,0
org.apache.poi.hpsf.MutablePropertySet,0.003089283496057616,0.04086140394290439,-0.006302806751486743,-0.0013125082466765585,0.6445990584944323,0.07392937453120005,0.5439535384139498,-0.18400500798607897,0.018767425014663892,-0.026183576625193005,0.04495912120876717,-0.0529766686089567,0.10282004069272337,-0.20048899177321436,0.07407656387318806,-0.05126398363208596,0.002841015518311043,-0.05402219518118127,-0.08783053188285468,-0.08109362145151636,-0.06412316048253469,0.07374183118663655,-0.17631801747868553,-0.032864445405535916,0.09711947203401022,-0.017974283802292882,-0.015543147923035754,-0.16279764703851893,-0.1573942130519924,0.2131233103763521,-0.12409230058642637,0.0422595853457752,1
org.apache.poi.hpsf.MutableSection,0.0039428259822952725,0.016631229892178193,-0.009033252806917788,0.0015417080693041379,0.5491490656408249,0.11691848787633177,0.6785281287739812,-0.21891400630544658,0.020185394693050314,-0.03469118960934605,-0.011279205968731491,0.017392170673762527,-0.06453848326130505,0.09020979972426894,-0.02535446106907722,0.030099223437418474,0.0002665242439846902,0.02132910072914834,0.03747891327344087,0.2037083389662683,-0.05407353238111414,-0.05524988258761039,-0.02966952461593051,-0.01601872516625713,0.00591446987214283,-0.022152445256202517,-0.08180723590176592,-0.023724855203960973,0.0017875494370992791,0.021881954180001228,0.18573646036432562,-0.258731187684577,0
org.apache.poi.hpsf.NoFormatIDException,0.0009416300228839421,0.01342559157486688,-0.003962847099988299,0.00023320713995721347,0.5027994104042118,0.07768141390789673,0.5485578882274373,-0.19278760975610576,0.017405447683433002,-0.03183522535700067,0.025272426742961974,-0.0282615107412891,0.030125352333252232,-0.07729986407672171,0.027749650705100617,-0.01659690274883127,0.017877461121386634,-0.03576245838897624,-0.08123346748185525,-0.40277243411480307,-0.023054085263137104,0.06476108706818466,-0.024421354703032343,0.030133168117872366,-0.22110079105064115,0.08923946642780738,-0.04500053493373404,-0.19948327666545915,-0.015351138862377427,-0.0932841177573796,-0.3285373921114441,0.0011213156907191098,0
org.apache.poi.hpsf.NoPropertySetStreamException,-0.00035051660854571446,0.007843900568883627,-0.0020843276227257702,-0.0005987943371281814,0.28246481257757877,0.05885448520237296,0.3899866642272209,-0.13129472081463514,0.013869013140400415,-0.021483979591048922,-0.004139404726835621,0.025237372528051707,-0.059401846396193364,0.0663624339016431,-0.03000073225237139,0.06488598259135357,0.028960854937277326,-0.04630113634404174,-0.17908461491517666,-0.6490677793689186,0.22429561730389835,0.19506827410739558,0.1317637132550791,-0.053186649997697566,0.2168790905174602,0.06766042171608522,0.07316992779960681,0.16980078800313583,-0.0502317901087835,0.14547575897365356,0.02525307319570706,0.24080395091795181,0
org.apache.poi.hpsf.NoSingleSectionException,-0.00023180571923170864,0.010353408490058395,-0.002793373002792033,5.118785022770598e-06,0.3955885499412936,0.0716080046752682,0.49622122647096745,-0.1681999399167314,0.01640485269400663,-0.02272967158340394,0.004217850499003321,0.01745398844374553,-0.03136664518386193,0.02721469807955956,-0.02117091353705095,0.031243566653973872,0.023853758919035517,-0.04812909348485322,-0.14663763816564282,-0.492845504121211,0.1095820186091886,0.0955467426298181,0.05235072524909235,0.004695595015698665,-0.015494315248487643,0.02082564834328063,0.08554087074301711,0.04990513577425934,-0.0569453909907317,-0.10998905069271205,-0.32376436175479373,0.3710163523875556,0
org.apache.poi.hpsf.Property,0.0008964585546640091,0.056211058373942295,-0.00887195609944989,-0.001440350708762876,0.4619072739824671,0.09453948497781206,0.6418067494458879,-0.16997936954884443,0.0066297962052043686,0.019357132896533347,-0.02559225746529358,0.08095019856526803,-0.06354789319188965,0.14696458021660466,-0.0874753706806218,0.04693741207803963,-0.013871635964767643,0.05120545169679809,0.08192912284813375,0.44070191617748056,-0.08124795251058789,-0.1520334562013159,0.00019196662599913177,0.011525249405904525,-0.0626103163394181,-0.05556854025554091,0.028947412163783985,0.07277886024264277,0.0005239047329027086,-0.07655057092977514,-0.08861230619883147,0.173455969574036,1
org.apache.poi.hpsf.PropertySet,0.0018590608754992753,0.027634822330614445,-0.007573796753549343,-0.002119167565775045,0.4676374031016233,0.0956687253849943,0.5725574596693973,-0.1854007461502475,0.018315298109793196,-0.033137979286574464,-0.008245388040760322,0.005245834201132551,-0.05656743774620532,0.0525652502419466,-0.016407733158650004,0.03198757569794194,0.020534173689348276,-0.03643864187330983,-0.10979538622610804,-0.494485499523511,0.1350700009275218,0.14342445297092293,0.08167492870086483,0.004044654188378076,0.0774587594132703,0.04423706364795309,-0.0005035983032950904,0.009266417584914859,0.07136134521120135,-0.02951286554482882,0.19021734402885182,-0.21527382259857997,0
org.apache.poi.hpsf.PropertySetFactory,0.0008515562805326177,0.010044831841335061,-0.0036879010873146077,-0.00011339845211820626,0.41843134578247404,0.08331775382481961,0.5524690195205556,-0.18732838579006328,0.017570729465179957,-0.03079895309173794,-0.0023085421550749544,0.022594494816235718,-0.06628098714245602,0.08053307996370322,-0.03863166233703602,0.06033123465935999,0.030176616135161836,-0.04842109377552659,-0.1684468066798233,-0.5734376651102925,0.16729817945497544,0.11939583288045252,0.1406949503615045,0.024008065140406206,0.01770051484724185,0.04278626147861039,0.071232165318799,0.0715720955701003,0.08880974985600627,-0.08949809712399182,-0.030750949117397706,0.08660802672450728,0
org.apache.poi.hpsf.ReadingNotSupportedException,0.0036794724525462817,0.007606736415641683,-0.007985723107259111,0.0026722524082973096,0.16093595810408862,0.06394441284921785,0.2348728859999421,-0.06013487891639065,0.006229714398079494,-0.009689164237191397,-0.019068602490623105,0.012150518305679012,-0.05441690969679113,0.11450643611541471,-0.025279140099151564,0.01454483694146344,-0.02391475688358465,0.09056064710501144,0.24767851859818008,0.807865700214319,-0.201340597622757,-0.22133411227150476,-0.04746205382418899,-0.011744306273781016,-0.12699223629989084,-0.06445911207060469,-0.1131212690702109,-0.06449640864491586,0.08257858892504351,0.1620839662058271,-0.09197028330585104,-0.007079913068006911,0
org.apache.poi.hpsf.Section,0.0014108037036821147,0.041270606489170504,-0.009389457892475995,-0.0040576416879825345,0.5613553085359981,0.11280651842740642,0.6776395600167996,-0.2149977699962471,0.021362979100162688,-0.03450879049603944,-0.011389919160070762,0.009259367285124971,-0.06100285926875669,0.05546777194172312,-0.021500842909974574,0.028519629611503585,0.017762958588965504,-0.028049004755926414,-0.06552327486656388,-0.33390311002023815,0.08570814412082195,0.08827639637198743,0.04597165934189164,-0.0003723333529725748,0.03663650823396083,0.013006158671976723,-0.007103332729901025,0.004932099721159148,0.024818304222562804,-0.04070809679904009,0.07387929068696023,-0.10739094622911924,1
org.apache.poi.hpsf.SpecialPropertySet,0.003965658590852666,0.016777348080678774,-0.008795197448140337,0.0033817276292688286,0.5989775903613259,0.10465373681381017,0.6144312372530041,-0.20749397402109326,0.02227092979155421,-0.038176138580273876,0.01503096678691377,-0.02662101631051117,0.010676409518345907,-0.04663083845360496,0.03975781087762614,-0.014888925760703501,0.008747169616412096,-0.021642283844648585,-0.06276951340861772,-0.2161926231507881,0.02643310728686655,0.10139854288830286,-0.047786939739266523,-0.031156082676316782,0.07065895897739613,0.03838425481912262,-0.04260098614719231,-0.08529407028780976,-0.02299263122328682,0.09767976537097675,0.18485569858938986,-0.2776197500397141,0
org.apache.poi.hpsf.SummaryInformation,0.000868796101757791,0.011676545386622267,-0.0039095035755671755,-0.0002534606507165349,0.4415447284446832,0.08756278193920598,0.5868998782802434,-0.19598097130026917,0.01795917478689936,-0.027818493508994686,-0.0056690638303980665,0.034649444832443727,-0.06997297499974013,0.09047914476484595,-0.04689700804710576,0.06330291806842156,0.026341478359294204,-0.04203700547072783,-0.14539126515418987,-0.41281479678878985,0.13835069827305313,0.07259340783639072,0.10494119611105983,0.007050943063347726,0.03970471332218305,0.003837075706851843,0.08968484560576051,0.12521545208395032,-0.014317236692638902,-0.08320967030911985,-0.16563701633263778,0.3215174698979858,1
org.apache.poi.hpsf.Thumbnail,-0.019245557744339982,0.454033838907597,-0.019328950865454365,-0.10306587337894546,0.07116587470977938,-0.027789202560017847,0.1734021809948236,0.11933935227468438,-0.03361026765910796,0.095735960627888,-0.13023971950153632,0.0733257577454393,-0.06764838102199454,-0.05776463652321857,-0.18024126724096076,0.0339097852412643,-0.002747397112400226,-0.11695862457388359,0.16713954729407549,-0.21348985152324282,0.26080185353220053,0.18602629534159723,0.15648723858870198,0.04535857727649676,0.39094352555576406,-0.020578658558283926,0.1782976194793939,0.03712002515344347,0.018892522889066714,0.3774122832362267,0.192187285047798,0.2750002381596419,1
org.apache.poi.hpsf.TypeWriter,0.002595224868245633,0.056179633582339114,-0.012434045326165575,-0.0062078548835705185,0.4349078495988231,0.0975056502711771,0.49680591228305915,-0.138860545481342,0.013170718348137149,-0.020296487806522122,-0.021552487149439956,-0.005310501354076115,-0.037794275964241834,0.03997902001564316,-0.007066218576819604,-0.013763242632241822,-0.015348127266113915,0.04580615250394699,0.196811534815378,0.5495755268399819,-0.16333989396196813,-0.13281059561198055,-0.09004592244789206,0.002882603743276457,-0.09154834644940038,-0.0649826127035839,-0.13493169626746543,-0.14013044975360572,0.02873019796110508,0.07891309726927671,0.06876002338406713,-0.2641678498695074,0
org.apache.poi.hpsf.UnexpectedPropertySetTypeException,0.0002253612402724317,0.007825819818816642,-0.0028257799718434803,-0.0005260748535546861,0.30884571720000664,0.07000961202364397,0.44043200710902464,-0.14795509675648172,0.015505900542060835,-0.027856735902878883,-0.007758600723946763,0.02509373163237031,-0.08268939597797549,0.10214349012286358,-0.038628857104250465,0.07532634480538813,0.02687183696997574,-0.029298728058294227,-0.1494404128648382,-0.5613915241755918,0.1978074040374805,0.17640013813607536,0.13539188904052282,-0.04910449236216758,0.20138983390628204,0.06166034491140075,0.0029980492313114583,0.12595051049833975,0.04787006726746432,0.12610647520455315,0.34037954873709436,-0.182437851341622,0
org.apache.poi.hpsf.UnsupportedVariantTypeException,0.0013590843934699242,0.051880058600191604,-0.008023115589120555,0.004146677484933197,0.22336229803994243,0.043675841430391146,0.3294598948028667,-0.04607124684469891,-0.011086241333430667,0.06919302631811027,-0.024879777232950373,0.09760438004807202,0.009164370854893581,0.10592562921050704,-0.07239253069563967,-0.003022026036255912,-0.05054351348649111,0.10918872008871182,0.17872882409594196,0.8185092204772143,-0.16309368538169808,-0.2092492812009194,-0.06627172413494613,0.005593522977279916,0.00788771081113339,0.026881790157273218,0.035029704233420916,0.053135425302003325,0.000565468181827806,0.04620539303941473,0.011169093171020756,0.06977555657610122,0
org.apache.poi.hpsf.Util,0.0033071624520045408,0.014999077472686253,-0.008314036983747646,0.0012227090118259306,0.5400156650642461,0.12612551798836077,0.7404521104270269,-0.23812617526810323,0.021948915101795613,-0.035868220175533,-0.018238621406277907,0.04411728010831058,-0.11114868919756898,0.16881101012822303,-0.06497172702975988,0.07813475424833854,0.013991290413963032,0.01440853162898637,-0.015944441403558707,0.05980113563612015,0.01956191085290466,-0.04064660462143408,0.0670800098588802,-0.008901270569401562,-0.012417156657043583,-0.036912312340166856,-0.0044884936055648375,0.08986996461616081,0.02192069128159363,-0.04845031438785201,0.006061187870472775,0.09297847809041518,1
org.apache.poi.hpsf.Variant,0.007093607925743178,0.008103557701637435,-0.014705426241371776,0.006416502699118485,0.14968172014137182,0.08971597267865178,0.21146413640832853,-0.04250124906640018,0.00806184249805806,-0.016747284215593527,-0.02468536428853598,-0.010914655478867982,-0.0587587091462947,0.12433730725647786,0.0002309881431152952,-0.001225771605451994,-0.030286616606199364,0.11394938110277698,0.30081841872649595,0.7885340882898229,-0.20602550587960766,-0.17007487534810412,-0.038386545522855774,-0.027044333905762778,-0.10006031322362396,-0.038027108792412945,-0.11793743948101153,-0.07793617565425749,0.0923319621168699,0.2262236335425219,-0.1078182289616702,0.011697801411949099,0
org.apache.poi.hpsf.VariantSupport,0.0013345132262200267,0.042614674954285094,-0.007717798786248312,-0.005788422455108513,0.29115367018716265,0.07201823680604694,0.412855867501517,-0.10836101268493717,0.006306298963122709,0.00014563925674380588,-0.02705575966212645,0.04618247812678055,-0.0612282689247311,0.11860986923707463,-0.06378637785233722,0.030673658277910267,-0.02079585960294472,0.06179339577570406,0.178045876298183,0.7604886185315085,-0.16057617152276787,-0.222326462490737,-0.042803718074002864,0.013061804990123457,-0.05187134666044108,-0.06125996984636176,-0.023406147365901943,0.018080662631496595,0.006582803522725386,0.014406596272156659,0.0045198134970867564,0.03329242388015075,1
org.apache.poi.hpsf.VariantTypeException,0.011593073855873597,0.013131960857244808,-0.025118681739863508,0.010796534836541222,0.1573775266745285,0.13577635029062457,0.2167265931850033,-0.026600532073812234,0.012829194207651311,-0.02969564185261105,-0.037445822509365595,-0.04143089090026562,-0.08166001112255637,0.15237362075310734,0.03166478308973361,-0.005993434761985488,-0.0336162157957648,0.13937965461744276,0.36429331453089664,0.5790242296855842,-0.12466393728790749,-0.021140299935605695,0.03331771810935547,-0.08833162443599928,0.056681349768664284,0.04930908592680384,-0.11917280261840561,-0.05620128840454181,0.12488429931989418,0.5468608205226738,-0.0974028647512286,0.11132793107802158,0
org.apache.poi.hpsf.WritingNotSupportedException,0.0031108725281158217,0.013996556669197788,-0.008425099505499531,0.0019422189859394177,0.4125445694288264,0.0982727890667989,0.5218530165827443,-0.16269921878880234,0.015445375260216549,-0.024125330839038894,-0.00910035367399563,0.012309365750128793,-0.05211614725518259,0.0910795556247156,-0.026217665483420402,0.018886820672171276,-0.00926706905825449,0.05828121856874597,0.16389413360107985,0.5716992312107552,-0.1779472656119836,-0.19064461270299865,-0.04789006271876455,0.012637862904124149,-0.19555197956738724,-0.057900328685249663,-0.09558682835953058,-0.08766502629514823,0.045567112472231636,0.008391274300157243,-0.13926503458692246,-0.01878067142383394,0
org.apache.poi.hpsf.wellknown.PropertyIDMap,0.00015244817584633626,0.005994658141629096,-0.002205422685324963,-0.0005110596173212219,0.2586157939805659,0.05854665135493269,0.37379881414378574,-0.12745700913954944,0.013587818526975336,-0.025370100574034545,-0.00667558899414977,0.020426846527013817,-0.0796027007564856,0.09737071477761021,-0.04520855434632629,0.06252262666914192,0.03280443146402267,-0.05535077133032923,-0.1785674442830519,-0.7243252605054108,0.21066069922029768,0.15345303846132274,0.18256088372430818,0.037894385261372586,0.020795540479610665,0.02619861680671404,0.09503796313771855,0.09882714035620842,0.16881909899064676,-0.1930172643930327,0.03489222180806985,0.019059530135931205,0
org.apache.poi.hpsf.wellknown.SectionIDMap,0.0009662142816762981,0.008085430290203394,-0.003197349451903663,-2.5746227136635154e-05,0.36317082875587947,0.07537665370779291,0.49811464392625526,-0.16839335013806683,0.016117494422029414,-0.02771444821271562,-0.00538119530134952,0.029691263454179013,-0.07298364419010955,0.08974682917470929,-0.038572347515998945,0.0711649801132962,0.029991412671912895,-0.04272205764924617,-0.1878284433887755,-0.6001615827171205,0.19750304966557852,0.17007464397889885,0.12360855860728838,-0.031065785762351483,0.1566461582805766,0.03445535295725658,0.06304565617338347,0.16015433901309697,-0.030847173327423094,-0.009068435945201245,0.13003431125891637,0.0912979167980244,1
org.apache.poi.hssf.dev.BiffViewer,0.9216114709045418,-0.03297295817908281,-0.21695938295923145,-0.14595758889797505,-0.028072126035878324,-0.1539113614991013,0.011110579444842991,-0.0959669666578639,-0.058181894598541666,0.05749051219465274,-0.06740466134073142,-0.016159634544141016,0.0205137590864267,-0.05503331497818145,-0.07258488900441273,0.03943026965160156,0.018053286929833903,0.02394883567551175,-0.004872700545666581,-0.04973543474781844,-0.006310578438939411,-0.09723356417214774,-0.053628792774662024,0.034102033762013886,0.027181777040143525,-0.033707345455393896,-0.006946275788423334,-0.009093891619699163,-0.05067765397521711,0.051850562598354834,-0.037375001420022584,-0.001742869566306793,1
org.apache.poi.hssf.dev.EFBiffViewer,0.007498612346158531,0.08007418366473268,-0.008015890499731613,-0.0325484190733075,0.17982332971201898,-0.07153232737900005,-0.12929384208771622,0.0504915569509247,0.014660605310249755,-0.04709316027681157,-0.002806590257654205,-0.051132937615770785,-0.005590630236137865,-0.14913213516139442,0.07222420054435526,-0.0312543025599046,0.15408696069484362,0.17414971415337205,-0.2577686378717975,0.056353041651358814,-0.3284400199717282,0.11781734881470672,0.33544800269827146,-0.11018309604275066,-0.17760583536441912,0.025622956829055667,-0.17440599547440613,0.5602775222437618,0.19809748241491465,0.20398576003923907,0.06849473876935068,0.264546628139967,0
org.apache.poi.hssf.dev.FormulaViewer,0.04867400707780553,0.1829095282757078,0.1051586883002591,-0.03886127810349833,0.14312326950074503,0.12277526101342573,-0.24853273428793507,-0.33013056930866547,-0.1248705986309655,0.00336175794981839,0.07762016379887636,-0.017607605976473376,-0.07346461607490508,-0.07476029165048771,0.1461876501399097,-0.03683388087003522,0.20857283204774216,0.1290944252449379,-0.0895901080815429,0.08533173162610984,-0.07924302330489126,0.2126501017422857,0.2406140665350987,-0.5494506459291663,-0.3111499180543107,-0.10788780963949028,0.14185996326711167,0.11252206274686646,-0.18473974975978838,0.04920789011286145,0.03531364632056084,0.15439474137486392,0
org.apache.poi.hssf.dev.HSSF,0.013549327027241358,0.09334407528306159,0.016372537874428144,0.034038538463572014,0.12909641581226283,-0.1506717347423913,-0.10649557442087328,-0.05980468142487159,0.11541847740489983,-0.1015838097973725,0.5281718404794223,-0.11131416128107151,0.14154163415295049,0.01012780065613011,0.03293233876770693,0.3534475772234375,-0.21223834977033326,0.062099425006003565,0.2744002346132059,0.0147681926812467,0.05338468819158846,0.11258643300014233,0.17337273137805198,-0.1331866369611857,-0.03709539478977649,0.3657560259266008,-0.10689894204474884,0.004331293100433322,0.26223360542927887,-0.016607299135612118,-0.23644639985723365,0.12231590455159531,1
org.apache.poi.hssf.eventmodel.ERFListener,0.0112642520773368,0.22567769183782638,-0.014763871951357995,-0.09888785639425442,-0.015689818114735597,-0.10629550868170541,0.027859229357471108,0.08270324236859163,0.05959600788653434,-0.153943349738651,0.05512767530090909,-0.06025481929131258,-0.204370155772001,-0.12914788497454732,0.10242220807953764,0.0510900438744462,0.2846078502371389,0.1672882539076732,-0.34747004330701103,0.10022418742409551,-0.30013654082281127,-0.0059054925735154695,0.2087371615154636,-0.146112965642113,-0.02792749597057945,-0.07818246287986026,0.13632564620280796,-0.11522517391556866,-0.3261705813500467,-0.34994491995820753,-0.26307238811268147,-0.2875833766892189,0
org.apache.poi.hssf.eventmodel.EventRecordFactory,0.06551821171678765,0.09269826768480707,-0.03228937460470341,-0.04488188957018455,0.0020502982013733753,-0.11375392735698218,-0.0038076988418314405,-0.03216132888655967,-0.018033098574972237,-0.09603212403784302,0.15726338589805566,0.05297450402947929,-0.07056837048815524,-0.08846502717388167,0.11220662869248116,0.04334912348917168,0.24497404767146053,0.45913296627524636,-0.2188771248069104,-0.02066617294154035,-0.14712505651315327,-0.1926118483785977,0.09433005312797729,0.31429358448133526,0.141266976793721,-0.1929719646411819,0.30189790979917897,-0.09558472651052127,0.26703739687983746,-0.21502191488307723,-0.2033010913557864,-0.32215230472410833,1
org.apache.poi.hssf.eventmodel.ListenerWrapper,0.00018991926383414004,0.2538534954987623,-0.02062121290521357,-0.10833885798620546,-0.014941236742192455,-0.08314893077740196,0.029325759505536047,0.10928885502367108,0.07917893525868734,-0.1562220576128473,0.018763809906161596,-0.10046098231625131,-0.19606196439911605,-0.1302854610263608,0.09936824343666016,0.05989274256761538,0.29448060523374575,0.14895733267595046,-0.31511445124412185,0.11246929661389234,-0.28758417251654955,0.07751680278723846,0.21953887911820397,-0.24465316194995568,-0.0513188647344211,-0.015194099480569,0.044101028381713654,-0.11200994884058972,-0.45779034726831935,-0.26114769913885566,-0.20586277149458657,-0.19579347107945985,0
org.apache.poi.hssf.eventmodel.ModelFactory,0.055485642156092925,0.2741796333423225,0.013752174346638781,-0.10641039203195032,-0.03262842034649994,-0.11968061471144621,-0.009714218389624316,-0.07696128996542227,-0.018776530456746654,-0.18005140134012637,0.13025664757290092,-0.09670548635606176,-0.3015112801716499,-0.11654749323431923,0.07848258159303646,0.11428888797050352,0.1853222604724812,-0.0833548693521383,-0.09803257782277608,-0.035321574578911,-0.1928450302059739,-0.2710233640778102,0.02715221484997757,-0.23930187221329882,-0.19443408573356144,-0.19727844119406648,-0.008185148629285158,0.04484207871770191,-0.5017468391661458,-0.18405435328835057,-0.19847117500112224,-0.28532732268148914,1
org.apache.poi.hssf.eventmodel.ModelFactoryListener,0.039997715230625855,0.047850354120298685,0.04952649570241035,-0.017155802405711913,-0.017709142353456348,-0.17352082249527637,0.016431169026687776,-0.0550103301872818,-0.04597382340485349,-0.10806191654908674,0.2002700209255128,0.132074244751183,-0.18781987010644988,-0.04335625098653357,0.047720127364480044,-0.010698101894854354,0.01138050823286658,-0.13949937244042074,-0.28046308062748476,0.03375361661073253,-0.18677434715575664,-0.3161807751908163,0.028939899423931967,0.028606767045709747,-0.14231373269411776,-0.24484263273097664,0.24373276527749738,0.015521809045655102,-0.09174414573819241,-0.4674865112387678,-0.32326853590157184,-0.37622283446273036,0
org.apache.poi.hssf.eventusermodel.AbortableHSSFListener,-0.0007795326590091558,0.10460498302338139,-0.010557522269490745,-0.044892355221999795,0.014592101123379487,-0.03676808516190331,-0.004751251447592228,0.05419961153677923,0.030019856025540474,-0.06154044581672487,-0.02400842262750284,-0.0444318871200713,-0.05897542299967546,-0.08941755500167223,0.04466624189670564,-0.024665380306244027,0.15852823461452817,0.15737523945192686,-0.26419824032075234,0.0562131313722301,-0.338868626104452,0.1463062778014459,0.3184190293591546,-0.11875641360217631,-0.13596288576863114,-0.00625315473839886,-0.25228956607054126,0.6233627385267072,0.18133916951208057,0.12118008565395683,0.10619765517727883,0.23853034470068132,1
org.apache.poi.hssf.eventusermodel.HSSFEventFactory,-0.0029117863960398185,0.16736288971030305,-0.004598449573707394,-0.05401154179665454,0.15086098099022757,-0.06593783587569066,-0.11267257889288418,0.055053412938408305,0.019076633722445353,-0.050882135788365146,0.0027005140339288313,-0.08339906760179626,-0.061788114989537124,-0.16626763470656392,0.07313759332671439,-0.013668472318383744,0.2032638173254304,0.13342019512268982,-0.31073104608546165,0.10016881796698601,-0.335082473562433,0.20989801055206056,0.35276309912047077,-0.21118377060374713,-0.19416873574586932,0.07045105074799428,-0.22744287248255765,0.45541210187760417,-0.006903196061933487,0.1394286531841868,0.0684061399668153,0.24950051168713153,1
org.apache.poi.hssf.eventusermodel.HSSFListener,0.0016906684343781567,0.10390792324117402,-0.011426068398760965,-0.045333743224052606,0.03467024771923257,-0.043703769899971295,-0.019338432173666945,0.05502801047247464,0.028602394828614167,-0.05983758607266458,-0.02218100910503158,-0.046724344669970025,-0.050347286631708746,-0.10303591025684507,0.04844990992013267,-0.029545898191131643,0.1534173251988611,0.16796102811495178,-0.27306196893108364,0.052704999241101155,-0.35698179037209765,0.14819048464684428,0.29624674732228623,-0.09389967762293563,-0.08672233772845742,-0.024430832952660478,-0.2903661980378937,0.6327064448811816,0.18231705044283283,0.1235305179869412,0.1308669682464541,0.15368109052022255,0
org.apache.poi.hssf.eventusermodel.HSSFRequest,0.007701523591706189,0.07349451874012851,-0.009498152309306706,-0.027338980326087826,0.041784463545277664,-0.044814672107439515,-0.02756837606670119,0.040075935549138186,0.017716190723399694,-0.03843472068359008,0.010298259145533235,-0.05827857826128544,-0.06442459204258372,-0.11724306051976756,0.06326241416796706,-0.004557209542176978,0.18810780255760115,0.1762056260023312,-0.3057920327246825,0.08044224955761355,-0.3647121849433713,0.2015555518139775,0.32956534229256373,-0.17301207616323763,-0.11063112935296622,0.00621898207251933,-0.32313352728837186,0.5656380836615977,0.013291186911100653,0.09200372342023261,0.12496959947447069,0.14446843294061867,0
org.apache.poi.hssf.eventusermodel.HSSFUserException,0.012574538382022589,0.012544818897144918,-0.0068829875568304525,-0.008713338457370082,0.041228885181127384,-0.03448651457118042,-0.031367488285184826,0.011608744536762852,-0.00241722295213482,-0.02657554575681461,0.009290415825781538,-0.019286839269959485,-0.020425686550610323,-0.0956018374445126,0.0500163383593047,-0.019678564451627824,0.14466562106141184,0.2231535757655925,-0.27635544117603816,0.0459369669847532,-0.34443649064864795,0.11967393981990548,0.29779236635429307,-0.02954551802880015,-0.05554218986408582,-0.04350405196417875,-0.2690168343140785,0.64732069615729,0.2538623397888295,0.13446459428712182,0.1287614104869673,0.12140602671286826,0
org.apache.poi.hssf.model.AbstractShape,0.03236588563724328,0.20688079535411655,-0.152747774753649,0.8307062695435851,-0.05249742216399445,-0.16618558153224008,-0.0010000748539704006,-0.17203662321484897,0.16463884911279916,0.016307848425054273,-0.24777823710012142,0.11246930795649608,-0.044585069022954456,-0.10001142016148154,0.13779442222928331,0.12387327586405039,-0.054210450619287316,-0.09748637245808302,-0.10431668514316515,-0.0008709375175465001,-0.024087560271255474,-0.04239772117789518,0.011190541225052659,0.009705008199888314,0.018639644477826442,0.006249031525091999,0.04636387856398675,-0.02287022773346486,-0.041284311864807854,-0.059429486925875685,0.017083176271829,-0.023020546430179607,0
org.apache.poi.hssf.model.CommentShape,0.06864081551496895,0.15781685951953325,-0.1510023776903197,0.6334605492071608,-0.04264780822735027,-0.07735878124831903,-0.03402726489140637,-0.18895427903624587,0.23466610212971425,-0.2579554866020856,-0.191873468634593,0.30700923835809935,-0.02809141837719908,-0.16072045477124985,0.07054988813210292,0.1148714253330628,-0.0011561878068558104,0.15587261786226603,0.11667400557636677,0.005292458044270851,0.06472175921046922,0.1710738285018847,-0.01551368344878672,-0.04755993920882776,0.0124480620846107,0.1102049455579977,-0.07136885979287423,-0.17769477595803973,0.26576791793992416,-0.06711143009463784,0.07165678206415335,0.032168019191930367,1
org.apache.poi.hssf.model.ConvertAnchor,0.028777312066589407,0.1641418207954049,-0.15246570391795647,0.6299096762261457,-0.013648135994295877,0.0035427516945068342,-0.010943844430799246,-0.01353670618981124,-0.0410405478862379,-0.04016664745559383,0.08974425163947562,-0.29240389627024693,0.02780374543364007,0.21360858917625525,-0.1830375146595513,-0.29682104551884386,0.033465140537134376,-0.1922276944337886,-0.10138546342177693,0.04940319496145587,-0.0041493827124656785,0.026858452747268127,0.02181240894106859,-0.01576002791719124,0.018159276701535044,-0.03949865471397235,0.08904121524814583,0.22208961823512605,-0.15983002114771638,-0.04741167212154024,-0.20756817932474322,-0.32336152010453373,1
org.apache.poi.hssf.model.DrawingManager,0.04153864776048649,0.04982231638156499,-0.05639676907015807,0.19195982757005253,0.02936583976817473,0.2783913709022973,-0.013810464195416974,0.22150930535843644,-0.33082863713093447,-0.24487229407406833,0.17355036664137077,-0.4227488000157575,-0.07620314103598007,0.3016418164283378,0.23635724137368047,-0.007823017329938113,-0.17984316662934807,-0.16034222904277592,-0.12813557634928857,0.02452288583849211,0.14175227170775928,-0.19226543180914207,-0.0975894627852221,0.004939847263561317,0.007078590945766377,0.022589494402429418,0.07327348906556734,0.3323257909439175,0.16743361007895693,-0.0709632355508133,-0.07511754576735445,-0.020287295467200605,0
org.apache.poi.hssf.model.DrawingManager2,0.014312250367759355,0.21934241355883485,-0.04328594174329707,0.1520680981263302,-0.0035927793651491205,0.06747825559007216,-0.043441346268933395,-0.029672326786649057,-0.10875531053317748,-0.11943817702772322,0.270478676855227,-0.38468687284851255,-0.19320440677725723,0.16055950211943645,0.15780910333257353,0.12539772212029746,-0.07354031422582692,-0.12987649477332805,0.24202016664370823,-0.1656064751323102,0.11810439323346025,-0.4025270724258535,-0.16517274232836926,-0.09649600510404598,-0.10319333853866473,-0.15667443109198403,-0.10215298994653466,0.39197624352262,0.11882017325209045,0.10402911086415133,-0.10453480874938234,-0.11131328103468927,0
org.apache.poi.hssf.model.FormulaParser,0.11370776260361962,0.0545670498892406,0.7433667625861551,0.1515050184242415,0.012133665006583971,0.10098120851901678,-0.004883614270782727,0.06143997362676561,0.12428814955252275,-0.002741969138852013,0.07929896559137375,-0.022681807336524862,-0.2986077424546468,-0.09196461851609211,-0.07309148469387836,-0.24105811540126218,-0.3042801492755905,0.22455294829690625,-0.004260521499101326,-0.05156283984954134,-0.03125335693690303,-0.07394901672212814,-0.0017968045687673175,0.17300111320771744,0.03745075578063598,0.10941136017788552,-0.08530708154077991,0.028542425491574677,-0.06771027708373542,0.014585281731511288,0.05209967357196343,0.005127447228661829,1
org.apache.poi.hssf.model.LineShape,0.04200565594401409,0.12606960025103245,-0.1257802060700123,0.5863600236397715,-0.017618907344636198,0.10897762502596482,-0.03231790609065843,-0.005353044463268511,-0.014096457559700978,-0.49313899471514144,-0.15768169080109828,0.4665861364840211,0.07963553128709092,-0.19757403877765403,-0.1555328890295636,0.026990109460590467,0.02113527773282156,-0.06001996245225006,-0.03346774081858604,-0.02815324878478726,-0.012517360085782003,-0.08024713750395215,-0.011426176750831149,-0.04692607279353419,-0.0793724968150046,-0.03268207812570961,-0.1256882812251241,-0.051367289340863063,-0.09592155322476456,0.017983511225716724,0.024015249575761337,0.04899369593498615,1
org.apache.poi.hssf.model.Model,6.578710940821122e-05,0.26089751960392604,0.021261210146303212,-0.07790660201387839,-0.03080601515302906,0.0034832818295970204,-0.06695916699710845,-0.20670150834979178,-0.04511366486398411,-0.14022716152387482,0.15373886602803205,-0.1325082408562672,-0.30723970627606245,-0.07905671212196105,0.05787731118393833,0.1410457510294164,0.10556930287579869,-0.09414855730543298,0.23864856614312352,-0.2093742014562587,-0.05837683547052119,-0.47392646793089577,-0.1454717094246811,-0.08276685535930162,-0.18096457405002622,-0.33774588726369953,-0.02198862023437358,0.1571262070395221,-0.16578634120344554,-0.005486890199482187,-0.11145626586509359,-0.3189068629453609,0
org.apache.poi.hssf.model.Node,-0.006950282880847848,0.14411766003796372,0.07045162578946335,-0.05247973480220984,-0.0222614856866357,0.29482630813241684,-0.24211164688762604,-0.7007187024939528,-0.32787225775355017,0.08393638000657201,-0.0030845082328093995,0.05580117933985348,0.016013913448540924,0.037268598049999685,-0.004172739543384977,-0.08545915923180666,-0.08280682142095505,0.13597664690462669,-0.0648286815888674,0.03779885248897727,0.08451770779969381,0.0003685282254676883,0.0021050144807755102,-0.3059399836087154,0.023077240846603744,-0.05476988109006831,0.13664676260689515,0.07008741940971343,-0.16683860688863988,0.14355013136650377,0.004751467165870265,0.02190977912508915,0
org.apache.poi.hssf.model.PictureShape,0.04088464517904642,0.13095490446588032,-0.13577429086367013,0.6102883057537539,-0.023792828191903814,0.07335885267673257,-0.03635727492404676,-0.054099006090477804,0.050060705612027606,-0.4661646333068075,-0.17957450397762054,0.42644350363258193,0.08649100303458902,-0.18378163332733052,-0.19338377323891953,-0.03552092564888109,0.06147181590386694,-0.025420549592027265,-0.017531527993372986,-0.03542009456719627,-0.03366497845462748,-0.06899791695909922,-0.008500760175810525,-0.027553964423747117,-0.09317942397166251,-0.06873057289781714,-0.14384462035954632,-0.10645089875688728,-0.07110171836295608,0.014633081753271378,0.02410296215883353,0.0476681421956377,1
org.apache.poi.hssf.model.PolygonShape,0.041051279873745766,0.13871649875329445,-0.13068546359015684,0.5706864932631178,-0.01859101489463412,0.09640879269849657,-0.03044637251887799,-0.021789524403489323,0.0173490518171306,-0.45739426284779217,-0.19189520523210404,0.5074873711332921,0.05678211486026783,-0.23803782508964963,-0.11536158261546299,0.06359992148115229,-0.007279016993033696,-0.050722040758729096,0.06925310399698172,-0.046166416468793346,-0.09756240301838101,-0.019791568385636955,0.02617648983225583,-0.005991313737231797,-0.03011292231527621,-0.04766498605639411,-0.04516634065639389,-0.03898539310244818,-0.12810563171993958,0.009148032647275232,0.020890129176973343,0.017249485157463672,1
org.apache.poi.hssf.model.Sheet,0.327058522446075,0.033300415165328764,-0.12316383937727002,-0.06578700017608814,-0.031227578016324267,-0.3631849849684174,0.016740915479118,-0.17328666038348553,-0.044694873464100504,-0.07682909951117727,0.4061275053714845,0.35581817560997714,-0.17865210348253352,0.12563866758006026,0.08341204495882616,-0.38493461167058124,-0.22253012425269042,-0.2743737129719075,-0.10352257048232626,0.010340924956541599,-0.10106645798321022,0.021308222520436286,0.03114137729597869,0.13433910439788319,-0.10467937414384444,-0.12286958757639642,0.04983950736423327,-0.03218463848322208,-0.04169914659060942,-0.05653555760295814,0.02557025440482158,0.08053587044457937,1
org.apache.poi.hssf.model.SimpleFilledShape,0.040976654771894924,0.12235865380349353,-0.13011173232153436,0.563619895752046,-0.017952677735566296,0.09310728346461364,-0.035115226651627675,-0.022929165104145187,0.011944001521982961,-0.4619900478962607,-0.1146999293041738,0.3900916463850723,0.09395752355276814,-0.14300173056651036,-0.23292057381297626,-0.08926498797390493,0.10345032332112646,0.007866274599966932,-0.06820309803700633,-0.027750271447018866,0.049982520323100514,-0.10239391388165348,-0.04064128714995311,-0.06038276918796183,-0.14408873589152457,-0.06558268123797979,-0.25132465642424434,-0.1638677629147596,-0.01704656112637859,0.02724491734965778,0.060946241527963727,0.11535649047928474,1
org.apache.poi.hssf.model.TextboxShape,0.05793251186121293,0.1674970712838618,-0.1660414565315838,0.6984103164503239,-0.02120537758421498,0.09186273045354261,-0.04030748647697784,-0.03676330526813574,0.02736822490042635,-0.5026111443367342,-0.10937062370950468,0.30321766464380706,0.0764236676015382,-0.09704368802162393,-0.09570681947799321,0.008320218647475126,0.0014774838476955855,0.046969284957606106,-0.02352543656175822,0.01066451949140349,0.06401497051945144,0.04224847744566188,-0.010410415232818241,-0.010670953313554828,-0.06928526959319677,0.025674059812059422,-0.14498660123338278,-0.11038748101030395,0.0262350656813726,-0.08625230345927247,0.027543995848949218,0.05556181522008313,1
org.apache.poi.hssf.model.Workbook,0.3817595203110707,0.03049009474504629,0.6445704614576642,0.15201898571430977,-0.008822245621584894,-0.1225742628845995,0.05726154196309789,0.08173238795094206,-0.10662456869070659,-0.040861894095793404,-0.08365971990495027,-0.08186503863726485,0.1412968928675483,-0.10349027683383881,-0.1446053088140873,0.38685336516507274,-0.004547316600543523,-0.18911306615831414,-0.1856728073066806,0.10489369962522098,0.15145620204689375,-0.09110813971981106,-0.04923191140925245,-0.1036161748081281,0.02170234055963576,0.09660906394173248,0.04649452517939636,0.09376911706928916,0.01808200011510396,-0.07409362197688013,-0.039805517719156865,-0.08880289498386909,1
org.apache.poi.hssf.model.WorkbookRecordList,-0.035418318558376995,0.5753752642289344,0.011217052752401967,-0.19302012262831036,-0.04888916658458158,0.12986085977258816,-0.10844576192954652,-0.27535675494104817,-0.12344475171998813,-0.09985192041351874,-0.11589568098358347,-0.18090653930546036,-0.19386756004382205,-0.16326552940604436,-0.06986905975116131,0.10632539274307468,0.08716244874779648,-0.049294719080166985,0.06215577336892529,-0.06403140523246992,-0.22425322736877812,0.06573790644941936,0.10794481862190118,0.011616627660249346,-0.18532496543194618,-0.17463424405779468,-0.11722601962574762,0.03798391849192395,0.33499425356658163,-0.3077165296087508,-0.008928487027841192,-0.016409063710925254,1
org.apache.poi.hssf.record.AbstractEscherHolderRecord,0.03036505402787236,0.25560167910356396,-0.05373454861023767,0.19701521862258733,0.02963789574842414,-0.019006069283420936,0.0393857227835744,0.20756476232898832,-0.3250374089647513,0.35369567142308866,0.34296335158868,-0.003749967960587504,-0.030022459125690095,-0.11991924750992854,-0.2657152444694207,-0.025140687801474933,0.3482297134527125,0.11870598515490126,0.005093741486455901,-0.11669846677531688,-0.17643459770941933,0.0273014813176237,0.13150138947369405,-0.02507129702518011,-0.15660606065574126,-0.08310721245267791,-0.14392697359651602,-0.013664998994131117,-0.2715507408490912,-0.1275867067845707,-0.12471804118472392,-0.23358269853944735,1
org.apache.poi.hssf.record.AreaFormatRecord,-0.03062506361486519,0.6068646042050401,0.00239724215138098,-0.1762124958185046,-0.024288075863698588,-0.046566254431338,0.08860517950629315,0.2145034590537769,0.06469431709399832,0.07799154907066005,-0.1721629685387785,0.19278822599243614,0.47492519287361246,0.23867352540407458,0.057663291997888645,-0.12333332685747536,-0.30627316525287274,0.18690452710537866,-0.16155343203089753,-0.004042669069493163,0.011690054368848917,-0.045361715608434466,-0.00038686893451240074,-0.03778765320560954,0.03176503224424174,0.050472785611175436,0.03237879820871141,0.029800869337381942,-0.014310007141978727,0.02483501866443657,-0.011532540917062043,-0.00685491830718235,1
org.apache.poi.hssf.record.AreaRecord,-0.03062506361486519,0.6068646042050401,0.00239724215138098,-0.1762124958185046,-0.024288075863698588,-0.046566254431338,0.08860517950629315,0.2145034590537769,0.06469431709399832,0.07799154907066005,-0.1721629685387785,0.19278822599243614,0.47492519287361246,0.23867352540407458,0.057663291997888645,-0.12333332685747536,-0.30627316525287274,0.18690452710537866,-0.16155343203089753,-0.004042669069493163,0.011690054368848917,-0.045361715608434466,-0.00038686893451240074,-0.03778765320560954,0.03176503224424174,0.050472785611175436,0.03237879820871141,0.029800869337381942,-0.014310007141978727,0.02483501866443657,-0.011532540917062043,-0.00685491830718235,1
org.apache.poi.hssf.record.AxisLineFormatRecord,-0.05132095491819416,0.7799926942580062,-0.012342031859200119,-0.21573458735497275,-0.024030983763775337,-0.08497938529055869,0.12111427177859972,0.28156134673871763,0.02975216278017041,0.04350490551113836,-0.1933976203286967,0.05512772001580997,-0.029708605324442056,-0.07447066636676512,-0.14332287719334857,-0.11439507730067312,0.017533582595949317,-0.054466188160619,-0.0075738831672512,0.11765152368574804,-0.012093124501871728,0.15762350337501113,-0.010552650791317236,0.03130238040013595,0.12946126549849063,0.12525866076815317,0.18374251619485263,-0.07885821597563872,0.13672580711202265,-0.038424570385459156,-0.014247160729019067,0.14561777419787372,1
org.apache.poi.hssf.record.AxisOptionsRecord,-0.03062506361486519,0.6068646042050401,0.00239724215138098,-0.1762124958185046,-0.024288075863698588,-0.046566254431338,0.08860517950629315,0.2145034590537769,0.06469431709399832,0.07799154907066005,-0.1721629685387785,0.19278822599243614,0.47492519287361246,0.23867352540407458,0.057663291997888645,-0.12333332685747536,-0.30627316525287274,0.18690452710537866,-0.16155343203089753,-0.004042669069493163,0.011690054368848917,-0.045361715608434466,-0.00038686893451240074,-0.03778765320560954,0.03176503224424174,0.050472785611175436,0.03237879820871141,0.029800869337381942,-0.014310007141978727,0.02483501866443657,-0.011532540917062043,-0.00685491830718235,1
org.apache.poi.hssf.record.AxisParentRecord,-0.05132095491819416,0.7799926942580062,-0.012342031859200119,-0.21573458735497275,-0.024030983763775337,-0.08497938529055869,0.12111427177859972,0.28156134673871763,0.02975216278017041,0.04350490551113836,-0.1933976203286967,0.05512772001580997,-0.029708605324442056,-0.07447066636676512,-0.14332287719334857,-0.11439507730067312,0.017533582595949317,-0.054466188160619,-0.0075738831672512,0.11765152368574804,-0.012093124501871728,0.15762350337501113,-0.010552650791317236,0.03130238040013595,0.12946126549849063,0.12525866076815317,0.18374251619485263,-0.07885821597563872,0.13672580711202265,-0.038424570385459156,-0.014247160729019067,0.14561777419787372,1
org.apache.poi.hssf.record.AxisRecord,-0.05132095491819416,0.7799926942580062,-0.012342031859200119,-0.21573458735497275,-0.024030983763775337,-0.08497938529055869,0.12111427177859972,0.28156134673871763,0.02975216278017041,0.04350490551113836,-0.1933976203286967,0.05512772001580997,-0.029708605324442056,-0.07447066636676512,-0.14332287719334857,-0.11439507730067312,0.017533582595949317,-0.054466188160619,-0.0075738831672512,0.11765152368574804,-0.012093124501871728,0.15762350337501113,-0.010552650791317236,0.03130238040013595,0.12946126549849063,0.12525866076815317,0.18374251619485263,-0.07885821597563872,0.13672580711202265,-0.038424570385459156,-0.014247160729019067,0.14561777419787372,1
org.apache.poi.hssf.record.AxisUsedRecord,-0.05132095491819416,0.7799926942580062,-0.012342031859200119,-0.21573458735497275,-0.024030983763775337,-0.08497938529055869,0.12111427177859972,0.28156134673871763,0.02975216278017041,0.04350490551113836,-0.1933976203286967,0.05512772001580997,-0.029708605324442056,-0.07447066636676512,-0.14332287719334857,-0.11439507730067312,0.017533582595949317,-0.054466188160619,-0.0075738831672512,0.11765152368574804,-0.012093124501871728,0.15762350337501113,-0.010552650791317236,0.03130238040013595,0.12946126549849063,0.12525866076815317,0.18374251619485263,-0.07885821597563872,0.13672580711202265,-0.038424570385459156,-0.014247160729019067,0.14561777419787372,1
org.apache.poi.hssf.record.BOFRecord,-0.03917356842859634,0.734028217929891,0.010530882885061033,-0.24013847779406847,-0.053077013829329056,-0.052987467020962624,0.014255774550546538,0.02319269535210434,0.03547216040711502,-0.20500927339106081,-0.03697854862337952,-0.15188299155835575,-0.31757656683488245,-0.1194072640578628,-0.025363780944987327,0.03874721505087744,0.13215556851078755,-0.18790536273374966,0.10079966283559688,-0.1010062400000825,-0.045618196007462745,-0.2135736932749281,-0.08078355147672008,0.00022437709287622448,-0.06420049779862833,-0.21507732312230524,0.05471173125747956,-0.011279619334574706,0.04417402759722696,-0.01354907766643941,-0.06322637859909429,-0.15347277312663277,1
org.apache.poi.hssf.record.BackupRecord,-0.043381820344611396,0.67214521464176,0.005775823409228315,-0.19863159579171533,0.005771712573695642,0.004892902206235288,-0.027374417773007448,-0.009101190625026697,-0.03408905987487753,-0.08756354514240342,0.01552612771907903,-0.17609103220882277,-0.01827374579314298,-0.16909574048244022,-0.11809996153974327,0.10939501297638243,0.033195818074221915,-0.04470919928931899,0.11664958813707157,-0.11320714457624292,-0.25814501456239236,0.026517587230681795,0.11162476034721786,0.2566567513080774,-0.12109925446347468,-0.03845561274091928,-0.12243839400988236,-0.21664347738194767,0.16096366033804677,-0.34916123929784193,-0.08465010500455653,-0.05276549472487521,1
org.apache.poi.hssf.record.BarRecord,-0.03062506361486519,0.6068646042050401,0.00239724215138098,-0.1762124958185046,-0.024288075863698588,-0.046566254431338,0.08860517950629315,0.2145034590537769,0.06469431709399832,0.07799154907066005,-0.1721629685387785,0.19278822599243614,0.47492519287361246,0.23867352540407458,0.057663291997888645,-0.12333332685747536,-0.30627316525287274,0.18690452710537866,-0.16155343203089753,-0.004042669069493163,0.011690054368848917,-0.045361715608434466,-0.00038686893451240074,-0.03778765320560954,0.03176503224424174,0.050472785611175436,0.03237879820871141,0.029800869337381942,-0.014310007141978727,0.02483501866443657,-0.011532540917062043,-0.00685491830718235,1
org.apache.poi.hssf.record.BeginRecord,-0.05642936057577741,0.7827348436782449,-0.00458863429586927,-0.2631076188447625,-0.045745946021367036,-0.06562377899210421,0.07569294648766196,0.20550145637471096,0.07936141467878534,-0.15091472353015223,-0.20033296107842494,-0.0967534887168467,-0.16866038822452395,-0.10227843715860313,-0.09255396152600445,-0.06439032324042482,0.09312880406878797,-0.18129701918684324,-0.07034050241230111,0.04864907416338767,-0.023359236052848866,0.12079489823067015,0.020137784259390036,0.047307729372956395,0.05239901394760857,-0.0006292544235672288,0.0795190027533922,-0.1539458216237878,0.16388155138639982,-0.033515572481539704,-0.008010530892311572,0.053835103581981486,1
org.apache.poi.hssf.record.BlankRecord,-0.009634737446496271,0.36400521752489057,0.0004720714096708284,-0.09903781484594863,-0.01528498642071665,-0.11940986051624933,0.022563878700491726,0.07664521406790546,0.1271974491324112,-0.16174771269843133,0.1848139962098205,-0.08892723802397492,-0.2616338086887936,-0.055492640997857806,0.15966801603278843,0.09240237459861736,0.1961192275134467,0.0629054801185255,-0.08474574764201301,0.09599185331401328,0.027439420274586648,0.15176352832687642,0.0702007759691847,-0.3071559880589009,-0.06439297892972916,0.22394577138761548,-0.1687700491183017,-0.05475119631823931,-0.5814788568361241,-0.15683614184004144,0.0006173787641798714,-0.12800073276275542,1
org.apache.poi.hssf.record.BookBoolRecord,-0.054672520273866626,0.7875943032425514,0.008627258858058382,-0.25587845844413765,-0.05108438581368113,0.018336134912797997,0.004259964865805214,0.003396007777057072,-0.022263523740011937,-0.11252287147438514,-0.18581528143159148,-0.12865845954547764,-0.18201629777651626,-0.13576060145360394,-0.12192928109348937,0.00642203322762905,0.06943782387403477,-0.1830904548493491,0.003291310736759878,0.012187316859317761,-0.0563773138837077,0.11089265283378859,0.02750642833581312,0.07924037481832494,-0.0029187200266637564,-0.06442890759862775,0.03358704088722106,-0.15276816170590635,0.25556248861029984,-0.14769408299684172,-0.01026817890951593,0.024594344663221072,1
org.apache.poi.hssf.record.BoolErrRecord,-0.026519362312489223,0.5537825058864017,0.006755671645162771,-0.15555244881034908,-0.030903261753611962,-0.1358898892142119,0.039891121138436694,0.09344369149161338,0.1535472430583424,-0.1792254005105726,0.15001077605108137,-0.0308925577385145,-0.22428294831778922,-0.0043202944648968985,0.13339332485703734,0.04643530203286457,0.06800045271947301,0.03555624724130802,0.006860161252334939,0.11855444574347436,0.2053588632797519,0.2423001784509227,-0.02258262592235431,-0.13300631845111807,0.026203830797440073,0.38896073881272375,-0.1378167576510046,-0.10928497186294966,-0.28052571995005116,-0.2762521000233097,0.03445379772238901,-0.10499620577196565,1
org.apache.poi.hssf.record.BottomMarginRecord,-0.03957369242352979,0.6719913195517487,-0.008647121431028132,-0.22983900839304192,-0.04634951371648633,-0.11687218801221143,0.07067653400488037,0.1845140634268365,0.1250137368771397,-0.22928590975896848,-0.038455865439436396,-0.11319966508919024,-0.3153736354348591,-0.06497269318136686,0.0008486460790633431,-0.07572725322657455,0.11215252978067834,-0.2645039018475879,0.0997329346150435,-0.09135940808194447,0.016396001819678374,-0.17845887259902488,-0.12101882875590887,-0.04121713238271603,-0.04554029665664675,-0.16865769808963055,0.048341258339130444,-0.009532148822095262,-0.09270819112804306,0.23468428821834164,0.016088400897362867,-0.032095209819848425,1
org.apache.poi.hssf.record.BoundSheetRecord,-0.04885270994456718,0.7437217277685705,0.010552099204987559,-0.24494446844116285,-0.04892205992737934,0.012995269204991446,0.0009573554702868656,-0.0007162291974912797,-0.007133004050103612,-0.12369334296264148,-0.14489223296493225,-0.14562594729406453,-0.125289112635272,-0.10879407211517646,-0.11938410140496028,0.055960759198414395,0.001268439146283579,-0.17170987183151953,0.07095881261327008,-0.058520921126348165,-0.11199390367386737,0.018956212059194864,0.034874280647316964,0.11693661356229956,-0.015169671037172264,-0.10409257456834686,-0.0115870675355283,-0.11712242501969643,0.37250868380796415,-0.17361775856484535,0.12841032424307378,0.05743559418130945,1
org.apache.poi.hssf.record.CalcCountRecord,-0.048187366497158095,0.7331317896538277,-0.00466606334969206,-0.2449936692093154,-0.04668835717195871,-0.09659624297643883,0.07152606615899877,0.2000328272481149,0.12876692033478626,-0.22280363130929748,-0.07784444024594371,-0.14715733791944233,-0.2792005716680534,-0.07869479635808077,-0.012079792542733508,-0.019585528400325587,0.133444644899192,-0.20182110770359812,0.1001493331491941,-0.07655930686832266,0.02945298890077781,-0.1518313396018367,-0.10511643875521726,-0.055069457654159944,-0.01037668994690455,-0.11053029683236193,0.028665519410619983,-0.0004178515195870651,-0.05449448326077624,0.1865128769956947,0.012788197024510463,-0.03741704423779357,1
org.apache.poi.hssf.record.CalcModeRecord,-0.048187366497158095,0.7331317896538277,-0.00466606334969206,-0.2449936692093154,-0.04668835717195871,-0.09659624297643883,0.07152606615899877,0.2000328272481149,0.12876692033478626,-0.22280363130929748,-0.07784444024594371,-0.14715733791944233,-0.2792005716680534,-0.07869479635808077,-0.012079792542733508,-0.019585528400325587,0.133444644899192,-0.20182110770359812,0.1001493331491941,-0.07655930686832266,0.02945298890077781,-0.1518313396018367,-0.10511643875521726,-0.055069457654159944,-0.01037668994690455,-0.11053029683236193,0.028665519410619983,-0.0004178515195870651,-0.05449448326077624,0.1865128769956947,0.012788197024510463,-0.03741704423779357,1
org.apache.poi.hssf.record.CategorySeriesAxisRecord,-0.03062506361486519,0.6068646042050401,0.00239724215138098,-0.1762124958185046,-0.024288075863698588,-0.046566254431338,0.08860517950629315,0.2145034590537769,0.06469431709399832,0.07799154907066005,-0.1721629685387785,0.19278822599243614,0.47492519287361246,0.23867352540407458,0.057663291997888645,-0.12333332685747536,-0.30627316525287274,0.18690452710537866,-0.16155343203089753,-0.004042669069493163,0.011690054368848917,-0.045361715608434466,-0.00038686893451240074,-0.03778765320560954,0.03176503224424174,0.050472785611175436,0.03237879820871141,0.029800869337381942,-0.014310007141978727,0.02483501866443657,-0.011532540917062043,-0.00685491830718235,1
org.apache.poi.hssf.record.CellValueRecordInterface,0.09777617201700767,0.08309537365963172,-0.02492525310506646,-0.021960988258616827,-0.003034478364552072,-0.17345230754455376,-0.018555076791985647,-0.09460530923805274,0.09769702610177908,-0.1545336959434339,0.4344844616040592,0.13438892800575225,-0.138211639679153,0.07294098127814642,0.2947020218209313,0.09290405517436896,0.23569871450044227,0.40130551087935484,0.03639890591238651,0.019818705596057765,0.2710715716376665,-0.18528775553191512,-0.1390452557425232,0.018396509480607417,0.16735766204374952,-0.07480584084324404,0.4276434451509804,0.07735814592704109,-0.0637970050224042,0.0764027783525401,-0.04849521669811597,0.048459425687042326,0
org.apache.poi.hssf.record.ChartFormatRecord,-0.03373392572857556,0.6245384077575248,0.008579570285284811,-0.21176701535259024,-0.0392784023854376,-0.033589104159566355,0.061561865666574234,0.1715030982247713,0.10213263190795999,-0.0390142336115144,-0.18327155235773618,0.11645552354511476,0.44924619234222324,0.2571112672893741,0.10843953600886329,-0.098272495162779,-0.298475045248523,0.13433201436735667,-0.22131710336236607,-0.05759439227394391,0.006915521717197582,-0.08682352860338374,0.019896099942990093,-0.03491612070540314,-0.023318169897842588,-0.032899537122206696,-0.04406492060392022,-0.00794425822970355,-0.009531725004191995,0.03406344369377999,-0.007925413589975333,-0.07742959157486365,1
org.apache.poi.hssf.record.ChartRecord,-0.05132095491819416,0.7799926942580062,-0.012342031859200119,-0.21573458735497275,-0.024030983763775337,-0.08497938529055869,0.12111427177859972,0.28156134673871763,0.02975216278017041,0.04350490551113836,-0.1933976203286967,0.05512772001580997,-0.029708605324442056,-0.07447066636676512,-0.14332287719334857,-0.11439507730067312,0.017533582595949317,-0.054466188160619,-0.0075738831672512,0.11765152368574804,-0.012093124501871728,0.15762350337501113,-0.010552650791317236,0.03130238040013595,0.12946126549849063,0.12525866076815317,0.18374251619485263,-0.07885821597563872,0.13672580711202265,-0.038424570385459156,-0.014247160729019067,0.14561777419787372,1
org.apache.poi.hssf.record.CodepageRecord,-0.054672520273866626,0.7875943032425514,0.008627258858058382,-0.25587845844413765,-0.05108438581368113,0.018336134912797997,0.004259964865805214,0.003396007777057072,-0.022263523740011937,-0.11252287147438514,-0.18581528143159148,-0.12865845954547764,-0.18201629777651626,-0.13576060145360394,-0.12192928109348937,0.00642203322762905,0.06943782387403477,-0.1830904548493491,0.003291310736759878,0.012187316859317761,-0.0563773138837077,0.11089265283378859,0.02750642833581312,0.07924037481832494,-0.0029187200266637564,-0.06442890759862775,0.03358704088722106,-0.15276816170590635,0.25556248861029984,-0.14769408299684172,-0.01026817890951593,0.024594344663221072,1
org.apache.poi.hssf.record.ColumnInfoRecord,-0.007254421319289793,0.5895524839607416,0.005026017739985373,-0.2076090903586358,-0.04451089173174476,-0.10132204850126482,0.06417392960012466,0.1522324205848655,0.12650575027120287,-0.10161758587115748,-0.06416691413805649,0.12305696291444383,0.3051449762738293,0.2710636627267359,0.16847920615236595,-0.14815688985565886,-0.2728771830971434,0.05711495277988341,-0.11689025337021769,-0.14595537639553116,0.005504269735513174,-0.2595073809866397,-0.06118346554716817,-0.07466376311508738,-0.09618034937206686,-0.1552336203522641,-0.07094769022807454,0.08155575936512854,-0.17633984082784032,0.1745567190215836,0.006588288245197868,-0.1056789959677216,1
org.apache.poi.hssf.record.CommonObjectDataSubRecord,0.0034156262150481773,0.27195096334596724,-0.057312671899320024,0.28731846245698983,-0.032730350075396604,-0.1861755671984764,0.05042631367671175,-0.03341595283138371,0.11344017726490738,0.4722130319085767,-0.08541312500140696,-0.061617845995337525,0.0029372054316828106,0.17090840876706342,0.508258445008455,0.0960263334788015,-0.22556390066310555,0.138354103038305,-0.19279528475443045,0.016546095659769267,0.16036362019760064,-0.07877003052663721,-0.05090098009350806,-0.05673034862048965,-0.07955799185964932,0.06628896918761308,-0.23637586463262827,-0.15847244816303563,0.0305542433762822,-0.03647515259826365,0.08895353835108895,0.10003817709189923,1
org.apache.poi.hssf.record.ContinueRecord,-0.013884181579762017,0.6458987647121749,-0.032922666661034605,-0.1492984454180821,-0.025504693606385076,-0.07742835806625648,0.04335882789110527,0.1569714801745695,0.09539286322631346,-0.20153095813783553,-0.05677212328236478,-0.1084554164102949,-0.18875663763432207,-0.13977429338464248,0.006056902321710745,0.01947970549557652,0.2790504748906358,0.18607043868777082,-0.19263988101066312,0.1396510352003055,-0.06587668963066323,0.351529475416415,0.1894612491127883,-0.16720125836024957,0.0037012636644885044,0.08880908511524714,-0.04335556371388531,-0.13918714623480394,0.014307916642899363,-0.09763168233246285,0.022265085589372343,0.07447018344554394,1
org.apache.poi.hssf.record.CountryRecord,-0.054672520273866626,0.7875943032425514,0.008627258858058382,-0.25587845844413765,-0.05108438581368113,0.018336134912797997,0.004259964865805214,0.003396007777057072,-0.022263523740011937,-0.11252287147438514,-0.18581528143159148,-0.12865845954547764,-0.18201629777651626,-0.13576060145360394,-0.12192928109348937,0.00642203322762905,0.06943782387403477,-0.1830904548493491,0.003291310736759878,0.012187316859317761,-0.0563773138837077,0.11089265283378859,0.02750642833581312,0.07924037481832494,-0.0029187200266637564,-0.06442890759862775,0.03358704088722106,-0.15276816170590635,0.25556248861029984,-0.14769408299684172,-0.01026817890951593,0.024594344663221072,1
org.apache.poi.hssf.record.CustomField,-0.03393994265301713,0.6281318002975089,0.1711305309912036,-0.20045311935016738,-0.06555564926974343,0.18628505941980467,-0.11520640058904814,-0.3283874559462563,-0.12168304098887298,-0.09813862711877896,-0.16885797018198323,-0.023306156994843442,-0.08888889000079199,0.047956544519773214,0.03365621439012617,-0.18699791122311216,0.10194115014444666,-0.18064648905240752,-0.10385875242309257,0.08969296428775202,0.0641262333381028,0.1570195349859072,-0.09757255042781296,0.20342470680220706,0.053270904234307664,0.15887527673159893,-0.04396580480815891,-0.27961126645659484,0.10800445028367678,0.08467703053821025,-0.04172848448272537,0.06802774890529648,1
org.apache.poi.hssf.record.DBCellRecord,-0.009297137056978924,0.45460570614213,-0.009358651664741197,-0.15194538259782556,-0.020193747730892712,-0.10311564558065642,0.039445994508346544,0.11990979840511448,0.06485591307599008,-0.12377528642351496,0.01721340433014885,-0.06910497787302095,-0.2220247847366242,-0.11240265370076907,0.06609391282244889,-0.016074160684698087,0.24789115362485795,-0.02128764915203909,-0.29571727590883123,0.14141667965001958,-0.1877607205419847,0.2182790852573405,0.20495223451443345,-0.24647008427768935,-0.06974824698955318,0.054983338942780055,-0.04461874839732702,-0.13177767787694872,-0.49988443738110117,-0.13580407950109552,-0.03644806137272692,0.006287322937936601,1
org.apache.poi.hssf.record.DSFRecord,-0.054672520273866626,0.7875943032425514,0.008627258858058382,-0.25587845844413765,-0.05108438581368113,0.018336134912797997,0.004259964865805214,0.003396007777057072,-0.022263523740011937,-0.11252287147438514,-0.18581528143159148,-0.12865845954547764,-0.18201629777651626,-0.13576060145360394,-0.12192928109348937,0.00642203322762905,0.06943782387403477,-0.1830904548493491,0.003291310736759878,0.012187316859317761,-0.0563773138837077,0.11089265283378859,0.02750642833581312,0.07924037481832494,-0.0029187200266637564,-0.06442890759862775,0.03358704088722106,-0.15276816170590635,0.25556248861029984,-0.14769408299684172,-0.01026817890951593,0.024594344663221072,1
org.apache.poi.hssf.record.DatRecord,-0.03062506361486519,0.6068646042050401,0.00239724215138098,-0.1762124958185046,-0.024288075863698588,-0.046566254431338,0.08860517950629315,0.2145034590537769,0.06469431709399832,0.07799154907066005,-0.1721629685387785,0.19278822599243614,0.47492519287361246,0.23867352540407458,0.057663291997888645,-0.12333332685747536,-0.30627316525287274,0.18690452710537866,-0.16155343203089753,-0.004042669069493163,0.011690054368848917,-0.045361715608434466,-0.00038686893451240074,-0.03778765320560954,0.03176503224424174,0.050472785611175436,0.03237879820871141,0.029800869337381942,-0.014310007141978727,0.02483501866443657,-0.011532540917062043,-0.00685491830718235,1
org.apache.poi.hssf.record.DataFormatRecord,-0.03062506361486519,0.6068646042050401,0.00239724215138098,-0.1762124958185046,-0.024288075863698588,-0.046566254431338,0.08860517950629315,0.2145034590537769,0.06469431709399832,0.07799154907066005,-0.1721629685387785,0.19278822599243614,0.47492519287361246,0.23867352540407458,0.057663291997888645,-0.12333332685747536,-0.30627316525287274,0.18690452710537866,-0.16155343203089753,-0.004042669069493163,0.011690054368848917,-0.045361715608434466,-0.00038686893451240074,-0.03778765320560954,0.03176503224424174,0.050472785611175436,0.03237879820871141,0.029800869337381942,-0.014310007141978727,0.02483501866443657,-0.011532540917062043,-0.00685491830718235,1
org.apache.poi.hssf.record.DateWindow1904Record,-0.054672520273866626,0.7875943032425514,0.008627258858058382,-0.25587845844413765,-0.05108438581368113,0.018336134912797997,0.004259964865805214,0.003396007777057072,-0.022263523740011937,-0.11252287147438514,-0.18581528143159148,-0.12865845954547764,-0.18201629777651626,-0.13576060145360394,-0.12192928109348937,0.00642203322762905,0.06943782387403477,-0.1830904548493491,0.003291310736759878,0.012187316859317761,-0.0563773138837077,0.11089265283378859,0.02750642833581312,0.07924037481832494,-0.0029187200266637564,-0.06442890759862775,0.03358704088722106,-0.15276816170590635,0.25556248861029984,-0.14769408299684172,-0.01026817890951593,0.024594344663221072,1
org.apache.poi.hssf.record.DefaultColWidthRecord,-0.048187366497158095,0.7331317896538277,-0.00466606334969206,-0.2449936692093154,-0.04668835717195871,-0.09659624297643883,0.07152606615899877,0.2000328272481149,0.12876692033478626,-0.22280363130929748,-0.07784444024594371,-0.14715733791944233,-0.2792005716680534,-0.07869479635808077,-0.012079792542733508,-0.019585528400325587,0.133444644899192,-0.20182110770359812,0.1001493331491941,-0.07655930686832266,0.02945298890077781,-0.1518313396018367,-0.10511643875521726,-0.055069457654159944,-0.01037668994690455,-0.11053029683236193,0.028665519410619983,-0.0004178515195870651,-0.05449448326077624,0.1865128769956947,0.012788197024510463,-0.03741704423779357,1
org.apache.poi.hssf.record.DefaultDataLabelTextPropertiesRecord,-0.05132095491819416,0.7799926942580062,-0.012342031859200119,-0.21573458735497275,-0.024030983763775337,-0.08497938529055869,0.12111427177859972,0.28156134673871763,0.02975216278017041,0.04350490551113836,-0.1933976203286967,0.05512772001580997,-0.029708605324442056,-0.07447066636676512,-0.14332287719334857,-0.11439507730067312,0.017533582595949317,-0.054466188160619,-0.0075738831672512,0.11765152368574804,-0.012093124501871728,0.15762350337501113,-0.010552650791317236,0.03130238040013595,0.12946126549849063,0.12525866076815317,0.18374251619485263,-0.07885821597563872,0.13672580711202265,-0.038424570385459156,-0.014247160729019067,0.14561777419787372,1
org.apache.poi.hssf.record.DefaultRowHeightRecord,-0.048187366497158095,0.7331317896538277,-0.00466606334969206,-0.2449936692093154,-0.04668835717195871,-0.09659624297643883,0.07152606615899877,0.2000328272481149,0.12876692033478626,-0.22280363130929748,-0.07784444024594371,-0.14715733791944233,-0.2792005716680534,-0.07869479635808077,-0.012079792542733508,-0.019585528400325587,0.133444644899192,-0.20182110770359812,0.1001493331491941,-0.07655930686832266,0.02945298890077781,-0.1518313396018367,-0.10511643875521726,-0.055069457654159944,-0.01037668994690455,-0.11053029683236193,0.028665519410619983,-0.0004178515195870651,-0.05449448326077624,0.1865128769956947,0.012788197024510463,-0.03741704423779357,1
org.apache.poi.hssf.record.DeltaRecord,-0.048187366497158095,0.7331317896538277,-0.00466606334969206,-0.2449936692093154,-0.04668835717195871,-0.09659624297643883,0.07152606615899877,0.2000328272481149,0.12876692033478626,-0.22280363130929748,-0.07784444024594371,-0.14715733791944233,-0.2792005716680534,-0.07869479635808077,-0.012079792542733508,-0.019585528400325587,0.133444644899192,-0.20182110770359812,0.1001493331491941,-0.07655930686832266,0.02945298890077781,-0.1518313396018367,-0.10511643875521726,-0.055069457654159944,-0.01037668994690455,-0.11053029683236193,0.028665519410619983,-0.0004178515195870651,-0.05449448326077624,0.1865128769956947,0.012788197024510463,-0.03741704423779357,1
org.apache.poi.hssf.record.DimensionsRecord,-0.048187366497158095,0.7331317896538277,-0.00466606334969206,-0.2449936692093154,-0.04668835717195871,-0.09659624297643883,0.07152606615899877,0.2000328272481149,0.12876692033478626,-0.22280363130929748,-0.07784444024594371,-0.14715733791944233,-0.2792005716680534,-0.07869479635808077,-0.012079792542733508,-0.019585528400325587,0.133444644899192,-0.20182110770359812,0.1001493331491941,-0.07655930686832266,0.02945298890077781,-0.1518313396018367,-0.10511643875521726,-0.055069457654159944,-0.01037668994690455,-0.11053029683236193,0.028665519410619983,-0.0004178515195870651,-0.05449448326077624,0.1865128769956947,0.012788197024510463,-0.03741704423779357,1
org.apache.poi.hssf.record.DrawingGroupRecord,-0.002889118175405761,0.3307909287171169,-0.03992232058878193,0.12730790023384145,0.041639436155561746,0.06831447323971937,-0.013788070982804022,0.12206996099919931,-0.34793650613927685,0.20448362516229943,0.3591407917710162,-0.04376858344134892,-0.021470113453915994,-0.17574074560127192,-0.2662852248462682,0.07051926620361111,0.29583968170071084,0.07899319501170572,-0.07408544965661797,-0.07914967312680748,-0.25787057787929385,0.06362975887543959,0.21052682419693608,0.05951312012230688,-0.14941933645941805,-0.08491198114587521,-0.13563320070634738,-0.09915930415256698,-0.21158067839794967,-0.23875412971288143,-0.09004962716010112,-0.2423027602964088,1
org.apache.poi.hssf.record.DrawingRecord,-0.02461894215681537,0.5999639907851508,-0.039246408607248276,-0.03585556592975043,-0.030058473433503326,-0.12872929474527095,0.046526283121485434,0.12512566423467833,0.08447921109807408,-0.04553272888815692,0.062479308586997184,-0.23905194605737615,-0.3650420904042823,-0.06715675589980821,0.11713692993614883,-0.0028825340752579487,0.25361414158966694,-0.10180251850809224,-0.13045689894081156,0.030257199179341377,-0.056001762648435746,0.019509258016505385,0.08780238427448284,-0.283007547268155,-0.09652832764039146,-0.043623490960844544,-0.14179651306965224,0.08649625216705306,-0.3756049907576779,0.06440781217350226,-0.020926457402280538,-0.10558909912937865,1
org.apache.poi.hssf.record.DrawingRecordForBiffViewer,-0.03174480647297628,0.5427434669984075,-0.0032944666256478875,-0.09819190184340712,-0.027954559808535367,0.0896521300778215,-0.015144626703504816,0.0881416521050608,-0.16111067845828572,-0.22034475846136037,0.04826365747261335,-0.20286501047432812,-0.12774400471011194,-0.019319149386008327,-0.05341243259131987,-0.025654538632544913,0.10688656908225862,-0.19475105441980492,-0.43714479928996475,0.08410544114895557,-0.03633427859462983,-0.00780630521928829,-0.015410715666051098,0.2139610337534246,0.1162152854909973,-0.06156132596263687,0.20076434540299454,-0.24216459271817925,0.29032063831769284,0.08674867431821835,-0.08375214448136954,-0.1725270611986194,0
org.apache.poi.hssf.record.DrawingSelectionRecord,-0.03174480647297628,0.5427434669984075,-0.0032944666256478875,-0.09819190184340712,-0.027954559808535367,0.0896521300778215,-0.015144626703504816,0.0881416521050608,-0.16111067845828572,-0.22034475846136037,0.04826365747261335,-0.20286501047432812,-0.12774400471011194,-0.019319149386008327,-0.05341243259131987,-0.025654538632544913,0.10688656908225862,-0.19475105441980492,-0.43714479928996475,0.08410544114895557,-0.03633427859462983,-0.00780630521928829,-0.015410715666051098,0.2139610337534246,0.1162152854909973,-0.06156132596263687,0.20076434540299454,-0.24216459271817925,0.29032063831769284,0.08674867431821835,-0.08375214448136954,-0.1725270611986194,0
org.apache.poi.hssf.record.EOFRecord,-0.049044251525539186,0.7680987310762604,0.0066088067816760096,-0.24912326480479582,-0.05297572781982363,-0.025281167917256982,0.012634306989243376,0.03286966133089019,0.04203833561790947,-0.19270638857868613,-0.07690358749706355,-0.1766409724200773,-0.2932457120495629,-0.11228460313078871,-0.04370082088026375,0.03779229977722643,0.11501411072625746,-0.20940360249207873,0.155451411985873,-0.10203151506136682,-0.0017945778866341302,-0.14659613798981525,-0.09370978583339716,-0.02215910580978351,-0.05416245636409136,-0.16201841552739274,-0.006405831905385368,-0.010362276255079047,0.03841661473152822,0.07890984643331865,0.009826017642974019,-0.05760438056570084,1
org.apache.poi.hssf.record.EndRecord,-0.05642936057577741,0.7827348436782449,-0.00458863429586927,-0.2631076188447625,-0.045745946021367036,-0.06562377899210421,0.07569294648766196,0.20550145637471096,0.07936141467878534,-0.15091472353015223,-0.20033296107842494,-0.0967534887168467,-0.16866038822452395,-0.10227843715860313,-0.09255396152600445,-0.06439032324042482,0.09312880406878797,-0.18129701918684324,-0.07034050241230111,0.04864907416338767,-0.023359236052848866,0.12079489823067015,0.020137784259390036,0.047307729372956395,0.05239901394760857,-0.0006292544235672288,0.0795190027533922,-0.1539458216237878,0.16388155138639982,-0.033515572481539704,-0.008010530892311572,0.053835103581981486,1
