name,vector_0,vector_1,vector_2,vector_3,vector_4,vector_5,vector_6,vector_7,vector_8,vector_9,vector_10,vector_11,vector_12,vector_13,vector_14,vector_15,vector_16,vector_17,vector_18,vector_19,vector_20,vector_21,vector_22,vector_23,vector_24,vector_25,vector_26,vector_27,vector_28,vector_29,vector_30,vector_31,bug
org.apache.tools.ant.AntClassLoader,0.2797782352916945,0.05920539727188873,-0.0378170565112058,0.0033121471550481,-0.0745897261397011,0.0180294238199706,0.08576902975066802,0.2090940351595893,-0.3642261403749599,0.21268412836889106,0.18952883322610697,0.1808765675767248,-0.05470665372979943,-0.28892899796961063,-0.11879222823518004,0.05242241656785529,0.233582988091782,0.008465972467273245,-0.1607052909067415,-0.05128206651661062,0.14131118850837515,0.23876865933842126,0.16246295530099433,0.14425618190068054,-0.2378016472717656,-0.11635432880682695,0.024038306965675417,0.28759677537134715,-0.2513599238153763,0.18778027175638168,-0.22549089876859077,-0.002831614879374999,1
org.apache.tools.ant.AntTypeDefinition,0.1548779973345568,-0.0974453959576815,-0.07152669402678623,0.11036622665751784,-0.32170231611114436,0.3926393398482903,-0.15973093127475946,0.026080627550159375,-0.0730245469832835,-0.1522240377127514,-0.0673004242664078,0.2143116550824255,0.10572087269779944,0.09767783014248108,-0.2240170876363154,-0.10176709798761607,-0.20124131592010266,0.011098067717395825,-0.041100686309788324,-0.06878984608913136,0.08422266772685394,-0.3835456712347303,-0.1647413326635464,-0.005969582247254733,-0.038451745146063004,0.14415630395562362,0.31504903199908196,0.18471407875721602,0.07244982652403653,0.2807950475411764,0.059521116037970334,0.182908743643759,0
org.apache.tools.ant.BuildEvent,0.0872466053623633,-0.06242452351527284,-0.02926777372176164,0.017228708223540987,-0.185740362186526,0.2076104689167182,-0.19657699875732465,0.06775166437351698,-0.08057284904338413,0.08325516048162096,-0.005899894992813474,0.11172012243002481,-0.04847081247554191,-0.10839695756527443,-0.025461914730335114,0.026104123909927453,0.11201479099476841,-0.003954474484237994,0.3459132202562233,0.4590336581864634,-0.10306727976618338,0.31505152618547205,0.2631653027840154,0.07337442618019999,0.3819899221073774,-0.26718705020144257,-0.1744502567601831,-0.00290259732517387,-0.04544159466020584,0.08159958302750533,-0.2026025666902505,-0.012885793785367907,0
org.apache.tools.ant.BuildException,0.5966600754632103,0.5221295486899299,-0.05242999194591573,0.054224635922137554,-0.1250552349648814,0.19587838841544855,0.2118148317988509,-0.16083657622166142,0.20148556207961166,-0.002564886947498561,0.11309804471213639,-0.03689995336949798,0.13132728883783035,-0.08049324086436214,0.2989442041145364,0.014813932594649434,0.024603960731546366,-0.008780566937714276,-0.13956309976067788,0.04500600480268067,0.033410051953635486,-0.03530228271671534,-0.1087817871896399,0.06363080169744856,0.05020981139725528,0.07563456740687045,-0.05087718661835421,-0.0954836645312228,0.03591909878512283,-0.04584599316261465,0.09445423059212876,-0.013665187435549245,0
org.apache.tools.ant.BuildListener,0.09098083625975936,-0.03669377510137778,-0.016778073587055572,0.02257045504453003,-0.16947004742040642,0.18975420600268,-0.15866748846713977,0.08051005073426533,-0.09965319268179906,0.09972880050086426,0.004831595272278329,0.10898517087034382,-0.08346638114399525,-0.11673959287037475,0.020298743865497425,0.01661503467101557,0.08064391147529482,-0.0014963621997660362,0.30750394407530673,0.44973065562318576,-0.09592653852970402,0.3096228087554872,0.257643404078174,0.10051847021120319,0.4078886169780008,-0.2500193258770964,-0.13041122858400142,-0.029856063257173764,-0.030861935515479142,0.05629942308995916,-0.3068675420994063,0.10097146032452672,1
org.apache.tools.ant.BuildLogger,0.06622687869288224,-0.0062695133685187615,-0.032102970601802505,0.031848068291105903,-0.15903194098786588,0.22301633894463,-0.19725593026248348,0.05353417173567798,-0.05851599047395737,0.07947372982096647,-0.03158862230199163,0.1010265454055948,-0.03667769179421576,-0.0674262444505088,-0.032703207198897855,0.034785022896627,0.09801519939644637,-0.0068253335296546425,0.33573576806764965,0.3771057619272895,-0.09339661255962264,0.3677583736885847,0.2448814542659736,0.06877018813083165,0.45238019205186675,-0.27251957270731375,-0.15359531691876976,-0.07441598440739408,-0.030318016877734243,0.10648679881200984,-0.23240916393801697,0.006942223357980355,0
org.apache.tools.ant.ComponentHelper,0.17960802588996116,-0.14448072813990653,-0.08962634285581836,0.12385197756502697,-0.36375524216391353,0.44384109662917176,-0.27861127277509423,0.023566703179395715,-0.028910055442730256,-0.2524189716448978,-0.024935091355961357,0.19580931642351024,0.15040701120188568,0.1431526503813868,-0.3356180934310127,-0.08317294397074582,-0.11886485255959986,0.016012455816024,-0.07821942962890975,-0.1970641357955753,0.06348725294828211,-0.23542891652627027,-0.24483608644698934,-0.031164794610129984,-0.1577290677730564,0.0649393602408679,0.08704501623514915,0.12178798833051607,-0.007810873506496431,0.11061435029064304,0.04472125846412884,0.06559618369912969,0
org.apache.tools.ant.DefaultLogger,0.08535538531617848,-0.09697003332149967,-0.06887646156575462,0.03371098654327459,-0.19793702158571155,0.2439628378101248,-0.20546574623252917,0.031997681733597225,-0.023127204326743336,0.04411120949146146,0.043367272239027775,0.09591084878210564,-0.03446278613905196,-0.047207029373786555,-0.0755801365409741,0.04026485948396847,0.16283713936494543,0.004883029632496214,0.4189936170455406,0.39641128321291613,-0.07826605206267499,0.43913598565700646,0.2263011658808058,0.11420177228439031,0.25061678947966,-0.2485005497501537,-0.09593149759260473,-0.10739561889916498,-0.021627805113653815,0.018408758519712503,0.08418363944887755,-0.18850663737320428,1
org.apache.tools.ant.DemuxInputStream,0.12890955965266127,-0.3964968326675768,-0.10265137136716847,0.0035286943318394433,-0.1985884966345801,0.23477462610504388,-0.1021922912704246,0.07647033334750881,-0.003600103706274945,-0.0009832181237217283,0.0807025108060419,-0.013066553297932177,-0.14600136501460786,0.0007118561277857406,0.08365441462788625,-0.08462470807965812,-0.26244080151461485,-0.0038059855229471157,0.3410873016812804,0.2559512378512781,-0.08205427999227463,0.07137780720041235,0.07806920737883347,0.12601440075262516,0.25811709093220975,-0.12827412587799444,0.0742210955756458,-0.1393461622842537,0.05810482750633437,-0.03307841633332326,-0.5079845069432355,0.08680255816154415,0
org.apache.tools.ant.DemuxOutputStream,0.12890955965266113,-0.3964968326675764,-0.10265137136716834,0.003528694331838954,-0.19858849663457936,0.23477462610504837,-0.10219229127042483,0.07647033334751151,-0.0036001037062757353,-0.0009832181237317615,0.08070251080603376,-0.01306655329792825,-0.14600136501459302,0.0007118561277705706,0.08365441462788582,-0.0846247080796622,-0.26244080151460325,-0.0038059855229440214,0.3410873016812821,0.2559512378512679,-0.08205427999227352,0.07137780720041792,0.07806920737884246,0.1260144007526238,0.2581170909322117,-0.12827412587798673,0.0742210955756458,-0.13934616228425037,0.05810482750634455,-0.03307841633331645,-0.5079845069432471,0.0868025581615505,0
org.apache.tools.ant.Diagnostics,0.2060566175572864,-0.3759131815955788,-0.15455534225455417,0.027541635962819548,-0.159718650406257,0.132941262194773,-0.03100866380631704,0.06061318520587696,-0.057801833492623224,0.015925852362238407,0.04806025607499153,0.09890698803817079,0.04262794690193825,-0.0015760102758551023,0.06199107795747577,0.2011504282274096,0.26109606027604465,-0.003002520374012572,0.03056367658439681,0.13965782126807122,-0.017632286438398252,0.13653468205949962,-0.34334217064510064,-0.08444714346025393,-0.06849324969804037,0.09668276652496081,0.3438025940177409,-0.1939247990448495,0.07050660708270365,0.09183399982556574,-0.28691473188931854,0.42871551710847616,1
org.apache.tools.ant.DirectoryScanner,0.32060649733225677,0.040271796373149246,0.2080316730216965,0.10134217579771937,0.11186743447213258,-0.06501953897917143,-0.0893702682707714,-0.09005305402790723,-0.00646348992535034,0.3415735447623006,-0.11383268014056612,-0.3482124128151474,0.02407752123347139,0.16740732563493607,-0.08463368553755762,-0.027116034625306627,-0.09837067101911905,-0.006574339887639134,0.20636906143778214,-0.12541034022100592,-0.17422197748638787,0.025822486286308483,0.004099136157153223,-0.2867112919538637,-0.15989927355117448,-0.3796935817758131,0.040667592371904725,0.29225547905636323,-0.10278380941582313,0.22192295256681763,0.08272665310802149,0.1305386390874546,1
org.apache.tools.ant.DynamicAttribute,0.12558233953620299,-0.2428387868173817,-0.12025225349072396,0.05484839178933331,-0.3159691121309075,0.4116842623550096,-0.3002327927160796,-0.02816107235779786,0.08913846899265133,-0.14994451673267337,0.004038296005102094,0.10810352682582382,-0.021226195465963344,0.29339564318726996,-0.06228219277014623,-0.04627896600860731,0.022331475577561783,-0.014045847647867971,-0.17289424050438093,-0.24657744711443785,0.22857730028090453,-0.22805569840165033,0.025381834565954744,-0.17588798710862916,-0.19382346238224007,0.11648029517172995,-0.15209994483850353,-0.046663077529839184,-0.0601776822070029,0.20194268867836465,0.23882169338829212,0.0879801778512306,0
org.apache.tools.ant.DynamicAttributeNS,0.08718682484958856,-0.3621109448935254,-0.12575195734283975,0.0263809615329449,-0.2552618979210407,0.2780977371287189,-0.11132043643514182,-0.061096499858863076,0.14566397399239248,-0.13781770792709874,0.09095326248773483,0.04969007282255254,-0.19993970127965355,0.4015138643066695,0.06816148442280394,-0.03460687659152387,0.10798181997589198,-0.013008950079545875,-0.20580219170437708,-0.19126577324877467,0.26058024351933784,-0.10526116278301313,0.02557220991353327,-0.15071132294570846,-0.34367784424993525,0.03985548317905998,-0.17229925634115217,-0.0008874232271470685,-0.07883351146603465,0.07178281832625609,0.26200483501384075,0.07506907230105146,0
org.apache.tools.ant.DynamicConfigurator,0.2649262808508005,0.07386450026502572,0.0822831991786672,0.29972264861576564,-0.2545119960029605,0.20572256391950902,0.04093272550171712,-0.09187804811860462,-0.14394892420300062,-0.013215473946870157,-0.09444942059264347,0.11255932038861911,0.11393329373147551,0.017760710098510112,-0.16811827735758464,0.009564862035685703,-0.0693871432819286,-0.02490268243088446,-0.23933918196934822,-0.15159325526237505,0.009928251582912556,-0.1031642671109022,0.22685137438771122,-0.2586358317863648,-0.398710360038426,0.16627871111132395,-0.06967994054535782,-0.32152894502567936,-0.11610640420978449,-0.12388999963718071,-0.29650286665004166,0.0029918786593581097,0
org.apache.tools.ant.DynamicConfiguratorNS,0.1472060971528463,0.03272142979950963,-0.04352142527412791,0.12203371778599327,-0.30146198445264755,0.36058093833608895,0.06030375502976091,-0.05299393746252118,0.028992127665537378,-0.23227221206383464,0.06139753398989807,0.11105508845065616,0.16147987400966837,0.14338338655211602,-0.30097941817451235,0.043402871420833315,0.005676786706687549,-0.020057765986465092,-0.1623988044143677,-0.32891973550764186,-0.0009606870159689667,-0.09435209208472961,-0.43764856790076523,-0.043710947665513374,-0.12931049119719312,0.07389240806403838,0.19531358640204374,0.03546932784626213,0.15980337611691126,-0.0002516625359809235,0.3099143056184868,0.051113889616592266,0
org.apache.tools.ant.DynamicElement,0.06737680828587643,-0.2520318177168602,-0.08221353523547645,0.04678599251590124,-0.18104611765781087,0.20874600931216525,-0.00742757143421037,-0.06616458864556884,0.10650066492587382,-0.17682605265098572,0.15660636610463766,0.0028358600215261497,-0.26761298064816774,0.40484390938984466,0.06301377672170223,-0.042752157216929564,0.1508701418680896,0.003901332658713702,-0.2763272760130162,-0.09809060207919121,0.08717591979921095,-0.13831241672094582,-0.21034176657975925,-0.09903203358709092,-0.2708185275528714,-0.09831760646131864,-0.34981826856146137,-0.10518355371327613,-0.25492116154459704,0.22400088769011586,-0.078759807118022,0.08002092535719556,0
org.apache.tools.ant.DynamicElementNS,0.10188396811146368,-0.33122299866919,-0.12083572230486732,0.050944135534270234,-0.2763089149534719,0.3001941282198199,-0.06452421149084803,-0.05843321245947576,0.12008214634051027,-0.16721011815263498,0.09343440025608137,0.06253036607903918,-0.17864031274970157,0.4067031556258968,-0.015271160340245199,-0.01956833989494006,0.11079001040697316,-0.01335295111999046,-0.2059385661672506,-0.23274176293015128,0.22582864847551068,-0.059086147844065455,-0.0467616146409571,-0.13412244809407556,-0.34589173796953887,0.025527131484739007,-0.04321879756385488,0.016059624665875665,-0.02322606264318551,0.056862278146320756,0.33318191300821137,0.12173616478613897,0
org.apache.tools.ant.Executor,0.18078428067480712,-0.5389795165966076,-0.1670560157367139,-0.014491088868281696,-0.23147811574438956,0.2252134934090829,0.03316978539265921,-0.03263715087454006,0.18239859522941634,-0.049156851194896316,0.24925826166492046,-0.11571638148873267,-0.31957665936958424,0.1988181493111563,0.38128996275343086,-0.1297061432048283,-0.18146476930107552,-0.01146249076090985,-0.001020684532603889,0.008884073710700815,0.11135875214205378,0.04512815840355324,0.09233941725733733,0.051211427501648234,-0.046595493374593566,-0.05486644187535037,-0.06667284378292003,-0.14716376563174846,0.039080575513789476,-0.059816206010799934,-0.13860286946818773,0.11329293827696399,0
org.apache.tools.ant.ExitException,0.10565582309985515,-0.07700172013629557,-0.12756980093755374,-0.12913699992347852,0.05014276479357282,-0.1267842288473056,0.0935926476894801,0.09607887437111133,-0.17742794938043674,0.15071215610235564,-0.08078971025861233,0.20940839826898458,-0.283451459572061,-0.18096587954405002,-0.1865876067378035,-0.065524872789345,0.002698901182415363,0.0057344187702260355,-0.05384409258162922,0.27177269632472134,0.0535217299698888,-0.20326840517816458,-0.04693177836756592,-0.0626852472096677,-0.059394765073758224,0.30506688973266494,-0.17246673478711197,0.11400497185107249,-0.033983852336172814,0.44615622409793404,0.4092429588431976,-0.14987477019790305,0
org.apache.tools.ant.ExitStatusException,0.23729074048110382,-0.4406873707872611,-0.2634836280106059,-0.056630539557423996,-0.2621407337497768,0.1339720445215126,0.172152407819719,-0.1420184300949711,0.002462956696451582,-0.0764694640046125,-0.26375071882892903,-0.046989385029866756,-0.22821592085480377,-0.014794915088316525,0.15647075436458324,-0.062042835957706176,0.05076424706238712,-0.0020378907115967413,-0.1286641958613149,0.06902166982272341,0.2387675931401146,-0.024575561762054828,0.39238741679493844,0.025267913706141565,0.10089915913587129,0.04194160447815121,-0.05530868616220349,0.012625185695134334,-0.27523375170464764,-0.1923759986825408,0.03611738104424647,-0.1295397856712651,0
org.apache.tools.ant.FileScanner,0.21599548462358878,-0.12746134668599096,0.2764865061118209,0.1119665102214695,0.33683652167433265,0.029188197515475515,-0.09038698992447217,-0.12190038292122947,-0.014116580622997078,0.18924695867089295,-0.06059447655532432,-0.515289426299264,0.08350788785057597,0.09879116812279658,-0.3001526599056977,-0.13860613701400612,-0.09859498738894767,0.006298021507086385,0.3071716724973525,-0.005706015152645523,0.20644923495609893,-0.16043775440097927,-0.08801643132472406,0.1006967232423574,0.038888369249346535,-0.24845965882589233,0.0552238435564193,0.08259043971560741,-0.016864516832615466,0.10878744633483656,-0.02814405048547578,-0.05577065469412421,0
org.apache.tools.ant.IntrospectionHelper,0.17200411105775976,-0.06922698790785563,-0.04704933208447234,0.0830010755720274,-0.3772813529217086,0.4808284469205632,-0.34976147991981055,0.00521121099940178,0.007716197092352127,-0.19599903041203381,-0.10249057128259287,0.145867312301318,0.20162781486984688,0.02366479504863398,-0.29677246104233446,-0.002526508122536638,-0.05437062102524418,0.0034120843105482686,-0.03598834160505954,-0.23325754484129865,0.13761234600972724,-0.2709590815130262,-0.08333890464930592,-0.15657739306040505,-0.1216364422904299,0.1590241093512948,-0.15241769515702921,0.02021862995286319,-0.019919903880798562,0.09592921125169408,0.060886400819769156,-0.03938032785570743,1
org.apache.tools.ant.Location,0.6100700428897112,0.38866626607962873,-0.16946999146054453,-0.10208277706637187,0.11141248630766912,0.08727351441797127,-0.3222697727416215,-0.057539828836718224,0.18967405418275154,-0.20730630047353724,0.004726192689954597,-0.1699557312464452,0.04978374407909412,0.13363575584358295,0.15299215511332634,0.014448185389838043,-0.1390636071245518,0.007087767264984421,-0.20268431395858755,0.1868206359772235,-0.06681553706214297,-0.01706998168673144,0.0900045735946994,-0.01607895983602858,0.006940010277302274,-0.016605616707785688,0.15372409240462276,-0.004831592020544516,-0.007225812753945095,0.12079033021702389,-0.003820415033312727,-0.1071448173440287,0
org.apache.tools.ant.Main,0.1390812478732232,-0.12769599361176376,-0.08032410275145331,0.04481757802827119,-0.21777832848611486,0.2951478989039384,-0.1920263901466894,0.08176285146327318,-0.05363176361181191,-0.062414942000702925,0.17601290897018027,0.09666828919489412,0.010782739623221535,-0.06985577359905629,-0.174309199858437,0.020667950414634314,0.11306655055205482,0.012363477390389054,0.2665981440005339,0.2680552650391186,-0.01397200756444229,0.44201748522923706,0.12084099235857776,0.019679040168730965,-0.05124763947276107,-0.2456550276840507,0.15614574976612558,-0.043997520475914764,-0.1630861303453405,-0.2700981635434056,0.04099794770632048,0.3713971254112061,1
org.apache.tools.ant.NoBannerLogger,0.06354146170090434,-0.0858944519315511,-0.056652530704556336,0.01987558937474736,-0.17242271538403858,0.2535543135485768,-0.23266973477504002,0.032705303976730604,0.009481230009530422,0.015895631170748242,0.07875139099588076,0.10705289579828867,-0.005771341175850248,-0.0934499099667962,-0.1664469323338148,0.0614803623837281,0.21234541448200706,0.019992263942842883,0.47067880543627266,0.34897341234380425,-0.0308353276933827,0.4526930844901655,0.21875422399873337,0.12218449378036798,0.11471673313062322,-0.2101204526817691,-0.15285474397997595,-0.0522136549349539,-0.053942312377375665,0.03811851141051267,0.018256743112053695,-0.17868280625448513,1
org.apache.tools.ant.PathTokenizer,0.19282647878790884,-0.3786992032546571,-0.11884999310162286,-0.011722479712281379,0.04935272667872239,-0.14048799082882962,0.16414241162793825,0.0307542761068864,-0.13710662142621702,-0.00694341335930784,-0.0369480441045126,-0.0382184814895202,0.12676720131649438,-0.2241828674887274,-0.02235582989913605,0.19350723833239047,0.12890484726887028,0.01897351167792997,0.0064748441171837146,0.29491151078548605,-0.06723141480374671,-0.2862047828807882,-0.10564448543011536,-0.30340046120063474,0.04418183505437435,0.1541410825870239,0.37014547353693844,-0.0306903598260511,0.0208809356217999,0.014864551763570795,0.16437782995189487,0.379685273309149,0
org.apache.tools.ant.Project,0.6493211266742698,0.4518634803244078,0.0026232907520891313,0.005434172504682213,-0.13814206358417275,0.16627381931920998,-0.013839766399429389,0.07572444777308067,0.03296827498482592,0.037430999032076036,0.1236511614433831,-0.0642790643698426,-0.011569189594530542,-0.15685286679007218,0.06551688467228785,-0.14579009814468774,-0.17168796430040756,-0.007387715618706855,0.00233314712925342,-0.13374068062628813,-0.03273580796046938,0.17633008534601324,0.05392767090587902,0.029094260580363154,0.03834938189329704,-0.07977204895275398,0.0615092895063053,-0.020490926372760614,-0.09732263011540628,0.0976896663654181,0.01635330990895765,0.36695226422385124,1
org.apache.tools.ant.ProjectComponent,0.24611136897782696,0.0537616520447468,-0.023989657779234154,0.19366815658413022,-0.168511799961487,0.12651765630223244,0.5130983144953514,-0.054245778108190215,-0.1604136144804363,-0.1892955644489235,0.013961775989019905,0.05827733823285395,0.06106495196049794,0.15443652624060678,-0.3192562486168663,0.002810503015836701,-0.07601821127057558,0.008793918288203324,0.05509683903404653,-0.13176951866643322,-0.12065979907650544,0.1803660800636147,-0.09408257261508123,0.16992599583487047,0.0463818322825574,-0.16132379436093822,0.23293020446466683,0.1610149774080674,0.3538713240479851,-0.11719038828547564,0.14557261910838593,-0.11658116131040337,0
org.apache.tools.ant.ProjectHelper,0.17263696723062263,-0.017844998227346635,-0.07633338461438335,0.10900417093399532,-0.35788798816164086,0.45997025119093266,-0.3320802105117798,0.03331367319733059,-0.0579052823751405,-0.12621266713921556,-0.16717849938427495,0.2036209890214001,0.21067730557159015,0.051645733402904764,-0.2680748275372196,-0.06364118610071208,-0.16736115350134298,0.0006865171598484108,-0.004054733776603681,-0.20654137899010633,0.10410658179812476,-0.23827854996318062,-0.1100189790454398,-0.03624463224987937,0.0233391464204132,0.1357005055991951,0.18501330845277902,0.022196622328947008,0.03761908357309535,0.26760681463503816,0.024761424412950754,0.10209845248165368,1
org.apache.tools.ant.PropertyHelper,0.22500942643574096,-0.4619335723603318,-0.19269586822081794,0.02234246451859281,-0.31005863671219813,0.36329712042185225,-0.20942104301610323,0.06605193907550404,0.023632924181285563,-0.13161787081725554,0.25247107605042524,0.04828529611786136,-0.16847997595859057,0.09544753173183342,-0.07345212649682328,-0.14239272616491225,-0.19413304115378252,0.00900130751557884,-0.052966645978962126,-0.17179571601388338,0.1983914832166174,0.06798143349052199,0.11384147598611553,-0.07120721660164306,-0.20762339202726757,-0.022059996952772904,-0.01098486487691013,-0.12231446626731218,-0.19320835875560688,-0.16107421536134692,-0.14223295759064025,-0.024807905103482387,1
org.apache.tools.ant.RuntimeConfigurable,0.13539258154370185,-0.08390999393963201,-0.09208422971615542,0.06667486617769625,-0.34447279456818936,0.47327128270902735,-0.4477832589482475,0.051143900791338924,-0.030185184930015953,-0.14040047217794727,-0.09917758906808534,0.16847853887912131,0.23082995993566316,0.023608112336782085,-0.3361148720215611,-0.04323932321485815,-0.10275062442558812,-0.005092648649209974,0.07476323225147567,-0.21007124118798612,0.12120705334093151,-0.18295803939125868,0.015390433802983211,-0.14484097781824515,-0.08063653315563703,0.1028936249102605,-0.07519450979689828,0.01893256654246293,-0.049524773678163936,0.16876584410410253,0.06509829306051601,0.02108986802293512,1
org.apache.tools.ant.SubBuildListener,0.08820413172902375,-0.13108448822579014,-0.049492002185054354,0.013753645258008006,-0.13017508647479173,0.18893254845017035,-0.11919795514151475,0.09277637874922837,-0.10066149096510144,0.10336873116355497,0.03933965970916725,0.08820024023669984,-0.10776526784110539,-0.12716074248049594,0.025215702802933525,0.011809329186103428,0.06538004018593117,0.0047054919763743356,0.3120307999300557,0.5653585502736684,-0.10494232081102155,0.23546838348622748,0.25579166590981456,0.06479328312827222,0.3071776340356179,-0.21707267939269173,-0.10280378208921548,0.029309970828226346,-0.030960044503636666,0.059615332497703004,-0.34833963522248224,0.04585875665385224,0
org.apache.tools.ant.Target,0.18872344791440138,-0.02070406826744396,-0.054494031605562356,0.08456169301259406,-0.33715623698970526,0.4568777248463636,-0.44860643397408856,0.047169969922268754,-0.07870544586722972,0.019671591411594375,-0.16941397053999455,0.13043489368840938,0.14516697805946283,-0.006122050175078568,-0.20184044183926778,-0.0031668449462008245,-0.04841437412957508,-0.010075345621300176,0.24382901226660664,0.0555621649871365,-0.021907254419013117,0.1164021180661684,0.18036392265014403,-0.049230015028453124,0.31241393744469376,-0.10604397187786428,-0.12472109706550151,-0.09650325884641507,-0.012014386964401231,0.23201179750959217,-0.10408435041111008,-0.03607051605531631,1
org.apache.tools.ant.Task,0.4895004691632021,0.3074874972078345,-0.0837357164239643,0.1025092534013606,-0.10010137687428931,0.2037631508723793,-0.19556849324547165,0.07367390909282574,-0.16615110451013254,0.2928546580849198,-0.16204275175513155,0.0012217418075804465,-0.14398440630995038,-0.021945919917589922,0.25175756486940404,0.12294802491612221,0.157918068582554,-0.010194846297055502,-0.17376693632026277,-0.13568874882063328,-0.06051479488193871,-0.05774856580065522,-0.11330773704328947,0.004549685235611189,0.31936642708272794,0.07705827728544773,-0.11912823282957773,-0.08006238306301255,0.2572325428683082,-0.1526340082873406,0.035087615160205705,0.032089330034823754,0
org.apache.tools.ant.TaskAdapter,0.2074495023953751,-0.5221852567188905,-0.2319375875366267,0.014123083247645407,-0.39507645660803387,0.37125284743602754,-0.24725687271792735,-0.056180365753981526,0.04575552100650558,-0.17238928037466816,-0.12403908464211826,0.003051330880879959,0.1482208765915306,-0.00821002908847783,-0.04708494723548268,-0.0939991789521934,-0.09785533723142566,-0.009228800236603016,-0.03240522137348869,-0.21344490797011476,0.13373221969425275,-0.14900497885791963,0.07151724624705383,0.02144912103948116,-0.22845462725667876,0.018794137529276198,-0.038420165603951915,0.08440251127971654,-0.04773589970678438,-0.1126567339683748,0.03643247204266302,-0.11143035250696937,0
org.apache.tools.ant.TaskContainer,0.16560162088890448,-0.02031208334519043,-0.10543307866024415,0.07213083815834767,-0.3509377240453607,0.4946671675153531,-0.47129395214957576,0.026072011973141376,-0.028868676435446328,-0.10155347294099597,-0.13296879776351705,0.1542775140603689,0.2526597818834698,0.012140894345162703,-0.2528036017432433,-0.008740406670049529,-0.03458922644315812,-0.008826907535461106,0.020275955618488908,-0.18221826060123084,0.0878073686303068,-0.22601316610011438,-0.05587582836353542,-0.1140872338177925,0.0006233903921822865,0.1365868005717268,-0.09209449669359072,0.023028084129484077,0.08237438371929433,0.0676618648173367,0.1877580643480838,-0.022156211986758306,0
org.apache.tools.ant.TypeAdapter,0.13172503398043428,-0.10892294839254106,-0.09164026662675231,0.06446897793948493,-0.33816208303039647,0.4612690587369548,-0.40281271384242234,0.053776644990518936,-0.02759485619779056,-0.16851959359023388,-0.053657637815940046,0.15763002762109937,0.1949563597875621,0.0599272852134311,-0.3665248496532686,-0.0736233535094634,-0.1619554426205454,0.012089875921308979,0.04625724144652831,-0.261372120168174,0.13904057054903465,-0.19820140660509927,-0.058754598218855446,-0.15989253936543565,-0.10944437239745766,0.09231894600522046,-0.06089741890617826,0.02667623185182113,-0.035854721935918876,0.05317325143202794,-0.04355778249826564,-0.11097154237292779,0
org.apache.tools.ant.UnknownElement,0.14875096391201945,-0.07314481125299764,-0.09820679357806363,0.07945502633994263,-0.3683232885122467,0.48915412191272645,-0.43120809766241575,0.03949402315642395,-0.04196151510892854,-0.13699908332110353,-0.1329937701713883,0.17738778667828126,0.23020596304600027,0.05695262737576965,-0.3264043038452083,-0.03979729901582665,-0.09515072047951342,-0.006917689217048875,0.038936332478737845,-0.21481132049597282,0.07334418568979419,-0.17635887056688934,-0.042478032190954924,-0.09623381519414057,0.06497160221040249,0.062175704757254764,-0.0915989413347329,0.0288538972917196,-0.02222257083670311,0.18930097607598576,0.03256532187700086,-0.03283582904927486,1
org.apache.tools.ant.UnsupportedAttributeException,0.1367578156028989,-0.24224080160871983,-0.09088373303581838,0.09121532420856139,-0.34930967450987577,0.37195129869710897,-0.2631692106124904,0.11210734979212121,0.12291776353990205,-0.12035442664875057,-0.06803524923483012,0.09478706600188293,0.048630136440879275,0.32435127804905833,-0.16481423807379963,-0.02443307395921542,0.02535171017532082,-0.0053735221030796615,-0.10856115592821769,-0.25151733246561525,0.19567953773978156,-0.16505912271022086,0.10114189588368475,-0.1971479563748466,-0.29263253320428356,0.20362018314630692,-0.17490479789378716,-0.07017161874583933,-0.07933565602880405,0.1108579759414587,0.11671456331710521,0.011919639453038589,0
org.apache.tools.ant.UnsupportedElementException,0.09796079823764758,-0.2660898857564888,-0.1204013931842325,0.04883638539998785,-0.33407737873882454,0.4078746357650668,-0.2836881676593934,-0.026344386581916162,0.07583048567395936,-0.1820737889886983,-0.007080434763198941,0.12381701755140237,0.01644477141323169,0.27781870443553963,-0.18762895429573584,-0.05285078837786762,0.01365119593885265,-0.00205119840752826,-0.05466684130631565,-0.24285654431709242,0.2548263788638689,-0.15414808505468175,0.04487447081745869,-0.18251864759988257,-0.2931607899694034,0.06822098608776647,-0.178267718260213,0.01501053560106041,-0.03677267685855839,0.049397183670801745,0.2448598393078345,-0.036174933557152546,0
org.apache.tools.ant.XmlLogger,0.12628047798910674,-0.310328852265946,-0.14746286418438523,0.006827090725554224,-0.2832100538584658,0.31981189259720677,-0.2907462732751931,0.0009378242373012132,0.032398281051041276,-0.05892801464554117,0.0199056868363856,0.05944066004487682,0.05442845987345534,-0.08485978055946573,-0.13065843319879078,0.024410894913339736,0.16023194141922553,0.011629853396108109,0.3892120204372742,0.24929795473729535,0.030686235620706326,0.35868325464190376,0.2424609873225957,0.10956338788839852,-0.050629791726785674,-0.1878537134309884,-0.15503045070269178,-0.03588985837198211,-0.07270008065013601,-0.1321398700605083,0.05990607503989178,-0.1825131559712116,1
org.apache.tools.ant.dispatch.DispatchTask,0.1714016169731948,-0.20613754414874375,-0.14125594534667593,-0.0321399683296775,-0.06752635317389127,0.06308348714300113,-0.2082090835832553,-0.03099350463593246,0.00985864930995382,-0.0075631807405795405,-0.002732258524751696,-0.1293641853174336,0.016361851199870492,-0.08507210689663917,-0.07551456512320795,-0.017078566092427274,0.15329638749413496,-0.019590924335709116,0.25121231249235615,0.15278028230381935,-0.11160894669192938,-0.113354790262679,-0.020683632755514172,-0.08977512615925008,-0.4435695770146918,-0.1551139694288959,-0.24026775399749573,0.22192422602311956,0.021075123429991002,-0.49132185991946975,0.33184313996233383,0.003850131854273553,0
org.apache.tools.ant.dispatch.DispatchUtils,0.2081243721209404,-0.2408207208166599,-0.17530295170145377,0.012633307479027382,-0.2615649325530809,0.32540917557143206,-0.345272744782013,-0.038370204788912426,0.0597524614888785,-0.11640389795147121,-0.002581391407038828,-0.024034947450636175,0.036173672651813725,0.11599001542807229,-0.137315286071898,-0.04660681110293744,0.06385558835622601,-0.01077573668221794,0.09863293354480313,-0.07314171782124636,0.06937530354823034,-0.1605096071273583,-0.006298747292042408,-0.15656920239843392,-0.3806015772442076,-0.058138664739361155,-0.22871977456145312,0.1319265575171914,0.04204480254881552,-0.3022909124538958,0.3629951587699131,-0.04518637700847775,0
org.apache.tools.ant.dispatch.Dispatchable,0.1470390453296262,-0.012549912250060614,-0.08411557052609649,0.04740670454539353,-0.20177230622432146,0.2483437146686504,-0.2664272598727876,-0.02019062620931865,-0.06484638447529827,0.15009858781469385,-0.2712169044461273,-0.07652438237492812,0.08822484767132359,-0.14282354899930516,0.11331925034247602,0.09299907703461585,0.12290062772960193,-0.039459092970633665,-0.147684848611318,-0.4255317663844757,-0.014859289863415847,-0.18242358247805904,-0.2132373568403652,0.06593458908924696,0.4693224018270609,0.02572711612005632,-0.11598386148897674,-0.05690309991516875,0.29024125105395654,-0.06268417734250945,0.10096304336375984,-0.021331930854329023,0
org.apache.tools.ant.filters.BaseFilterReader,0.13035941789476962,-0.19663536480927946,0.0216962891529773,0.08035843627040146,-0.1348196973971783,-0.015622381854208577,0.1620446351481785,0.7609313636644681,0.4315253095233452,-0.09984540161763414,-0.019822173161330125,-0.14890528177787685,0.0442105815916368,-0.08928772669680145,-0.045098190345688655,0.12751964511255948,0.05563130864008159,0.0015369996235475101,0.06333036150600972,0.03854921048275071,-0.05987521711978954,0.06873813269550383,-0.08856539724042195,0.022843822686395128,0.03195721979628599,0.017578689866679684,0.15591954545628484,-0.019282889469050445,0.06684549321187554,-0.006343644118059012,-0.0666942913981367,0.08066680417151104,0
org.apache.tools.ant.filters.BaseParamFilterReader,0.0462583401771054,0.0014676468374810211,0.09120253531496406,-0.017055271799725113,-0.1391938687793948,-0.06780223538973477,0.15722575622162654,0.7532002461184523,0.42988220113128883,-0.05155185328168606,-0.15098471286294582,-0.13907939243068798,0.12438292699652713,0.03284417604613523,-0.021336538955066157,-0.2685439783153225,0.2038695338066785,-0.0005355095752807782,-0.004262786948588119,0.013773496275469971,0.02497800327742223,-0.055020524698393254,0.03967264827807793,-0.009146323536490808,0.05056762836971128,0.003790627256136762,-0.024087388016565944,0.049232335420932784,-0.03741370774035221,0.0025783936013610586,0.020943202492531357,0.00544557790978873,0
org.apache.tools.ant.filters.ChainableReader,0.06409342128075918,0.0030017701887620016,0.07913823085039895,0.015721522156504703,-0.14838799689419296,-0.09546500941288068,0.15633419503460388,0.752410660401196,0.42066493950219036,-0.03677832734534202,-0.13842370088901,-0.15176016418053634,0.12592170520043883,0.028245546055322954,-0.038977426538958984,-0.28615033449580035,0.19621207901576115,-0.0027608991120832366,0.009207922174316225,0.004640779493069248,-0.014118917058022021,-0.043728687818289,0.027407416755796554,-0.002451107975012191,0.04292195021996768,-0.00553639705586848,-0.03286543450777447,0.017879734656830508,-0.021266103120377768,0.027471493419554772,0.030486815503788317,-0.015100282448302539,0
org.apache.tools.ant.filters.ClassConstants,0.04577691134202512,-0.147956386586979,-0.014458099613912182,0.0352014136184938,-0.030598399631182754,0.04587548392352038,0.10249986209359761,0.31302584148468243,0.20982400707980817,-0.05896770656066358,0.0806957539595961,-0.04898912187205167,-0.1833875222626175,0.015356051240204498,0.08616997901929141,0.7510060441612879,-0.3790875609887658,-0.001310346657906906,0.022589608422151835,-0.09585658201538383,0.1479674651656055,-0.01090182133006194,0.05394669895515944,-0.04809178986893585,-0.06052800303742873,-0.04694040758714005,-0.09053932629131876,-0.012286739316720034,-0.03591679516987143,0.032989982261939915,0.04333246566413637,-0.04690646318194642,0
org.apache.tools.ant.filters.ConcatFilter,0.04979928486506596,-0.1427064216131655,0.02667020476076763,-0.019648984616999623,0.03254402582090955,0.13302107824085,0.08709847868902852,0.3106390176118377,0.16797608575911244,-0.05061014754620013,0.02607855997610368,-0.02777935914164682,-0.1305395355944722,-0.07376497022386176,0.07103688782879751,0.7202887117575942,-0.46813638315421,-0.001988595686620035,0.11976245676238871,-0.010564349884711723,0.12727181836259754,-0.030281365137486613,0.03075428986926283,-0.025280846574233715,-0.011897692963149083,-0.05748975028518947,-0.0732517890638843,0.032442316507632185,0.03485656862763785,-0.0017388899317055762,-0.1001572928976032,-0.03497526875652796,0
org.apache.tools.ant.filters.EscapeUnicode,0.01788366192978258,-0.042000802378195326,0.02246414946016599,0.02097256159443093,0.01624181037792244,0.02777483241184309,0.08278444591034063,0.305395917052586,0.15411751785218317,-0.051467074934122524,0.037251510553573425,-0.03082881201285164,-0.10283947703348587,-0.0894255441534741,0.013251624879096424,0.7873742826960848,-0.43070308436682303,-0.0021679108491337944,0.08005001787665517,-0.07234675487967704,0.11373696030757806,-0.027935894893144204,0.03504717633653788,-0.04314828558156117,-0.022161197307431914,-0.044127401170699625,-0.08976700947332363,0.017066431677759526,-0.013001076159349433,0.03203493406432562,0.0006497773568971187,-0.04928116428342295,0
org.apache.tools.ant.filters.ExpandProperties,0.06182703568207434,-0.16001344535333978,-0.007715798828026254,0.031535689925040127,-0.028926344991802033,0.06542014676006946,0.07597979806794057,0.34070362807702825,0.16898214997017905,-0.049022855017393625,0.06470526437667877,-0.0567568629731276,-0.1388568864302604,-0.08074874561122432,0.04469387255987083,0.697496298106418,-0.4829119778547804,0.0015007725172659842,0.13134084480240452,-0.04540491001506697,0.07738461564128364,-0.038226288328784226,0.028684579802839838,-0.014981879889624216,0.014002542783807248,-0.051036591694052544,-0.062493456105252754,-0.016774247055937695,-0.002571007992677165,0.03405746687209721,-0.12955287537122812,-0.06269683431372033,0
org.apache.tools.ant.filters.FixCrLfFilter,0.1413871359818547,-0.19493079310127573,0.005883239299939939,0.012834414528284084,-0.025773857887333187,0.016327422473737183,0.12404195902415255,0.2648707340988005,0.2552784059683317,-0.06648046051991803,-0.05538766809911652,-0.20385875667329084,-0.11473277603658506,-0.07087030414271034,0.07961408926982594,0.7151942879414875,-0.15734952743221495,-0.009521596729015508,0.086007590807363,-0.06512947891122475,0.08247251671556519,-0.010520011004253588,0.01114707369432144,-0.1364870461572938,-0.2101502139232184,-0.13315448480308104,-0.20762863988608504,0.050241595378898,-0.004605029087842577,0.09170265466584963,0.13465143768602097,0.09410321374051861,0
org.apache.tools.ant.filters.HeadFilter,0.024311800997243536,-0.049741465493762564,0.04535616843742992,0.014919381378148897,0.05263353916057315,0.07300497538512547,0.10804638655150016,0.30796793857304217,0.15774379236082625,-0.06351787534081517,0.02322766045032796,-0.005232584565846645,-0.1031598594368017,-0.07218396519744033,0.015857287762404085,0.7824660826022536,-0.42701557491297404,0.0007121731993971961,0.08690804395111974,-0.06608209578573412,0.11274694465844806,-0.012425034591983908,0.00981415159099371,-0.0017420619583141915,-0.013446974632063827,-0.06041870040381466,-0.07021004923198457,0.052914687454369266,0.019431389718195996,0.02172794180290536,0.011450099693085308,-0.04924753929522453,0
org.apache.tools.ant.filters.LineContains,0.04261979015406805,-0.11999993764659031,0.02686249258871675,-0.0016820678963122395,0.03265006111626463,0.1011540733854907,0.0871949200264026,0.31765210779591485,0.16220829678131266,-0.05176649696515983,0.036279773765422865,-0.0261598491434036,-0.12342213266379697,-0.08412876754317115,0.04761342128870982,0.7407080000511679,-0.46342218005235936,-0.0019104967307062512,0.1059807856310195,-0.033325519016020204,0.11740485160856401,-0.030451737572687574,0.03506835990805883,-0.030746696002911855,-0.009868366663436547,-0.046114873755393325,-0.07588168171140779,0.019820721234565013,0.013003378219507257,0.008423803683711645,-0.06844116779796103,-0.0417792345552171,0
org.apache.tools.ant.filters.LineContainsRegExp,0.04599886799917656,-0.1189209420161039,0.031759614304607026,0.0007462394926575231,0.0341537718011911,0.11503798772556237,0.10064427268273236,0.3176709252846021,0.16771575851378073,-0.060665417561720336,0.06399107649370481,-0.024186285691983663,-0.1399543431094141,-0.06079448312686102,0.060456894580466235,0.7213366115820931,-0.46362946035015024,0.0010702198622771829,0.09859179163238524,-0.06905981588786597,0.10749761886785844,0.01919089154380708,0.010061555209115445,-0.009062937159463042,0.006770833890743177,-0.06843677887057019,-0.15076355973999064,-0.010972713326901992,-0.0018182897672371298,0.049144120150931205,-0.03981754738404401,0.020028666856095518,0
org.apache.tools.ant.filters.PrefixLines,0.020881002579010845,-0.04812245708666122,0.04524673633456244,0.0012011761641834875,0.05746967654231729,0.0752254135575553,0.09524808274186997,0.317390735526377,0.15971725527407135,-0.04980477039160207,0.017413858283597095,-0.012733705804837762,-0.10265459459633437,-0.08172609502009957,0.026021718128989554,0.7816811554011226,-0.42315295307108913,-0.002070532879681967,0.0720847114041657,-0.05224784340686979,0.12986154072996203,-0.024337917271416543,0.0329995217027744,-0.045204959401673454,-0.026383137367121348,-0.04062560013404784,-0.0785399156859514,0.03422867715256166,-0.0023035109822630555,0.01569123312367577,0.00038996853433091293,-0.039214145935151434,0
org.apache.tools.ant.filters.ReplaceTokens,0.051709238504575906,-0.16069482857840753,0.017941545111402217,0.018873851106544715,0.04498896824696801,0.08399830106293357,0.08375067079576291,0.293169025886882,0.1951619743804172,-0.0812521190201233,0.051146385900072325,-0.041556984584247246,-0.12812558197491422,-0.07080763142828227,0.04500809450113056,0.8164880173628413,-0.2979530027340952,0.001933836050381883,0.011572552962194001,-0.03568966543584372,0.13150774893679018,0.01748278377946604,0.004221826493335369,-0.08688552057907348,-0.09150197923277249,0.0019502051587285969,0.021977136224252364,0.017123936375993108,-0.009532208563085795,-0.02755005035349447,0.04630135402454172,0.04627430970973696,1
org.apache.tools.ant.filters.StringInputStream,0.041716442392130945,-0.04162684791892445,-0.05264426535842907,-0.03519233003554344,0.00043763076022678576,-0.08612622337660256,0.08468969933914873,0.06138300178230056,0.020389687000424945,0.06394052318460658,-0.18532760576970825,0.12829547991026616,-0.17099411333426925,-0.10971843079682958,-0.36591679374143476,0.010647452437315868,0.013086489094283033,-0.034605917279245356,0.051251138674039985,-0.08755003895260112,-0.2047951356250585,0.18122708352452693,-0.3881009021401927,0.17579008924718212,0.1492794773205509,0.04527928427884294,-0.16688025725620567,-0.19681547740399158,0.26802364286453134,0.053958060525258894,0.5505662928268916,0.08247738373756287,0
org.apache.tools.ant.filters.StripJavaComments,0.027212674151881364,-0.0440967437523376,0.02122117887797015,0.03834240112929744,0.009308469649783562,0.021296737359567844,0.08991094754403003,0.3458328584087564,0.16735340307013036,-0.046347183551515396,0.035583630731415045,-0.03654063845110882,-0.10684643158055065,-0.07788390243172938,0.009055431357707703,0.7740064445476706,-0.423599007242656,0.0013903955714170508,0.07777036295106646,-0.07829343145912969,0.09743191506115678,-0.028953767725233198,0.025463890650871908,-0.038672412344245746,-0.012284582928278899,-0.04278375115286134,-0.067423295086021,0.00527352509739567,-0.02885899942335748,0.04783919714382659,-0.019040512750663735,-0.060272725050751,0
org.apache.tools.ant.filters.StripLineBreaks,0.020881002579010845,-0.04812245708666122,0.04524673633456244,0.0012011761641834875,0.05746967654231729,0.0752254135575553,0.09524808274186997,0.317390735526377,0.15971725527407135,-0.04980477039160207,0.017413858283597095,-0.012733705804837762,-0.10265459459633437,-0.08172609502009957,0.026021718128989554,0.7816811554011226,-0.42315295307108913,-0.002070532879681967,0.0720847114041657,-0.05224784340686979,0.12986154072996203,-0.024337917271416543,0.0329995217027744,-0.045204959401673454,-0.026383137367121348,-0.04062560013404784,-0.0785399156859514,0.03422867715256166,-0.0023035109822630555,0.01569123312367577,0.00038996853433091293,-0.039214145935151434,0
org.apache.tools.ant.filters.StripLineComments,0.020881002579010845,-0.04812245708666122,0.04524673633456244,0.0012011761641834875,0.05746967654231729,0.0752254135575553,0.09524808274186997,0.317390735526377,0.15971725527407135,-0.04980477039160207,0.017413858283597095,-0.012733705804837762,-0.10265459459633437,-0.08172609502009957,0.026021718128989554,0.7816811554011226,-0.42315295307108913,-0.002070532879681967,0.0720847114041657,-0.05224784340686979,0.12986154072996203,-0.024337917271416543,0.0329995217027744,-0.045204959401673454,-0.026383137367121348,-0.04062560013404784,-0.0785399156859514,0.03422867715256166,-0.0023035109822630555,0.01569123312367577,0.00038996853433091293,-0.039214145935151434,0
org.apache.tools.ant.filters.TabsToSpaces,0.020881002579010845,-0.04812245708666122,0.04524673633456244,0.0012011761641834875,0.05746967654231729,0.0752254135575553,0.09524808274186997,0.317390735526377,0.15971725527407135,-0.04980477039160207,0.017413858283597095,-0.012733705804837762,-0.10265459459633437,-0.08172609502009957,0.026021718128989554,0.7816811554011226,-0.42315295307108913,-0.002070532879681967,0.0720847114041657,-0.05224784340686979,0.12986154072996203,-0.024337917271416543,0.0329995217027744,-0.045204959401673454,-0.026383137367121348,-0.04062560013404784,-0.0785399156859514,0.03422867715256166,-0.0023035109822630555,0.01569123312367577,0.00038996853433091293,-0.039214145935151434,0
org.apache.tools.ant.filters.TailFilter,0.024311800997243536,-0.049741465493762564,0.04535616843742992,0.014919381378148897,0.05263353916057315,0.07300497538512547,0.10804638655150016,0.30796793857304217,0.15774379236082625,-0.06351787534081517,0.02322766045032796,-0.005232584565846645,-0.1031598594368017,-0.07218396519744033,0.015857287762404085,0.7824660826022536,-0.42701557491297404,0.0007121731993971961,0.08690804395111974,-0.06608209578573412,0.11274694465844806,-0.012425034591983908,0.00981415159099371,-0.0017420619583141915,-0.013446974632063827,-0.06041870040381466,-0.07021004923198457,0.052914687454369266,0.019431389718195996,0.02172794180290536,0.011450099693085308,-0.04924753929522453,0
org.apache.tools.ant.filters.TokenFilter,0.10582130114949967,-0.13542587348422278,-0.01414448383706037,0.08702054386539503,-0.07329115703037775,0.10005628039483887,0.2116644190804098,0.2738693179132011,0.11555797628626577,-0.09321724188941519,0.21507091811796844,0.017555334701311605,-0.18065517730084713,0.1039201971162507,-0.07429094298639165,0.5514545278575004,-0.35945658478986314,0.016547661585492694,0.1026325627443246,-0.1513360797510253,-0.07085895516539135,0.2367182816269118,-0.21643246077120465,0.22624169496117386,0.056180883610641344,-0.22531602176063464,-0.029300772818022437,0.029481012755016328,0.08158760418040853,0.13156463067056337,0.036616533332690986,-0.05361566458461658,0
org.apache.tools.ant.filters.util.ChainReaderHelper,0.22006052593484146,-0.17981274327118119,0.06757083274479006,0.17922441628104765,0.01921223478052917,-0.0444611143054683,0.12436344268087864,0.5726718205808854,0.1511039746642883,0.004050938826659124,-0.021710993624259052,0.12340479594543301,-0.1017893440678143,-0.04300137231628833,0.03572185215737347,0.4836774774595709,-0.27843995943338506,0.007366747921108265,-0.023442186771605464,0.14084637326083785,0.024110679830092654,-0.08012929340348128,0.07564258702306594,-0.215900772581898,-0.0666113933596891,0.03604608851218481,0.23069838548655414,0.03563658020783249,0.10856669635729231,-0.04298999044513955,-0.13982240555935752,0.0094184928118037,1
org.apache.tools.ant.helper.AntXMLContext,0.1718082998369433,-0.30984562372521096,-0.1559678371817575,0.018721800999418663,-0.3466195811897155,0.4067220981263265,-0.4182464496949129,0.00996088801489802,0.01167462273173553,-0.12766766651591224,-0.202778044250037,0.04557010504578974,0.24940335051492674,-0.03978546613739036,-0.1855776850235916,-0.04729254211043217,-0.14552668990982245,0.0020047516524408057,0.14444840242998058,-0.12123871747603795,0.12193126230871729,-0.015832910388832083,0.17415086360011528,0.019673352386059408,0.0015075258787873784,0.014875073075689077,-0.016872204839601817,-0.04484935951902285,-0.11584271835533805,-0.005029674537982564,-0.22680366220297188,-0.24316300199850996,0
org.apache.tools.ant.helper.DefaultExecutor,0.18078429371395027,-0.5389795558489098,-0.16705602691951701,-0.014491087568402776,-0.2314781252376486,0.22521352069374612,0.03316979597613872,-0.03263714526609886,0.18239860122261373,-0.04915691920289258,0.24925823393271246,-0.11571641732845543,-0.319576669420891,0.19881804303703637,0.381290075036502,-0.1297062180891645,-0.18146474779263688,-0.011462460056116239,-0.0010210155586948477,0.008884170972352582,0.11135885019607687,0.04512799274413768,0.09233920536576637,0.05121137913747652,-0.04659597678572411,-0.054867113692351234,-0.0666726059998647,-0.14716287502063471,0.039080053183304625,-0.059815633018983745,-0.13860277462641007,0.11329388154250722,0
org.apache.tools.ant.helper.ProjectHelper2,0.17396358101815165,-0.3068791908892832,-0.15573063451007438,0.055786759085089024,-0.34619118400176374,0.4330744074552586,-0.4474219365609322,0.016144238891127597,0.024161039692584846,-0.20292386066949128,-0.07147344050208679,0.07204619507210304,0.24191413390347452,-0.02902202287362203,-0.30387773322606587,0.0137157841002241,0.013542800234913938,0.005734487815125073,0.05263777768786113,-0.11995191504544399,0.10549388360272077,-0.05247206832040462,0.03462228867919414,-0.13108992712834117,-0.2203029694174178,0.06992535403282713,0.0296702216075717,0.004222722719780856,-0.11627498606775216,-0.12303430036239094,-0.009395764450972201,-0.06070929713506354,1
org.apache.tools.ant.helper.ProjectHelperImpl,0.13920110077499084,-0.2561731210059549,-0.12545674013476432,0.0671807786898908,-0.348995248223082,0.43926772947561415,-0.4286956910113424,0.030637377284798428,-0.007175625111860558,-0.17829508872996372,-0.0998484005974839,0.12808221586269547,0.23660316335288784,-0.013266699243103877,-0.346655336329758,-0.010426154336801163,-0.01566068605933482,0.0005714196413703079,0.0690100633626949,-0.1935942314311751,0.12788281317354888,-0.12406513536296417,0.011201121597096481,-0.150130827887028,-0.19984795676657374,0.1032289029069113,-0.03453243145569883,0.009808781291698022,-0.1000845906792158,-0.021231116764010263,0.02401345099787811,-0.028216107691148868,0
org.apache.tools.ant.helper.SingleCheckExecutor,0.18078424387203185,-0.5389794069845164,-0.16705598093494362,-0.014491084719024267,-0.23147807466389206,0.22521344763708406,0.03316978670327639,-0.03263714378368755,0.18239853654354468,-0.049156870479061365,0.24925816517503838,-0.11571639201771797,-0.3195766607485254,0.1988180389028825,0.3812899183029001,-0.12970611701885174,-0.18146469303818916,-0.011462469241317367,-0.0010207844663936484,0.008884204024660116,0.11135873938495158,0.04512838927609392,0.09233950848080372,0.05121170394269471,-0.04659616124226041,-0.05486645173369188,-0.06667276473942915,-0.14716326053250667,0.03908039294638746,-0.05981693846217465,-0.13860334864893634,0.11329375165913186,0
org.apache.tools.ant.input.DefaultInputHandler,0.08730350775047507,-0.19614163348981256,-0.06894406278756537,0.02666438683316725,-0.1513220484516762,0.14939094165037411,-0.030599241138302834,0.023199029617982314,0.021092983720379765,0.026400988128416018,0.10445901651020713,0.011587781896665466,-0.21101710194261447,0.13469417408984588,0.12710560001532487,0.024160107563345818,0.038560057094160244,-0.027118112984574106,0.15132129474331787,0.262787965249035,-0.04316511340268732,0.19256252071560687,-0.01810399855901317,0.147726447207013,-0.06181924417678186,-0.11625297970531757,0.24768887017339655,-0.1801781748094532,-0.043454663013273616,-0.4358480109214553,-0.013779847600275967,0.5930339401007722,0
org.apache.tools.ant.input.GreedyInputHandler,0.08743877729229668,-0.21643114986125078,-0.06022286357203456,0.045758434715900034,-0.05490200832227431,0.04801906439223367,-0.011993845718813068,-0.00324115590905653,0.0752250765980675,-0.030876470321516667,0.07146360954911606,-0.01811307703131855,-0.16511429164576666,0.0352422897168722,0.03416163633084185,0.16560967977326185,0.2545452214264884,-0.015209006372580951,-0.01683798705063744,0.15066079748146685,-0.053904300774804806,0.18253221639217815,-0.1377804133866952,0.026358687214894715,-0.13991394741632773,0.01837344241441123,0.36220473378548634,-0.14134477942386311,-0.04369842079703435,-0.3739296954081901,0.21465570093338276,0.601970518776538,0
org.apache.tools.ant.input.InputHandler,0.11744576460096585,-0.1956881204472719,-0.07934942547561029,0.046079294690033495,-0.19086749781438336,0.20175047469185597,-0.05331777190996556,0.036858758922147024,-0.012591899449211718,0.03935302065341854,0.1117269510865318,0.026194271792646925,-0.20098227739893923,0.11356368686875172,0.12272812542883027,-0.004584104837267081,-0.015375346455516711,-0.02521129629680428,0.16977477884879846,0.274032148962029,-0.04969792850526223,0.24420705624685352,0.03570897497948098,0.1617507582426421,0.05689221118141323,-0.10283390015728001,0.27087390906910397,-0.2484467924311626,-0.031167200613447448,-0.3691518478390963,-0.03995901289205964,0.5411304956833212,0
org.apache.tools.ant.input.InputRequest,0.048367034217701735,-0.008569599250607251,-0.018492376322155262,0.02948323203790136,-0.07666720625714463,0.07922861567429075,-0.004947737873807159,0.018072668868913865,-0.004010851989304831,0.03594511377516444,0.07204294788501994,0.022403612642954568,-0.11673467174742222,0.06107088347281286,0.06431039004058439,0.05336613496023159,0.09463315738721514,-0.027058325084631882,0.09854632255081977,0.22401216577476832,-0.06185306556917743,0.19324992600530164,-0.07111961510515129,0.14094105871118215,-0.13220002433681183,-0.09008620794711787,0.27770363449731905,-0.14509485895122634,-0.06504897654181195,-0.49186574438676806,0.11719492279931779,0.6581739234442969,0
org.apache.tools.ant.input.MultipleChoiceInputRequest,0.03997545249972304,-0.02004400554548358,-0.01920310566820378,0.026606317414920456,-0.07604298007806015,0.0752441267054657,-0.007597457788967139,0.020387800325827328,-0.012270150530874789,0.04249696181720586,0.0630182478184874,0.022365337523056382,-0.14072654072392754,0.08726250275458426,0.06802021870899781,0.060052425116279395,0.09323456562214567,-0.028108180564514643,0.08361288533505201,0.2410855811248703,-0.06626637960690511,0.168229563155177,-0.058796283371333885,0.12061881515610162,-0.07518896522498668,-0.06955878427528163,0.3001970769810993,-0.15495275417787663,-0.057119493296790086,-0.44662805463348915,0.13764919389491118,0.6865309139422837,0
org.apache.tools.ant.input.PropertyFileInputHandler,0.0672884918214402,-0.1740940695263091,-0.07115651131630152,0.021401571750515578,-0.13210992287935533,0.110917377372111,0.011065194828900648,-0.01748333421802096,0.05495635971678207,0.01688427602943843,0.1340051682229668,0.0005811707270676452,-0.23874996661062856,0.21117745127215626,0.17280101440959658,0.0329484853324813,0.12065625567882689,-0.027610983315486812,-0.0019594263297382196,0.18611162833369801,0.020704201602558824,0.18594122863278825,-0.0003304023256690699,0.09052603226735774,-0.1440754463356721,-0.07090625269268144,0.20688909921923615,-0.16878045701921449,-0.06798914526318817,-0.42248798486183836,0.20377577790375237,0.600644705927704,0
org.apache.tools.ant.launch.AntMain,0.0495995164199281,-0.08582909122298248,-0.0492297266024147,0.04703028089947965,-0.210564721852191,0.2432218705924936,-0.18227760813662391,0.07581702345053055,-0.09652002346416429,0.007637088035630195,-0.025735259878499405,0.15184235930482703,-0.030570193136028243,0.05463768972663424,-0.10053151464466485,0.03638869466559765,0.013639976685994544,-0.0040335944523404235,0.3113023945296891,0.3603302456301635,-0.08163993824871703,0.1809482193194523,0.01765155204289132,0.1128208895837764,0.3230956687954568,-0.16050610111832506,0.29071481784391556,-0.12780819908618948,-0.012738102933989588,0.06943349325064273,-0.4322088555749841,0.30403791425725357,0
org.apache.tools.ant.launch.LaunchException,0.05171456470984865,-0.07890242578532403,-0.0521139743307058,0.045143764208796164,-0.16738228943273106,0.20005584118897077,-0.12004214124972948,0.06010991994939347,-0.07404430603864269,-0.08511991343323581,0.01830285188077854,0.1539438447096906,0.09038973528505348,0.0243749259464891,-0.16970063773895094,0.07539763098217069,0.0646479641915764,0.016133035968381323,-0.031202910982205956,0.09601358797159631,-0.021213592397060523,-0.09518963285442425,-0.38523343502210194,-0.023674179559710736,-0.11165133230389498,0.09818243513218734,0.5370829055369859,0.05381278230305777,0.07864590718331824,0.2459614073248095,-0.38001593756279184,0.3501603815916964,0
org.apache.tools.ant.launch.Launcher,0.15494116680660452,-0.028388137131082354,-0.06656864919431595,0.10272880037889691,-0.29120901972602237,0.3361855140975147,-0.12460452353114128,0.07577653471767942,-0.15465963411759417,-0.11375699317100986,-0.04920760786265313,0.21724645510516186,-1.870822983624114e-05,0.06655781499451029,-0.3935430159685588,0.048710246203183906,0.09853831658381917,0.039478710211010584,0.00977669246203022,-0.12306097124140418,0.13273943202053698,-0.06846298922587546,-0.13725823143525903,-0.15995655156140032,-0.11807910809144359,0.12280211870538614,0.44466300320282226,0.1871939350600975,-0.36176306441205297,0.013484960285439149,0.0145894528357973,0.08158905655291634,1
org.apache.tools.ant.launch.Locator,0.22903452213759937,-0.2551345737039522,-0.11539573495568771,0.03151783148302457,-0.07768947159188169,0.0963068425188303,0.0020868626210665923,0.13774809668724955,-0.15705571859271544,0.05251467514158284,0.08996952986932735,0.08594592693114592,0.005217424950340028,-0.1407277451041345,-0.014496962373120332,0.14418245146769795,0.12403290790550982,0.013478015832085681,-0.08356543649993788,0.3350251009061037,-0.09695998651633916,-0.05591756691201063,-0.23897395853920203,-0.007605249350599994,-0.07771294579618825,0.1257255716616174,0.5681939213484685,0.09903610565091926,0.14253335785776725,0.16458113964520432,-0.3152961346715591,0.21051454008661183,1
org.apache.tools.ant.listener.AnsiColorLogger,0.028964685975541093,-0.035712216367741814,-0.027670403714225314,0.026836574688777884,-0.1335518115073005,0.16979114154247257,-0.1687546855317978,0.03991752671664012,-0.04179252800097491,0.06151729559844422,0.0020987060472538025,0.09036263423535976,-0.04191318681101065,-0.0333142395738268,-0.09954344793347962,0.04428080036118377,0.12899537282266865,0.01207601031299906,0.39646299759698655,0.367254915578943,-0.07527071369822357,0.4838926590648574,0.2272897657480099,0.06490548548378387,0.3521505329079225,-0.29133781462918906,-0.07246239359357301,-0.11362126076146371,-0.02159641091345606,0.07033392423501694,0.06221894211892607,-0.22440472587887944,0
org.apache.tools.ant.listener.CommonsLoggingListener,0.09642450553130602,-0.20700597949143076,-0.09473018118853259,0.02281696041091982,-0.25275717481069704,0.33254186853928347,-0.291595435660153,0.058905162761792626,-0.05162805549971828,-0.04229676444654271,0.038103273856302036,0.10163849169001762,0.06192032815945006,-0.13738537197588238,-0.18030590575239505,-0.022241473391426413,0.06569829438481542,0.0054342160365306695,0.4153392486991382,0.32636196957091923,-0.021895478171843334,0.2604410912424629,0.26597745132588435,0.038123677166047226,0.033109518883486865,-0.2385608174877613,-0.260310837703676,0.023497919683176237,-0.05145959126314021,-0.18725328191308496,-0.11348097438828009,-0.05153363433928119,0
org.apache.tools.ant.listener.Log4jListener,0.10131319544527745,-0.2546997089261593,-0.09905586163214616,0.008198547010677142,-0.2097681587158003,0.2720497221418716,-0.23293845993804257,0.060440043200237395,-0.04956213592948891,-0.006547986035236943,0.07072281418989229,0.06043479519754815,0.01294445168820641,-0.17732927255972455,-0.08555399744772459,-0.02119106168963549,0.07809570818820724,0.0012972323336596957,0.40417513113554854,0.3848296273533509,-0.06256800747269727,0.2737585178105633,0.26860569372302007,0.07011283801433797,0.033377365698892915,-0.2523218348493468,-0.265226669838578,0.03116880929087908,-0.04980647241483837,-0.22562140206112527,-0.1582619353669831,-0.022744823954732374,1
org.apache.tools.ant.listener.MailLogger,0.07400509530128548,-0.13224905946916385,-0.05921002173185702,0.022852996067963413,-0.11562459576233153,0.13496468380686774,-0.010147941559653668,0.02797030664322313,-0.02360717319367297,0.021266729554847798,0.19176234781616808,0.04955372068754337,-0.09556018796720173,0.022084943199627286,0.018945138220737665,0.019686541129093012,0.1347032937241811,0.02057731036549895,0.22856053350474936,0.21994117944384084,-0.047255259990646926,0.3921755539974013,0.07145452062447587,0.11202860829607464,0.09313082067949284,-0.3426827778126212,0.07544415705896396,-0.023265540711040797,0.1577413490476966,-0.05640384413930042,0.5595650856764606,-0.35148758263482266,1
org.apache.tools.ant.listener.TimestampedLogger,0.028964685975541093,-0.035712216367741814,-0.027670403714225314,0.026836574688777884,-0.1335518115073005,0.16979114154247257,-0.1687546855317978,0.03991752671664012,-0.04179252800097491,0.06151729559844422,0.0020987060472538025,0.09036263423535976,-0.04191318681101065,-0.0333142395738268,-0.09954344793347962,0.04428080036118377,0.12899537282266865,0.01207601031299906,0.39646299759698655,0.367254915578943,-0.07527071369822357,0.4838926590648574,0.2272897657480099,0.06490548548378387,0.3521505329079225,-0.29133781462918906,-0.07246239359357301,-0.11362126076146371,-0.02159641091345606,0.07033392423501694,0.06221894211892607,-0.22440472587887944,0
org.apache.tools.ant.loader.AntClassLoader2,0.06833685095931909,-0.14206728311862532,-0.052755342971141685,-0.009613737992958718,-0.021038287931749774,0.029521203715464035,0.010953914427245299,0.13440403853483618,-0.21664394516871827,0.13664068420512468,0.04120599219109038,0.13046746871751458,-0.07725034835332595,-0.057452364583840065,-0.01204362914169512,-0.0034729787287925916,-0.018615209244307037,0.009533751536006357,-0.007217289542464763,0.6390528558872851,-0.09357736910578637,-0.330616808056152,0.04422211163809717,-0.08048312862716459,0.07681115846017911,0.16496655409860353,0.36456354664562973,0.20354428293672697,-0.03338313703391026,0.26064876886048344,-0.19593720563468528,0.09355550741204875,0
org.apache.tools.ant.taskdefs.AbstractCvsTask,0.18671713673531867,-0.3473362768791172,-0.24148469390535338,-0.1792648775636012,-0.03142550408381177,-0.15754753314361694,0.06957092679997233,-0.09995055883582271,0.1282603195960926,0.12751099874747615,-0.388913292518065,0.10652902832014383,0.054502378854087874,-0.31531619815407663,-0.16538052133977266,0.03219735471419086,0.056088692076752836,-0.009108185053744142,0.022278215266658803,-0.0420877633733582,-0.11952249863932023,0.2972855068914948,-0.32203010121211534,0.05897874139723815,-0.13277805946432572,0.015282071394241835,0.02758772557263497,-0.13339180795329464,0.22331969285818193,0.15465580982463611,0.12206172010463248,0.21647297029960413,1
org.apache.tools.ant.taskdefs.AbstractJarSignerTask,0.30436469237171576,-0.41600186586755733,-0.1528558185821514,-0.0035779391163765777,0.03263680723572828,-0.27757376364647507,0.13677645376002118,0.18690475378664978,-0.11834861768945477,0.1728228550221395,-0.020931889148238556,-0.01700835504130754,0.1033994480801632,-0.22371299876820422,-0.06488505384081684,-0.15215886554049088,-0.08448067587200335,-0.012739509308787356,-0.011312463585325049,-0.03211028892384509,-0.003954063438744311,-0.14789449097895097,0.034327511632279005,-0.0775441572891255,0.09512160607877489,0.10578190361164687,-0.3845348734512329,-0.34505846377910354,0.03774183404868961,0.11933719902790438,0.32332084981580456,-0.03949294848294178,0
org.apache.tools.ant.taskdefs.Ant,0.2767019437846169,-0.32839695923275464,-0.1372636575326896,0.12190356269126985,-0.24396830609421985,0.2648909363332681,-0.21226646981828903,0.13083130586703973,-0.1437849201198829,-0.005163559595883058,0.23732998501150343,0.04523136062400753,-0.03332527306866459,-0.06861751314517206,-0.14981928076812306,-0.13958467698658772,-0.14220345169985182,0.001646928909793991,0.1309024455018364,0.2403831109114888,-0.11506842465761102,0.33241774584894773,0.07007465798796007,-0.003808763276891904,-0.07824465475558126,0.01707710490052259,0.01887412212377957,-0.26414351275301284,-0.1400240889312685,-0.35808765164820716,-0.10828410358559347,0.057403185277871645,1
org.apache.tools.ant.taskdefs.AntStructure,0.18864792603895103,-0.6091350862192414,-0.19998224402487016,-0.013139292317671882,-0.21479274078316632,0.22149879657288407,-0.16971437040340898,-0.06349165124152516,0.10395255941780518,-0.12351068255485449,-0.03745669350023704,-0.11988902862856105,0.03812076979811112,-0.07548889791645105,0.12103338029002592,-0.004495598985089789,0.11546849867389362,-0.010754666605177796,-0.08666666823003431,-0.032164850246817506,0.09046116944096504,0.02950440374465206,0.1218997359524087,0.061547755260747954,-0.41002000885807016,-0.04883813981091645,-0.21580657764273123,0.0370301127905658,-0.056703126935945584,-0.28497256731369813,0.0943136194842977,-0.00706620428880628,0
org.apache.tools.ant.taskdefs.Antlib,0.19095884002522517,-0.2869916775951294,-0.16869751464292115,0.05782390068750452,-0.40290559792275116,0.4493316105538748,-0.36269367458340845,-0.01040945214166539,-0.0037339664614988856,-0.16328674126308595,-0.161009509130821,0.09066569553582861,0.19728718075598295,0.06578858389785637,-0.2002241637354188,-0.055611540318342825,-0.09301201563617838,0.0027107749442270256,-0.012462109195778065,-0.20005714632746244,0.13884165398245915,-0.23345003448633317,-0.0053553979512282876,-0.0586354221346317,-0.18063991321258532,0.08762741424055852,-0.02266928192028749,0.030638902804611293,-0.023436050466347016,-0.04704489842117877,0.07383641283577977,-0.17370052807061379,1
org.apache.tools.ant.taskdefs.AntlibDefinition,0.18597754900525149,-0.19803026778065047,-0.15596560798286593,0.06573714183562468,-0.3629702547941606,0.42152503825363474,-0.28114023896298856,0.0270135480001124,-0.06944683047128103,-0.10590384460832292,0.046490714069175224,0.15359485274759374,0.15042266748593736,0.050523769197378304,-0.18434288821153966,-0.055715634406187126,0.013973377527480955,-0.009619352621584022,-0.14334086028631376,-0.24294838740298375,0.1377994875798971,-0.17704347434992584,-0.08811359110972782,-0.021958283849259175,-0.3025206575508765,0.042588276191116874,0.016089987640372224,0.15558256741719945,0.0418351721324505,-0.09929577350529911,0.335609351063482,0.15431657835615042,0
org.apache.tools.ant.taskdefs.Apt,0.19225818256386246,-0.2997214502311244,-0.14769812740845484,-0.08345825724633461,0.01812730925878543,-0.11113545588182748,0.16677471850928524,0.10155881013699526,-0.2262718752295984,0.03703506475207647,0.2432405150230323,0.10852121478027994,0.2967389629029294,0.33139531727172217,0.2420554706600155,-0.018442855730310154,-0.08502608480097033,0.0023540880242099806,0.24601287185292933,0.1864396705007613,0.15614564442171622,-0.18538094891146342,-0.03691205687119025,-0.2954106050658918,0.1868806240776224,0.12217289825488083,0.08980984738410798,-0.23533786379589391,-0.03184044925468038,0.1254815812738782,-0.026372664709494186,0.180679587438787,1
org.apache.tools.ant.taskdefs.Available,0.21162997796625357,-0.5744707868597329,-0.1626127332188527,0.04113923164614632,-0.08929740535915198,0.06892991229041728,0.03666555773563888,0.04584939254540452,-0.04455188492170912,-0.055806047776174976,0.25205220656581634,-0.06255260064469294,-0.15721523502662746,0.050035870793735254,0.10050935860381245,-0.00046973696416860255,0.13184729455672575,0.02109380848548859,-0.1477973685469832,0.46500609407238863,-0.11598404255768245,-0.1822748682063029,-0.22692096686456376,-0.054924016329537924,-0.16697194949932057,0.005988342643768087,0.025195241874896076,-0.11316140139650832,-0.1548772787017126,0.06635248629268169,-0.19351668883690387,0.08209889432254529,1
org.apache.tools.ant.taskdefs.BUnzip2,0.18074514592475316,-0.41444262834320483,-0.0518286330303994,0.19735582962221393,0.027180496964574374,-0.05026523589513157,-0.14207622766205935,-0.11649601570346718,0.1921197307511102,-0.2187687679615661,-0.04472133947674656,-0.006647957033642746,0.040985641428723026,-0.07859621766091798,0.154395219479203,0.14964513689660908,0.29740678679755167,0.012358557577252915,-0.36626338600844727,-0.0813763819567927,0.0846237431283609,0.26904795402151577,0.11778086925812344,-0.26291139166964606,-0.08751218181055362,0.09632328637035306,0.3403676912541727,-0.006474345631775698,0.015814428552834377,-0.21294972916056337,-0.07523758568079693,-0.0019178890022066423,0
org.apache.tools.ant.taskdefs.BZip2,0.17652451210249828,-0.4227144497071427,-0.049943052491736126,0.20110223878201383,0.03401886203864996,-0.05588688319523715,-0.1429129414419024,-0.12048155301370658,0.19138779933400146,-0.21934307349045543,-0.046873740075455805,-0.009471048304980651,0.04686872366021467,-0.07667451028076412,0.1486930617469112,0.15478915039760235,0.3072546684682108,0.01215855703723165,-0.3596956949213797,-0.08212485840292247,0.08356716249143677,0.2545569843647481,0.11215379515158998,-0.25677288768253537,-0.07958405851760746,0.09389369357199832,0.34137686124378147,-0.008736554074981156,0.013410354236135055,-0.21607427928889467,-0.0770084014433733,-0.03588197368820187,0
org.apache.tools.ant.taskdefs.Basename,0.1802985119866852,-0.6471266534707177,-0.24647139486651448,-0.057042338662663346,-0.23801689092508602,0.1310518622292728,-0.09484555970487941,-0.07958954081928579,0.10727673113200706,-0.07782433507302555,-0.024509035590761327,-0.12927926539315354,0.00042804779143687554,-0.023548585223203435,0.24105318651715246,-0.0620521263618046,-0.0037377423368231007,-0.013717868248291501,-0.02021324469747458,0.006782717525728847,0.08462969157842791,0.05380921324038264,0.18326819230915697,0.12439789656994861,-0.27921327518363687,-0.07324187759536209,-0.10050288947607203,0.019341436592080683,-0.05704973604833071,-0.3524965525805252,0.0038347671957360556,-0.13065691307391974,0
org.apache.tools.ant.taskdefs.BuildNumber,0.1788178480221196,-0.6201617387939896,-0.17907561241198916,0.026857716905550704,-0.1585525453934872,0.13735019149962505,-0.093047553326057,-0.01346846573226073,0.11124027762440399,-0.09908706649313093,0.1590706020277045,-0.11774031686556351,-0.09246009750831945,-0.08169553922895799,0.11635061389643665,0.11363205079572333,0.22689988647007986,-0.0012096314782682,0.010750599047695306,0.15698498453767223,-0.037890779238912806,0.05531100603056014,-0.03817314165243444,-0.06952926504314855,-0.31832253553540063,0.0587263346104581,0.1042693601174388,-0.01478393300639866,0.026857421330285236,-0.35936941435424824,0.10797601945827646,0.22434954492787057,0
org.apache.tools.ant.taskdefs.CVSPass,0.11787858195651278,-0.41716368215911903,-0.1810147472995836,-0.022250821270063118,-0.1810470013600724,0.11844568869507803,-0.06179863468004452,-0.07439204625517938,0.14875033970920631,-0.014577246547766357,0.21089820896019243,-0.02228187559727223,-0.14125056026784855,0.029703176991612512,0.12728201356676855,0.045450488333909494,0.32222698786734355,-0.004381985753049441,0.16830163209338342,0.14483686361417802,0.037299016596722,0.17521965745037424,0.02961440320728285,0.10156345074320211,-0.39829953547192815,-0.014809397045512146,-0.1794065752193855,-0.0012082800314108602,0.01025130556623458,-0.2182659743450022,0.424773338171021,-0.02403022741059786,0
org.apache.tools.ant.taskdefs.CallTarget,0.2739953017992386,-0.4847169583503333,-0.2144231005013719,0.02532260661260748,-0.24573218767868457,0.15153558236357337,-0.11118813279396271,0.03482515640920106,-0.07949445492139093,0.034945818550910904,0.05767356664424374,-0.026165107098995548,-0.045018002208261534,-0.13388233365333266,0.08952588275734873,-0.12366897675772151,-0.12724905816597792,-0.014644045182159202,-0.033175921115090455,0.019265994089352673,0.024678819598251914,0.31467341220789485,0.3031634573033029,0.13789254039192156,-0.24072913482881783,0.006574012232721128,-0.1147438224104001,-0.2939691126000285,-0.1531920685814023,-0.2848985624424686,-0.019595384859007994,0.024434735646152915,0
org.apache.tools.ant.taskdefs.Checksum,0.21140625860622486,-0.4083250411365837,0.12902857664333772,0.2707967831120173,0.18186500342559264,0.0014538302757966754,-0.05711787420868455,-0.13257290367824456,0.19498340234774503,-0.2588451589310865,0.19602437696746305,0.028301770188747445,-0.07329545099820112,-0.21413580284615857,0.1586908470686944,0.03133745988555801,0.33273816340546414,0.010549829690261943,-0.07003312416534704,-0.1160009975645029,-0.05803653563502322,-0.02246242017706163,-0.2469092494578148,0.20352741758616147,0.08317225235062893,-0.14183912441017252,-0.2228421714841927,-0.045660241038866824,-0.2671507045775479,0.1899936975563587,0.011380168111278606,-0.034976878032959104,1
org.apache.tools.ant.taskdefs.Chmod,0.25219892259197774,-0.48101532572416245,-0.13323311712433183,-0.14478705094192298,-0.06039213434703412,-0.22197213577226904,0.06464879834342638,-0.20493605749920155,0.07181061784003134,0.04502177912681964,-0.36079414268088045,-0.2368268448146042,0.09651744130544761,-0.1791946693922325,0.021174721930320637,-0.06644770053419652,-0.18045453699961655,-0.019169164549938812,0.07165612991219487,-0.3102790780448177,0.04332526106047509,0.09956884740705063,0.04445367707484705,0.10452284986553592,0.18042915238327567,-0.12286677376366473,-0.05337625249014153,-0.19169689407326668,-0.026065139025828913,0.17368203160031767,-0.11351712532514177,-0.1935603015281454,1
org.apache.tools.ant.taskdefs.Classloader,0.1656285615808926,-0.463469696689121,-0.13829154092100587,0.005736496028165424,-0.08844760560315228,0.024840801913906568,0.04021878312164461,0.12869609671642976,-0.1812539489762633,0.09467453519588621,0.21339362997847577,0.04247210793094577,-0.07459237457956892,0.0019344263748855637,0.11257823854451322,-0.1417455167966003,-0.2021857506256436,0.0009272553906241179,0.029640835742815563,0.538145683043723,-0.05954572309045317,-0.4028225801451233,0.024439104606136606,-0.12003062032518372,0.045566137686073906,0.12900802096781952,0.19755648559444874,-0.0271209116419248,0.05797499115441957,-0.07472242310161724,-0.04424800297665807,0.05416059020336979,1
org.apache.tools.ant.taskdefs.Concat,0.22214575036484666,-0.2671332603117078,0.1472902263263923,0.35585957482813674,0.09241265309802475,-0.21335219122420787,-0.0020947440162558495,0.10625908486810028,0.14177631811909275,-0.20840876857037346,0.10127853763199761,0.2693879733748402,-0.0018747710919348238,-0.3210095238325714,0.04895964102750902,0.0994614660494838,-0.016125381579589957,-0.017505839355186632,0.0675285470112051,-0.16769922810104063,-0.10318961185366618,-0.08521545865284415,-0.22806888390653818,0.17913706442866856,0.23426826627826605,-0.16908839795717182,0.02906489913137797,0.10477729398162824,-0.164217012386667,0.1282545341884308,0.3309898815509628,0.14273254175719122,1
org.apache.tools.ant.taskdefs.ConditionTask,0.07266920571722932,-0.28747772342601646,-0.07981214450303772,0.02355913845221047,-0.12021958280407949,0.1185228678318663,0.08022767578018605,-0.044435198570201236,0.09319934305069756,-0.1346370215596441,0.21433213462613346,-0.07017149471569983,-0.3355293015685883,0.330359506200535,0.1504270456317674,-0.06826312326460005,0.046088977906529514,0.007860629280846541,-0.1900165996762957,0.018392698438371317,-0.03859468194637402,-0.04264006591133364,-0.26883606302123275,-0.013489378903935392,-0.09428877899910763,-0.20527028685334398,-0.3640778737187732,-0.1474159159225287,-0.22037957792657983,0.20904099934365167,-0.358640054817546,0.031093952845620332,0
org.apache.tools.ant.taskdefs.Copy,0.2426094741456778,-0.2809875495175784,0.15655467251314567,0.34132440925359614,0.15237969304089782,-0.12409556114877546,-0.1030393676097358,-0.03790252618553822,0.029325079477030766,-0.05799894013022252,0.12084648727568124,-0.2933730891526109,0.21633979976433856,-0.01785192410762628,-0.19080334661386572,0.29496860732716196,0.11034626306683408,0.003418097320179936,-0.006377150653488833,-0.18320333246327233,-0.47213498900014006,-0.049086318210944155,0.1523140316440709,0.15807337143886774,0.12736756663714813,0.15494087500959464,-0.09566635885399513,0.1017495933487964,-0.07179364154683435,0.06370369084564619,-0.07559828469820677,-0.0333298996711372,1
org.apache.tools.ant.taskdefs.CopyPath,0.23625575754394915,-0.6025900481149485,-0.14048407395580467,0.08168995927713857,-0.03848967597914091,-0.024135486908622304,-0.011851222991275721,0.06457080538590923,-0.08641267934091762,-0.02094953220189454,0.15191140050525626,-0.14392592117565006,0.15224644954667063,-0.030595975798758765,0.05994431390389669,0.06229737828457492,-0.030857628482409045,0.014513451363239855,-0.0716753294417551,0.3081720902685171,-0.2262942895011359,-0.27612787249661147,0.11048569807123051,0.08231429763256258,-0.035224267982169856,0.3152324052928183,0.2173721307949814,-0.04671855986927479,-0.02629911107024386,-0.2509195006372871,-0.03885048595387689,0.04563663688827705,0
org.apache.tools.ant.taskdefs.Copydir,0.20666726896815502,-0.5836686070636257,0.01623489826499629,-0.09799469170517286,0.1142512586784735,0.23204008027773362,-0.019206424282265624,-0.10723552572304171,0.09231827321388489,0.010011023235033147,-0.02750632441045156,-0.3522757281735768,0.0810941003329671,-0.04991446600656374,0.2092013101974178,-0.06197624671544595,0.04958477353580453,0.009111081095232603,0.11096188044527745,-0.19061666375236958,0.043468252883397604,-0.22215433385258876,0.1207867686716437,0.31538368869765915,0.04753864205710479,-0.11297688670957583,0.10332535520579574,0.03076377261369533,-0.0756038565034422,-0.030432960073340926,-0.22423289792938517,-0.1943737310820009,0
org.apache.tools.ant.taskdefs.Copyfile,0.1802985119866852,-0.6471266534707177,-0.24647139486651448,-0.057042338662663346,-0.23801689092508602,0.1310518622292728,-0.09484555970487941,-0.07958954081928579,0.10727673113200706,-0.07782433507302555,-0.024509035590761327,-0.12927926539315354,0.00042804779143687554,-0.023548585223203435,0.24105318651715246,-0.0620521263618046,-0.0037377423368231007,-0.013717868248291501,-0.02021324469747458,0.006782717525728847,0.08462969157842791,0.05380921324038264,0.18326819230915697,0.12439789656994861,-0.27921327518363687,-0.07324187759536209,-0.10050288947607203,0.019341436592080683,-0.05704973604833071,-0.3524965525805252,0.0038347671957360556,-0.13065691307391974,0
org.apache.tools.ant.taskdefs.Cvs,0.15083277308961193,0.03591063991784723,-0.12503242439860807,-0.14048135955026084,0.1361882936826793,-0.11268120469930094,-0.09833913711366075,0.010376372506831863,0.0547611912060703,-0.015127887090280089,-0.1252470085807469,0.08380639103328677,-0.5089982832909437,0.0516731010057753,-0.4020597563792652,0.10241584595767636,0.24320722409920562,0.009993077710980274,0.2992207859322967,-0.042067680673897774,-0.021129523349397484,-0.07380572126639803,-0.1342518566664143,-0.04675503941633369,0.19109546911529235,0.17685318608199746,0.08848319943817509,0.017097800628173683,-0.07200065966308151,-0.32999500270609133,-0.08245666279380082,-0.2574666645160265,0
org.apache.tools.ant.taskdefs.DefBase,0.1712070454998417,-0.2265332900011855,-0.09453219850279665,0.07871449417578125,-0.15353464072581002,0.11609832608365205,0.08915065142132043,0.14941508187652644,-0.2595163947467126,0.03263138311094059,0.24602542927771803,0.15945462394381,-0.044075130224603486,0.2616220415933491,-0.08276736888395883,-0.09721169778006464,-0.18692132550075327,0.006071186138716217,-0.12397457180264167,0.35587357082336263,-0.13850663508300512,-0.31896594103360626,-0.2526063260320626,0.023764114772410184,0.12796678453733054,0.0007417689872079448,0.4248749912534511,0.048466932028385465,0.11103821235170155,-0.01806775786231615,0.07748559944158241,0.1251519064431205,0
org.apache.tools.ant.taskdefs.DefaultExcludes,0.1676012023779345,-0.48513854179318194,-0.10733247664741687,-0.004670072802274795,-0.10786699292754948,0.07052723782738692,-0.09766563331654,-0.12795154947213633,0.13602485514404603,0.0392273830388333,0.26180743098549264,-0.29326817202519384,-0.059420850712404896,-0.11307362226960214,0.08928531941494793,0.052777366807742705,0.37337605355331993,0.008403898258885819,0.3549591635858612,-0.009805975386193131,-0.03400604151809923,-0.09710784061241534,0.003758205101470412,0.22537748484256348,-0.2209094646202723,-0.09948526617745636,-0.07120837242975829,0.020789825301435635,0.019011762872088365,-0.09099783909706563,0.27948291346977516,-0.05387252712171393,0
org.apache.tools.ant.taskdefs.Definer,0.20483941738807296,-0.3582881834889438,-0.14023103516256938,0.08852128135549721,-0.2933891087087895,0.3888752668719392,-0.2345187959852876,0.015905322977799646,-0.01234981801380273,-0.2257006166480433,0.021936425181341,0.052290420819122975,0.1624587319996091,-0.040764805149981494,-0.28749074709882916,0.033475278223569625,0.06066101634820328,0.026688556890034326,-0.2146576772926254,-0.2750506017741579,0.13505926878960361,0.032900707743127325,-0.086626874259983,-0.05480825409074168,-0.3509522336786206,0.02030823617417466,0.1589819914649326,0.10595583276194992,-0.10968056735461396,-0.1229928807601252,0.007902841090503822,0.01502593866719871,1
org.apache.tools.ant.taskdefs.Delete,0.21922019596621484,-0.12324583282856248,0.6677217982528656,-0.286457909260662,-0.30008015561333123,-0.2984393737277774,-0.1058501063154312,-0.18861054572377317,-0.007433044727578034,-0.17098473456541613,0.10082353905042574,0.18188591433630347,0.009389730085065858,-0.19653016705838042,0.0710834304723803,0.033402058871024314,0.013025101434037822,-0.005279212701259857,0.04623903588017966,-0.09432958746653124,0.029867839090027375,-0.08722174593116298,-0.07047352054441734,0.08492873115644275,0.15739248791884572,-0.013124026358638994,-0.03970712743082148,-0.02759227029801563,-0.011322996862471513,0.033970414604039115,0.053806666893897216,-0.04645014510949917,1
org.apache.tools.ant.taskdefs.Deltree,0.14414620623113572,-0.5388198458974672,-0.23410245517547879,-0.056718048741706696,-0.20856576835256105,0.07383557182215002,-0.0915377453812756,-0.11666220420772584,0.10500937893693163,-0.0794296931702308,-0.07595350952842501,-0.10912023226795327,0.058559691078436504,-0.007246163685983977,0.21670344960309249,-0.019922551518674992,0.14069027407099208,-0.015991544356996255,-0.12332037183631679,-0.040135628519485635,0.1225437784475398,0.07993686185739328,0.2001475492837744,0.10341166760781828,-0.361689239637799,-0.06495777475307109,-0.1171192019783467,0.05716625148398273,-0.10565183367295246,-0.38075096323337615,0.19629257543116047,-0.13552216524065774,0
org.apache.tools.ant.taskdefs.DependSet,0.175866925649187,-0.20208856019898655,0.23645029174163115,0.31073636627280704,0.22960438678223685,-0.10928643289813746,-0.06667694399905298,-0.08147845354695682,0.10163450580458964,-0.21372026897002722,0.06409959369833364,0.40853835989720333,0.03813833254471546,-0.306312021271426,0.22886152513665478,-0.09980207201823788,0.025988118460186976,-0.009465297285238403,0.09315806519136066,-0.13294117389733157,0.0006933893337006576,-0.17322982495311223,-0.08637233031818821,0.22868850490141132,0.22932986131461,-0.07740737885819832,-0.1346921935714292,0.11283972214703193,-0.17379043789800067,0.14610576165183542,0.2254797849236022,0.08152669662159892,1
org.apache.tools.ant.taskdefs.DiagnosticsTask,0.1366687414038682,-0.4332956430612168,-0.18808790386659477,-0.009258815104119324,-0.2111549165559161,0.12915138834328463,-0.07231053996569266,-0.0435083009257512,0.050668641436147244,-0.03487497199137156,0.1302168425195076,-0.00988950539892176,-0.1312797511711258,0.07455444704795225,0.12751834894663572,0.021427041245403577,0.2776483898871949,-0.015787721552970906,0.029605485376970744,0.09428760023752866,0.08191964348622406,0.005970770480189727,0.04943181346274841,-0.05543774124830648,-0.3835657756869078,0.008971928323831434,-0.1105454302131965,0.04445002213787445,-0.11022768321809258,-0.44324301602068916,0.3768936592875334,0.1339567743867127,0
org.apache.tools.ant.taskdefs.Dirname,0.1802985119866852,-0.6471266534707177,-0.24647139486651448,-0.057042338662663346,-0.23801689092508602,0.1310518622292728,-0.09484555970487941,-0.07958954081928579,0.10727673113200706,-0.07782433507302555,-0.024509035590761327,-0.12927926539315354,0.00042804779143687554,-0.023548585223203435,0.24105318651715246,-0.0620521263618046,-0.0037377423368231007,-0.013717868248291501,-0.02021324469747458,0.006782717525728847,0.08462969157842791,0.05380921324038264,0.18326819230915697,0.12439789656994861,-0.27921327518363687,-0.07324187759536209,-0.10050288947607203,0.019341436592080683,-0.05704973604833071,-0.3524965525805252,0.0038347671957360556,-0.13065691307391974,0
org.apache.tools.ant.taskdefs.Ear,0.15996056112249715,-0.3519045135914122,-0.014724001006994916,0.11594061883323846,0.010721008882861262,-0.07841028169839183,-0.10012747517194405,-0.14589160210743168,0.09382573227528497,0.003520116607448744,0.05527554539975581,-0.5210864903258654,0.1080152801887657,-0.12688021773479735,-0.1417453595925604,0.0666270167418587,0.14933869419275617,-0.009647353429582067,-0.17889184716489928,-0.003051875510150926,0.5417165538382939,0.161255276650575,-0.14455882648201854,0.10054721703043708,0.09051474681252751,-0.026827521129259308,0.1324064332037183,0.14136265930083067,-0.037841440319374475,-0.01958270114938584,0.08569862744665588,0.0564254513688448,1
org.apache.tools.ant.taskdefs.Echo,0.1944676474098477,-0.6296625928996241,-0.20675247832129692,-0.001244927145734511,-0.17985832011962688,0.10603164572858212,-0.11984528157813522,-0.05689558383226626,0.11805892711828118,-0.10644214285811313,-0.027355943248214887,-0.15849929116137026,0.00787637048276612,-0.11164754174082375,0.157069740057281,0.11113483655471836,0.21231256419318795,0.002237789633108362,-0.05566046254862215,0.11449364346527911,0.013394661505237312,0.11859898833173824,0.07691823658949815,0.028589104433928682,-0.33944789233814604,0.023652659853882367,0.09508918518575613,-0.003949141746620405,-0.07125119690343111,-0.38238161297448037,0.007886552407193858,0.05114990107597662,0
org.apache.tools.ant.taskdefs.EchoXML,0.1380020841803446,-0.3538954568176617,-0.11559773555349477,0.07105125121770313,-0.0958408843775924,0.03210810612994248,0.10054389564538715,-0.02379828748413469,0.061897457294406655,-0.16169099690713892,0.1107510214365977,-0.010631243298004384,-0.1095792857150805,0.15628355728233082,-0.1589394462170478,0.18818790587516895,0.283702500030726,-0.007848346871485388,-0.19711818227899625,-0.05161698781513586,-0.23110319812933902,0.20913629418841126,-0.455006617750455,0.06327124634641249,-0.023550165732428623,-0.052652183870791215,0.2773076494839736,0.018590757819460645,0.05093178323747033,-0.019779212490309207,0.31364233688726134,0.25449841960922137,1
org.apache.tools.ant.taskdefs.Exec,0.1802985119866852,-0.6471266534707177,-0.24647139486651448,-0.057042338662663346,-0.23801689092508602,0.1310518622292728,-0.09484555970487941,-0.07958954081928579,0.10727673113200706,-0.07782433507302555,-0.024509035590761327,-0.12927926539315354,0.00042804779143687554,-0.023548585223203435,0.24105318651715246,-0.0620521263618046,-0.0037377423368231007,-0.013717868248291501,-0.02021324469747458,0.006782717525728847,0.08462969157842791,0.05380921324038264,0.18326819230915697,0.12439789656994861,-0.27921327518363687,-0.07324187759536209,-0.10050288947607203,0.019341436592080683,-0.05704973604833071,-0.3524965525805252,0.0038347671957360556,-0.13065691307391974,0
org.apache.tools.ant.taskdefs.ExecTask,0.3456999461160131,-0.21023043128980282,-0.22757890547427426,-0.17435188366259208,0.06768648082351264,-0.28886714299869926,0.11996999785768186,0.08707439465244664,-0.0494046989139817,0.1969001085537213,-0.3528526943837831,0.07716629852624106,0.043110612773828466,-0.2505471035664586,-0.18608474324644728,-0.05346628847931153,-0.10701286178076211,-0.002606212304723231,-0.027251172445753927,-0.044008314697613043,-0.05141336263558076,0.01948059851189495,-0.05211791318015923,-0.07135158462631128,-0.11503093256953274,0.0799764202625602,-0.3665252584654768,-0.26161151765902707,0.3406406370513171,0.005108417719292799,0.031133675433865575,-0.07684824405369191,1
org.apache.tools.ant.taskdefs.Execute,0.3885153864016639,0.1854257411349649,-0.2665052437505226,-0.3457769606858918,0.28025350841369423,-0.16126717545826325,-0.11403176495755804,-0.0613281432627593,0.21125153415264503,-0.3410801309966234,0.0032154412032407544,-0.0014034617038620717,-0.30742896956196103,-0.055023499334667735,-0.34090022191299346,-0.08621473873548142,-0.0871708093696254,0.010338605344900394,0.10950472611662451,0.057894094553574006,-0.057484786107799356,0.020675554652246804,0.07293799003417831,0.0062357187530781176,0.08253408813446364,0.04532952336491396,0.05538355629653001,0.01870189096738556,-0.1801714663708222,-0.0846158942273251,0.0666990231482673,0.1792148958970511,0
org.apache.tools.ant.taskdefs.ExecuteJava,0.2463556922804674,-0.24396664536485893,-0.2693149787558309,-0.22588661211625885,0.023094527286945863,-0.19474744883608963,0.28207713557171415,0.018938788649353364,-0.165002034898992,0.05121232275872452,-0.11733595041695029,0.27400003543542306,0.17058568517681688,-0.05037581564063484,-0.20634883774026336,-0.01253383450031859,-0.06951219083533576,-0.01145192149240058,0.10948794746207141,0.1906853719517395,-0.1653174235054959,-0.041215176333554496,-0.3240352212688143,0.011394821231893223,-0.0357927573145226,0.01780906224597471,-0.06824664099937244,0.10638590719432617,0.38991915907161023,0.2917433720014108,-0.0021174445358099385,0.05082478792804259,0
org.apache.tools.ant.taskdefs.ExecuteOn,0.3147410088631604,-0.27973820045685754,0.01597065297412277,0.07982598081030554,0.30771498990077734,-0.20234631773871903,-0.02427534653074667,-0.0741534268428772,0.06480169319732454,-0.008318872531327678,-0.03416184511760526,-0.16337917088188558,0.15032814701588373,-0.33751464969765194,-0.294077831072356,-0.05210848085678069,0.007293685898428364,-0.002954111931724988,0.03337982959765158,-0.27624780582174363,-0.29228590335476085,-0.003130647399128537,0.0007909500974703314,0.09638704756163317,0.09620134824058234,-0.004507343820802132,-0.25975446972270266,-0.27908088765436095,-0.1252310786291566,0.16611367138721644,0.16350418096886113,-0.14011478559892304,1
org.apache.tools.ant.taskdefs.ExecuteStreamHandler,0.26652613033935796,0.042320557407366406,-0.19720619210448195,-0.22164497679048173,0.17984569639130063,-0.18309352161983658,-0.05025345030797968,0.016011040123587787,0.012980408921065006,0.009588850827142361,-0.15411300183824628,0.13247341567405208,-0.509430604466113,0.08287962214631114,-0.38409963840294126,0.013462175844848923,0.15942688906464944,-0.005347391339472423,0.15661230142448002,-0.23122693980388964,0.07114634182368573,-0.10953401067778437,0.0543477027894573,0.025390426327865326,0.22727314308187024,0.13545091208072949,-0.012438164467436402,0.05410283790699246,-0.141013209199476,-0.2924540979133576,-0.0183156623031665,-0.10915866381064537,0
org.apache.tools.ant.taskdefs.ExecuteWatchdog,0.23439262905707178,0.028524936533118817,-0.19416506788501284,-0.2199993839910003,0.16078121404424342,-0.15738587946804322,-0.025100484736118166,0.04693854213643989,-0.02317648527526244,0.019118559405676992,-0.08403161046268508,0.17466674413064304,-0.5404397142899222,0.028335654142704315,-0.4068876879973085,0.017953809466146026,0.2036779840324964,-0.0033417014733119264,0.13614025494030826,-0.2011554388984287,0.0834704293629143,-0.1337814013815678,-0.013053759153960945,0.017698897220821352,0.19908624769379304,0.16947760651433094,-0.0455113301994671,0.09766743391042368,-0.16642291421764985,-0.26291044590557994,-0.034271995476266116,-0.06048813338651593,0
org.apache.tools.ant.taskdefs.Exit,0.11576176241324608,-0.3412916214836432,-0.12867807057044509,0.01022039212748741,-0.15846588855156796,0.14556863605164466,0.02572231719100743,-0.04628834853396383,0.08194866414306115,-0.1407726961027093,0.2303298278481627,-0.07410953142511108,-0.28184720958626064,0.23374432990884386,0.15364870717293216,-0.0748282241132152,0.09377256799831543,0.002226762776886302,-0.16440405196238675,0.10812429664142355,-0.06909662113288838,-0.04680968367178941,-0.2560040457633474,-0.008025949082947395,-0.22393038567109141,-0.22648765576846008,-0.46122213618179064,-0.11838891546889066,-0.1942425040349785,0.0823736095776124,-0.2439930783731607,0.060626309553212854,0
org.apache.tools.ant.taskdefs.Expand,0.203139702615912,-0.34647744082081283,0.125469102191418,0.2892356990657498,0.17620512283696843,-0.1219537383934542,-0.11960647360670533,-0.10505799479732315,0.03967957803800272,-0.11346190734596033,0.2003668414327611,-0.2569561577186371,0.22527120491686117,-0.2546358742903787,-0.2179388054892316,0.09985812842537224,0.20340432647849038,-0.008804700024754095,-0.2196974898117785,-0.08590069178027879,0.005041724383068522,0.12091579076589523,0.03818331283196883,0.17426740301255372,0.27225500674368436,0.2947079999058129,-0.1835474598577721,-0.10988186655849043,-0.12923931175902767,-0.020525305601280238,0.012360057931324064,-0.08222552809953525,1
org.apache.tools.ant.taskdefs.Filter,0.21565993797673808,-0.6307939530842164,-0.2254820962517018,-0.01439032959329266,-0.23632823334853226,0.12504613574020626,-0.10569276640452946,-0.06553840666408924,0.10186794406283664,-0.06075843491148623,-0.04277649378866049,-0.17863934139359627,0.027496309389814066,-0.019608764087168662,0.24554758311524424,-0.005830684354693892,0.02842012086804042,-0.012356229908251916,-0.029129206289552585,0.002331791975903102,-0.036085602519675124,0.017991212836354305,0.20640774003984882,0.16061215296292172,-0.3209465601548528,0.005039709362970182,-0.08139473616102774,0.06973857428288019,-0.10227276820625074,-0.30708513912518515,-0.03978746255555981,-0.12491088005514939,0
org.apache.tools.ant.taskdefs.FixCRLF,0.22434626890264994,-0.4269722024430232,0.08590529649546041,0.10196469668225547,0.1439836280727582,0.07212949768525538,0.005871048584021023,0.21361620995311434,0.23248001823266404,-0.05288496805855517,-0.0012939933960636558,-0.3686875870138843,0.025789390988385532,-0.24113813944092316,0.0667172696597004,0.5023931539608649,0.03365214001833894,0.01437925597430493,0.15959021670716003,-0.18579655872066195,-0.03715419605749212,-0.21299390665915655,-0.011399854081961949,0.12699719898288592,-0.03807710406068613,-0.09983793683813565,0.08293657318845603,0.11165722509035039,-0.0162599875098186,-0.02226507368257834,-0.08824955843344162,-0.07682967441850229,1
org.apache.tools.ant.taskdefs.GUnzip,0.18610465720140607,-0.4340785242787955,-0.05784532703447905,0.19431459633601558,0.02164239554740207,-0.04655184644804399,-0.1402256650095789,-0.11794750271564976,0.196212171864382,-0.21935027123413947,-0.04451172553060565,-0.0052274281274258495,0.03429614361010489,-0.06922858099888447,0.16065051233442101,0.1485408732331077,0.2938771624509308,0.010435990623665207,-0.35979213688821954,-0.08253740428459609,0.08967330305194073,0.2632895068362911,0.11589838598291842,-0.2600552138637054,-0.08608644070612985,0.09029588912081529,0.33632796799323283,0.0018567891321720975,0.020393492736176626,-0.20350513261705722,-0.07403220655868298,0.002767731096729168,0
org.apache.tools.ant.taskdefs.GZip,0.17955546443861545,-0.43818821464267715,-0.05764996176959132,0.1938272938025937,0.02518674633499386,-0.05087359933179821,-0.13952698162051888,-0.12006795310347183,0.19460538642261896,-0.21985856284469926,-0.04897284915224875,-0.0028432340136924105,0.03510681451010393,-0.06227071117351332,0.15714289360051745,0.15493581373780813,0.3009601848335484,0.010723674631053656,-0.3587251117611036,-0.07584081642814873,0.09089603870620298,0.2532284561582062,0.112683427380242,-0.2602298050008602,-0.08706575559996638,0.09445550630544046,0.3315491528823089,0.0016383138770657856,0.025903562949234193,-0.2099227302459237,-0.07536397083365064,-0.023403081479461036,0
org.apache.tools.ant.taskdefs.GenerateKey,0.251800023013533,-0.4967861278260523,-0.3562930901712619,-0.2460115883114659,-0.06727775755694262,-0.173902935390817,0.10523756331638724,-0.03193444962964933,-0.058014179438208364,0.04097691351934481,-0.2136601558443627,0.12980941305386573,0.0568525390395931,0.11536474271858818,0.11739799577617806,0.014424615546604274,0.09703407548431854,-0.013371124094972394,0.009785096128180744,-0.05522281808386784,0.09938025485785189,0.07344275965315179,0.00396949116708346,-0.09164332055249184,-0.089033324447538,-0.006494782101906197,-0.30589381673851296,-0.022511688798579933,-0.1522714054321547,-0.12122897193810948,0.40173214195700174,0.1401789493227764,0
org.apache.tools.ant.taskdefs.Get,0.15765884024960725,-0.48918830143716485,-0.1835320538459328,0.000519474616389915,-0.14548572005306637,0.07173783132560359,-0.10011487520267075,-0.07965302119479953,0.12291441099955881,-0.09956661682646542,0.0008599786057955914,-0.15967990951321445,0.04162177918489019,-0.12799994602578563,0.19618386689262685,0.07571572365513775,0.23389045887283635,-0.0033445689262643964,-0.058158881403893206,-0.0024319780483251065,0.0294624548720811,0.23322364376952565,0.0260645238525641,0.004146421159148821,-0.3905375450441654,0.19214399355006898,0.14059629651722594,0.12266403124236258,-0.09834624948519054,-0.4118148767177823,0.1544887656325338,0.07191595875727348,1
org.apache.tools.ant.taskdefs.ImportTask,0.1856937892877372,-0.5467987227889002,-0.2037625805132917,0.0211130962038452,-0.2896195248258355,0.298641769076261,-0.30879868466907434,-0.018913140891776307,0.07354864943833035,-0.18413797707634136,-0.011528489676110788,-0.03272973546591873,0.13600716415091185,-0.0895170026759224,-0.12622765495109753,0.0484410037824427,0.12176049228881429,0.010012109651992805,0.054953108644282773,0.011615202911919842,0.0711825936692677,0.09599024290129203,0.09595458824904203,-0.04836243225154422,-0.30713684905091404,0.015886261325128742,0.04777271087950835,0.015390297253667569,-0.13206401294063616,-0.33208616516231704,0.0045485134980261036,-0.04143114615171416,0
org.apache.tools.ant.taskdefs.Input,0.11560245810478958,-0.1872451267101517,-0.07706932371468402,0.033789453129388775,-0.11883452141081137,0.13452035067696272,0.02186421909750965,0.033788152363562175,-0.03561196088598475,0.006674174762588734,0.22809966350707314,0.028872488640414553,-0.07228300078615547,-0.008775976562187992,0.009751673185436432,0.049583217700124256,0.17582288545984667,-0.014873857975047394,0.1074424007224188,0.14588344625508348,-0.03456860113314177,0.31034579990042455,-0.058308275825675965,0.2035174814010803,-0.3161714292961378,-0.18313930640221404,0.17738514622811521,-0.04521819041395495,-0.017089349906266624,-0.46507376485973356,0.22365718309205845,0.45685158148494526,0
org.apache.tools.ant.taskdefs.JDBCTask,0.22906984633138291,-0.48280701187976366,-0.13982225269633872,0.05822020096563319,-0.10058055990533503,-0.017181742170533806,-0.01217500535977046,0.07023839021462433,-0.13306704089893792,0.09900192007297548,0.032203943521697885,0.013053654895628672,-0.03055534155446497,0.036858079341408334,0.16953564541333252,-0.1400152402995806,-0.22835100255317967,0.0032528833662830354,0.02015841579341485,0.5439924482935974,-0.011429355052226102,-0.3546039875333723,0.09348122062258783,-0.07395317794731451,-0.07372776229822728,0.08446812969200496,0.25109422570672113,-0.07052239527208624,-0.023646002817633474,-0.10205140407529711,-0.08209576316354224,-0.09879128828705726,1
org.apache.tools.ant.taskdefs.Jar,0.1419590633368756,-0.17270421236200165,0.03414697291068605,0.16217193099120905,0.05598169343068379,-0.08328556527616268,-0.05794675873451933,-0.0875485416042563,-0.00033180224628085944,0.054199500618279536,0.06869426062646926,-0.40627272059503117,0.10385694298566607,-0.028042042964922343,-0.21764231391713929,-0.016779873283495318,-0.016052195842475293,-0.011617933986556325,-0.1938848646616914,0.25160402818129596,0.6270479013461023,0.12327843606924145,-0.19724806210706258,0.10098344868100359,0.20328641961856606,0.02292227573560622,-0.09619871598334294,0.21445929380732107,0.10302669324061509,0.016357939380325422,0.05133306940052207,-0.01144615599869218,1
org.apache.tools.ant.taskdefs.Java,0.2834309153769453,-0.06331921579528876,-0.18824580732353607,-0.17069098337973768,0.056144425472193164,-0.15990412274387286,0.12116963899864254,0.12600961478834427,-0.23428304630471317,0.2172976165488702,0.0007480488022073947,0.1772175634200371,0.010001772436962252,-0.3966097995544505,-0.06825299342503433,-0.11306991425901317,-0.06646386399246625,-0.0047156809303646316,-0.15198448275048212,0.02157436358242743,0.06004487830913339,-0.056521111147728245,-0.012760181736943804,0.01760832934275286,-0.1603334879617505,0.039645546810423565,-0.4594304206517429,-0.0017178467499868097,0.338734649954069,0.3060278132743751,0.03717963827732944,0.005992516796633193,1
